{"learner":{"attributes":{"scikit_learn":"{\"_estimator_type\": \"regressor\"}"},"feature_names":["Momentum_10","Momentum_30","Momentum_60","Momentum_120","Momentum_300","RSI_10","RSI_30","RSI_60","RSI_120","RSI_300","BB_10","BB_30","BB_60","BB_120","BB_300","MRC_10","MRC_30","MRC_60","MRC_120","MRC_300"],"feature_types":["float","float","float","float","float","float","float","float","float","float","float","float","float","float","float","float","float","float","float","float"],"gradient_booster":{"model":{"gbtree_model_param":{"num_parallel_tree":"1","num_trees":"50"},"iteration_indptr":[0,1,2,3,4,5,6,7,8,9,10,11,12,13,14,15,16,17,18,19,20,21,22,23,24,25,26,27,28,29,30,31,32,33,34,35,36,37,38,39,40,41,42,43,44,45,46,47,48,49,50],"tree_info":[0,0,0,0,0,0,0,0,0,0,0,0,0,0,0,0,0,0,0,0,0,0,0,0,0,0,0,0,0,0,0,0,0,0,0,0,0,0,0,0,0,0,0,0,0,0,0,0,0,0],"trees":[{"base_weights":[7.3142874E-11,-7.4127726E-3,2.9129927E-5,-1.8133366E-2,-1.9516694E-4,1.7692646E-3,-2.462288E-5,-5.1039304E-5,-2.9186744E-4,-6.406475E-5,1.303638E-5,5.408346E-5,1.17884865E-5,-4.0782524E-7,3.9724702E-5],"categories":[],"categories_nodes":[],"categories_segments":[],"categories_sizes":[],"default_left":[0,0,0,0,0,0,0,0,0,0,0,0,0,0,0],"id":0,"left_children":[1,3,5,7,9,11,13,-1,-1,-1,-1,-1,-1,-1,-1],"loss_changes":[3.6497256E-1,5.119227E-1,1.5747876E-1,3.8323033E-1,3.6827583E-2,1.0838476E-1,1.0548788E-1,0E0,0E0,0E0,0E0,0E0,0E0,0E0,0E0],"parents":[2147483647,0,0,1,1,2,2,3,3,4,4,5,5,6,6],"right_children":[2,4,6,8,10,12,14,-1,-1,-1,-1,-1,-1,-1,-1],"split_conditions":[-2.8324327E0,-2.2979743E0,-1.8216717E0,-1.9025694E0,-2.0735502E0,-2.4968882E0,2.9254148E0,-5.1039304E-5,-2.9186744E-4,-6.406475E-5,1.303638E-5,5.408346E-5,1.17884865E-5,-4.0782524E-7,3.9724702E-5],"split_indices":[3,9,6,1,17,9,7,0,0,0,0,0,0,0,0],"split_type":[0,0,0,0,0,0,0,0,0,0,0,0,0,0,0],"sum_hessian":[1.69021E6,6.615E3,1.683595E6,2.661E3,3.954E3,5.0447E4,1.633148E6,1.222E3,1.439E3,7.68E2,3.186E3,7.041E3,4.3406E4,1.626573E6,6.575E3],"tree_param":{"num_deleted":"0","num_feature":"20","num_nodes":"15","size_leaf_vector":"1"}},{"base_weights":[-1.115859E-10,-7.3387045E-3,2.8838676E-5,-1.795216E-2,-1.9322816E-4,1.6486249E-3,-2.7812395E-5,-5.052933E-5,-2.889508E-4,-6.342494E-5,1.2906056E-5,5.2822954E-5,1.1186859E-5,-4.388805E-7,3.932751E-5],"categories":[],"categories_nodes":[],"categories_segments":[],"categories_sizes":[],"default_left":[0,0,0,0,0,0,0,0,0,0,0,0,0,0,0],"id":1,"left_children":[1,3,5,7,9,11,13,-1,-1,-1,-1,-1,-1,-1,-1],"loss_changes":[3.5771537E-1,5.01742E-1,1.5449122E-1,3.7560922E-1,3.6095537E-2,1.0954858E-1,1.0357026E-1,0E0,0E0,0E0,0E0,0E0,0E0,0E0,0E0],"parents":[2147483647,0,0,1,1,2,2,3,3,4,4,5,5,6,6],"right_children":[2,4,6,8,10,12,14,-1,-1,-1,-1,-1,-1,-1,-1],"split_conditions":[-2.8324327E0,-2.2979743E0,-1.7674938E0,-1.9025694E0,-2.0735502E0,-2.4968882E0,2.9254148E0,-5.052933E-5,-2.889508E-4,-6.342494E-5,1.2906056E-5,5.2822954E-5,1.1186859E-5,-4.388805E-7,3.932751E-5],"split_indices":[3,9,6,1,17,9,7,0,0,0,0,0,0,0,0],"split_type":[0,0,0,0,0,0,0,0,0,0,0,0,0,0,0],"sum_hessian":[1.69021E6,6.615E3,1.683595E6,2.661E3,3.954E3,5.6892E4,1.626703E6,1.222E3,1.439E3,7.68E2,3.186E3,7.24E3,4.9652E4,1.620128E6,6.575E3],"tree_param":{"num_deleted":"0","num_feature":"20","num_nodes":"15","size_leaf_vector":"1"}},{"base_weights":[-3.4208558E-10,-7.2653764E-3,2.8550288E-5,-1.9449465E-2,-1.1578638E-3,1.6321397E-3,-2.7534308E-5,-7.479396E-5,-3.095577E-4,1.8041126E-5,-4.790936E-5,5.2294796E-5,1.10749925E-5,-4.344923E-7,3.8934297E-5],"categories":[],"categories_nodes":[],"categories_segments":[],"categories_sizes":[],"default_left":[0,0,0,0,0,0,0,0,0,0,0,0,0,0,0],"id":2,"left_children":[1,3,5,7,9,11,13,-1,-1,-1,-1,-1,-1,-1,-1],"loss_changes":[3.506025E-1,4.923036E-1,1.5141705E-1,3.0401683E-1,4.7443457E-2,1.0736893E-1,1.0150951E-1,0E0,0E0,0E0,0E0,0E0,0E0,0E0,0E0],"parents":[2147483647,0,0,1,1,2,2,3,3,4,4,5,5,6,6],"right_children":[2,4,6,8,10,12,14,-1,-1,-1,-1,-1,-1,-1,-1],"split_conditions":[-2.8324327E0,-2.4968882E0,-1.7674938E0,-1.840366E0,-1.6067371E0,-2.4968882E0,2.9254148E0,-7.479396E-5,-3.095577E-4,1.8041126E-5,-4.790936E-5,5.2294796E-5,1.10749925E-5,-4.344923E-7,3.8934297E-5],"split_indices":[3,9,6,1,1,9,7,0,0,0,0,0,0,0,0],"split_type":[0,0,0,0,0,0,0,0,0,0,0,0,0,0,0],"sum_hessian":[1.69021E6,6.615E3,1.683595E6,2.208E3,4.407E3,5.6892E4,1.626703E6,1.083E3,1.125E3,2.428E3,1.979E3,7.24E3,4.9652E4,1.620128E6,6.575E3],"tree_param":{"num_deleted":"0","num_feature":"20","num_nodes":"15","size_leaf_vector":"1"}},{"base_weights":[-5.581027E-10,-7.1927854E-3,2.8264812E-5,-1.7610397E-2,-1.7916308E-4,1.7177475E-3,-2.3923356E-5,-4.9448674E-5,-2.8355073E-4,-6.279159E-5,1.292778E-5,5.2491672E-5,1.144799E-5,-3.9603245E-7,3.8545015E-5],"categories":[],"categories_nodes":[],"categories_segments":[],"categories_sizes":[],"default_left":[0,0,0,0,0,0,0,0,0,0,0,0,0,0,0],"id":3,"left_children":[1,3,5,7,9,11,13,-1,-1,-1,-1,-1,-1,-1,-1],"loss_changes":[3.4363148E-1,4.833962E-1,1.484444E-1,3.621235E-1,3.5519406E-2,1.0206652E-1,9.9317275E-2,0E0,0E0,0E0,0E0,0E0,0E0,0E0,0E0],"parents":[2147483647,0,0,1,1,2,2,3,3,4,4,5,5,6,6],"right_children":[2,4,6,8,10,12,14,-1,-1,-1,-1,-1,-1,-1,-1],"split_conditions":[-2.8324327E0,-2.2979743E0,-1.8216717E0,-1.9025694E0,-2.0735502E0,-2.4968882E0,2.9254148E0,-4.9448674E-5,-2.8355073E-4,-6.279159E-5,1.292778E-5,5.2491672E-5,1.144799E-5,-3.9603245E-7,3.8545015E-5],"split_indices":[3,9,6,1,17,9,7,0,0,0,0,0,0,0,0],"split_type":[0,0,0,0,0,0,0,0,0,0,0,0,0,0,0],"sum_hessian":[1.69021E6,6.615E3,1.683595E6,2.661E3,3.954E3,5.0447E4,1.633148E6,1.222E3,1.439E3,7.68E2,3.186E3,7.041E3,4.3406E4,1.626573E6,6.575E3],"tree_param":{"num_deleted":"0","num_feature":"20","num_nodes":"15","size_leaf_vector":"1"}},{"base_weights":[-6.886733E-10,-7.120915E-3,2.7982254E-5,-1.9077275E-2,-1.1275583E-3,1.6006338E-3,-2.702031E-5,-7.3364805E-5,-3.036319E-4,1.8034341E-5,-4.7226356E-5,5.126161E-5,1.08646655E-5,-4.2618714E-7,3.8159626E-5],"categories":[],"categories_nodes":[],"categories_segments":[],"categories_sizes":[],"default_left":[0,0,0,0,0,0,0,0,0,0,0,0,0,0,0],"id":4,"left_children":[1,3,5,7,9,11,13,-1,-1,-1,-1,-1,-1,-1,-1],"loss_changes":[3.3679867E-1,4.7407258E-1,1.4563088E-1,2.924822E-1,4.645625E-2,1.0312495E-1,9.7511955E-2,0E0,0E0,0E0,0E0,0E0,0E0,0E0,0E0],"parents":[2147483647,0,0,1,1,2,2,3,3,4,4,5,5,6,6],"right_children":[2,4,6,8,10,12,14,-1,-1,-1,-1,-1,-1,-1,-1],"split_conditions":[-2.8324327E0,-2.4968882E0,-1.7674938E0,-1.840366E0,-1.6067371E0,-2.4968882E0,2.9254148E0,-7.3364805E-5,-3.036319E-4,1.8034341E-5,-4.7226356E-5,5.126161E-5,1.08646655E-5,-4.2618714E-7,3.8159626E-5],"split_indices":[3,9,6,1,1,9,7,0,0,0,0,0,0,0,0],"split_type":[0,0,0,0,0,0,0,0,0,0,0,0,0,0,0],"sum_hessian":[1.69021E6,6.615E3,1.683595E6,2.208E3,4.407E3,5.6892E4,1.626703E6,1.083E3,1.125E3,2.428E3,1.979E3,7.24E3,4.9652E4,1.620128E6,6.575E3],"tree_param":{"num_deleted":"0","num_feature":"20","num_nodes":"15","size_leaf_vector":"1"}},{"base_weights":[-8.919037E-10,-7.0497673E-3,2.7702461E-5,-1.7275177E-2,-1.6554745E-4,1.5846286E-3,-2.6750115E-5,-4.8390433E-5,-2.7825256E-4,-6.2166386E-5,1.2945889E-5,5.0749066E-5,1.0756021E-5,-4.2192556E-7,3.7778085E-5],"categories":[],"categories_nodes":[],"categories_segments":[],"categories_sizes":[],"default_left":[0,0,0,0,0,0,0,0,0,0,0,0,0,0,0],"id":5,"left_children":[1,3,5,7,9,11,13,-1,-1,-1,-1,-1,-1,-1,-1],"loss_changes":[3.301021E-1,4.6572357E-1,1.4273302E-1,3.4912574E-1,3.4952126E-2,1.01073116E-1,9.557176E-2,0E0,0E0,0E0,0E0,0E0,0E0,0E0,0E0],"parents":[2147483647,0,0,1,1,2,2,3,3,4,4,5,5,6,6],"right_children":[2,4,6,8,10,12,14,-1,-1,-1,-1,-1,-1,-1,-1],"split_conditions":[-2.8324327E0,-2.2979743E0,-1.7674938E0,-1.9025694E0,-2.0735502E0,-2.4968882E0,2.9254148E0,-4.8390433E-5,-2.7825256E-4,-6.2166386E-5,1.2945889E-5,5.0749066E-5,1.0756021E-5,-4.2192556E-7,3.7778085E-5],"split_indices":[3,9,6,1,17,9,7,0,0,0,0,0,0,0,0],"split_type":[0,0,0,0,0,0,0,0,0,0,0,0,0,0,0],"sum_hessian":[1.69021E6,6.615E3,1.683595E6,2.661E3,3.954E3,5.6892E4,1.626703E6,1.222E3,1.439E3,7.68E2,3.186E3,7.24E3,4.9652E4,1.620128E6,6.575E3],"tree_param":{"num_deleted":"0","num_feature":"20","num_nodes":"15","size_leaf_vector":"1"}},{"base_weights":[-1.0187798E-9,-6.9793267E-3,2.7425525E-5,-1.8712187E-2,-1.098005E-3,1.6677312E-3,-2.3243561E-5,-7.196389E-5,-2.9781825E-4,1.8023818E-5,-4.655551E-5,5.0946874E-5,1.1117311E-5,-3.8457935E-7,3.740036E-5],"categories":[],"categories_nodes":[],"categories_segments":[],"categories_sizes":[],"default_left":[0,0,0,0,0,0,0,0,0,0,0,0,0,0,0],"id":6,"left_children":[1,3,5,7,9,11,13,-1,-1,-1,-1,-1,-1,-1,-1],"loss_changes":[3.2353833E-1,4.5651466E-1,1.399284E-1,2.8137946E-1,4.5491286E-2,9.611733E-2,9.350764E-2,0E0,0E0,0E0,0E0,0E0,0E0,0E0,0E0],"parents":[2147483647,0,0,1,1,2,2,3,3,4,4,5,5,6,6],"right_children":[2,4,6,8,10,12,14,-1,-1,-1,-1,-1,-1,-1,-1],"split_conditions":[-2.8324327E0,-2.4968882E0,-1.8216717E0,-1.840366E0,-1.6067371E0,-2.4968882E0,2.9254148E0,-7.196389E-5,-2.9781825E-4,1.8023818E-5,-4.655551E-5,5.0946874E-5,1.1117311E-5,-3.8457935E-7,3.740036E-5],"split_indices":[3,9,6,1,1,9,7,0,0,0,0,0,0,0,0],"split_type":[0,0,0,0,0,0,0,0,0,0,0,0,0,0,0],"sum_hessian":[1.69021E6,6.615E3,1.683595E6,2.208E3,4.407E3,5.0447E4,1.633148E6,1.083E3,1.125E3,2.428E3,1.979E3,7.041E3,4.3406E4,1.626573E6,6.575E3],"tree_param":{"num_deleted":"0","num_feature":"20","num_nodes":"15","size_leaf_vector":"1"}},{"base_weights":[-1.1803362E-9,-6.9095935E-3,2.7151333E-5,-1.6946375E-2,-1.5236904E-4,1.55404E-3,-2.62507E-5,-4.7354166E-5,-2.7305444E-4,-6.154918E-5,1.2960502E-5,4.974635E-5,1.0551761E-5,-4.1386016E-7,3.7026413E-5],"categories":[],"categories_nodes":[],"categories_segments":[],"categories_sizes":[],"default_left":[0,0,0,0,0,0,0,0,0,0,0,0,0,0,0],"id":7,"left_children":[1,3,5,7,9,11,13,-1,-1,-1,-1,-1,-1,-1,-1],"loss_changes":[3.171054E-1,4.486997E-1,1.372787E-1,3.365981E-1,3.439357E-2,9.707761E-2,9.180803E-2,0E0,0E0,0E0,0E0,0E0,0E0,0E0,0E0],"parents":[2147483647,0,0,1,1,2,2,3,3,4,4,5,5,6,6],"right_children":[2,4,6,8,10,12,14,-1,-1,-1,-1,-1,-1,-1,-1],"split_conditions":[-2.8324327E0,-2.2979743E0,-1.7674938E0,-1.9025694E0,-2.0735502E0,-2.4968882E0,2.9254148E0,-4.7354166E-5,-2.7305444E-4,-6.154918E-5,1.2960502E-5,4.974635E-5,1.0551761E-5,-4.1386016E-7,3.7026413E-5],"split_indices":[3,9,6,1,17,9,7,0,0,0,0,0,0,0,0],"split_type":[0,0,0,0,0,0,0,0,0,0,0,0,0,0,0],"sum_hessian":[1.69021E6,6.615E3,1.683595E6,2.661E3,3.954E3,5.6892E4,1.626703E6,1.222E3,1.439E3,7.68E2,3.186E3,7.24E3,4.9652E4,1.620128E6,6.575E3],"tree_param":{"num_deleted":"0","num_feature":"20","num_nodes":"15","size_leaf_vector":"1"}},{"base_weights":[-1.3219144E-9,-6.8405536E-3,2.6879885E-5,-1.6777033E-2,-1.5085755E-4,1.5385007E-3,-2.5988165E-5,-4.6881014E-5,-2.7032578E-4,-6.093449E-5,1.2830939E-5,4.9248956E-5,1.0446246E-5,-4.0972154E-7,3.6656205E-5],"categories":[],"categories_nodes":[],"categories_segments":[],"categories_sizes":[],"default_left":[0,0,0,0,0,0,0,0,0,0,0,0,0,0,0],"id":8,"left_children":[1,3,5,7,9,11,13,-1,-1,-1,-1,-1,-1,-1,-1],"loss_changes":[3.1080008E-1,4.397764E-1,1.3454705E-1,3.2990426E-1,3.370991E-2,9.5146075E-2,8.9981325E-2,0E0,0E0,0E0,0E0,0E0,0E0,0E0,0E0],"parents":[2147483647,0,0,1,1,2,2,3,3,4,4,5,5,6,6],"right_children":[2,4,6,8,10,12,14,-1,-1,-1,-1,-1,-1,-1,-1],"split_conditions":[-2.8324327E0,-2.2979743E0,-1.7674938E0,-1.9025694E0,-2.0735502E0,-2.4968882E0,2.9254148E0,-4.6881014E-5,-2.7032578E-4,-6.093449E-5,1.2830939E-5,4.9248956E-5,1.0446246E-5,-4.0972154E-7,3.6656205E-5],"split_indices":[3,9,6,1,17,9,7,0,0,0,0,0,0,0,0],"split_type":[0,0,0,0,0,0,0,0,0,0,0,0,0,0,0],"sum_hessian":[1.69021E6,6.615E3,1.683595E6,2.661E3,3.954E3,5.6892E4,1.626703E6,1.222E3,1.439E3,7.68E2,3.186E3,7.24E3,4.9652E4,1.620128E6,6.575E3],"tree_param":{"num_deleted":"0","num_feature":"20","num_nodes":"15","size_leaf_vector":"1"}},{"base_weights":[-1.4638409E-9,-6.772203E-3,2.6611147E-5,-1.818461E-2,-1.0515186E-3,1.6191715E-3,-2.2583083E-5,-6.994296E-5,-2.8941373E-4,1.8174054E-5,-4.5704906E-5,4.9447663E-5,1.0796166E-5,-4.357792E-7,2.545544E-5],"categories":[],"categories_nodes":[],"categories_segments":[],"categories_sizes":[],"default_left":[0,0,0,0,0,0,0,0,0,0,0,0,0,0,0],"id":9,"left_children":[1,3,5,7,9,11,13,-1,-1,-1,-1,-1,-1,-1,-1],"loss_changes":[3.046201E-1,4.3191817E-1,1.31901E-1,2.6569837E-1,4.4509996E-2,9.051557E-2,8.805528E-2,0E0,0E0,0E0,0E0,0E0,0E0,0E0,0E0],"parents":[2147483647,0,0,1,1,2,2,3,3,4,4,5,5,6,6],"right_children":[2,4,6,8,10,12,14,-1,-1,-1,-1,-1,-1,-1,-1],"split_conditions":[-2.8324327E0,-2.4968882E0,-1.8216717E0,-1.840366E0,-1.6067371E0,-2.4968882E0,2.6024158E0,-6.994296E-5,-2.8941373E-4,1.8174054E-5,-4.5704906E-5,4.9447663E-5,1.0796166E-5,-4.357792E-7,2.545544E-5],"split_indices":[3,9,6,1,1,9,7,0,0,0,0,0,0,0,0],"split_type":[0,0,0,0,0,0,0,0,0,0,0,0,0,0,0],"sum_hessian":[1.69021E6,6.615E3,1.683595E6,2.208E3,4.407E3,5.0447E4,1.633148E6,1.083E3,1.125E3,2.428E3,1.979E3,7.041E3,4.3406E4,1.619906E6,1.3242E4],"tree_param":{"num_deleted":"0","num_feature":"20","num_nodes":"15","size_leaf_vector":"1"}},{"base_weights":[-1.5724474E-9,-6.7045395E-3,2.6345142E-5,-1.6457653E-2,-1.3829656E-4,1.5088096E-3,-2.5503183E-5,-4.5876557E-5,-2.6527478E-4,-6.0332997E-5,1.2841684E-5,4.8275837E-5,1.0247955E-5,-4.0233135E-7,3.6035184E-5],"categories":[],"categories_nodes":[],"categories_segments":[],"categories_sizes":[],"default_left":[0,0,0,0,0,0,0,0,0,0,0,0,0,0,0],"id":10,"left_children":[1,3,5,7,9,11,13,-1,-1,-1,-1,-1,-1,-1,-1],"loss_changes":[2.9856336E-1,4.2369506E-1,1.2940678E-1,3.1806397E-1,3.317215E-2,9.138417E-2,8.695611E-2,0E0,0E0,0E0,0E0,0E0,0E0,0E0,0E0],"parents":[2147483647,0,0,1,1,2,2,3,3,4,4,5,5,6,6],"right_children":[2,4,6,8,10,12,14,-1,-1,-1,-1,-1,-1,-1,-1],"split_conditions":[-2.8324327E0,-2.2979743E0,-1.7674938E0,-1.9025694E0,-2.0735502E0,-2.4968882E0,2.9254148E0,-4.5876557E-5,-2.6527478E-4,-6.0332997E-5,1.2841684E-5,4.8275837E-5,1.0247955E-5,-4.0233135E-7,3.6035184E-5],"split_indices":[3,9,6,1,17,9,7,0,0,0,0,0,0,0,0],"split_type":[0,0,0,0,0,0,0,0,0,0,0,0,0,0,0],"sum_hessian":[1.69021E6,6.615E3,1.683595E6,2.661E3,3.954E3,5.6892E4,1.626703E6,1.222E3,1.439E3,7.68E2,3.186E3,7.24E3,4.9652E4,1.620128E6,6.575E3],"tree_param":{"num_deleted":"0","num_feature":"20","num_nodes":"15","size_leaf_vector":"1"}},{"base_weights":[-1.7117974E-9,-6.6375486E-3,2.6081749E-5,-1.7836694E-2,-1.0237666E-3,1.4937227E-3,-2.524813E-5,-6.860975E-5,-2.8387178E-4,1.4493267E-5,-5.028893E-5,4.7793146E-5,1.0145479E-5,1.9272884E-6,-2.6742111E-6],"categories":[],"categories_nodes":[],"categories_segments":[],"categories_sizes":[],"default_left":[0,0,0,0,0,0,0,0,0,0,0,0,0,0,0],"id":11,"left_children":[1,3,5,7,9,11,13,-1,-1,-1,-1,-1,-1,-1,-1],"loss_changes":[2.926267E-1,4.1592675E-1,1.2683177E-1,2.5560558E-1,4.366876E-2,8.956595E-2,8.587073E-2,0E0,0E0,0E0,0E0,0E0,0E0,0E0,0E0],"parents":[2147483647,0,0,1,1,2,2,3,3,4,4,5,5,6,6],"right_children":[2,4,6,8,10,12,14,-1,-1,-1,-1,-1,-1,-1,-1],"split_conditions":[-2.8324327E0,-2.4968882E0,-1.7674938E0,-1.840366E0,-1.4683425E0,-2.4968882E0,1.18385896E-1,-6.860975E-5,-2.8387178E-4,1.4493267E-5,-5.028893E-5,4.7793146E-5,1.0145479E-5,1.9272884E-6,-2.6742111E-6],"split_indices":[3,9,6,1,1,9,4,0,0,0,0,0,0,0,0],"split_type":[0,0,0,0,0,0,0,0,0,0,0,0,0,0,0],"sum_hessian":[1.69021E6,6.615E3,1.683595E6,2.208E3,4.407E3,5.6892E4,1.626703E6,1.083E3,1.125E3,2.725E3,1.682E3,7.24E3,4.9652E4,8.5612E5,7.70583E5],"tree_param":{"num_deleted":"0","num_feature":"20","num_nodes":"15","size_leaf_vector":"1"}},{"base_weights":[-1.9338644E-9,-6.5712314E-3,2.582092E-5,-1.6144298E-2,-1.2620655E-4,1.5720258E-3,-2.1941392E-5,-4.4886205E-5,-2.6032317E-4,-5.974378E-5,1.2849543E-5,4.7992704E-5,1.0484277E-5,1.9471033E-6,-2.6417838E-6],"categories":[],"categories_nodes":[],"categories_segments":[],"categories_sizes":[],"default_left":[0,0,0,0,0,0,0,0,0,0,0,0,0,0,0],"id":12,"left_children":[1,3,5,7,9,11,13,-1,-1,-1,-1,-1,-1,-1,-1],"loss_changes":[2.8680852E-1,4.0819624E-1,1.2433414E-1,3.0668283E-1,3.2647148E-2,8.524095E-2,8.5709445E-2,0E0,0E0,0E0,0E0,0E0,0E0,0E0,0E0],"parents":[2147483647,0,0,1,1,2,2,3,3,4,4,5,5,6,6],"right_children":[2,4,6,8,10,12,14,-1,-1,-1,-1,-1,-1,-1,-1],"split_conditions":[-2.8324327E0,-2.2979743E0,-1.8216717E0,-1.9025694E0,-2.0735502E0,-2.4968882E0,1.18385896E-1,-4.4886205E-5,-2.6032317E-4,-5.974378E-5,1.2849543E-5,4.7992704E-5,1.0484277E-5,1.9471033E-6,-2.6417838E-6],"split_indices":[3,9,6,1,17,9,4,0,0,0,0,0,0,0,0],"split_type":[0,0,0,0,0,0,0,0,0,0,0,0,0,0,0],"sum_hessian":[1.69021E6,6.615E3,1.683595E6,2.661E3,3.954E3,5.0447E4,1.633148E6,1.222E3,1.439E3,7.68E2,3.186E3,7.041E3,4.3406E4,8.62102E5,7.71046E5],"tree_param":{"num_deleted":"0","num_feature":"20","num_nodes":"15","size_leaf_vector":"1"}},{"base_weights":[-2.1081148E-9,-6.5055722E-3,2.5562726E-5,-1.7495418E-2,-9.96708E-4,1.4646647E-3,-2.4769022E-5,-6.730292E-5,-2.7843463E-4,1.8165561E-5,-4.447426E-5,4.6848072E-5,9.950351E-6,-4.5553705E-7,2.5075364E-5],"categories":[],"categories_nodes":[],"categories_segments":[],"categories_sizes":[],"default_left":[0,0,0,0,0,0,0,0,0,0,0,0,0,0,0],"id":13,"left_children":[1,3,5,7,9,11,13,-1,-1,-1,-1,-1,-1,-1,-1],"loss_changes":[2.8110564E-1,4.005256E-1,1.2194713E-1,2.458908E-1,4.279998E-2,8.603316E-2,8.561869E-2,0E0,0E0,0E0,0E0,0E0,0E0,0E0,0E0],"parents":[2147483647,0,0,1,1,2,2,3,3,4,4,5,5,6,6],"right_children":[2,4,6,8,10,12,14,-1,-1,-1,-1,-1,-1,-1,-1],"split_conditions":[-2.8324327E0,-2.4968882E0,-1.7674938E0,-1.840366E0,-1.6067371E0,-2.4968882E0,2.6024158E0,-6.730292E-5,-2.7843463E-4,1.8165561E-5,-4.447426E-5,4.6848072E-5,9.950351E-6,-4.5553705E-7,2.5075364E-5],"split_indices":[3,9,6,1,1,9,7,0,0,0,0,0,0,0,0],"split_type":[0,0,0,0,0,0,0,0,0,0,0,0,0,0,0],"sum_hessian":[1.69021E6,6.615E3,1.683595E6,2.208E3,4.407E3,5.6892E4,1.626703E6,1.083E3,1.125E3,2.428E3,1.979E3,7.24E3,4.9652E4,1.613461E6,1.3242E4],"tree_param":{"num_deleted":"0","num_feature":"20","num_nodes":"15","size_leaf_vector":"1"}},{"base_weights":[-2.1758304E-9,-6.4405734E-3,2.5307232E-5,-1.5837032E-2,-1.144503E-4,3.8650824E-4,-1.7184595E-4,-4.392317E-5,-2.5546094E-4,-5.915748E-5,1.2853966E-5,1.6618118E-5,2.7034996E-6,-2.11921E-6,2.004333E-5],"categories":[],"categories_nodes":[],"categories_segments":[],"categories_sizes":[],"default_left":[0,0,0,0,0,0,0,0,0,0,0,0,0,0,0],"id":14,"left_children":[1,3,5,7,9,11,13,-1,-1,-1,-1,-1,-1,-1,-1],"loss_changes":[2.7551645E-1,3.932741E-1,1.1989219E-1,2.956825E-1,3.2125875E-2,8.8063024E-2,9.498345E-2,0E0,0E0,0E0,0E0,0E0,0E0,0E0,0E0],"parents":[2147483647,0,0,1,1,2,2,3,3,4,4,5,5,6,6],"right_children":[2,4,6,8,10,12,14,-1,-1,-1,-1,-1,-1,-1,-1],"split_conditions":[-2.8324327E0,-2.2979743E0,-3.805184E-1,-1.9025694E0,-2.0735502E0,-1.7226808E0,2.4095209E0,-4.392317E-5,-2.5546094E-4,-5.915748E-5,1.2853966E-5,1.6618118E-5,2.7034996E-6,-2.11921E-6,2.004333E-5],"split_indices":[3,9,4,1,17,0,7,0,0,0,0,0,0,0,0],"split_type":[0,0,0,0,0,0,0,0,0,0,0,0,0,0,0],"sum_hessian":[1.69021E6,6.615E3,1.683595E6,2.661E3,3.954E3,5.94472E5,1.089123E6,1.222E3,1.439E3,7.68E2,3.186E3,4.9625E4,5.44847E5,1.06943E6,1.9693E4],"tree_param":{"num_deleted":"0","num_feature":"20","num_nodes":"15","size_leaf_vector":"1"}},{"base_weights":[-2.4000861E-9,-6.3762194E-3,2.5054118E-5,-1.7160654E-2,-9.7032293E-4,1.5329074E-3,-2.1523509E-5,-4.705026E-5,-2.5769175E-4,-9.27488E-5,1.8167028E-6,4.6947254E-5,1.0199243E-5,-3.5871997E-7,3.5275796E-5],"categories":[],"categories_nodes":[],"categories_segments":[],"categories_sizes":[],"default_left":[0,0,0,0,0,0,0,0,0,0,0,0,0,0,0],"id":15,"left_children":[1,3,5,7,9,11,13,-1,-1,-1,-1,-1,-1,-1,-1],"loss_changes":[2.7003807E-1,3.856931E-1,1.18242726E-1,2.3673767E-1,4.2172115E-2,8.181979E-2,8.3167054E-2,0E0,0E0,0E0,0E0,0E0,0E0,0E0,0E0],"parents":[2147483647,0,0,1,1,2,2,3,3,4,4,5,5,6,6],"right_children":[2,4,6,8,10,12,14,-1,-1,-1,-1,-1,-1,-1,-1],"split_conditions":[-2.8324327E0,-2.4968882E0,-1.8216717E0,-1.9765942E0,-2.1525319E0,-2.4968882E0,2.9254148E0,-4.705026E-5,-2.5769175E-4,-9.27488E-5,1.8167028E-6,4.6947254E-5,1.0199243E-5,-3.5871997E-7,3.5275796E-5],"split_indices":[3,9,6,1,8,9,7,0,0,0,0,0,0,0,0],"split_type":[0,0,0,0,0,0,0,0,0,0,0,0,0,0,0],"sum_hessian":[1.69021E6,6.615E3,1.683595E6,2.208E3,4.407E3,5.0447E4,1.633148E6,9.03E2,1.305E3,5.36E2,3.871E3,7.041E3,4.3406E4,1.626573E6,6.575E3],"tree_param":{"num_deleted":"0","num_feature":"20","num_nodes":"15","size_leaf_vector":"1"}},{"base_weights":[-2.591322E-9,-6.312517E-3,2.4803594E-5,-1.5529476E-2,-1.07243366E-4,3.8178597E-4,-1.7004696E-4,-5.0845025E-5,-2.579943E-4,-5.8411424E-5,1.2763386E-5,1.6381278E-5,2.6735477E-6,-2.095074E-6,1.9727579E-5],"categories":[],"categories_nodes":[],"categories_segments":[],"categories_sizes":[],"default_left":[0,0,0,0,0,0,0,0,0,0,0,0,0,0,0],"id":16,"left_children":[1,3,5,7,9,11,13,-1,-1,-1,-1,-1,-1,-1,-1],"loss_changes":[2.646693E-1,3.783922E-1,1.17107995E-1,2.8542E-1,3.1383738E-2,8.546381E-2,9.209243E-2,0E0,0E0,0E0,0E0,0E0,0E0,0E0,0E0],"parents":[2147483647,0,0,1,1,2,2,3,3,4,4,5,5,6,6],"right_children":[2,4,6,8,10,12,14,-1,-1,-1,-1,-1,-1,-1,-1],"split_conditions":[-2.8324327E0,-2.2979743E0,-3.805184E-1,-1.840366E0,-2.0735502E0,-1.7226808E0,2.4095209E0,-5.0845025E-5,-2.579943E-4,-5.8411424E-5,1.2763386E-5,1.6381278E-5,2.6735477E-6,-2.095074E-6,1.9727579E-5],"split_indices":[3,9,4,1,17,0,7,0,0,0,0,0,0,0,0],"split_type":[0,0,0,0,0,0,0,0,0,0,0,0,0,0,0],"sum_hessian":[1.69021E6,6.615E3,1.683595E6,2.661E3,3.954E3,5.94472E5,1.089123E6,1.32E3,1.341E3,7.68E2,3.186E3,4.9625E4,5.44847E5,1.06943E6,1.9693E4],"tree_param":{"num_deleted":"0","num_feature":"20","num_nodes":"15","size_leaf_vector":"1"}},{"base_weights":[-2.6919422E-9,-6.2494455E-3,2.4555642E-5,-1.6832866E-2,-9.4431266E-4,3.779681E-4,-1.6834635E-4,-8.946076E-5,-2.9976238E-4,1.4848276E-5,-4.8782946E-5,6.6407947E-6,-1.1672325E-6,-2.002509E-6,2.4307943E-5],"categories":[],"categories_nodes":[],"categories_segments":[],"categories_sizes":[],"default_left":[0,0,0,0,0,0,0,0,0,0,0,0,0,0,0],"id":17,"left_children":[1,3,5,7,9,11,13,-1,-1,-1,-1,-1,-1,-1,-1],"loss_changes":[2.5940683E-1,3.7144908E-1,1.1477749E-1,2.2871453E-1,4.213095E-2,8.413991E-2,9.031546E-2,0E0,0E0,0E0,0E0,0E0,0E0,0E0,0E0],"parents":[2147483647,0,0,1,1,2,2,3,3,4,4,5,5,6,6],"right_children":[2,4,6,8,10,12,14,-1,-1,-1,-1,-1,-1,-1,-1],"split_conditions":[-2.8324327E0,-2.4968882E0,-3.805184E-1,-2.3180037E0,-1.4683425E0,-1.07716836E-1,2.6024158E0,-8.946076E-5,-2.9976238E-4,1.4848276E-5,-4.8782946E-5,6.6407947E-6,-1.1672325E-6,-2.002509E-6,2.4307943E-5],"split_indices":[3,9,4,2,1,0,7,0,0,0,0,0,0,0,0],"split_type":[0,0,0,0,0,0,0,0,0,0,0,0,0,0,0],"sum_hessian":[1.69021E6,6.615E3,1.683595E6,2.208E3,4.407E3,5.94472E5,1.089123E6,1.381E3,8.27E2,2.725E3,1.682E3,3.76638E5,2.17834E5,1.075917E6,1.3206E4],"tree_param":{"num_deleted":"0","num_feature":"20","num_nodes":"15","size_leaf_vector":"1"}},{"base_weights":[-2.9658411E-9,-6.1870147E-3,2.4310035E-5,-1.8055426E-2,-1.5277612E-3,1.4154116E-3,-2.4342926E-5,-6.9518974E-5,-4.601063E-4,-6.9939575E-5,6.7497963E-6,4.56703E-5,9.557761E-6,-3.8438145E-7,3.4483E-5],"categories":[],"categories_nodes":[],"categories_segments":[],"categories_sizes":[],"default_left":[0,0,0,0,0,0,0,0,0,0,0,0,0,0,0],"id":18,"left_children":[1,3,5,7,9,11,13,-1,-1,-1,-1,-1,-1,-1,-1],"loss_changes":[2.5424987E-1,3.6582357E-1,1.1394786E-1,5.785787E-1,5.7221726E-2,8.241059E-2,7.96235E-2,0E0,0E0,0E0,0E0,0E0,0E0,0E0,0E0],"parents":[2147483647,0,0,1,1,2,2,3,3,4,4,5,5,6,6],"right_children":[2,4,6,8,10,12,14,-1,-1,-1,-1,-1,-1,-1,-1],"split_conditions":[-2.8324327E0,-2.1411278E0,-1.7674938E0,-1.7347727E0,-2.1561248E0,-2.4968882E0,2.9254148E0,-6.9518974E-5,-4.601063E-4,-6.9939575E-5,6.7497963E-6,4.56703E-5,9.557761E-6,-3.8438145E-7,3.4483E-5],"split_indices":[3,7,6,1,9,9,7,0,0,0,0,0,0,0,0],"split_type":[0,0,0,0,0,0,0,0,0,0,0,0,0,0,0],"sum_hessian":[1.69021E6,6.615E3,1.683595E6,1.864E3,4.751E3,5.6892E4,1.626703E6,1.335E3,5.29E2,1.364E3,3.387E3,7.24E3,4.9652E4,1.620128E6,6.575E3],"tree_param":{"num_deleted":"0","num_feature":"20","num_nodes":"15","size_leaf_vector":"1"}},{"base_weights":[-3.2083687E-9,-6.1252345E-3,2.4067014E-5,-1.7875155E-2,-1.5124968E-3,3.733116E-4,-1.6656004E-4,-4.684096E-5,-4.096233E-4,-6.924069E-5,6.682319E-6,1.6079819E-5,2.6085431E-6,-2.0509779E-6,1.92614E-5],"categories":[],"categories_nodes":[],"categories_segments":[],"categories_sizes":[],"default_left":[0,0,0,0,0,0,0,0,0,0,0,0,0,0,0],"id":19,"left_children":[1,3,5,7,9,11,13,-1,-1,-1,-1,-1,-1,-1,-1],"loss_changes":[2.4919756E-1,3.5855553E-1,1.1208625E-1,5.677832E-1,5.60838E-2,8.254077E-2,8.783604E-2,0E0,0E0,0E0,0E0,0E0,0E0,0E0,0E0],"parents":[2147483647,0,0,1,1,2,2,3,3,4,4,5,5,6,6],"right_children":[2,4,6,8,10,12,14,-1,-1,-1,-1,-1,-1,-1,-1],"split_conditions":[-2.8324327E0,-2.1411278E0,-3.805184E-1,-1.840366E0,-2.1561248E0,-1.7226808E0,2.4095209E0,-4.684096E-5,-4.096233E-4,-6.924069E-5,6.682319E-6,1.6079819E-5,2.6085431E-6,-2.0509779E-6,1.92614E-5],"split_indices":[3,7,4,1,9,0,7,0,0,0,0,0,0,0,0],"split_type":[0,0,0,0,0,0,0,0,0,0,0,0,0,0,0],"sum_hessian":[1.69021E6,6.615E3,1.683595E6,1.864E3,4.751E3,5.94472E5,1.089123E6,1.187E3,6.77E2,1.364E3,3.387E3,4.9625E4,5.44847E5,1.06943E6,1.9693E4],"tree_param":{"num_deleted":"0","num_feature":"20","num_nodes":"15","size_leaf_vector":"1"}},{"base_weights":[-3.4539165E-9,-6.0640606E-3,2.3826373E-5,-1.4954798E-2,-7.842066E-5,1.481539E-3,-2.1202408E-5,-4.020078E-5,-2.423133E-4,-5.75876E-5,1.2922286E-5,4.576945E-5,9.793312E-6,1.8806614E-6,-2.5518427E-6],"categories":[],"categories_nodes":[],"categories_segments":[],"categories_sizes":[],"default_left":[0,0,0,0,0,0,0,0,0,0,0,0,0,0,0],"id":20,"left_children":[1,3,5,7,9,11,13,-1,-1,-1,-1,-1,-1,-1,-1],"loss_changes":[2.4424483E-1,3.5208082E-1,1.10509634E-1,2.69926E-1,3.0800097E-2,7.841879E-2,7.996727E-2,0E0,0E0,0E0,0E0,0E0,0E0,0E0,0E0],"parents":[2147483647,0,0,1,1,2,2,3,3,4,4,5,5,6,6],"right_children":[2,4,6,8,10,12,14,-1,-1,-1,-1,-1,-1,-1,-1],"split_conditions":[-2.8324327E0,-2.2979743E0,-1.8216717E0,-1.9025694E0,-2.0735502E0,-2.4968882E0,1.18385896E-1,-4.020078E-5,-2.423133E-4,-5.75876E-5,1.2922286E-5,4.576945E-5,9.793312E-6,1.8806614E-6,-2.5518427E-6],"split_indices":[3,9,6,1,17,9,4,0,0,0,0,0,0,0,0],"split_type":[0,0,0,0,0,0,0,0,0,0,0,0,0,0,0],"sum_hessian":[1.69021E6,6.615E3,1.683595E6,2.661E3,3.954E3,5.0447E4,1.633148E6,1.222E3,1.439E3,7.68E2,3.186E3,7.041E3,4.3406E4,8.62102E5,7.71046E5],"tree_param":{"num_deleted":"0","num_feature":"20","num_nodes":"15","size_leaf_vector":"1"}},{"base_weights":[-3.5568835E-9,-6.0034697E-3,2.3588167E-5,-1.7586578E-2,-1.456226E-3,1.3801999E-3,-2.385853E-5,-6.728195E-5,-4.4924716E-4,-6.709487E-5,6.6070374E-6,4.4674955E-5,9.299453E-6,-3.7743825E-7,3.3970646E-5],"categories":[],"categories_nodes":[],"categories_segments":[],"categories_sizes":[],"default_left":[0,0,0,0,0,0,0,0,0,0,0,0,0,0,0],"id":21,"left_children":[1,3,5,7,9,11,13,-1,-1,-1,-1,-1,-1,-1,-1],"loss_changes":[2.3938829E-1,3.4844714E-1,1.0836763E-1,5.533193E-1,5.28504E-2,7.908105E-2,7.7269435E-2,0E0,0E0,0E0,0E0,0E0,0E0,0E0,0E0],"parents":[2147483647,0,0,1,1,2,2,3,3,4,4,5,5,6,6],"right_children":[2,4,6,8,10,12,14,-1,-1,-1,-1,-1,-1,-1,-1],"split_conditions":[-2.8324327E0,-2.1411278E0,-1.7674938E0,-1.7347727E0,-2.1561248E0,-2.4968882E0,2.9254148E0,-6.728195E-5,-4.4924716E-4,-6.709487E-5,6.6070374E-6,4.4674955E-5,9.299453E-6,-3.7743825E-7,3.3970646E-5],"split_indices":[3,7,6,1,9,9,7,0,0,0,0,0,0,0,0],"split_type":[0,0,0,0,0,0,0,0,0,0,0,0,0,0,0],"sum_hessian":[1.69021E6,6.615E3,1.683595E6,1.864E3,4.751E3,5.6892E4,1.626703E6,1.335E3,5.29E2,1.364E3,3.387E3,7.24E3,4.9652E4,1.620128E6,6.575E3],"tree_param":{"num_deleted":"0","num_feature":"20","num_nodes":"15","size_leaf_vector":"1"}},{"base_weights":[-3.882813E-9,-5.943522E-3,2.3352264E-5,-1.741099E-2,-1.4416764E-3,3.6583393E-4,-1.635834E-4,-6.660964E-5,-4.4476314E-4,-6.6424414E-5,6.5409868E-6,6.466859E-6,-1.1976379E-6,-2.0155296E-6,1.8982619E-5],"categories":[],"categories_nodes":[],"categories_segments":[],"categories_sizes":[],"default_left":[0,0,0,0,0,0,0,0,0,0,0,0,0,0,0],"id":22,"left_children":[1,3,5,7,9,11,13,-1,-1,-1,-1,-1,-1,-1,-1],"loss_changes":[2.3463131E-1,3.4152436E-1,1.077873E-1,5.4233104E-1,5.179941E-2,8.1074946E-2,8.5264996E-2,0E0,0E0,0E0,0E0,0E0,0E0,0E0,0E0],"parents":[2147483647,0,0,1,1,2,2,3,3,4,4,5,5,6,6],"right_children":[2,4,6,8,10,12,14,-1,-1,-1,-1,-1,-1,-1,-1],"split_conditions":[-2.8324327E0,-2.1411278E0,-3.805184E-1,-1.7347727E0,-2.1561248E0,-1.07716836E-1,2.4095209E0,-6.660964E-5,-4.4476314E-4,-6.6424414E-5,6.5409868E-6,6.466859E-6,-1.1976379E-6,-2.0155296E-6,1.8982619E-5],"split_indices":[3,7,4,1,9,0,7,0,0,0,0,0,0,0,0],"split_type":[0,0,0,0,0,0,0,0,0,0,0,0,0,0,0],"sum_hessian":[1.69021E6,6.615E3,1.683595E6,1.864E3,4.751E3,5.94472E5,1.089123E6,1.335E3,5.29E2,1.364E3,3.387E3,3.76638E5,2.17834E5,1.06943E6,1.9693E4],"tree_param":{"num_deleted":"0","num_feature":"20","num_nodes":"15","size_leaf_vector":"1"}},{"base_weights":[-4.190694E-9,-5.8841733E-3,2.3118733E-5,-1.7237155E-2,-1.4272722E-3,3.6217563E-4,-1.6194761E-4,-4.4554108E-5,-3.9608058E-4,-6.576066E-5,6.475597E-6,6.402191E-6,-1.1856615E-6,-1.9953748E-6,1.87928E-5],"categories":[],"categories_nodes":[],"categories_segments":[],"categories_sizes":[],"default_left":[0,0,0,0,0,0,0,0,0,0,0,0,0,0,0],"id":23,"left_children":[1,3,5,7,9,11,13,-1,-1,-1,-1,-1,-1,-1,-1],"loss_changes":[2.2996888E-1,3.347391E-1,1.0564236E-1,5.331E-1,5.076931E-2,7.946157E-2,8.3568305E-2,0E0,0E0,0E0,0E0,0E0,0E0,0E0,0E0],"parents":[2147483647,0,0,1,1,2,2,3,3,4,4,5,5,6,6],"right_children":[2,4,6,8,10,12,14,-1,-1,-1,-1,-1,-1,-1,-1],"split_conditions":[-2.8324327E0,-2.1411278E0,-3.805184E-1,-1.840366E0,-2.1561248E0,-1.07716836E-1,2.4095209E0,-4.4554108E-5,-3.9608058E-4,-6.576066E-5,6.475597E-6,6.402191E-6,-1.1856615E-6,-1.9953748E-6,1.87928E-5],"split_indices":[3,7,4,1,9,0,7,0,0,0,0,0,0,0,0],"split_type":[0,0,0,0,0,0,0,0,0,0,0,0,0,0,0],"sum_hessian":[1.69021E6,6.615E3,1.683595E6,1.864E3,4.751E3,5.94472E5,1.089123E6,1.187E3,6.77E2,1.364E3,3.387E3,3.76638E5,2.17834E5,1.06943E6,1.9693E4],"tree_param":{"num_deleted":"0","num_feature":"20","num_nodes":"15","size_leaf_vector":"1"}},{"base_weights":[-4.4053396E-9,-5.825407E-3,2.2887585E-5,-1.5785363E-2,-8.3281036E-4,1.4423726E-3,-2.0960344E-5,-8.153576E-5,-2.8504373E-4,1.5864469E-5,-4.750851E-5,4.4745193E-5,9.504284E-6,1.8351764E-6,-2.4958588E-6],"categories":[],"categories_nodes":[],"categories_segments":[],"categories_sizes":[],"default_left":[0,0,0,0,0,0,0,0,0,0,0,0,0,0,0],"id":24,"left_children":[1,3,5,7,9,11,13,-1,-1,-1,-1,-1,-1,-1,-1],"loss_changes":[2.2539832E-1,3.289743E-1,1.04789525E-1,2.1419245E-1,4.1789856E-2,7.524633E-2,7.6347955E-2,0E0,0E0,0E0,0E0,0E0,0E0,0E0,0E0],"parents":[2147483647,0,0,1,1,2,2,3,3,4,4,5,5,6,6],"right_children":[2,4,6,8,10,12,14,-1,-1,-1,-1,-1,-1,-1,-1],"split_conditions":[-2.8324327E0,-2.4968882E0,-1.8216717E0,-2.3180037E0,-1.4683425E0,-2.4968882E0,1.18385896E-1,-8.153576E-5,-2.8504373E-4,1.5864469E-5,-4.750851E-5,4.4745193E-5,9.504284E-6,1.8351764E-6,-2.4958588E-6],"split_indices":[3,9,6,2,1,9,4,0,0,0,0,0,0,0,0],"split_type":[0,0,0,0,0,0,0,0,0,0,0,0,0,0,0],"sum_hessian":[1.69021E6,6.615E3,1.683595E6,2.208E3,4.407E3,5.0447E4,1.633148E6,1.381E3,8.27E2,2.725E3,1.682E3,7.041E3,4.3406E4,8.62102E5,7.71046E5],"tree_param":{"num_deleted":"0","num_feature":"20","num_nodes":"15","size_leaf_vector":"1"}},{"base_weights":[-4.5204223E-9,-5.767213E-3,2.2658785E-5,-1.696236E-2,-1.3722808E-3,1.212422E-3,-2.8704002E-5,-6.4367894E-5,-4.346274E-4,-6.3945125E-5,6.515442E-6,4.3156146E-5,8.328073E-6,-4.24361E-7,3.327787E-5],"categories":[],"categories_nodes":[],"categories_segments":[],"categories_sizes":[],"default_left":[0,0,0,0,0,0,0,0,0,0,0,0,0,0,0],"id":25,"left_children":[1,3,5,7,9,11,13,-1,-1,-1,-1,-1,-1,-1,-1],"loss_changes":[2.209175E-1,3.2549658E-1,1.0288384E-1,5.1992786E-1,4.830405E-2,8.207358E-2,7.438852E-2,0E0,0E0,0E0,0E0,0E0,0E0,0E0,0E0],"parents":[2147483647,0,0,1,1,2,2,3,3,4,4,5,5,6,6],"right_children":[2,4,6,8,10,12,14,-1,-1,-1,-1,-1,-1,-1,-1],"split_conditions":[-2.8324327E0,-2.1411278E0,-1.6738043E0,-1.7347727E0,-2.1561248E0,-2.4968882E0,2.9254148E0,-6.4367894E-5,-4.346274E-4,-6.3945125E-5,6.515442E-6,4.3156146E-5,8.328073E-6,-4.24361E-7,3.327787E-5],"split_indices":[3,7,6,1,9,9,7,0,0,0,0,0,0,0,0],"split_type":[0,0,0,0,0,0,0,0,0,0,0,0,0,0,0],"sum_hessian":[1.69021E6,6.615E3,1.683595E6,1.864E3,4.751E3,6.9673E4,1.613922E6,1.335E3,5.29E2,1.364E3,3.387E3,7.593E3,6.208E4,1.607347E6,6.575E3],"tree_param":{"num_deleted":"0","num_feature":"20","num_nodes":"15","size_leaf_vector":"1"}},{"base_weights":[-4.7362487E-9,-5.709625E-3,2.2432267E-5,-1.6793005E-2,-1.3585701E-3,3.548425E-4,-1.5900613E-4,-4.2783886E-5,-3.86965E-4,-6.330614E-5,6.450306E-6,6.8010872E-6,-4.5120115E-7,-1.8924363E-6,2.3043265E-5],"categories":[],"categories_nodes":[],"categories_segments":[],"categories_sizes":[],"default_left":[0,0,0,0,0,0,0,0,0,0,0,0,0,0,0],"id":26,"left_children":[1,3,5,7,9,11,13,-1,-1,-1,-1,-1,-1,-1,-1],"loss_changes":[2.165276E-1,3.1902975E-1,1.0154105E-1,5.110568E-1,4.734347E-2,7.7337615E-2,8.112387E-2,0E0,0E0,0E0,0E0,0E0,0E0,0E0,0E0],"parents":[2147483647,0,0,1,1,2,2,3,3,4,4,5,5,6,6],"right_children":[2,4,6,8,10,12,14,-1,-1,-1,-1,-1,-1,-1,-1],"split_conditions":[-2.8324327E0,-2.1411278E0,-3.805184E-1,-1.840366E0,-2.1561248E0,-3.288685E-1,2.6024158E0,-4.2783886E-5,-3.86965E-4,-6.330614E-5,6.450306E-6,6.8010872E-6,-4.5120115E-7,-1.8924363E-6,2.3043265E-5],"split_indices":[3,7,4,1,9,0,7,0,0,0,0,0,0,0,0],"split_type":[0,0,0,0,0,0,0,0,0,0,0,0,0,0,0],"sum_hessian":[1.69021E6,6.615E3,1.683595E6,1.864E3,4.751E3,5.94472E5,1.089123E6,1.187E3,6.77E2,1.364E3,3.387E3,3.2785E5,2.66622E5,1.075917E6,1.3206E4],"tree_param":{"num_deleted":"0","num_feature":"20","num_nodes":"15","size_leaf_vector":"1"}},{"base_weights":[-4.970017E-9,-5.6526023E-3,2.220795E-5,-1.6625306E-2,-1.3449963E-3,1.4095344E-3,-2.0646601E-5,-6.29159E-5,-4.2642697E-4,-6.267354E-5,6.3858224E-6,4.3805398E-5,9.2751E-6,1.7563909E-6,-2.510797E-6],"categories":[],"categories_nodes":[],"categories_segments":[],"categories_sizes":[],"default_left":[0,0,0,0,0,0,0,0,0,0,0,0,0,0,0],"id":27,"left_children":[1,3,5,7,9,11,13,-1,-1,-1,-1,-1,-1,-1,-1],"loss_changes":[2.1222419E-1,3.1269002E-1,1.0009529E-1,5.011488E-1,4.640198E-2,7.2242364E-2,7.386856E-2,0E0,0E0,0E0,0E0,0E0,0E0,0E0,0E0],"parents":[2147483647,0,0,1,1,2,2,3,3,4,4,5,5,6,6],"right_children":[2,4,6,8,10,12,14,-1,-1,-1,-1,-1,-1,-1,-1],"split_conditions":[-2.8324327E0,-2.1411278E0,-1.8216717E0,-1.7347727E0,-2.1561248E0,-2.4968882E0,1.1970674E-1,-6.29159E-5,-4.2642697E-4,-6.267354E-5,6.3858224E-6,4.3805398E-5,9.2751E-6,1.7563909E-6,-2.510797E-6],"split_indices":[3,7,6,1,9,9,9,0,0,0,0,0,0,0,0],"split_type":[0,0,0,0,0,0,0,0,0,0,0,0,0,0,0],"sum_hessian":[1.69021E6,6.615E3,1.683595E6,1.864E3,4.751E3,5.0447E4,1.633148E6,1.335E3,5.29E2,1.364E3,3.387E3,7.041E3,4.3406E4,8.81919E5,7.51229E5],"tree_param":{"num_deleted":"0","num_feature":"20","num_nodes":"15","size_leaf_vector":"1"}},{"base_weights":[-5.269127E-9,-5.5961586E-3,2.1985845E-5,-1.521287E-2,-7.7562523E-4,1.0075171E-3,-3.736252E-5,-7.738387E-5,-2.7670024E-4,1.627622E-5,-4.667768E-5,4.199445E-5,7.1355253E-6,-5.113205E-7,3.2739365E-5],"categories":[],"categories_nodes":[],"categories_segments":[],"categories_sizes":[],"default_left":[0,0,0,0,0,0,0,0,0,0,0,0,0,0,0],"id":28,"left_children":[1,3,5,7,9,11,13,-1,-1,-1,-1,-1,-1,-1,-1],"loss_changes":[2.0800704E-1,3.066906E-1,9.847301E-2,2.0546752E-1,4.1239075E-2,8.972514E-2,7.24037E-2,0E0,0E0,0E0,0E0,0E0,0E0,0E0,0E0],"parents":[2147483647,0,0,1,1,2,2,3,3,4,4,5,5,6,6],"right_children":[2,4,6,8,10,12,14,-1,-1,-1,-1,-1,-1,-1,-1],"split_conditions":[-2.8324327E0,-2.4968882E0,-1.522999E0,-2.3180037E0,-1.4683425E0,-2.4968882E0,2.9254148E0,-7.738387E-5,-2.7670024E-4,1.627622E-5,-4.667768E-5,4.199445E-5,7.1355253E-6,-5.113205E-7,3.2739365E-5],"split_indices":[3,9,6,2,1,9,7,0,0,0,0,0,0,0,0],"split_type":[0,0,0,0,0,0,0,0,0,0,0,0,0,0,0],"sum_hessian":[1.69021E6,6.615E3,1.683595E6,2.208E3,4.407E3,9.5626E4,1.587969E6,1.381E3,8.27E2,2.725E3,1.682E3,8.063E3,8.7563E4,1.581394E6,6.575E3],"tree_param":{"num_deleted":"0","num_feature":"20","num_nodes":"15","size_leaf_vector":"1"}},{"base_weights":[-5.3631575E-9,-5.5402555E-3,2.1766067E-5,-1.6360851E-2,-1.2923703E-3,2.4380839E-4,-2.3989454E-4,-4.1080177E-5,-3.7806283E-4,-6.0928058E-5,6.4207106E-6,3.871319E-5,2.2298564E-6,-2.9457353E-6,1.893083E-5],"categories":[],"categories_nodes":[],"categories_segments":[],"categories_sizes":[],"default_left":[0,0,0,0,0,0,0,0,0,0,0,0,0,0,0],"id":29,"left_children":[1,3,5,7,9,11,13,-1,-1,-1,-1,-1,-1,-1,-1],"loss_changes":[2.0387197E-1,3.0408096E-1,9.781653E-2,4.8990566E-1,4.413175E-2,6.8792194E-2,9.013736E-2,0E0,0E0,0E0,0E0,0E0,0E0,0E0,0E0],"parents":[2147483647,0,0,1,1,2,2,3,3,4,4,5,5,6,6],"right_children":[2,4,6,8,10,12,14,-1,-1,-1,-1,-1,-1,-1,-1],"split_conditions":[-2.8324327E0,-2.1411278E0,1.18385896E-1,-1.840366E0,-2.1561248E0,-2.8296402E0,2.4095209E0,-4.1080177E-5,-3.7806283E-4,-6.0928058E-5,6.4207106E-6,3.871319E-5,2.2298564E-6,-2.9457353E-6,1.893083E-5],"split_indices":[3,7,4,1,9,9,7,0,0,0,0,0,0,0,0],"split_type":[0,0,0,0,0,0,0,0,0,0,0,0,0,0,0],"sum_hessian":[1.69021E6,6.615E3,1.683595E6,1.864E3,4.751E3,9.10746E5,7.72849E5,1.187E3,6.77E2,1.364E3,3.387E3,5.197E3,9.05549E5,7.53533E5,1.9316E4],"tree_param":{"num_deleted":"0","num_feature":"20","num_nodes":"15","size_leaf_vector":"1"}},{"base_weights":[-5.57358E-9,-5.484924E-3,2.1548423E-5,-1.6197465E-2,-1.279458E-3,3.4504748E-4,-1.5502603E-4,-6.0797658E-5,-4.1671144E-4,-6.0319224E-5,6.3565226E-6,1.5236688E-5,2.376953E-6,-1.9122153E-6,1.8104834E-5],"categories":[],"categories_nodes":[],"categories_segments":[],"categories_sizes":[],"default_left":[0,0,0,0,0,0,0,0,0,0,0,0,0,0,0],"id":30,"left_children":[1,3,5,7,9,11,13,-1,-1,-1,-1,-1,-1,-1,-1],"loss_changes":[1.998201E-1,2.9803824E-1,9.616987E-2,4.8042244E-1,4.3254137E-2,7.521686E-2,7.748346E-2,0E0,0E0,0E0,0E0,0E0,0E0,0E0,0E0],"parents":[2147483647,0,0,1,1,2,2,3,3,4,4,5,5,6,6],"right_children":[2,4,6,8,10,12,14,-1,-1,-1,-1,-1,-1,-1,-1],"split_conditions":[-2.8324327E0,-2.1411278E0,-3.805184E-1,-1.7347727E0,-2.1561248E0,-1.7226808E0,2.4095209E0,-6.0797658E-5,-4.1671144E-4,-6.0319224E-5,6.3565226E-6,1.5236688E-5,2.376953E-6,-1.9122153E-6,1.8104834E-5],"split_indices":[3,7,4,1,9,0,7,0,0,0,0,0,0,0,0],"split_type":[0,0,0,0,0,0,0,0,0,0,0,0,0,0,0],"sum_hessian":[1.69021E6,6.615E3,1.683595E6,1.864E3,4.751E3,5.94472E5,1.089123E6,1.335E3,5.29E2,1.364E3,3.387E3,4.9625E4,5.44847E5,1.06943E6,1.9693E4],"tree_param":{"num_deleted":"0","num_feature":"20","num_nodes":"15","size_leaf_vector":"1"}},{"base_weights":[-5.7549596E-9,-5.4301554E-3,2.1333017E-5,-1.6035747E-2,-1.2666748E-3,1.3709154E-3,-2.0355623E-5,-5.958546E-5,-4.1274374E-4,-5.9716473E-5,6.2929757E-6,4.2628257E-5,9.017238E-6,1.7071332E-6,-2.446644E-6],"categories":[],"categories_nodes":[],"categories_segments":[],"categories_sizes":[],"default_left":[0,0,0,0,0,0,0,0,0,0,0,0,0,0,0],"id":31,"left_children":[1,3,5,7,9,11,13,-1,-1,-1,-1,-1,-1,-1,-1],"loss_changes":[1.9584945E-1,2.92117E-1,9.472294E-2,4.740883E-1,4.2393968E-2,6.8447046E-2,6.999426E-2,0E0,0E0,0E0,0E0,0E0,0E0,0E0,0E0],"parents":[2147483647,0,0,1,1,2,2,3,3,4,4,5,5,6,6],"right_children":[2,4,6,8,10,12,14,-1,-1,-1,-1,-1,-1,-1,-1],"split_conditions":[-2.8324327E0,-2.1411278E0,-1.8216717E0,-2.3180037E0,-2.1561248E0,-2.4968882E0,1.1970674E-1,-5.958546E-5,-4.1274374E-4,-5.9716473E-5,6.2929757E-6,4.2628257E-5,9.017238E-6,1.7071332E-6,-2.446644E-6],"split_indices":[3,7,6,2,9,9,9,0,0,0,0,0,0,0,0],"split_type":[0,0,0,0,0,0,0,0,0,0,0,0,0,0,0],"sum_hessian":[1.69021E6,6.615E3,1.683595E6,1.864E3,4.751E3,5.0447E4,1.633148E6,1.333E3,5.31E2,1.364E3,3.387E3,7.041E3,4.3406E4,8.81919E5,7.51229E5],"tree_param":{"num_deleted":"0","num_feature":"20","num_nodes":"15","size_leaf_vector":"1"}},{"base_weights":[-6.0341137E-9,-5.3759334E-3,2.111966E-5,-1.4672722E-2,-7.15774E-4,9.799454E-4,-3.6620506E-5,-7.385521E-5,-2.6817937E-4,1.6757984E-5,-4.589042E-5,4.0896568E-5,6.9355265E-6,-5.010771E-7,3.2067863E-5],"categories":[],"categories_nodes":[],"categories_segments":[],"categories_sizes":[],"default_left":[0,0,0,0,0,0,0,0,0,0,0,0,0,0,0],"id":32,"left_children":[1,3,5,7,9,11,13,-1,-1,-1,-1,-1,-1,-1,-1],"loss_changes":[1.919577E-1,2.866245E-1,9.320855E-2,1.9530863E-1,4.0839884E-2,8.5162446E-2,6.946514E-2,0E0,0E0,0E0,0E0,0E0,0E0,0E0,0E0],"parents":[2147483647,0,0,1,1,2,2,3,3,4,4,5,5,6,6],"right_children":[2,4,6,8,10,12,14,-1,-1,-1,-1,-1,-1,-1,-1],"split_conditions":[-2.8324327E0,-2.4968882E0,-1.522999E0,-2.3180037E0,-1.4683425E0,-2.4968882E0,2.9254148E0,-7.385521E-5,-2.6817937E-4,1.6757984E-5,-4.589042E-5,4.0896568E-5,6.9355265E-6,-5.010771E-7,3.2067863E-5],"split_indices":[3,9,6,2,1,9,7,0,0,0,0,0,0,0,0],"split_type":[0,0,0,0,0,0,0,0,0,0,0,0,0,0,0],"sum_hessian":[1.69021E6,6.615E3,1.683595E6,2.208E3,4.407E3,9.5626E4,1.587969E6,1.381E3,8.27E2,2.725E3,1.682E3,8.063E3,8.7563E4,1.581394E6,6.575E3],"tree_param":{"num_deleted":"0","num_feature":"20","num_nodes":"15","size_leaf_vector":"1"}},{"base_weights":[-6.1015633E-9,-5.32223E-3,2.0908556E-5,-1.578106E-2,-1.2163717E-3,2.3861646E-4,-2.3166345E-4,-3.83829E-5,-3.668405E-4,-5.803905E-5,6.322707E-6,1.859904E-5,1.9411248E-6,-2.844862E-6,1.8454695E-5],"categories":[],"categories_nodes":[],"categories_segments":[],"categories_sizes":[],"default_left":[0,0,0,0,0,0,0,0,0,0,0,0,0,0,0],"id":33,"left_children":[1,3,5,7,9,11,13,-1,-1,-1,-1,-1,-1,-1,-1],"loss_changes":[1.8814172E-1,2.8408822E-1,9.257582E-2,4.654371E-1,4.0304E-2,6.5241426E-2,8.551533E-2,0E0,0E0,0E0,0E0,0E0,0E0,0E0,0E0],"parents":[2147483647,0,0,1,1,2,2,3,3,4,4,5,5,6,6],"right_children":[2,4,6,8,10,12,14,-1,-1,-1,-1,-1,-1,-1,-1],"split_conditions":[-2.8324327E0,-2.1411278E0,1.08173855E-1,-1.840366E0,-2.1561248E0,-2.1295345E0,2.4095209E0,-3.83829E-5,-3.668405E-4,-5.803905E-5,6.322707E-6,1.859904E-5,1.9411248E-6,-2.844862E-6,1.8454695E-5],"split_indices":[3,7,4,1,9,6,7,0,0,0,0,0,0,0,0],"split_type":[0,0,0,0,0,0,0,0,0,0,0,0,0,0,0],"sum_hessian":[1.69021E6,6.615E3,1.683595E6,1.864E3,4.751E3,9.04204E5,7.79391E5,1.187E3,6.77E2,1.364E3,3.387E3,2.4156E4,8.80048E5,7.60063E5,1.9328E4],"tree_param":{"num_deleted":"0","num_feature":"20","num_nodes":"15","size_leaf_vector":"1"}},{"base_weights":[-6.330045E-9,-5.2690767E-3,2.0699452E-5,-1.5623466E-2,-1.2042188E-3,3.3543693E-4,-1.510927E-4,-5.7290563E-5,-4.0404516E-4,-5.7459092E-5,6.259498E-6,6.0380335E-6,-1.2857299E-6,-1.9724462E-6,1.3302528E-5],"categories":[],"categories_nodes":[],"categories_segments":[],"categories_sizes":[],"default_left":[0,0,0,0,0,0,0,0,0,0,0,0,0,0,0],"id":34,"left_children":[1,3,5,7,9,11,13,-1,-1,-1,-1,-1,-1,-1,-1],"loss_changes":[1.844025E-1,2.7844283E-1,9.103113E-2,4.5705512E-1,3.95025E-2,7.402664E-2,7.446034E-2,0E0,0E0,0E0,0E0,0E0,0E0,0E0,0E0],"parents":[2147483647,0,0,1,1,2,2,3,3,4,4,5,5,6,6],"right_children":[2,4,6,8,10,12,14,-1,-1,-1,-1,-1,-1,-1,-1],"split_conditions":[-2.8324327E0,-2.1411278E0,-3.805184E-1,-2.3180037E0,-2.1561248E0,-1.07716836E-1,2.1590645E0,-5.7290563E-5,-4.0404516E-4,-5.7459092E-5,6.259498E-6,6.0380335E-6,-1.2857299E-6,-1.9724462E-6,1.3302528E-5],"split_indices":[3,7,4,2,9,0,7,0,0,0,0,0,0,0,0],"split_type":[0,0,0,0,0,0,0,0,0,0,0,0,0,0,0],"sum_hessian":[1.69021E6,6.615E3,1.683595E6,1.864E3,4.751E3,5.94472E5,1.089123E6,1.333E3,5.31E2,1.364E3,3.387E3,3.76638E5,2.17834E5,1.056217E6,3.2906E4],"tree_param":{"num_deleted":"0","num_feature":"20","num_nodes":"15","size_leaf_vector":"1"}},{"base_weights":[-6.545727E-9,-5.2164635E-3,2.0492482E-5,-1.5467479E-2,-1.1921874E-3,2.3305429E-4,-2.2999603E-4,-3.6968715E-5,-3.606927E-4,-6.522994E-5,3.3823414E-6,3.7390462E-5,2.1292908E-6,-2.7292128E-6,2.2825448E-5],"categories":[],"categories_nodes":[],"categories_segments":[],"categories_sizes":[],"default_left":[0,0,0,0,0,0,0,0,0,0,0,0,0,0,0],"id":35,"left_children":[1,3,5,7,9,11,13,-1,-1,-1,-1,-1,-1,-1,-1],"loss_changes":[1.8073826E-1,2.7291086E-1,8.964193E-2,4.5212102E-1,3.8770832E-2,6.426043E-2,8.335364E-2,0E0,0E0,0E0,0E0,0E0,0E0,0E0,0E0],"parents":[2147483647,0,0,1,1,2,2,3,3,4,4,5,5,6,6],"right_children":[2,4,6,8,10,12,14,-1,-1,-1,-1,-1,-1,-1,-1],"split_conditions":[-2.8324327E0,-2.1411278E0,1.18385896E-1,-1.840366E0,-2.2979743E0,-2.8296402E0,2.6024158E0,-3.6968715E-5,-3.606927E-4,-6.522994E-5,3.3823414E-6,3.7390462E-5,2.1292908E-6,-2.7292128E-6,2.2825448E-5],"split_indices":[3,7,4,1,9,9,7,0,0,0,0,0,0,0,0],"split_type":[0,0,0,0,0,0,0,0,0,0,0,0,0,0,0],"sum_hessian":[1.69021E6,6.615E3,1.683595E6,1.864E3,4.751E3,9.10746E5,7.72849E5,1.187E3,6.77E2,1.059E3,3.692E3,5.197E3,9.05549E5,7.59868E5,1.2981E4],"tree_param":{"num_deleted":"0","num_feature":"20","num_nodes":"15","size_leaf_vector":"1"}},{"base_weights":[-6.6896204E-9,-5.1643685E-3,2.028762E-5,-1.4148143E-2,-6.6111895E-4,8.6733926E-4,-4.204845E-5,-7.043644E-5,-2.5989048E-4,1.7183213E-5,-4.5147684E-5,3.8547132E-5,6.340276E-6,-5.5366553E-7,3.1206346E-5],"categories":[],"categories_nodes":[],"categories_segments":[],"categories_sizes":[],"default_left":[0,0,0,0,0,0,0,0,0,0,0,0,0,0,0],"id":36,"left_children":[1,3,5,7,9,11,13,-1,-1,-1,-1,-1,-1,-1,-1],"loss_changes":[1.771463E-1,2.6764873E-1,8.889705E-2,1.8564624E-1,4.0427044E-2,8.043429E-2,6.605385E-2,0E0,0E0,0E0,0E0,0E0,0E0,0E0,0E0],"parents":[2147483647,0,0,1,1,2,2,3,3,4,4,5,5,6,6],"right_children":[2,4,6,8,10,12,14,-1,-1,-1,-1,-1,-1,-1,-1],"split_conditions":[-2.8324327E0,-2.4968882E0,-1.4325315E0,-2.3180037E0,-1.4683425E0,-2.4968882E0,2.9254148E0,-7.043644E-5,-2.5989048E-4,1.7183213E-5,-4.5147684E-5,3.8547132E-5,6.340276E-6,-5.5366553E-7,3.1206346E-5],"split_indices":[3,9,6,2,1,9,7,0,0,0,0,0,0,0,0],"split_type":[0,0,0,0,0,0,0,0,0,0,0,0,0,0,0],"sum_hessian":[1.69021E6,6.615E3,1.683595E6,2.208E3,4.407E3,1.15405E5,1.56819E6,1.381E3,8.27E2,2.725E3,1.682E3,8.359E3,1.07046E5,1.561615E6,6.575E3],"tree_param":{"num_deleted":"0","num_feature":"20","num_nodes":"15","size_leaf_vector":"1"}},{"base_weights":[-6.8223285E-9,-5.112779E-3,2.0084755E-5,-1.5222192E-2,-1.1440989E-3,2.3016467E-4,-2.2747903E-4,-5.516637E-5,-3.9658792E-4,-5.5342996E-5,6.2501804E-6,1.8147684E-5,1.8694087E-6,-2.9490755E-6,1.3263606E-5],"categories":[],"categories_nodes":[],"categories_segments":[],"categories_sizes":[],"default_left":[0,0,0,0,0,0,0,0,0,0,0,0,0,0,0],"id":37,"left_children":[1,3,5,7,9,11,13,-1,-1,-1,-1,-1,-1,-1,-1],"loss_changes":[1.7362477E-1,2.654233E-1,8.756082E-2,4.421047E-1,3.6911193E-2,6.237907E-2,8.097429E-2,0E0,0E0,0E0,0E0,0E0,0E0,0E0,0E0],"parents":[2147483647,0,0,1,1,2,2,3,3,4,4,5,5,6,6],"right_children":[2,4,6,8,10,12,14,-1,-1,-1,-1,-1,-1,-1,-1],"split_conditions":[-2.8324327E0,-2.1411278E0,1.18385896E-1,-1.7347727E0,-2.1561248E0,-2.1295345E0,2.1590645E0,-5.516637E-5,-3.9658792E-4,-5.5342996E-5,6.2501804E-6,1.8147684E-5,1.8694087E-6,-2.9490755E-6,1.3263606E-5],"split_indices":[3,7,4,1,9,6,7,0,0,0,0,0,0,0,0],"split_type":[0,0,0,0,0,0,0,0,0,0,0,0,0,0,0],"sum_hessian":[1.69021E6,6.615E3,1.683595E6,1.864E3,4.751E3,9.10746E5,7.72849E5,1.335E3,5.29E2,1.364E3,3.387E3,2.4182E4,8.86564E5,7.40707E5,3.2142E4],"tree_param":{"num_deleted":"0","num_feature":"20","num_nodes":"15","size_leaf_vector":"1"}},{"base_weights":[-7.0291994E-9,-5.0617266E-3,1.988393E-5,-1.5070212E-2,-1.1326682E-3,5.143547E-4,-8.393709E-5,-5.4006297E-5,-3.928854E-4,-5.4789973E-5,6.1876976E-6,1.0234483E-5,8.803623E-7,6.4051324E-5,-1.007506E-6],"categories":[],"categories_nodes":[],"categories_segments":[],"categories_sizes":[],"default_left":[0,0,0,0,0,0,0,0,0,0,0,0,0,0,0],"id":38,"left_children":[1,3,5,7,9,11,13,-1,-1,-1,-1,-1,-1,-1,-1],"loss_changes":[1.701747E-1,2.6015002E-1,8.6429894E-2,4.3653563E-1,3.6177162E-2,6.340764E-2,1.518128E-1,0E0,0E0,0E0,0E0,0E0,0E0,0E0,0E0],"parents":[2147483647,0,0,1,1,2,2,3,3,4,4,5,5,6,6],"right_children":[2,4,6,8,10,12,14,-1,-1,-1,-1,-1,-1,-1,-1],"split_conditions":[-2.8324327E0,-2.1411278E0,-9.073524E-1,-2.3180037E0,-2.1561248E0,-7.904078E-1,-2.4968882E0,-5.4006297E-5,-3.928854E-4,-5.4789973E-5,6.1876976E-6,1.0234483E-5,8.803623E-7,6.4051324E-5,-1.007506E-6],"split_indices":[3,7,0,2,9,4,9,0,0,0,0,0,0,0,0],"split_type":[0,0,0,0,0,0,0,0,0,0,0,0,0,0,0],"sum_hessian":[1.69021E6,6.615E3,1.683595E6,1.864E3,4.751E3,2.92152E5,1.391443E6,1.333E3,5.31E2,1.364E3,3.387E3,1.33149E5,1.59003E5,3.595E3,1.387848E6],"tree_param":{"num_deleted":"0","num_feature":"20","num_nodes":"15","size_leaf_vector":"1"}},{"base_weights":[-7.1870994E-9,-5.011184E-3,1.9685154E-5,-1.4919749E-2,-1.1213517E-3,3.241038E-4,-1.464747E-4,-2.3560528E-5,-3.3264942E-4,-5.4242475E-5,6.125839E-6,5.8710602E-6,-1.3063132E-6,-1.9128179E-6,1.291705E-5],"categories":[],"categories_nodes":[],"categories_segments":[],"categories_sizes":[],"default_left":[0,0,0,0,0,0,0,0,0,0,0,0,0,0,0],"id":39,"left_children":[1,3,5,7,9,11,13,-1,-1,-1,-1,-1,-1,-1,-1],"loss_changes":[1.6679318E-1,2.5498152E-1,8.515997E-2,4.2977318E-1,3.545773E-2,7.109689E-2,7.0184074E-2,0E0,0E0,0E0,0E0,0E0,0E0,0E0,0E0],"parents":[2147483647,0,0,1,1,2,2,3,3,4,4,5,5,6,6],"right_children":[2,4,6,8,10,12,14,-1,-1,-1,-1,-1,-1,-1,-1],"split_conditions":[-2.8324327E0,-2.1411278E0,-3.805184E-1,-1.9025694E0,-2.1561248E0,-1.07716836E-1,2.1590645E0,-2.3560528E-5,-3.3264942E-4,-5.4242475E-5,6.125839E-6,5.8710602E-6,-1.3063132E-6,-1.9128179E-6,1.291705E-5],"split_indices":[3,7,4,1,9,0,7,0,0,0,0,0,0,0,0],"split_type":[0,0,0,0,0,0,0,0,0,0,0,0,0,0,0],"sum_hessian":[1.69021E6,6.615E3,1.683595E6,1.864E3,4.751E3,5.94472E5,1.089123E6,1.107E3,7.57E2,1.364E3,3.387E3,3.76638E5,2.17834E5,1.056217E6,3.2906E4],"tree_param":{"num_deleted":"0","num_feature":"20","num_nodes":"15","size_leaf_vector":"1"}},{"base_weights":[-7.3374333E-9,-4.9611335E-3,1.9488321E-5,-1.3646348E-2,-6.075491E-4,1.293485E-3,-1.986547E-5,-6.718233E-5,-2.519346E-4,1.7594873E-5,-4.44114E-5,4.0578132E-5,8.44993E-6,2.4995836E-6,-1.639288E-6],"categories":[],"categories_nodes":[],"categories_segments":[],"categories_sizes":[],"default_left":[0,0,0,0,0,0,0,0,0,0,0,0,0,0,0],"id":40,"left_children":[1,3,5,7,9,11,13,-1,-1,-1,-1,-1,-1,-1,-1],"loss_changes":[1.6347803E-1,2.5015467E-1,8.4409796E-2,1.7655015E-1,4.000711E-2,6.254096E-2,6.348336E-2,0E0,0E0,0E0,0E0,0E0,0E0,0E0,0E0],"parents":[2147483647,0,0,1,1,2,2,3,3,4,4,5,5,6,6],"right_children":[2,4,6,8,10,12,14,-1,-1,-1,-1,-1,-1,-1,-1],"split_conditions":[-2.8324327E0,-2.4968882E0,-1.8216717E0,-2.3180037E0,-1.4683425E0,-2.4968882E0,-3.4972626E-1,-6.718233E-5,-2.519346E-4,1.7594873E-5,-4.44114E-5,4.0578132E-5,8.44993E-6,2.4995836E-6,-1.639288E-6],"split_indices":[3,9,6,2,1,9,0,0,0,0,0,0,0,0,0],"split_type":[0,0,0,0,0,0,0,0,0,0,0,0,0,0,0],"sum_hessian":[1.69021E6,6.615E3,1.683595E6,2.208E3,4.407E3,5.0447E4,1.633148E6,1.381E3,8.27E2,2.725E3,1.682E3,7.041E3,4.3406E4,5.68456E5,1.064692E6],"tree_param":{"num_deleted":"0","num_feature":"20","num_nodes":"15","size_leaf_vector":"1"}},{"base_weights":[-7.469692E-9,-4.9115745E-3,1.9293437E-5,-1.4683509E-2,-1.0753858E-3,2.2433586E-4,-2.2233404E-4,-5.1866617E-5,-3.8469434E-4,-5.2692805E-5,6.146207E-6,3.595345E-5,2.0498549E-6,-2.6407447E-6,2.2208553E-5],"categories":[],"categories_nodes":[],"categories_segments":[],"categories_sizes":[],"default_left":[0,0,0,0,0,0,0,0,0,0,0,0,0,0,0],"id":41,"left_children":[1,3,5,7,9,11,13,-1,-1,-1,-1,-1,-1,-1,-1],"loss_changes":[1.6022821E-1,2.4799809E-1,8.341193E-2,4.2108774E-1,3.3684034E-2,5.940756E-2,7.881567E-2,0E0,0E0,0E0,0E0,0E0,0E0,0E0,0E0],"parents":[2147483647,0,0,1,1,2,2,3,3,4,4,5,5,6,6],"right_children":[2,4,6,8,10,12,14,-1,-1,-1,-1,-1,-1,-1,-1],"split_conditions":[-2.8324327E0,-2.1411278E0,1.18385896E-1,-2.3180037E0,-2.1561248E0,-2.8296402E0,2.6024158E0,-5.1866617E-5,-3.8469434E-4,-5.2692805E-5,6.146207E-6,3.595345E-5,2.0498549E-6,-2.6407447E-6,2.2208553E-5],"split_indices":[3,7,4,2,9,9,7,0,0,0,0,0,0,0,0],"split_type":[0,0,0,0,0,0,0,0,0,0,0,0,0,0,0],"sum_hessian":[1.69021E6,6.615E3,1.683595E6,1.864E3,4.751E3,9.10746E5,7.72849E5,1.333E3,5.31E2,1.364E3,3.387E3,5.197E3,9.05549E5,7.59868E5,1.2981E4],"tree_param":{"num_deleted":"0","num_feature":"20","num_nodes":"15","size_leaf_vector":"1"}},{"base_weights":[-7.651219E-9,-4.862532E-3,1.9100531E-5,-1.4536908E-2,-1.0646418E-3,1.0832641E-3,-2.6840044E-5,-7.351965E-5,-4.5726082E-4,-5.2166262E-5,6.084763E-6,3.893881E-5,7.394405E-6,-3.9403938E-7,3.0441115E-5],"categories":[],"categories_nodes":[],"categories_segments":[],"categories_sizes":[],"default_left":[0,0,0,0,0,0,0,0,0,0,0,0,0,0,0],"id":42,"left_children":[1,3,5,7,9,11,13,-1,-1,-1,-1,-1,-1,-1,-1],"loss_changes":[1.5704437E-1,2.4307103E-1,8.230815E-2,4.1759622E-1,3.301418E-2,6.732703E-2,6.2270295E-2,0E0,0E0,0E0,0E0,0E0,0E0,0E0,0E0],"parents":[2147483647,0,0,1,1,2,2,3,3,4,4,5,5,6,6],"right_children":[2,4,6,8,10,12,14,-1,-1,-1,-1,-1,-1,-1,-1],"split_conditions":[-2.8324327E0,-2.1411278E0,-1.6738043E0,-1.0535691E0,-2.1561248E0,-2.4968882E0,2.9254148E0,-7.351965E-5,-4.5726082E-4,-5.2166262E-5,6.084763E-6,3.893881E-5,7.394405E-6,-3.9403938E-7,3.0441115E-5],"split_indices":[3,7,6,10,9,9,7,0,0,0,0,0,0,0,0],"split_type":[0,0,0,0,0,0,0,0,0,0,0,0,0,0,0],"sum_hessian":[1.69021E6,6.615E3,1.683595E6,1.864E3,4.751E3,6.9673E4,1.613922E6,1.516E3,3.48E2,1.364E3,3.387E3,7.593E3,6.208E4,1.607347E6,6.575E3],"tree_param":{"num_deleted":"0","num_feature":"20","num_nodes":"15","size_leaf_vector":"1"}},{"base_weights":[-7.869935E-9,-4.813994E-3,1.8909572E-5,-1.4391824E-2,-1.054005E-3,2.2165275E-4,-2.200084E-4,-5.0224236E-5,-3.7982626E-4,-5.9284404E-5,3.4538732E-6,1.744713E-5,1.801077E-6,-2.7036012E-6,1.7441653E-5],"categories":[],"categories_nodes":[],"categories_segments":[],"categories_sizes":[],"default_left":[0,0,0,0,0,0,0,0,0,0,0,0,0,0,0],"id":43,"left_children":[1,3,5,7,9,11,13,-1,-1,-1,-1,-1,-1,-1,-1],"loss_changes":[1.5392473E-1,2.3824376E-1,8.155173E-2,4.120333E-1,3.2416616E-2,5.7627752E-2,7.6434955E-2,0E0,0E0,0E0,0E0,0E0,0E0,0E0,0E0],"parents":[2147483647,0,0,1,1,2,2,3,3,4,4,5,5,6,6],"right_children":[2,4,6,8,10,12,14,-1,-1,-1,-1,-1,-1,-1,-1],"split_conditions":[-2.8324327E0,-2.1411278E0,1.18385896E-1,-1.7347727E0,-2.2979743E0,-2.1295345E0,2.4095209E0,-5.0224236E-5,-3.7982626E-4,-5.9284404E-5,3.4538732E-6,1.744713E-5,1.801077E-6,-2.7036012E-6,1.7441653E-5],"split_indices":[3,7,4,1,9,6,7,0,0,0,0,0,0,0,0],"split_type":[0,0,0,0,0,0,0,0,0,0,0,0,0,0,0],"sum_hessian":[1.69021E6,6.615E3,1.683595E6,1.864E3,4.751E3,9.10746E5,7.72849E5,1.335E3,5.29E2,1.059E3,3.692E3,2.4182E4,8.86564E5,7.53533E5,1.9316E4],"tree_param":{"num_deleted":"0","num_feature":"20","num_nodes":"15","size_leaf_vector":"1"}},{"base_weights":[-8.080567E-9,-4.7659273E-3,1.8720475E-5,-1.31605435E-2,-5.580162E-4,4.9660046E-4,-8.161708E-5,-6.401707E-5,-2.44257E-4,1.7968354E-5,-4.3719006E-5,9.918918E-6,8.184013E-7,6.288333E-5,-9.812194E-7],"categories":[],"categories_nodes":[],"categories_segments":[],"categories_sizes":[],"default_left":[0,0,0,0,0,0,0,0,0,0,0,0,0,0,0],"id":44,"left_children":[1,3,5,7,9,11,13,-1,-1,-1,-1,-1,-1,-1,-1],"loss_changes":[1.5086627E-1,2.3369491E-1,8.072731E-2,1.6803545E-1,3.9596684E-2,6.0016096E-2,1.462903E-1,0E0,0E0,0E0,0E0,0E0,0E0,0E0,0E0],"parents":[2147483647,0,0,1,1,2,2,3,3,4,4,5,5,6,6],"right_children":[2,4,6,8,10,12,14,-1,-1,-1,-1,-1,-1,-1,-1],"split_conditions":[-2.8324327E0,-2.4968882E0,-9.073524E-1,-2.3180037E0,-1.4683425E0,-7.904078E-1,-2.4968882E0,-6.401707E-5,-2.44257E-4,1.7968354E-5,-4.3719006E-5,9.918918E-6,8.184013E-7,6.288333E-5,-9.812194E-7],"split_indices":[3,9,0,2,1,4,9,0,0,0,0,0,0,0,0],"split_type":[0,0,0,0,0,0,0,0,0,0,0,0,0,0,0],"sum_hessian":[1.69021E6,6.615E3,1.683595E6,2.208E3,4.407E3,2.92152E5,1.391443E6,1.381E3,8.27E2,2.725E3,1.682E3,1.33149E5,1.59003E5,3.595E3,1.387848E6],"tree_param":{"num_deleted":"0","num_feature":"20","num_nodes":"15","size_leaf_vector":"1"}},{"base_weights":[-8.090142E-9,-4.7183186E-3,1.8533377E-5,-1.4164378E-2,-1.0100652E-3,2.1375003E-4,-2.2270999E-4,-4.873896E-5,-3.743381E-4,-5.0219598E-5,6.065956E-6,1.7208109E-5,1.7354216E-6,-2.9010575E-6,1.2885656E-5],"categories":[],"categories_nodes":[],"categories_segments":[],"categories_sizes":[],"default_left":[0,0,0,0,0,0,0,0,0,0,0,0,0,0,0],"id":45,"left_children":[1,3,5,7,9,11,13,-1,-1,-1,-1,-1,-1,-1,-1],"loss_changes":[1.4786719E-1,2.3173347E-1,7.9288535E-2,4.0300122E-1,3.0823912E-2,5.638822E-2,7.6698884E-2,0E0,0E0,0E0,0E0,0E0,0E0,0E0,0E0],"parents":[2147483647,0,0,1,1,2,2,3,3,4,4,5,5,6,6],"right_children":[2,4,6,8,10,12,14,-1,-1,-1,-1,-1,-1,-1,-1],"split_conditions":[-2.8324327E0,-2.1411278E0,1.1970674E-1,-2.3180037E0,-2.1561248E0,-2.1295345E0,2.1590645E0,-4.873896E-5,-3.743381E-4,-5.0219598E-5,6.065956E-6,1.7208109E-5,1.7354216E-6,-2.9010575E-6,1.2885656E-5],"split_indices":[3,7,9,2,9,6,7,0,0,0,0,0,0,0,0],"split_type":[0,0,0,0,0,0,0,0,0,0,0,0,0,0,0],"sum_hessian":[1.69021E6,6.615E3,1.683595E6,1.864E3,4.751E3,9.30569E5,7.53026E5,1.333E3,5.31E2,1.364E3,3.387E3,2.4181E4,9.06388E5,7.20879E5,3.2147E4],"tree_param":{"num_deleted":"0","num_feature":"20","num_nodes":"15","size_leaf_vector":"1"}},{"base_weights":[-8.308991E-9,-4.6712058E-3,1.834802E-5,-1.4022961E-2,-9.999737E-4,3.0324486E-4,-1.4562451E-4,-6.9896036E-5,-4.4554714E-4,-4.9717768E-5,6.005314E-6,7.2705393E-6,-8.18346E-9,5.7554924E-5,-1.7342193E-6],"categories":[],"categories_nodes":[],"categories_segments":[],"categories_sizes":[],"default_left":[0,0,0,0,0,0,0,0,0,0,0,0,0,0,0],"id":46,"left_children":[1,3,5,7,9,11,13,-1,-1,-1,-1,-1,-1,-1,-1],"loss_changes":[1.4492899E-1,2.2712955E-1,7.864966E-2,4.0018E-1,3.0210936E-2,7.925439E-2,1.7528592E-1,0E0,0E0,0E0,0E0,0E0,0E0,0E0,0E0],"parents":[2147483647,0,0,1,1,2,2,3,3,4,4,5,5,6,6],"right_children":[2,4,6,8,10,12,14,-1,-1,-1,-1,-1,-1,-1,-1],"split_conditions":[-2.8324327E0,-2.1411278E0,-3.4972626E-1,-1.0535691E0,-2.1561248E0,-6.329614E-1,-1.9601961E0,-6.9896036E-5,-4.4554714E-4,-4.9717768E-5,6.005314E-6,7.2705393E-6,-8.18346E-9,5.7554924E-5,-1.7342193E-6],"split_indices":[3,7,0,10,9,4,7,0,0,0,0,0,0,0,0],"split_type":[0,0,0,0,0,0,0,0,0,0,0,0,0,0,0],"sum_hessian":[1.69021E6,6.615E3,1.683595E6,1.864E3,4.751E3,6.15019E5,1.068576E6,1.516E3,3.48E2,1.364E3,3.387E3,2.56919E5,3.581E5,5.009E3,1.063567E6],"tree_param":{"num_deleted":"0","num_feature":"20","num_nodes":"15","size_leaf_vector":"1"}},{"base_weights":[-8.511847E-9,-4.624578E-3,1.8164586E-5,-1.3071085E-2,-6.361219E-4,4.8573097E-4,-8.0007485E-5,-4.3862314E-5,-3.4394168E-4,1.7164237E-5,-2.8522196E-5,9.709777E-6,7.9382073E-7,6.1952735E-5,-9.626705E-7],"categories":[],"categories_nodes":[],"categories_segments":[],"categories_sizes":[],"default_left":[0,0,0,0,0,0,0,0,0,0,0,0,0,0,0],"id":47,"left_children":[1,3,5,7,9,11,13,-1,-1,-1,-1,-1,-1,-1,-1],"loss_changes":[1.4205007E-1,2.2287497E-1,7.728039E-2,3.9281783E-1,2.3439446E-2,5.7606503E-2,1.4197436E-1,0E0,0E0,0E0,0E0,0E0,0E0,0E0,0E0],"parents":[2147483647,0,0,1,1,2,2,3,3,4,4,5,5,6,6],"right_children":[2,4,6,8,10,12,14,-1,-1,-1,-1,-1,-1,-1,-1],"split_conditions":[-2.8324327E0,-2.0420144E0,-9.073524E-1,-2.3180037E0,-1.6067371E0,-7.904078E-1,-2.4968882E0,-4.3862314E-5,-3.4394168E-4,1.7164237E-5,-2.8522196E-5,9.709777E-6,7.9382073E-7,6.1952735E-5,-9.626705E-7],"split_indices":[3,7,0,2,1,4,9,0,0,0,0,0,0,0,0],"split_type":[0,0,0,0,0,0,0,0,0,0,0,0,0,0,0],"sum_hessian":[1.69021E6,6.615E3,1.683595E6,2.121E3,4.494E3,2.92152E5,1.391443E6,1.508E3,6.13E2,2.18E3,2.314E3,1.33149E5,1.59003E5,3.595E3,1.387848E6],"tree_param":{"num_deleted":"0","num_feature":"20","num_nodes":"15","size_leaf_vector":"1"}},{"base_weights":[-8.628531E-9,-4.578393E-3,1.7982975E-5,-1.1602775E-2,1.5068005E-4,2.982734E-4,-1.4333833E-4,-1.2386187E-5,-1.893467E-4,-5.4964057E-5,1.5132336E-5,7.1473855E-6,-5.208918E-9,5.6812172E-5,-1.707751E-6],"categories":[],"categories_nodes":[],"categories_segments":[],"categories_sizes":[],"default_left":[0,0,0,0,0,0,0,0,0,0,0,0,0,0,0],"id":48,"left_children":[1,3,5,7,9,11,13,-1,-1,-1,-1,-1,-1,-1,-1],"loss_changes":[1.3922694E-1,2.1977744E-1,7.6126896E-2,2.0225906E-1,3.0439897E-2,7.6531515E-2,1.7076711E-1,0E0,0E0,0E0,0E0,0E0,0E0,0E0,0E0],"parents":[2147483647,0,0,1,1,2,2,3,3,4,4,5,5,6,6],"right_children":[2,4,6,8,10,12,14,-1,-1,-1,-1,-1,-1,-1,-1],"split_conditions":[-2.8324327E0,-2.2979743E0,-3.4972626E-1,-1.9765942E0,-2.0735502E0,-6.329614E-1,-1.9601961E0,-1.2386187E-5,-1.893467E-4,-5.4964057E-5,1.5132336E-5,7.1473855E-6,-5.208918E-9,5.6812172E-5,-1.707751E-6],"split_indices":[3,9,0,1,17,4,7,0,0,0,0,0,0,0,0],"split_type":[0,0,0,0,0,0,0,0,0,0,0,0,0,0,0],"sum_hessian":[1.69021E6,6.615E3,1.683595E6,2.661E3,3.954E3,6.15019E5,1.068576E6,1.103E3,1.558E3,7.68E2,3.186E3,2.56919E5,3.581E5,5.009E3,1.063567E6],"tree_param":{"num_deleted":"0","num_feature":"20","num_nodes":"15","size_leaf_vector":"1"}},{"base_weights":[-8.6817895E-9,-4.5326455E-3,1.7803148E-5,-1.3670901E-2,-9.4523444E-4,2.0778221E-4,-2.1696778E-4,-1.7261775E-5,-3.111296E-4,-4.7797344E-5,5.999361E-6,3.4318196E-5,1.8967195E-6,-2.837282E-6,1.2800611E-5],"categories":[],"categories_nodes":[],"categories_segments":[],"categories_sizes":[],"default_left":[0,0,0,0,0,0,0,0,0,0,0,0,0,0,0],"id":49,"left_children":[1,3,5,7,9,11,13,-1,-1,-1,-1,-1,-1,-1,-1],"loss_changes":[1.3645853E-1,2.1687728E-1,7.509106E-2,3.885015E-1,2.8158262E-2,5.4333653E-2,7.5259626E-2,0E0,0E0,0E0,0E0,0E0,0E0,0E0,0E0],"parents":[2147483647,0,0,1,1,2,2,3,3,4,4,5,5,6,6],"right_children":[2,4,6,8,10,12,14,-1,-1,-1,-1,-1,-1,-1,-1],"split_conditions":[-2.8324327E0,-2.1411278E0,1.1970674E-1,-1.9025694E0,-2.1561248E0,-2.8296402E0,2.1590645E0,-1.7261775E-5,-3.111296E-4,-4.7797344E-5,5.999361E-6,3.4318196E-5,1.8967195E-6,-2.837282E-6,1.2800611E-5],"split_indices":[3,7,9,1,9,9,7,0,0,0,0,0,0,0,0],"split_type":[0,0,0,0,0,0,0,0,0,0,0,0,0,0,0],"sum_hessian":[1.69021E6,6.615E3,1.683595E6,1.864E3,4.751E3,9.30569E5,7.53026E5,1.107E3,7.57E2,1.364E3,3.387E3,5.197E3,9.25372E5,7.20879E5,3.2147E4],"tree_param":{"num_deleted":"0","num_feature":"20","num_nodes":"15","size_leaf_vector":"1"}}]},"name":"gbtree"},"learner_model_param":{"base_score":"1.348017E-4","boost_from_average":"1","num_class":"0","num_feature":"20","num_target":"1"},"objective":{"name":"reg:squarederror","reg_loss_param":{"scale_pos_weight":"1"}}},"version":[2,1,1]}