{"learner":{"attributes":{"scikit_learn":"{\"_estimator_type\": \"regressor\"}"},"feature_names":["Momentum_10","Momentum_30","Momentum_60","Momentum_120","Momentum_300","RSI_10","RSI_30","RSI_60","RSI_120","RSI_300","BB_10","BB_30","BB_60","BB_120","BB_300","MRC_10","MRC_30","MRC_60","MRC_120","MRC_300"],"feature_types":["float","float","float","float","float","float","float","float","float","float","float","float","float","float","float","float","float","float","float","float"],"gradient_booster":{"model":{"gbtree_model_param":{"num_parallel_tree":"1","num_trees":"50"},"iteration_indptr":[0,1,2,3,4,5,6,7,8,9,10,11,12,13,14,15,16,17,18,19,20,21,22,23,24,25,26,27,28,29,30,31,32,33,34,35,36,37,38,39,40,41,42,43,44,45,46,47,48,49,50],"tree_info":[0,0,0,0,0,0,0,0,0,0,0,0,0,0,0,0,0,0,0,0,0,0,0,0,0,0,0,0,0,0,0,0,0,0,0,0,0,0,0,0,0,0,0,0,0,0,0,0,0,0],"trees":[{"base_weights":[1.8500958E-11,-4.06233E-3,1.5963691E-5,1.1082174E-3,-7.55679E-3,4.8290033E-4,-4.4696244E-5,1.0106305E-4,-6.243793E-6,-2.2757617E-4,-2.6720958E-5,8.579557E-6,2.159862E-6,-6.020269E-7,1.684499E-5],"categories":[],"categories_nodes":[],"categories_segments":[],"categories_sizes":[],"default_left":[0,0,0,0,0,0,0,0,0,0,0,0,0,0,0],"id":0,"left_children":[1,3,5,7,9,11,13,-1,-1,-1,-1,-1,-1,-1,-1],"loss_changes":[1.0960975E-1,1.1954807E-1,4.768678E-2,4.1616175E-2,2.9308376E-1,1.9377641E-2,3.99532E-2,0E0,0E0,0E0,0E0,0E0,0E0,0E0,0E0],"parents":[2147483647,0,0,1,1,2,2,3,3,4,4,5,5,6,6],"right_children":[2,4,6,8,10,12,14,-1,-1,-1,-1,-1,-1,-1,-1],"split_conditions":[-2.8324327E0,-1.9025694E0,-1.1595079E0,-2.3437662E0,-1.9601961E0,-1.0618691E0,2.6024158E0,1.0106305E-4,-6.243793E-6,-2.2757617E-4,-2.6720958E-5,8.579557E-6,2.159862E-6,-6.020269E-7,1.684499E-5],"split_indices":[3,1,6,19,7,4,7,0,0,0,0,0,0,0,0],"split_type":[0,0,0,0,0,0,0,0,0,0,0,0,0,0,0],"sum_hessian":[1.69021E6,6.615E3,1.683595E6,2.668E3,3.947E3,1.93569E5,1.490026E6,4.3E2,2.238E3,9.59E2,2.988E3,8.048E4,1.13089E5,1.476784E6,1.3242E4],"tree_param":{"num_deleted":"0","num_feature":"20","num_nodes":"15","size_leaf_vector":"1"}},{"base_weights":[-9.8724265E-11,-4.0217307E-3,1.5804031E-5,1.0971708E-3,-7.481287E-3,4.7807134E-4,-4.4249307E-5,1.0005476E-4,-6.1813826E-6,-2.3519428E-4,-2.9404478E-5,8.493763E-6,2.1382625E-6,-6.308805E-7,1.3541744E-5],"categories":[],"categories_nodes":[],"categories_segments":[],"categories_sizes":[],"default_left":[0,0,0,0,0,0,0,0,0,0,0,0,0,0,0],"id":1,"left_children":[1,3,5,7,9,11,13,-1,-1,-1,-1,-1,-1,-1,-1],"loss_changes":[1.0742981E-1,1.171718E-1,4.673782E-2,4.078983E-2,2.874503E-1,1.8992033E-2,3.9254174E-2,0E0,0E0,0E0,0E0,0E0,0E0,0E0,0E0],"parents":[2147483647,0,0,1,1,2,2,3,3,4,4,5,5,6,6],"right_children":[2,4,6,8,10,12,14,-1,-1,-1,-1,-1,-1,-1,-1],"split_conditions":[-2.8324327E0,-1.9025694E0,-1.1595079E0,-2.3437662E0,-2.0420144E0,-1.0618691E0,2.4095209E0,1.0005476E-4,-6.1813826E-6,-2.3519428E-4,-2.9404478E-5,8.493763E-6,2.1382625E-6,-6.308805E-7,1.3541744E-5],"split_indices":[3,1,6,19,7,4,7,0,0,0,0,0,0,0,0],"split_type":[0,0,0,0,0,0,0,0,0,0,0,0,0,0,0],"sum_hessian":[1.69021E6,6.615E3,1.683595E6,2.668E3,3.947E3,1.93569E5,1.490026E6,4.3E2,2.238E3,8.7E2,3.077E3,8.048E4,1.13089E5,1.470221E6,1.9805E4],"tree_param":{"num_deleted":"0","num_feature":"20","num_nodes":"15","size_leaf_vector":"1"}},{"base_weights":[-1.7385399E-10,-3.9815395E-3,1.5646016E-5,1.0862343E-3,-7.4065407E-3,4.7329074E-4,-4.3806802E-5,9.905654E-5,-6.119596E-6,-2.2314409E-4,-2.615989E-5,8.408826E-6,2.1168812E-6,-5.90328E-7,1.6541144E-5],"categories":[],"categories_nodes":[],"categories_segments":[],"categories_sizes":[],"default_left":[0,0,0,0,0,0,0,0,0,0,0,0,0,0,0],"id":2,"left_children":[1,3,5,7,9,11,13,-1,-1,-1,-1,-1,-1,-1,-1],"loss_changes":[1.0529331E-1,1.1484285E-1,4.5807753E-2,3.99799E-2,2.8189555E-1,1.8614098E-2,3.8521092E-2,0E0,0E0,0E0,0E0,0E0,0E0,0E0,0E0],"parents":[2147483647,0,0,1,1,2,2,3,3,4,4,5,5,6,6],"right_children":[2,4,6,8,10,12,14,-1,-1,-1,-1,-1,-1,-1,-1],"split_conditions":[-2.8324327E0,-1.9025694E0,-1.1595079E0,-2.3437662E0,-1.9601961E0,-1.0618691E0,2.6024158E0,9.905654E-5,-6.119596E-6,-2.2314409E-4,-2.615989E-5,8.408826E-6,2.1168812E-6,-5.90328E-7,1.6541144E-5],"split_indices":[3,1,6,19,7,4,7,0,0,0,0,0,0,0,0],"split_type":[0,0,0,0,0,0,0,0,0,0,0,0,0,0,0],"sum_hessian":[1.69021E6,6.615E3,1.683595E6,2.668E3,3.947E3,1.93569E5,1.490026E6,4.3E2,2.238E3,9.59E2,2.988E3,8.048E4,1.13089E5,1.476784E6,1.3242E4],"tree_param":{"num_deleted":"0","num_feature":"20","num_nodes":"15","size_leaf_vector":"1"}},{"base_weights":[-2.181662E-10,-3.9417474E-3,1.5489602E-5,1.0754068E-3,-7.3325387E-3,4.6855785E-4,-4.3368684E-5,9.8068274E-5,-6.058428E-6,-2.3061613E-4,-2.8792057E-5,8.324739E-6,2.0957127E-6,-6.18668E-7,1.3297699E-5],"categories":[],"categories_nodes":[],"categories_segments":[],"categories_sizes":[],"default_left":[0,0,0,0,0,0,0,0,0,0,0,0,0,0,0],"id":3,"left_children":[1,3,5,7,9,11,13,-1,-1,-1,-1,-1,-1,-1,-1],"loss_changes":[1.031992E-1,1.1256009E-1,4.489617E-2,3.9186057E-2,2.7647838E-1,1.8243674E-2,3.784748E-2,0E0,0E0,0E0,0E0,0E0,0E0,0E0,0E0],"parents":[2147483647,0,0,1,1,2,2,3,3,4,4,5,5,6,6],"right_children":[2,4,6,8,10,12,14,-1,-1,-1,-1,-1,-1,-1,-1],"split_conditions":[-2.8324327E0,-1.9025694E0,-1.1595079E0,-2.3437662E0,-2.0420144E0,-1.0618691E0,2.4095209E0,9.8068274E-5,-6.058428E-6,-2.3061613E-4,-2.8792057E-5,8.324739E-6,2.0957127E-6,-6.18668E-7,1.3297699E-5],"split_indices":[3,1,6,19,7,4,7,0,0,0,0,0,0,0,0],"split_type":[0,0,0,0,0,0,0,0,0,0,0,0,0,0,0],"sum_hessian":[1.69021E6,6.615E3,1.683595E6,2.668E3,3.947E3,1.93569E5,1.490026E6,4.3E2,2.238E3,8.7E2,3.077E3,8.048E4,1.13089E5,1.470221E6,1.9805E4],"tree_param":{"num_deleted":"0","num_feature":"20","num_nodes":"15","size_leaf_vector":"1"}},{"base_weights":[-2.8918898E-10,-3.9023554E-3,1.5334734E-5,1.0646872E-3,-7.259279E-3,4.6387233E-4,-4.2934975E-5,9.708986E-5,-5.9978697E-6,-2.187983E-4,-2.5610556E-5,8.241493E-6,2.0747555E-6,-5.78856E-7,1.6242779E-5],"categories":[],"categories_nodes":[],"categories_segments":[],"categories_sizes":[],"default_left":[0,0,0,0,0,0,0,0,0,0,0,0,0,0,0],"id":4,"left_children":[1,3,5,7,9,11,13,-1,-1,-1,-1,-1,-1,-1,-1],"loss_changes":[1.01146854E-1,1.103228E-1,4.4002745E-2,3.8407963E-2,2.7113456E-1,1.7880637E-2,3.7140314E-2,0E0,0E0,0E0,0E0,0E0,0E0,0E0,0E0],"parents":[2147483647,0,0,1,1,2,2,3,3,4,4,5,5,6,6],"right_children":[2,4,6,8,10,12,14,-1,-1,-1,-1,-1,-1,-1,-1],"split_conditions":[-2.8324327E0,-1.9025694E0,-1.1595079E0,-2.3437662E0,-1.9601961E0,-1.0618691E0,2.6024158E0,9.708986E-5,-5.9978697E-6,-2.187983E-4,-2.5610556E-5,8.241493E-6,2.0747555E-6,-5.78856E-7,1.6242779E-5],"split_indices":[3,1,6,19,7,4,7,0,0,0,0,0,0,0,0],"split_type":[0,0,0,0,0,0,0,0,0,0,0,0,0,0,0],"sum_hessian":[1.69021E6,6.615E3,1.683595E6,2.668E3,3.947E3,1.93569E5,1.490026E6,4.3E2,2.238E3,9.59E2,2.988E3,8.048E4,1.13089E5,1.476784E6,1.3242E4],"tree_param":{"num_deleted":"0","num_feature":"20","num_nodes":"15","size_leaf_vector":"1"}},{"base_weights":[-4.2453766E-10,-3.8633551E-3,1.5181337E-5,1.0540745E-3,-7.186748E-3,4.592337E-4,-4.2505693E-5,9.612122E-5,-5.937918E-6,-2.2612716E-4,-2.819235E-5,8.15908E-6,2.0540085E-6,-6.066934E-7,1.305805E-5],"categories":[],"categories_nodes":[],"categories_segments":[],"categories_sizes":[],"default_left":[0,0,0,0,0,0,0,0,0,0,0,0,0,0,0],"id":5,"left_children":[1,3,5,7,9,11,13,-1,-1,-1,-1,-1,-1,-1,-1],"loss_changes":[9.913521E-2,1.0812988E-1,4.312712E-2,3.764533E-2,2.6592535E-1,1.752482E-2,3.6491204E-2,0E0,0E0,0E0,0E0,0E0,0E0,0E0,0E0],"parents":[2147483647,0,0,1,1,2,2,3,3,4,4,5,5,6,6],"right_children":[2,4,6,8,10,12,14,-1,-1,-1,-1,-1,-1,-1,-1],"split_conditions":[-2.8324327E0,-1.9025694E0,-1.1595079E0,-2.3437662E0,-2.0420144E0,-1.0618691E0,2.4095209E0,9.612122E-5,-5.937918E-6,-2.2612716E-4,-2.819235E-5,8.15908E-6,2.0540085E-6,-6.066934E-7,1.305805E-5],"split_indices":[3,1,6,19,7,4,7,0,0,0,0,0,0,0,0],"split_type":[0,0,0,0,0,0,0,0,0,0,0,0,0,0,0],"sum_hessian":[1.69021E6,6.615E3,1.683595E6,2.668E3,3.947E3,1.93569E5,1.490026E6,4.3E2,2.238E3,8.7E2,3.077E3,8.048E4,1.13089E5,1.470221E6,1.9805E4],"tree_param":{"num_deleted":"0","num_feature":"20","num_nodes":"15","size_leaf_vector":"1"}},{"base_weights":[-4.6365017E-10,-3.8247465E-3,1.5029578E-5,1.0435676E-3,-7.1149454E-3,4.546414E-4,-4.2080577E-5,9.516223E-5,-5.878565E-6,-2.145372E-4,-2.5072708E-5,7.581784E-6,1.6194497E-6,-5.676081E-7,1.5949792E-5],"categories":[],"categories_nodes":[],"categories_segments":[],"categories_sizes":[],"default_left":[0,0,0,0,0,0,0,0,0,0,0,0,0,0,0],"id":6,"left_children":[1,3,5,7,9,11,13,-1,-1,-1,-1,-1,-1,-1,-1],"loss_changes":[9.7163685E-2,1.0598067E-1,4.2268887E-2,3.6897834E-2,2.6078427E-1,1.7197452E-2,3.580903E-2,0E0,0E0,0E0,0E0,0E0,0E0,0E0,0E0],"parents":[2147483647,0,0,1,1,2,2,3,3,4,4,5,5,6,6],"right_children":[2,4,6,8,10,12,14,-1,-1,-1,-1,-1,-1,-1,-1],"split_conditions":[-2.8324327E0,-1.9025694E0,-1.1595079E0,-2.3437662E0,-1.9601961E0,-9.254088E-1,2.6024158E0,9.516223E-5,-5.878565E-6,-2.145372E-4,-2.5072708E-5,7.581784E-6,1.6194497E-6,-5.676081E-7,1.5949792E-5],"split_indices":[3,1,6,19,7,4,7,0,0,0,0,0,0,0,0],"split_type":[0,0,0,0,0,0,0,0,0,0,0,0,0,0,0],"sum_hessian":[1.69021E6,6.615E3,1.683595E6,2.668E3,3.947E3,1.93569E5,1.490026E6,4.3E2,2.238E3,9.59E2,2.988E3,9.5024E4,9.8545E4,1.476784E6,1.3242E4],"tree_param":{"num_deleted":"0","num_feature":"20","num_nodes":"15","size_leaf_vector":"1"}},{"base_weights":[-5.488542E-10,-3.7865215E-3,1.48792815E-5,1.0331653E-3,-7.043856E-3,4.5009502E-4,-4.1659776E-5,9.4212824E-5,-5.819806E-6,-2.2172558E-4,-2.7605087E-5,8.0016725E-6,2.0096054E-6,-5.9495005E-7,1.2822719E-5],"categories":[],"categories_nodes":[],"categories_segments":[],"categories_sizes":[],"default_left":[0,0,0,0,0,0,0,0,0,0,0,0,0,0,0],"id":7,"left_children":[1,3,5,7,9,11,13,-1,-1,-1,-1,-1,-1,-1,-1],"loss_changes":[9.523126E-2,1.03874065E-1,4.1427735E-2,3.6165185E-2,2.557751E-1,1.6882058E-2,3.5183534E-2,0E0,0E0,0E0,0E0,0E0,0E0,0E0,0E0],"parents":[2147483647,0,0,1,1,2,2,3,3,4,4,5,5,6,6],"right_children":[2,4,6,8,10,12,14,-1,-1,-1,-1,-1,-1,-1,-1],"split_conditions":[-2.8324327E0,-1.9025694E0,-1.1595079E0,-2.3437662E0,-2.0420144E0,-1.0618691E0,2.4095209E0,9.4212824E-5,-5.819806E-6,-2.2172558E-4,-2.7605087E-5,8.0016725E-6,2.0096054E-6,-5.9495005E-7,1.2822719E-5],"split_indices":[3,1,6,19,7,4,7,0,0,0,0,0,0,0,0],"split_type":[0,0,0,0,0,0,0,0,0,0,0,0,0,0,0],"sum_hessian":[1.69021E6,6.615E3,1.683595E6,2.668E3,3.947E3,1.93569E5,1.490026E6,4.3E2,2.238E3,8.7E2,3.077E3,8.048E4,1.13089E5,1.470221E6,1.9805E4],"tree_param":{"num_deleted":"0","num_feature":"20","num_nodes":"15","size_leaf_vector":"1"}},{"base_weights":[-6.102651E-10,-3.7486807E-3,1.4730517E-5,1.0228667E-3,-6.973481E-3,4.455941E-4,-4.1243155E-5,9.327289E-5,-5.7616353E-6,-2.103591E-4,-2.4546105E-5,7.4351215E-6,1.5831598E-6,-5.5657875E-7,1.5662088E-5],"categories":[],"categories_nodes":[],"categories_segments":[],"categories_sizes":[],"default_left":[0,0,0,0,0,0,0,0,0,0,0,0,0,0,0],"id":8,"left_children":[1,3,5,7,9,11,13,-1,-1,-1,-1,-1,-1,-1,-1],"loss_changes":[9.3337364E-2,1.01809435E-1,4.0603332E-2,3.544708E-2,2.508291E-1,1.6566638E-2,3.452547E-2,0E0,0E0,0E0,0E0,0E0,0E0,0E0,0E0],"parents":[2147483647,0,0,1,1,2,2,3,3,4,4,5,5,6,6],"right_children":[2,4,6,8,10,12,14,-1,-1,-1,-1,-1,-1,-1,-1],"split_conditions":[-2.8324327E0,-1.9025694E0,-1.1595079E0,-2.3437662E0,-1.9601961E0,-9.254088E-1,2.6024158E0,9.327289E-5,-5.7616353E-6,-2.103591E-4,-2.4546105E-5,7.4351215E-6,1.5831598E-6,-5.5657875E-7,1.5662088E-5],"split_indices":[3,1,6,19,7,4,7,0,0,0,0,0,0,0,0],"split_type":[0,0,0,0,0,0,0,0,0,0,0,0,0,0,0],"sum_hessian":[1.69021E6,6.615E3,1.683595E6,2.668E3,3.947E3,1.93569E5,1.490026E6,4.3E2,2.238E3,9.59E2,2.988E3,9.5024E4,9.8545E4,1.476784E6,1.3242E4],"tree_param":{"num_deleted":"0","num_feature":"20","num_nodes":"15","size_leaf_vector":"1"}},{"base_weights":[-7.27901E-10,-3.7112162E-3,1.45831755E-5,6.7625963E-4,-7.1543893E-3,4.4113823E-4,-4.0830768E-5,8.919982E-5,-8.07684E-6,-2.3479544E-4,-2.7747461E-5,7.847307E-6,1.966152E-6,-5.834352E-7,1.2591628E-5],"categories":[],"categories_nodes":[],"categories_segments":[],"categories_sizes":[],"default_left":[0,0,0,0,0,0,0,0,0,0,0,0,0,0,0],"id":9,"left_children":[1,3,5,7,9,11,13,-1,-1,-1,-1,-1,-1,-1,-1],"loss_changes":[9.1481045E-2,9.9951684E-2,3.979534E-2,3.560587E-2,2.649793E-1,1.6262874E-2,3.392272E-2,0E0,0E0,0E0,0E0,0E0,0E0,0E0,0E0],"parents":[2147483647,0,0,1,1,2,2,3,3,4,4,5,5,6,6],"right_children":[2,4,6,8,10,12,14,-1,-1,-1,-1,-1,-1,-1,-1],"split_conditions":[-2.8324327E0,-1.840366E0,-1.1595079E0,-2.3437662E0,-2.0420144E0,-1.0618691E0,2.4095209E0,8.919982E-5,-8.07684E-6,-2.3479544E-4,-2.7747461E-5,7.847307E-6,1.966152E-6,-5.834352E-7,1.2591628E-5],"split_indices":[3,1,6,19,7,4,7,0,0,0,0,0,0,0,0],"split_type":[0,0,0,0,0,0,0,0,0,0,0,0,0,0,0],"sum_hessian":[1.69021E6,6.615E3,1.683595E6,2.909E3,3.706E3,1.93569E5,1.490026E6,4.43E2,2.466E3,7.83E2,2.923E3,8.048E4,1.13089E5,1.470221E6,1.9805E4],"tree_param":{"num_deleted":"0","num_feature":"20","num_nodes":"15","size_leaf_vector":"1"}},{"base_weights":[-7.6633055E-10,-3.6741314E-3,1.4437405E-5,-7.870537E-3,-1.3264586E-4,4.367269E-4,-4.04224E-5,5.76869E-6,-1.4953989E-4,-4.2253672E-5,1.22658175E-5,7.291301E-6,1.5476667E-6,-5.457642E-7,1.5379574E-5],"categories":[],"categories_nodes":[],"categories_segments":[],"categories_sizes":[],"default_left":[0,0,0,0,0,0,0,0,0,0,0,0,0,0,0],"id":10,"left_children":[1,3,5,7,9,11,13,-1,-1,-1,-1,-1,-1,-1,-1],"loss_changes":[8.966191E-2,9.832271E-2,3.9003413E-2,1.8119448E-1,1.9970577E-2,1.5958972E-2,3.328791E-2,0E0,0E0,0E0,0E0,0E0,0E0,0E0,0E0],"parents":[2147483647,0,0,1,1,2,2,3,3,4,4,5,5,6,6],"right_children":[2,4,6,8,10,12,14,-1,-1,-1,-1,-1,-1,-1,-1],"split_conditions":[-2.8324327E0,-2.1561248E0,-1.1595079E0,-1.9025694E0,-1.9402552E0,-9.254088E-1,2.6024158E0,5.76869E-6,-1.4953989E-4,-4.2253672E-5,1.22658175E-5,7.291301E-6,1.5476667E-6,-5.457642E-7,1.5379574E-5],"split_indices":[3,9,6,1,17,4,7,0,0,0,0,0,0,0,0],"split_type":[0,0,0,0,0,0,0,0,0,0,0,0,0,0,0],"sum_hessian":[1.69021E6,6.615E3,1.683595E6,3.027E3,3.588E3,1.93569E5,1.490026E6,1.381E3,1.646E3,8.94E2,2.694E3,9.5024E4,9.8545E4,1.476784E6,1.3242E4],"tree_param":{"num_deleted":"0","num_feature":"20","num_nodes":"15","size_leaf_vector":"1"}},{"base_weights":[-8.495363E-10,-3.6374165E-3,1.4293044E-5,3.6249595E-4,-7.2948486E-3,4.3235967E-4,-4.0018167E-5,8.622319E-5,-1.0295373E-5,-2.4901627E-4,-2.7978045E-5,7.695922E-6,1.923628E-6,-5.7214265E-7,1.23647005E-5],"categories":[],"categories_nodes":[],"categories_segments":[],"categories_sizes":[],"default_left":[0,0,0,0,0,0,0,0,0,0,0,0,0,0,0],"id":11,"left_children":[1,3,5,7,9,11,13,-1,-1,-1,-1,-1,-1,-1,-1],"loss_changes":[8.78789E-2,9.679081E-2,3.822725E-2,3.635389E-2,2.735711E-1,1.5666392E-2,3.2707088E-2,0E0,0E0,0E0,0E0,0E0,0E0,0E0,0E0],"parents":[2147483647,0,0,1,1,2,2,3,3,4,4,5,5,6,6],"right_children":[2,4,6,8,10,12,14,-1,-1,-1,-1,-1,-1,-1,-1],"split_conditions":[-2.8324327E0,-1.7848997E0,-1.1595079E0,-2.3437662E0,-2.0420144E0,-1.0618691E0,2.4095209E0,8.622319E-5,-1.0295373E-5,-2.4901627E-4,-2.7978045E-5,7.695922E-6,1.923628E-6,-5.7214265E-7,1.23647005E-5],"split_indices":[3,1,6,19,7,4,7,0,0,0,0,0,0,0,0],"split_type":[0,0,0,0,0,0,0,0,0,0,0,0,0,0,0],"sum_hessian":[1.69021E6,6.615E3,1.683595E6,3.16E3,3.455E3,1.93569E5,1.490026E6,4.55E2,2.705E3,7.02E2,2.753E3,8.048E4,1.13089E5,1.470221E6,1.9805E4],"tree_param":{"num_deleted":"0","num_feature":"20","num_nodes":"15","size_leaf_vector":"1"}},{"base_weights":[-9.253922E-10,-3.6010726E-3,1.4150148E-5,-7.737811E-3,-1.0994842E-4,4.2803612E-4,-3.9617953E-5,5.5855476E-6,-1.4694604E-4,-4.175643E-5,1.2402952E-5,7.1502645E-6,1.5129546E-6,-5.351598E-7,1.5102152E-5],"categories":[],"categories_nodes":[],"categories_segments":[],"categories_sizes":[],"default_left":[0,0,0,0,0,0,0,0,0,0,0,0,0,0,0],"id":12,"left_children":[1,3,5,7,9,11,13,-1,-1,-1,-1,-1,-1,-1,-1],"loss_changes":[8.6131565E-2,9.554654E-2,3.746653E-2,1.7477258E-1,1.9707635E-2,1.5373584E-2,3.2094706E-2,0E0,0E0,0E0,0E0,0E0,0E0,0E0,0E0],"parents":[2147483647,0,0,1,1,2,2,3,3,4,4,5,5,6,6],"right_children":[2,4,6,8,10,12,14,-1,-1,-1,-1,-1,-1,-1,-1],"split_conditions":[-2.8324327E0,-2.1561248E0,-1.1595079E0,-1.9025694E0,-1.9402552E0,-9.254088E-1,2.6024158E0,5.5855476E-6,-1.4694604E-4,-4.175643E-5,1.2402952E-5,7.1502645E-6,1.5129546E-6,-5.351598E-7,1.5102152E-5],"split_indices":[3,9,6,1,17,4,7,0,0,0,0,0,0,0,0],"split_type":[0,0,0,0,0,0,0,0,0,0,0,0,0,0,0],"sum_hessian":[1.69021E6,6.615E3,1.683595E6,3.027E3,3.588E3,1.93569E5,1.490026E6,1.381E3,1.646E3,8.94E2,2.694E3,9.5024E4,9.8545E4,1.476784E6,1.3242E4],"tree_param":{"num_deleted":"0","num_feature":"20","num_nodes":"15","size_leaf_vector":"1"}},{"base_weights":[-9.734594E-10,-3.5650877E-3,1.400869E-5,3.699825E-4,-7.1632336E-3,4.2375585E-4,-3.9221733E-5,8.546517E-5,-1.0080183E-5,-2.4520876E-4,-2.7298329E-5,7.5474622E-6,1.8820127E-6,-5.610691E-7,1.21418625E-5],"categories":[],"categories_nodes":[],"categories_segments":[],"categories_sizes":[],"default_left":[0,0,0,0,0,0,0,0,0,0,0,0,0,0,0],"id":13,"left_children":[1,3,5,7,9,11,13,-1,-1,-1,-1,-1,-1,-1,-1],"loss_changes":[8.4418766E-2,9.3678296E-2,3.672095E-2,3.5624463E-2,2.6588398E-1,1.50917955E-2,3.153503E-2,0E0,0E0,0E0,0E0,0E0,0E0,0E0,0E0],"parents":[2147483647,0,0,1,1,2,2,3,3,4,4,5,5,6,6],"right_children":[2,4,6,8,10,12,14,-1,-1,-1,-1,-1,-1,-1,-1],"split_conditions":[-2.8324327E0,-1.7848997E0,-1.1595079E0,-2.3437662E0,-2.0420144E0,-1.0618691E0,2.4095209E0,8.546517E-5,-1.0080183E-5,-2.4520876E-4,-2.7298329E-5,7.5474622E-6,1.8820127E-6,-5.610691E-7,1.21418625E-5],"split_indices":[3,1,6,19,7,4,7,0,0,0,0,0,0,0,0],"split_type":[0,0,0,0,0,0,0,0,0,0,0,0,0,0,0],"sum_hessian":[1.69021E6,6.615E3,1.683595E6,3.16E3,3.455E3,1.93569E5,1.490026E6,4.55E2,2.705E3,7.02E2,2.753E3,8.048E4,1.13089E5,1.470221E6,1.9805E4],"tree_param":{"num_deleted":"0","num_feature":"20","num_nodes":"15","size_leaf_vector":"1"}},{"base_weights":[-1.1363843E-9,-3.5294667E-3,1.3868547E-5,-7.60739E-3,-8.798373E-5,4.1951833E-4,-3.882959E-5,5.4043867E-6,-1.4439625E-4,-4.1267253E-5,1.2533008E-5,7.011961E-6,1.4790055E-6,-5.247625E-7,1.4829732E-5],"categories":[],"categories_nodes":[],"categories_segments":[],"categories_sizes":[],"default_left":[0,0,0,0,0,0,0,0,0,0,0,0,0,0,0],"id":14,"left_children":[1,3,5,7,9,11,13,-1,-1,-1,-1,-1,-1,-1,-1],"loss_changes":[8.274022E-2,9.284896E-2,3.5990227E-2,1.6857015E-1,1.9447148E-2,1.4809679E-2,3.0944271E-2,0E0,0E0,0E0,0E0,0E0,0E0,0E0,0E0],"parents":[2147483647,0,0,1,1,2,2,3,3,4,4,5,5,6,6],"right_children":[2,4,6,8,10,12,14,-1,-1,-1,-1,-1,-1,-1,-1],"split_conditions":[-2.8324327E0,-2.1561248E0,-1.1595079E0,-1.9025694E0,-1.9402552E0,-9.254088E-1,2.6024158E0,5.4043867E-6,-1.4439625E-4,-4.1267253E-5,1.2533008E-5,7.011961E-6,1.4790055E-6,-5.247625E-7,1.4829732E-5],"split_indices":[3,9,6,1,17,4,7,0,0,0,0,0,0,0,0],"split_type":[0,0,0,0,0,0,0,0,0,0,0,0,0,0,0],"sum_hessian":[1.69021E6,6.615E3,1.683595E6,3.027E3,3.588E3,1.93569E5,1.490026E6,1.381E3,1.646E3,8.94E2,2.694E3,9.5024E4,9.8545E4,1.476784E6,1.3242E4],"tree_param":{"num_deleted":"0","num_feature":"20","num_nodes":"15","size_leaf_vector":"1"}},{"base_weights":[-1.1453121E-9,-3.4941973E-3,1.3729941E-5,-7.531362E-3,-8.711194E-5,4.153232E-4,-3.8441205E-5,5.3503836E-6,-1.4295317E-4,-4.0855044E-5,1.2407724E-5,7.40187E-6,1.8412871E-6,-5.502108E-7,1.1923041E-5],"categories":[],"categories_nodes":[],"categories_segments":[],"categories_sizes":[],"default_left":[0,0,0,0,0,0,0,0,0,0,0,0,0,0,0],"id":15,"left_children":[1,3,5,7,9,11,13,-1,-1,-1,-1,-1,-1,-1,-1],"loss_changes":[8.109486E-2,9.100221E-2,3.527401E-2,1.6521767E-1,1.9060515E-2,1.4538273E-2,3.040497E-2,0E0,0E0,0E0,0E0,0E0,0E0,0E0,0E0],"parents":[2147483647,0,0,1,1,2,2,3,3,4,4,5,5,6,6],"right_children":[2,4,6,8,10,12,14,-1,-1,-1,-1,-1,-1,-1,-1],"split_conditions":[-2.8324327E0,-2.1561248E0,-1.1595079E0,-1.9025694E0,-1.9402552E0,-1.0618691E0,2.4095209E0,5.3503836E-6,-1.4295317E-4,-4.0855044E-5,1.2407724E-5,7.40187E-6,1.8412871E-6,-5.502108E-7,1.1923041E-5],"split_indices":[3,9,6,1,17,4,7,0,0,0,0,0,0,0,0],"split_type":[0,0,0,0,0,0,0,0,0,0,0,0,0,0,0],"sum_hessian":[1.69021E6,6.615E3,1.683595E6,3.027E3,3.588E3,1.93569E5,1.490026E6,1.381E3,1.646E3,8.94E2,2.694E3,8.048E4,1.13089E5,1.470221E6,1.9805E4],"tree_param":{"num_deleted":"0","num_feature":"20","num_nodes":"15","size_leaf_vector":"1"}},{"base_weights":[-1.2683715E-9,-3.4592804E-3,1.3592605E-5,3.879177E-4,-6.9770855E-3,4.1116998E-4,-3.8056838E-5,8.481472E-5,-9.761061E-6,-2.4017772E-4,-2.6246602E-5,6.876334E-6,1.4458024E-6,-5.1456686E-7,1.4562223E-5],"categories":[],"categories_nodes":[],"categories_segments":[],"categories_sizes":[],"default_left":[0,0,0,0,0,0,0,0,0,0,0,0,0,0,0],"id":16,"left_children":[1,3,5,7,9,11,13,-1,-1,-1,-1,-1,-1,-1,-1],"loss_changes":[7.948223E-2,8.954163E-2,3.457207E-2,3.490509E-2,2.5626266E-1,1.4266461E-2,2.983507E-2,0E0,0E0,0E0,0E0,0E0,0E0,0E0,0E0],"parents":[2147483647,0,0,1,1,2,2,3,3,4,4,5,5,6,6],"right_children":[2,4,6,8,10,12,14,-1,-1,-1,-1,-1,-1,-1,-1],"split_conditions":[-2.8324327E0,-1.7848997E0,-1.1595079E0,-2.3437662E0,-2.0420144E0,-9.254088E-1,2.6024158E0,8.481472E-5,-9.761061E-6,-2.4017772E-4,-2.6246602E-5,6.876334E-6,1.4458024E-6,-5.1456686E-7,1.4562223E-5],"split_indices":[3,1,6,19,7,4,7,0,0,0,0,0,0,0,0],"split_type":[0,0,0,0,0,0,0,0,0,0,0,0,0,0,0],"sum_hessian":[1.69021E6,6.615E3,1.683595E6,3.16E3,3.455E3,1.93569E5,1.490026E6,4.55E2,2.705E3,7.02E2,2.753E3,9.5024E4,9.8545E4,1.476784E6,1.3242E4],"tree_param":{"num_deleted":"0","num_feature":"20","num_nodes":"15","size_leaf_vector":"1"}},{"base_weights":[-1.3796035E-9,-3.4247164E-3,1.3456668E-5,-7.4043926E-3,-6.61533E-5,4.070583E-4,-3.7676284E-5,-7.184079E-7,-1.4583537E-4,-4.0380157E-5,1.2529128E-5,7.25909E-6,1.8014317E-6,-5.395638E-7,1.170816E-5],"categories":[],"categories_nodes":[],"categories_segments":[],"categories_sizes":[],"default_left":[0,0,0,0,0,0,0,0,0,0,0,0,0,0,0],"id":17,"left_children":[1,3,5,7,9,11,13,-1,-1,-1,-1,-1,-1,-1,-1],"loss_changes":[7.790184E-2,8.842892E-2,3.388409E-2,1.5939726E-1,1.8808367E-2,1.4005054E-2,2.9315416E-2,0E0,0E0,0E0,0E0,0E0,0E0,0E0,0E0],"parents":[2147483647,0,0,1,1,2,2,3,3,4,4,5,5,6,6],"right_children":[2,4,6,8,10,12,14,-1,-1,-1,-1,-1,-1,-1,-1],"split_conditions":[-2.8324327E0,-2.1561248E0,-1.1595079E0,-1.840366E0,-1.9402552E0,-1.0618691E0,2.4095209E0,-7.184079E-7,-1.4583537E-4,-4.0380157E-5,1.2529128E-5,7.25909E-6,1.8014317E-6,-5.395638E-7,1.170816E-5],"split_indices":[3,9,6,1,17,4,7,0,0,0,0,0,0,0,0],"split_type":[0,0,0,0,0,0,0,0,0,0,0,0,0,0,0],"sum_hessian":[1.69021E6,6.615E3,1.683595E6,3.027E3,3.588E3,1.93569E5,1.490026E6,1.498E3,1.529E3,8.94E2,2.694E3,8.048E4,1.13089E5,1.470221E6,1.9805E4],"tree_param":{"num_deleted":"0","num_feature":"20","num_nodes":"15","size_leaf_vector":"1"}},{"base_weights":[-1.4709642E-9,-3.3904957E-3,1.33221E-5,-7.330397E-3,-6.549956E-5,4.029878E-4,-3.7299535E-5,5.177855E-6,-1.3911368E-4,-3.997681E-5,1.2403883E-5,6.743335E-6,1.4133309E-6,-5.045704E-7,1.429954E-5],"categories":[],"categories_nodes":[],"categories_segments":[],"categories_sizes":[],"default_left":[0,0,0,0,0,0,0,0,0,0,0,0,0,0,0],"id":18,"left_children":[1,3,5,7,9,11,13,-1,-1,-1,-1,-1,-1,-1,-1],"loss_changes":[7.6352775E-2,8.6670145E-2,3.3209812E-2,1.5639934E-1,1.8434431E-2,1.3743162E-2,2.8765626E-2,0E0,0E0,0E0,0E0,0E0,0E0,0E0,0E0],"parents":[2147483647,0,0,1,1,2,2,3,3,4,4,5,5,6,6],"right_children":[2,4,6,8,10,12,14,-1,-1,-1,-1,-1,-1,-1,-1],"split_conditions":[-2.8324327E0,-2.1561248E0,-1.1595079E0,-1.9025694E0,-1.9402552E0,-9.254088E-1,2.6024158E0,5.177855E-6,-1.3911368E-4,-3.997681E-5,1.2403883E-5,6.743335E-6,1.4133309E-6,-5.045704E-7,1.429954E-5],"split_indices":[3,9,6,1,17,4,7,0,0,0,0,0,0,0,0],"split_type":[0,0,0,0,0,0,0,0,0,0,0,0,0,0,0],"sum_hessian":[1.69021E6,6.615E3,1.683595E6,3.027E3,3.588E3,1.93569E5,1.490026E6,1.381E3,1.646E3,8.94E2,2.694E3,9.5024E4,9.8545E4,1.476784E6,1.3242E4],"tree_param":{"num_deleted":"0","num_feature":"20","num_nodes":"15","size_leaf_vector":"1"}},{"base_weights":[-1.5686119E-9,-3.3566153E-3,1.3188862E-5,4.025864E-4,-6.7939647E-3,3.989579E-4,-3.6926554E-5,8.4188694E-5,-9.484216E-6,-2.3521877E-4,-2.521446E-5,1.3856622E-5,3.2809476E-6,-5.2912293E-7,1.1497152E-5],"categories":[],"categories_nodes":[],"categories_segments":[],"categories_sizes":[],"default_left":[0,0,0,0,0,0,0,0,0,0,0,0,0,0,0],"id":19,"left_children":[1,3,5,7,9,11,13,-1,-1,-1,-1,-1,-1,-1,-1],"loss_changes":[7.4834436E-2,8.5492626E-2,3.2548934E-2,3.4241814E-2,2.4694209E-1,1.3534145E-2,2.82649E-2,0E0,0E0,0E0,0E0,0E0,0E0,0E0,0E0],"parents":[2147483647,0,0,1,1,2,2,3,3,4,4,5,5,6,6],"right_children":[2,4,6,8,10,12,14,-1,-1,-1,-1,-1,-1,-1,-1],"split_conditions":[-2.8324327E0,-1.7848997E0,-1.1595079E0,-2.3437662E0,-2.0420144E0,-2.0735502E0,2.4095209E0,8.4188694E-5,-9.484216E-6,-2.3521877E-4,-2.521446E-5,1.3856622E-5,3.2809476E-6,-5.2912293E-7,1.1497152E-5],"split_indices":[3,1,6,19,7,17,7,0,0,0,0,0,0,0,0],"split_type":[0,0,0,0,0,0,0,0,0,0,0,0,0,0,0],"sum_hessian":[1.69021E6,6.615E3,1.683595E6,3.16E3,3.455E3,1.93569E5,1.490026E6,4.55E2,2.705E3,7.02E2,2.753E3,1.2969E4,1.806E5,1.470221E6,1.9805E4],"tree_param":{"num_deleted":"0","num_feature":"20","num_nodes":"15","size_leaf_vector":"1"}},{"base_weights":[-1.6173237E-9,-3.323077E-3,1.3057019E-5,-7.2067883E-3,-4.550641E-5,3.9496846E-4,-3.6557256E-5,4.9992464E-6,-1.3669126E-4,-3.9515737E-5,1.2517017E-5,7.0735305E-6,1.7265506E-6,-4.9476785E-7,1.4041593E-5],"categories":[],"categories_nodes":[],"categories_segments":[],"categories_sizes":[],"default_left":[0,0,0,0,0,0,0,0,0,0,0,0,0,0,0],"id":20,"left_children":[1,3,5,7,9,11,13,-1,-1,-1,-1,-1,-1,-1,-1],"loss_changes":[7.3346466E-2,8.4215656E-2,3.1901225E-2,1.508115E-1,1.8190347E-2,1.3442785E-2,2.7734518E-2,0E0,0E0,0E0,0E0,0E0,0E0,0E0,0E0],"parents":[2147483647,0,0,1,1,2,2,3,3,4,4,5,5,6,6],"right_children":[2,4,6,8,10,12,14,-1,-1,-1,-1,-1,-1,-1,-1],"split_conditions":[-2.8324327E0,-2.1561248E0,-1.1595079E0,-1.9025694E0,-1.9402552E0,-1.0618691E0,2.6024158E0,4.9992464E-6,-1.3669126E-4,-3.9515737E-5,1.2517017E-5,7.0735305E-6,1.7265506E-6,-4.9476785E-7,1.4041593E-5],"split_indices":[3,9,6,1,17,4,7,0,0,0,0,0,0,0,0],"split_type":[0,0,0,0,0,0,0,0,0,0,0,0,0,0,0],"sum_hessian":[1.69021E6,6.615E3,1.683595E6,3.027E3,3.588E3,1.93569E5,1.490026E6,1.381E3,1.646E3,8.94E2,2.694E3,8.048E4,1.13089E5,1.476784E6,1.3242E4],"tree_param":{"num_deleted":"0","num_feature":"20","num_nodes":"15","size_leaf_vector":"1"}},{"base_weights":[-1.6375897E-9,-3.2898702E-3,1.2926506E-5,4.087806E-4,-6.671857E-3,3.9101884E-4,-3.6191625E-5,8.3446714E-5,-9.286825E-6,-2.4771396E-4,-2.8300285E-5,1.36608705E-5,3.2099138E-6,-5.188833E-7,1.1289946E-5],"categories":[],"categories_nodes":[],"categories_segments":[],"categories_sizes":[],"default_left":[0,0,0,0,0,0,0,0,0,0,0,0,0,0,0],"id":21,"left_children":[1,3,5,7,9,11,13,-1,-1,-1,-1,-1,-1,-1,-1],"loss_changes":[7.188792E-2,8.276085E-2,3.126639E-2,3.3558484E-2,2.4024402E-1,1.3216823E-2,2.7252035E-2,0E0,0E0,0E0,0E0,0E0,0E0,0E0,0E0],"parents":[2147483647,0,0,1,1,2,2,3,3,4,4,5,5,6,6],"right_children":[2,4,6,8,10,12,14,-1,-1,-1,-1,-1,-1,-1,-1],"split_conditions":[-2.8324327E0,-1.7848997E0,-1.1595079E0,-2.3437662E0,-2.1411278E0,-2.0735502E0,2.4095209E0,8.3446714E-5,-9.286825E-6,-2.4771396E-4,-2.8300285E-5,1.36608705E-5,3.2099138E-6,-5.188833E-7,1.1289946E-5],"split_indices":[3,1,6,19,7,17,7,0,0,0,0,0,0,0,0],"split_type":[0,0,0,0,0,0,0,0,0,0,0,0,0,0,0],"sum_hessian":[1.69021E6,6.615E3,1.683595E6,3.16E3,3.455E3,1.93569E5,1.490026E6,4.55E2,2.705E3,6.04E2,2.851E3,1.2969E4,1.806E5,1.470221E6,1.9805E4],"tree_param":{"num_deleted":"0","num_feature":"20","num_nodes":"15","size_leaf_vector":"1"}},{"base_weights":[-1.6875112E-9,-3.2570022E-3,1.2797294E-5,-7.087008E-3,-2.4760358E-5,3.8710868E-4,-3.5829657E-5,-8.1747515E-7,-1.39457E-4,-3.905345E-5,1.2639774E-5,6.525428E-6,1.3115445E-6,-4.477013E-7,1.9810197E-5],"categories":[],"categories_nodes":[],"categories_segments":[],"categories_sizes":[],"default_left":[0,0,0,0,0,0,0,0,0,0,0,0,0,0,0],"id":22,"left_children":[1,3,5,7,9,11,13,-1,-1,-1,-1,-1,-1,-1,-1],"loss_changes":[7.0458665E-2,8.1902646E-2,3.064419E-2,1.4548494E-1,1.7953726E-2,1.3150863E-2,2.6867645E-2,0E0,0E0,0E0,0E0,0E0,0E0,0E0,0E0],"parents":[2147483647,0,0,1,1,2,2,3,3,4,4,5,5,6,6],"right_children":[2,4,6,8,10,12,14,-1,-1,-1,-1,-1,-1,-1,-1],"split_conditions":[-2.8324327E0,-2.1561248E0,-1.1595079E0,-1.840366E0,-1.9402552E0,-9.254088E-1,2.9254148E0,-8.1747515E-7,-1.39457E-4,-3.905345E-5,1.2639774E-5,6.525428E-6,1.3115445E-6,-4.477013E-7,1.9810197E-5],"split_indices":[3,9,6,1,17,4,7,0,0,0,0,0,0,0,0],"split_type":[0,0,0,0,0,0,0,0,0,0,0,0,0,0,0],"sum_hessian":[1.69021E6,6.615E3,1.683595E6,3.027E3,3.588E3,1.93569E5,1.490026E6,1.498E3,1.529E3,8.94E2,2.694E3,9.5024E4,9.8545E4,1.483451E6,6.575E3],"tree_param":{"num_deleted":"0","num_feature":"20","num_nodes":"15","size_leaf_vector":"1"}},{"base_weights":[-1.8246982E-9,-3.2244574E-3,1.2669266E-5,-7.0161847E-3,-2.4520143E-5,6.8771245E-4,-1.3906546E-5,4.8308407E-6,-1.3304572E-4,-3.8663355E-5,1.2513422E-5,1.246076E-5,2.9162518E-6,-2.1957597E-7,1.9612125E-5],"categories":[],"categories_nodes":[],"categories_segments":[],"categories_sizes":[],"default_left":[0,0,0,0,0,0,0,0,0,0,0,0,0,0,0],"id":23,"left_children":[1,3,5,7,9,11,13,-1,-1,-1,-1,-1,-1,-1,-1],"loss_changes":[6.905761E-2,8.027367E-2,3.0203419E-2,1.4280178E-1,1.7596781E-2,1.4103277E-2,2.5758171E-2,0E0,0E0,0E0,0E0,0E0,0E0,0E0,0E0],"parents":[2147483647,0,0,1,1,2,2,3,3,4,4,5,5,6,6],"right_children":[2,4,6,8,10,12,14,-1,-1,-1,-1,-1,-1,-1,-1],"split_conditions":[-2.8324327E0,-2.1561248E0,-1.7226808E0,-1.9025694E0,-1.9402552E0,-1.3546655E0,2.9254148E0,4.8308407E-6,-1.3304572E-4,-3.8663355E-5,1.2513422E-5,1.246076E-5,2.9162518E-6,-2.1957597E-7,1.9612125E-5],"split_indices":[3,9,0,1,17,2,7,0,0,0,0,0,0,0,0],"split_type":[0,0,0,0,0,0,0,0,0,0,0,0,0,0,0],"sum_hessian":[1.69021E6,6.615E3,1.683595E6,3.027E3,3.588E3,6.377E4,1.619825E6,1.381E3,1.646E3,8.94E2,2.694E3,2.6463E4,3.7307E4,1.61325E6,6.575E3],"tree_param":{"num_deleted":"0","num_feature":"20","num_nodes":"15","size_leaf_vector":"1"}},{"base_weights":[-1.9030446E-9,-3.1922362E-3,1.2542569E-5,4.222695E-4,-6.497288E-3,3.814072E-4,-3.5376794E-5,8.282843E-5,-9.025065E-6,-2.4276946E-4,-2.7233786E-5,1.3413681E-5,3.1246477E-6,-5.074014E-7,1.1050639E-5],"categories":[],"categories_nodes":[],"categories_segments":[],"categories_sizes":[],"default_left":[0,0,0,0,0,0,0,0,0,0,0,0,0,0,0],"id":24,"left_children":[1,3,5,7,9,11,13,-1,-1,-1,-1,-1,-1,-1,-1],"loss_changes":[6.768435E-2,7.903832E-2,2.9758848E-2,3.2924548E-2,2.318274E-1,1.2810439E-2,2.61068E-2,0E0,0E0,0E0,0E0,0E0,0E0,0E0,0E0],"parents":[2147483647,0,0,1,1,2,2,3,3,4,4,5,5,6,6],"right_children":[2,4,6,8,10,12,14,-1,-1,-1,-1,-1,-1,-1,-1],"split_conditions":[-2.8324327E0,-1.7848997E0,-1.1595079E0,-2.3437662E0,-2.1411278E0,-2.0735502E0,2.4095209E0,8.282843E-5,-9.025065E-6,-2.4276946E-4,-2.7233786E-5,1.3413681E-5,3.1246477E-6,-5.074014E-7,1.1050639E-5],"split_indices":[3,1,6,19,7,17,7,0,0,0,0,0,0,0,0],"split_type":[0,0,0,0,0,0,0,0,0,0,0,0,0,0,0],"sum_hessian":[1.69021E6,6.615E3,1.683595E6,3.16E3,3.455E3,1.93569E5,1.490026E6,4.55E2,2.705E3,6.04E2,2.851E3,1.2969E4,1.806E5,1.470221E6,1.9805E4],"tree_param":{"num_deleted":"0","num_feature":"20","num_nodes":"15","size_leaf_vector":"1"}},{"base_weights":[-1.9746742E-9,-3.1603435E-3,1.2417168E-5,-6.899556E-3,-4.7299486E-6,6.7716313E-4,-1.3753252E-5,4.655414E-6,-1.307543E-4,-3.821456E-5,1.262793E-5,1.2286694E-5,2.8594034E-6,-2.167871E-7,1.9305544E-5],"categories":[],"categories_nodes":[],"categories_segments":[],"categories_sizes":[],"default_left":[0,0,0,0,0,0,0,0,0,0,0,0,0,0,0],"id":25,"left_children":[1,3,5,7,9,11,13,-1,-1,-1,-1,-1,-1,-1,-1],"loss_changes":[6.633867E-2,7.806552E-2,2.928899E-2,1.3773745E-1,1.7367648E-2,1.3758995E-2,2.4960797E-2,0E0,0E0,0E0,0E0,0E0,0E0,0E0,0E0],"parents":[2147483647,0,0,1,1,2,2,3,3,4,4,5,5,6,6],"right_children":[2,4,6,8,10,12,14,-1,-1,-1,-1,-1,-1,-1,-1],"split_conditions":[-2.8324327E0,-2.1561248E0,-1.7226808E0,-1.9025694E0,-1.9402552E0,-1.3546655E0,2.9254148E0,4.655414E-6,-1.307543E-4,-3.821456E-5,1.262793E-5,1.2286694E-5,2.8594034E-6,-2.167871E-7,1.9305544E-5],"split_indices":[3,9,0,1,17,2,7,0,0,0,0,0,0,0,0],"split_type":[0,0,0,0,0,0,0,0,0,0,0,0,0,0,0],"sum_hessian":[1.69021E6,6.615E3,1.683595E6,3.027E3,3.588E3,6.377E4,1.619825E6,1.381E3,1.646E3,8.94E2,2.694E3,2.6463E4,3.7307E4,1.61325E6,6.575E3],"tree_param":{"num_deleted":"0","num_feature":"20","num_nodes":"15","size_leaf_vector":"1"}},{"base_weights":[-1.9748807E-9,-3.1287628E-3,1.2293066E-5,4.2773748E-4,-6.380779E-3,3.7579096E-4,-3.4929097E-5,8.209758E-5,-8.83803E-6,-2.2372864E-4,-2.2962417E-5,6.359741E-6,1.249002E-6,-5.005317E-7,1.0877497E-5],"categories":[],"categories_nodes":[],"categories_segments":[],"categories_sizes":[],"default_left":[0,0,0,0,0,0,0,0,0,0,0,0,0,0,0],"id":26,"left_children":[1,3,5,7,9,11,13,-1,-1,-1,-1,-1,-1,-1,-1],"loss_changes":[6.501949E-2,7.652205E-2,2.8899204E-2,3.22698E-2,2.256955E-1,1.2635697E-2,2.5299931E-2,0E0,0E0,0E0,0E0,0E0,0E0,0E0,0E0],"parents":[2147483647,0,0,1,1,2,2,3,3,4,4,5,5,6,6],"right_children":[2,4,6,8,10,12,14,-1,-1,-1,-1,-1,-1,-1,-1],"split_conditions":[-2.8324327E0,-1.7848997E0,-1.1595079E0,-2.3437662E0,-2.0420144E0,-9.254088E-1,2.4095209E0,8.209758E-5,-8.83803E-6,-2.2372864E-4,-2.2962417E-5,6.359741E-6,1.249002E-6,-5.005317E-7,1.0877497E-5],"split_indices":[3,1,6,19,7,4,7,0,0,0,0,0,0,0,0],"split_type":[0,0,0,0,0,0,0,0,0,0,0,0,0,0,0],"sum_hessian":[1.69021E6,6.615E3,1.683595E6,3.16E3,3.455E3,1.93569E5,1.490026E6,4.55E2,2.705E3,7.02E2,2.753E3,9.5024E4,9.8545E4,1.470221E6,1.9805E4],"tree_param":{"num_deleted":"0","num_feature":"20","num_nodes":"15","size_leaf_vector":"1"}},{"base_weights":[-2.0593094E-9,-3.0975016E-3,1.2170134E-5,-6.783282E-3,1.301395E-5,6.670069E-4,-1.3610169E-5,4.4820426E-6,-1.2847113E-4,-3.778146E-5,1.27204E-5,1.2111794E-5,2.809864E-6,-2.1412029E-7,1.900376E-5],"categories":[],"categories_nodes":[],"categories_segments":[],"categories_sizes":[],"default_left":[0,0,0,0,0,0,0,0,0,0,0,0,0,0,0],"id":27,"left_children":[1,3,5,7,9,11,13,-1,-1,-1,-1,-1,-1,-1,-1],"loss_changes":[6.3726686E-2,7.585038E-2,2.8422292E-2,1.3278513E-1,1.7135711E-2,1.3395503E-2,2.4188342E-2,0E0,0E0,0E0,0E0,0E0,0E0,0E0,0E0],"parents":[2147483647,0,0,1,1,2,2,3,3,4,4,5,5,6,6],"right_children":[2,4,6,8,10,12,14,-1,-1,-1,-1,-1,-1,-1,-1],"split_conditions":[-2.8324327E0,-2.1561248E0,-1.7226808E0,-1.9025694E0,-1.9402552E0,-1.3546655E0,2.9254148E0,4.4820426E-6,-1.2847113E-4,-3.778146E-5,1.27204E-5,1.2111794E-5,2.809864E-6,-2.1412029E-7,1.900376E-5],"split_indices":[3,9,0,1,17,2,7,0,0,0,0,0,0,0,0],"split_type":[0,0,0,0,0,0,0,0,0,0,0,0,0,0,0],"sum_hessian":[1.69021E6,6.615E3,1.683595E6,3.027E3,3.588E3,6.377E4,1.619825E6,1.381E3,1.646E3,8.94E2,2.694E3,2.6463E4,3.7307E4,1.61325E6,6.575E3],"tree_param":{"num_deleted":"0","num_feature":"20","num_nodes":"15","size_leaf_vector":"1"}},{"base_weights":[-2.1613444E-9,-3.066549E-3,1.2048398E-5,-6.71549E-3,1.2876778E-5,3.7025812E-4,-3.4486777E-5,-5.439775E-6,-1.3694432E-4,-3.740407E-5,1.2593244E-5,1.3117144E-5,3.0264464E-6,-4.9375296E-7,1.0707071E-5],"categories":[],"categories_nodes":[],"categories_segments":[],"categories_sizes":[],"default_left":[0,0,0,0,0,0,0,0,0,0,0,0,0,0,0],"id":28,"left_children":[1,3,5,7,9,11,13,-1,-1,-1,-1,-1,-1,-1,-1],"loss_changes":[6.245943E-2,7.4341714E-2,2.8064465E-2,1.304104E-1,1.6795026E-2,1.2321323E-2,2.4518011E-2,0E0,0E0,0E0,0E0,0E0,0E0,0E0,0E0],"parents":[2147483647,0,0,1,1,2,2,3,3,4,4,5,5,6,6],"right_children":[2,4,6,8,10,12,14,-1,-1,-1,-1,-1,-1,-1,-1],"split_conditions":[-2.8324327E0,-2.1561248E0,-1.1595079E0,-1.7848997E0,-1.9402552E0,-2.0735502E0,2.4095209E0,-5.439775E-6,-1.3694432E-4,-3.740407E-5,1.2593244E-5,1.3117144E-5,3.0264464E-6,-4.9375296E-7,1.0707071E-5],"split_indices":[3,9,6,1,17,17,7,0,0,0,0,0,0,0,0],"split_type":[0,0,0,0,0,0,0,0,0,0,0,0,0,0,0],"sum_hessian":[1.69021E6,6.615E3,1.683595E6,3.027E3,3.588E3,1.93569E5,1.490026E6,1.607E3,1.42E3,8.94E2,2.694E3,1.2969E4,1.806E5,1.470221E6,1.9805E4],"tree_param":{"num_deleted":"0","num_feature":"20","num_nodes":"15","size_leaf_vector":"1"}},{"base_weights":[-2.1935402E-9,-3.0359088E-3,1.1927959E-5,1.3677793E-3,-5.5479975E-3,6.567662E-4,-1.3458712E-5,9.094685E-5,-2.3492148E-6,-1.8684582E-4,-2.314648E-5,1.1942514E-5,2.7548954E-6,-2.1138865E-7,1.8706696E-5],"categories":[],"categories_nodes":[],"categories_segments":[],"categories_sizes":[],"default_left":[0,0,0,0,0,0,0,0,0,0,0,0,0,0,0],"id":29,"left_children":[1,3,5,7,9,11,13,-1,-1,-1,-1,-1,-1,-1,-1],"loss_changes":[6.1217498E-2,7.319678E-2,2.7560972E-2,2.9773073E-2,1.7890465E-1,1.3068298E-2,2.3439564E-2,0E0,0E0,0E0,0E0,0E0,0E0,0E0,0E0],"parents":[2147483647,0,0,1,1,2,2,3,3,4,4,5,5,6,6],"right_children":[2,4,6,8,10,12,14,-1,-1,-1,-1,-1,-1,-1,-1],"split_conditions":[-2.8324327E0,-1.9765942E0,-1.7226808E0,-2.3437662E0,-2.1411278E0,-1.3546655E0,2.9254148E0,9.094685E-5,-2.3492148E-6,-1.8684582E-4,-2.314648E-5,1.1942514E-5,2.7548954E-6,-2.1138865E-7,1.8706696E-5],"split_indices":[3,1,0,19,7,2,7,0,0,0,0,0,0,0,0],"split_type":[0,0,0,0,0,0,0,0,0,0,0,0,0,0,0],"sum_hessian":[1.69021E6,6.615E3,1.683595E6,2.403E3,4.212E3,6.377E4,1.619825E6,4.12E2,1.991E3,8.31E2,3.381E3,2.6463E4,3.7307E4,1.61325E6,6.575E3],"tree_param":{"num_deleted":"0","num_feature":"20","num_nodes":"15","size_leaf_vector":"1"}},{"base_weights":[-2.195093E-9,-3.005568E-3,1.1808728E-5,-6.6023874E-3,2.9866496E-5,3.6480793E-4,-3.4049543E-5,-5.2856517E-6,-1.3470862E-4,-3.696621E-5,1.2674087E-5,6.6190496E-6,1.5337424E-6,-4.870619E-7,1.0539317E-5],"categories":[],"categories_nodes":[],"categories_segments":[],"categories_sizes":[],"default_left":[0,0,0,0,0,0,0,0,0,0,0,0,0,0,0],"id":30,"left_children":[1,3,5,7,9,11,13,-1,-1,-1,-1,-1,-1,-1,-1],"loss_changes":[6.0000006E-2,7.223308E-2,2.7253952E-2,1.2631467E-1,1.6556023E-2,1.2159251E-2,2.3760254E-2,0E0,0E0,0E0,0E0,0E0,0E0,0E0,0E0],"parents":[2147483647,0,0,1,1,2,2,3,3,4,4,5,5,6,6],"right_children":[2,4,6,8,10,12,14,-1,-1,-1,-1,-1,-1,-1,-1],"split_conditions":[-2.8324327E0,-2.1561248E0,-1.1595079E0,-1.7848997E0,-1.9402552E0,-1.0618691E0,2.4095209E0,-5.2856517E-6,-1.3470862E-4,-3.696621E-5,1.2674087E-5,6.6190496E-6,1.5337424E-6,-4.870619E-7,1.0539317E-5],"split_indices":[3,9,6,1,17,4,7,0,0,0,0,0,0,0,0],"split_type":[0,0,0,0,0,0,0,0,0,0,0,0,0,0,0],"sum_hessian":[1.69021E6,6.615E3,1.683595E6,3.027E3,3.588E3,1.93569E5,1.490026E6,1.607E3,1.42E3,8.94E2,2.694E3,8.048E4,1.13089E5,1.470221E6,1.9805E4],"tree_param":{"num_deleted":"0","num_feature":"20","num_nodes":"15","size_leaf_vector":"1"}},{"base_weights":[-2.2792974E-9,-2.9755372E-3,1.1690632E-5,4.496929E-4,-6.107533E-3,4.6312134E-4,-2.3565937E-5,6.737264E-5,-1.15231915E-5,-2.314333E-4,-2.491556E-5,2.039322E-5,4.1542476E-6,-3.4787146E-7,1.2884371E-5],"categories":[],"categories_nodes":[],"categories_segments":[],"categories_sizes":[],"default_left":[0,0,0,0,0,0,0,0,0,0,0,0,0,0,0],"id":31,"left_children":[1,3,5,7,9,11,13,-1,-1,-1,-1,-1,-1,-1,-1],"loss_changes":[5.8806982E-2,7.097791E-2,2.6795954E-2,3.184777E-2,2.1283557E-1,9.168254E-3,2.2990834E-2,0E0,0E0,0E0,0E0,0E0,0E0,0E0,0E0],"parents":[2147483647,0,0,1,1,2,2,3,3,4,4,5,5,6,6],"right_children":[2,4,6,8,10,12,14,-1,-1,-1,-1,-1,-1,-1,-1],"split_conditions":[-2.8324327E0,-1.7848997E0,-1.4048723E0,-2.7145696E0,-2.1411278E0,-2.3011107E0,2.6024158E0,6.737264E-5,-1.15231915E-5,-2.314333E-4,-2.491556E-5,2.039322E-5,4.1542476E-6,-3.4787146E-7,1.2884371E-5],"split_indices":[3,1,6,6,7,17,7,0,0,0,0,0,0,0,0],"split_type":[0,0,0,0,0,0,0,0,0,0,0,0,0,0,0],"sum_hessian":[1.69021E6,6.615E3,1.683595E6,3.16E3,3.455E3,1.21962E5,1.561633E6,6.41E2,2.519E3,6.04E2,2.851E3,3.581E3,1.18381E5,1.548391E6,1.3242E4],"tree_param":{"num_deleted":"0","num_feature":"20","num_nodes":"15","size_leaf_vector":"1"}},{"base_weights":[-2.2932127E-9,-2.945812E-3,1.1573808E-5,-6.497012E-3,5.1117313E-5,6.4357487E-4,-1.3307476E-5,4.253377E-6,-1.230162E-4,-4.5124838E-5,1.0468229E-5,1.1083747E-5,2.1546684E-6,-2.0815304E-7,1.8285455E-5],"categories":[],"categories_nodes":[],"categories_segments":[],"categories_sizes":[],"default_left":[0,0,0,0,0,0,0,0,0,0,0,0,0,0,0],"id":32,"left_children":[1,3,5,7,9,11,13,-1,-1,-1,-1,-1,-1,-1,-1],"loss_changes":[5.7637904E-2,7.04124E-2,2.647455E-2,1.21674925E-1,1.631315E-2,1.2689207E-2,2.2399507E-2,0E0,0E0,0E0,0E0,0E0,0E0,0E0,0E0],"parents":[2147483647,0,0,1,1,2,2,3,3,4,4,5,5,6,6],"right_children":[2,4,6,8,10,12,14,-1,-1,-1,-1,-1,-1,-1,-1],"split_conditions":[-2.8324327E0,-2.1561248E0,-1.7226808E0,-1.9025694E0,-2.0735502E0,-1.2398496E0,2.9254148E0,4.253377E-6,-1.230162E-4,-4.5124838E-5,1.0468229E-5,1.1083747E-5,2.1546684E-6,-2.0815304E-7,1.8285455E-5],"split_indices":[3,9,0,1,17,2,7,0,0,0,0,0,0,0,0],"split_type":[0,0,0,0,0,0,0,0,0,0,0,0,0,0,0],"sum_hessian":[1.69021E6,6.615E3,1.683595E6,3.027E3,3.588E3,6.377E4,1.619825E6,1.381E3,1.646E3,6.42E2,2.946E3,3.0574E4,3.3196E4,1.61325E6,6.575E3],"tree_param":{"num_deleted":"0","num_feature":"20","num_nodes":"15","size_leaf_vector":"1"}},{"base_weights":[-2.3842006E-9,-2.9163773E-3,1.1458047E-5,-6.4320816E-3,5.059645E-5,2.2212228E-4,-6.217047E-5,-5.2835385E-6,-1.3108198E-4,-3.6137466E-5,1.2674931E-5,9.18078E-6,1.4687113E-6,-8.296855E-7,9.007684E-6],"categories":[],"categories_nodes":[],"categories_segments":[],"categories_sizes":[],"default_left":[0,0,0,0,0,0,0,0,0,0,0,0,0,0,0],"id":33,"left_children":[1,3,5,7,9,11,13,-1,-1,-1,-1,-1,-1,-1,-1],"loss_changes":[5.6491807E-2,6.901184E-2,2.6114093E-2,1.1933859E-1,1.6008386E-2,2.2835502E-2,2.4985412E-2,0E0,0E0,0E0,0E0,0E0,0E0,0E0,0E0],"parents":[2147483647,0,0,1,1,2,2,3,3,4,4,5,5,6,6],"right_children":[2,4,6,8,10,12,14,-1,-1,-1,-1,-1,-1,-1,-1],"split_conditions":[-2.8324327E0,-2.1561248E0,-6.4467496E-1,-1.7848997E0,-1.9402552E0,-1.7226808E0,2.268E0,-5.2835385E-6,-1.3108198E-4,-3.6137466E-5,1.2674931E-5,9.18078E-6,1.4687113E-6,-8.296855E-7,9.007684E-6],"split_indices":[3,9,4,1,17,0,7,0,0,0,0,0,0,0,0],"split_type":[0,0,0,0,0,0,0,0,0,0,0,0,0,0,0],"sum_hessian":[1.69021E6,6.615E3,1.683595E6,3.027E3,3.588E3,4.36031E5,1.247564E6,1.607E3,1.42E3,8.94E2,2.694E3,4.2545E4,3.93486E5,1.221189E6,2.6375E4],"tree_param":{"num_deleted":"0","num_feature":"20","num_nodes":"15","size_leaf_vector":"1"}},{"base_weights":[-2.4876166E-9,-2.8872376E-3,1.13434335E-5,1.3569725E-3,-5.3083613E-3,3.5450427E-4,-3.3236734E-5,8.9937406E-5,-2.2703457E-6,-1.8056844E-4,-2.170559E-5,1.2697584E-5,2.8877262E-6,-4.7425135E-7,1.0199859E-5],"categories":[],"categories_nodes":[],"categories_segments":[],"categories_sizes":[],"default_left":[0,0,0,0,0,0,0,0,0,0,0,0,0,0,0],"id":34,"left_children":[1,3,5,7,9,11,13,-1,-1,-1,-1,-1,-1,-1,-1],"loss_changes":[5.536854E-2,6.7991614E-2,2.5755947E-2,2.9082498E-2,1.6849014E-1,1.16450265E-2,2.2266332E-2,0E0,0E0,0E0,0E0,0E0,0E0,0E0,0E0],"parents":[2147483647,0,0,1,1,2,2,3,3,4,4,5,5,6,6],"right_children":[2,4,6,8,10,12,14,-1,-1,-1,-1,-1,-1,-1,-1],"split_conditions":[-2.8324327E0,-1.9765942E0,-1.1595079E0,-2.3437662E0,-2.1411278E0,-2.0735502E0,2.4095209E0,8.9937406E-5,-2.2703457E-6,-1.8056844E-4,-2.170559E-5,1.2697584E-5,2.8877262E-6,-4.7425135E-7,1.0199859E-5],"split_indices":[3,1,6,19,7,17,7,0,0,0,0,0,0,0,0],"split_type":[0,0,0,0,0,0,0,0,0,0,0,0,0,0,0],"sum_hessian":[1.69021E6,6.615E3,1.683595E6,2.403E3,4.212E3,1.93569E5,1.490026E6,4.12E2,1.991E3,8.31E2,3.381E3,1.2969E4,1.806E5,1.470221E6,1.9805E4],"tree_param":{"num_deleted":"0","num_feature":"20","num_nodes":"15","size_leaf_vector":"1"}},{"base_weights":[-2.470669E-9,-2.8583824E-3,1.12300595E-5,-6.3237944E-3,6.614411E-5,2.191558E-4,-6.144134E-5,-5.1390007E-6,-1.2893806E-4,-4.4274086E-5,1.0465609E-5,9.048622E-6,1.4501286E-6,-8.1866955E-7,8.842528E-6],"categories":[],"categories_nodes":[],"categories_segments":[],"categories_sizes":[],"default_left":[0,0,0,0,0,0,0,0,0,0,0,0,0,0,0],"id":35,"left_children":[1,3,5,7,9,11,13,-1,-1,-1,-1,-1,-1,-1,-1],"loss_changes":[5.4267365E-2,6.705153E-2,2.5439577E-2,1.15575396E-1,1.5816169E-2,2.2167861E-2,2.4098527E-2,0E0,0E0,0E0,0E0,0E0,0E0,0E0,0E0],"parents":[2147483647,0,0,1,1,2,2,3,3,4,4,5,5,6,6],"right_children":[2,4,6,8,10,12,14,-1,-1,-1,-1,-1,-1,-1,-1],"split_conditions":[-2.8324327E0,-2.1561248E0,-6.4467496E-1,-1.7848997E0,-2.0735502E0,-1.7226808E0,2.268E0,-5.1390007E-6,-1.2893806E-4,-4.4274086E-5,1.0465609E-5,9.048622E-6,1.4501286E-6,-8.1866955E-7,8.842528E-6],"split_indices":[3,9,4,1,17,0,7,0,0,0,0,0,0,0,0],"split_type":[0,0,0,0,0,0,0,0,0,0,0,0,0,0,0],"sum_hessian":[1.69021E6,6.615E3,1.683595E6,3.027E3,3.588E3,4.36031E5,1.247564E6,1.607E3,1.42E3,6.42E2,2.946E3,4.2545E4,3.93486E5,1.221189E6,2.6375E4],"tree_param":{"num_deleted":"0","num_feature":"20","num_nodes":"15","size_leaf_vector":"1"}},{"base_weights":[-2.5803888E-9,-2.829824E-3,1.1117723E-5,2.633833E-4,-6.0490547E-3,4.600076E-4,-2.1916898E-5,6.292556E-5,-1.2211946E-5,-2.2909608E-4,-2.0375375E-5,3.2045891E-6,1.0202257E-5,-2.951416E-7,1.782224E-5],"categories":[],"categories_nodes":[],"categories_segments":[],"categories_sizes":[],"default_left":[0,0,0,0,0,0,0,0,0,0,0,0,0,0,0],"id":36,"left_children":[1,3,5,7,9,11,13,-1,-1,-1,-1,-1,-1,-1,-1],"loss_changes":[5.3188395E-2,6.588205E-2,2.49659E-2,3.0216556E-2,2.1923052E-1,9.021847E-3,2.1494517E-2,0E0,0E0,0E0,0E0,0E0,0E0,0E0,0E0],"parents":[2147483647,0,0,1,1,2,2,3,3,4,4,5,5,6,6],"right_children":[2,4,6,8,10,12,14,-1,-1,-1,-1,-1,-1,-1,-1],"split_conditions":[-2.8324327E0,-1.7347727E0,-1.4325315E0,-2.7145696E0,-2.0420144E0,-8.526819E-1,2.9254148E0,6.292556E-5,-1.2211946E-5,-2.2909608E-4,-2.0375375E-5,3.2045891E-6,1.0202257E-5,-2.951416E-7,1.782224E-5],"split_indices":[3,1,6,6,7,16,7,0,0,0,0,0,0,0,0],"split_type":[0,0,0,0,0,0,0,0,0,0,0,0,0,0,0],"sum_hessian":[1.69021E6,6.615E3,1.683595E6,3.374E3,3.241E3,1.15405E5,1.56819E6,6.66E2,2.708E3,6.22E2,2.619E3,9.2392E4,2.3013E4,1.561615E6,6.575E3],"tree_param":{"num_deleted":"0","num_feature":"20","num_nodes":"15","size_leaf_vector":"1"}},{"base_weights":[-2.6246887E-9,-1.9857772E-3,1.5624108E-5,-5.904749E-3,-1.9752445E-4,2.3755542E-4,-6.07886E-5,-6.558223E-7,-1.4437539E-4,1.1658185E-5,-1.4796841E-5,4.7282756E-6,3.903415E-8,-8.091919E-7,8.711914E-6],"categories":[],"categories_nodes":[],"categories_segments":[],"categories_sizes":[],"default_left":[0,0,0,0,0,0,0,0,0,0,0,0,0,0,0],"id":37,"left_children":[1,3,5,7,9,11,13,-1,-1,-1,-1,-1,-1,-1,-1],"loss_changes":[5.2449252E-2,9.248488E-2,2.8439458E-2,2.0602286E-1,1.5844062E-2,2.3611594E-2,2.340469E-2,0E0,0E0,0E0,0E0,0E0,0E0,0E0,0E0],"parents":[2147483647,0,0,1,1,2,2,3,3,4,4,5,5,6,6],"right_children":[2,4,6,8,10,12,14,-1,-1,-1,-1,-1,-1,-1,-1],"split_conditions":[-2.4947422E0,-2.2979743E0,-6.4467496E-1,-1.6888206E0,-1.6067371E0,-6.860967E-1,2.268E0,-6.558223E-7,-1.4437539E-4,1.1658185E-5,-1.4796841E-5,4.7282756E-6,3.903415E-8,-8.091919E-7,8.711914E-6],"split_indices":[3,9,4,1,1,6,7,0,0,0,0,0,0,0,0],"split_type":[0,0,0,0,0,0,0,0,0,0,0,0,0,0,0],"sum_hessian":[1.69021E6,1.3196E4,1.677014E6,4.134E3,9.062E3,4.29521E5,1.247493E6,2.455E3,1.679E3,4.392E3,4.67E3,2.14018E5,2.15503E5,1.221118E6,2.6375E4],"tree_param":{"num_deleted":"0","num_feature":"20","num_nodes":"15","size_leaf_vector":"1"}},{"base_weights":[-2.7169755E-9,-1.9659305E-3,1.5467836E-5,-5.8457362E-3,-1.9554954E-4,4.8209392E-4,-2.01569E-5,-6.4926655E-7,-1.4293249E-4,1.1541631E-5,-1.4648906E-5,1.8256887E-5,3.9103065E-6,-2.7683856E-7,1.7556977E-5],"categories":[],"categories_nodes":[],"categories_segments":[],"categories_sizes":[],"default_left":[0,0,0,0,0,0,0,0,0,0,0,0,0,0,0],"id":38,"left_children":[1,3,5,7,9,11,13,-1,-1,-1,-1,-1,-1,-1,-1],"loss_changes":[5.1406093E-2,9.064555E-2,2.7877752E-2,2.0192546E-1,1.55288335E-2,1.4553189E-2,2.0826368E-2,0E0,0E0,0E0,0E0,0E0,0E0,0E0,0E0],"parents":[2147483647,0,0,1,1,2,2,3,3,4,4,5,5,6,6],"right_children":[2,4,6,8,10,12,14,-1,-1,-1,-1,-1,-1,-1,-1],"split_conditions":[-2.4947422E0,-2.2979743E0,-1.4048723E0,-1.6888206E0,-1.6067371E0,-2.4968882E0,2.9254148E0,-6.4926655E-7,-1.4293249E-4,1.1541631E-5,-1.4648906E-5,1.8256887E-5,3.9103065E-6,-2.7683856E-7,1.7556977E-5],"split_indices":[3,9,6,1,1,9,7,0,0,0,0,0,0,0,0],"split_type":[0,0,0,0,0,0,0,0,0,0,0,0,0,0,0],"sum_hessian":[1.69021E6,1.3196E4,1.677014E6,4.134E3,9.062E3,1.1895E5,1.558064E6,2.455E3,1.679E3,4.392E3,4.67E3,7.549E3,1.11401E5,1.551489E6,6.575E3],"tree_param":{"num_deleted":"0","num_feature":"20","num_nodes":"15","size_leaf_vector":"1"}},{"base_weights":[-2.7201834E-9,-2.7543681E-3,1.0821065E-5,-6.120068E-3,8.6003565E-5,2.1379079E-4,-6.0118167E-5,4.028772E-6,-1.15897645E-4,-3.5357232E-5,1.28873435E-5,8.856934E-6,1.4114039E-6,-7.995495E-7,8.583132E-6],"categories":[],"categories_nodes":[],"categories_segments":[],"categories_sizes":[],"default_left":[0,0,0,0,0,0,0,0,0,0,0,0,0,0,0],"id":39,"left_children":[1,3,5,7,9,11,13,-1,-1,-1,-1,-1,-1,-1,-1],"loss_changes":[5.0389715E-2,6.324842E-2,2.4241298E-2,1.0803925E-1,1.5638106E-2,2.1284336E-2,2.2729112E-2,0E0,0E0,0E0,0E0,0E0,0E0,0E0,0E0],"parents":[2147483647,0,0,1,1,2,2,3,3,4,4,5,5,6,6],"right_children":[2,4,6,8,10,12,14,-1,-1,-1,-1,-1,-1,-1,-1],"split_conditions":[-2.8324327E0,-2.1561248E0,-6.4467496E-1,-1.9025694E0,-1.9402552E0,-1.7226808E0,2.268E0,4.028772E-6,-1.15897645E-4,-3.5357232E-5,1.28873435E-5,8.856934E-6,1.4114039E-6,-7.995495E-7,8.583132E-6],"split_indices":[3,9,4,1,17,0,7,0,0,0,0,0,0,0,0],"split_type":[0,0,0,0,0,0,0,0,0,0,0,0,0,0,0],"sum_hessian":[1.69021E6,6.615E3,1.683595E6,3.027E3,3.588E3,4.36031E5,1.247564E6,1.381E3,1.646E3,8.94E2,2.694E3,4.2545E4,3.93486E5,1.221189E6,2.6375E4],"tree_param":{"num_deleted":"0","num_feature":"20","num_nodes":"15","size_leaf_vector":"1"}},{"base_weights":[-2.7551283E-9,-1.9342131E-3,1.5218202E-5,8.890285E-4,-4.298109E-3,2.3229717E-4,-5.9523805E-5,5.719217E-5,-3.738025E-7,-1.6929326E-4,-1.6828604E-5,4.6347404E-6,2.712228E-8,-7.9163516E-7,8.4973035E-6],"categories":[],"categories_nodes":[],"categories_segments":[],"categories_sizes":[],"default_left":[0,0,0,0,0,0,0,0,0,0,0,0,0,0,0],"id":40,"left_children":[1,3,5,7,9,11,13,-1,-1,-1,-1,-1,-1,-1,-1],"loss_changes":[4.9760748E-2,8.80786E-2,2.7209446E-2,2.6915707E-2,2.3725311E-1,2.2796763E-2,2.2277182E-2,0E0,0E0,0E0,0E0,0E0,0E0,0E0,0E0],"parents":[2147483647,0,0,1,1,2,2,3,3,4,4,5,5,6,6],"right_children":[2,4,6,8,10,12,14,-1,-1,-1,-1,-1,-1,-1,-1],"split_conditions":[-2.4947422E0,-1.7347727E0,-6.4467496E-1,-2.7145696E0,-1.9601961E0,-6.860967E-1,2.268E0,5.719217E-5,-3.738025E-7,-1.6929326E-4,-1.6828604E-5,4.6347404E-6,2.712228E-8,-7.9163516E-7,8.4973035E-6],"split_indices":[3,1,4,6,7,6,7,0,0,0,0,0,0,0,0],"split_type":[0,0,0,0,0,0,0,0,0,0,0,0,0,0,0],"sum_hessian":[1.69021E6,1.3196E4,1.677014E6,6.014E3,7.182E3,4.29521E5,1.247493E6,9.67E2,5.047E3,1.231E3,5.951E3,2.14018E5,2.15503E5,1.221118E6,2.6375E4],"tree_param":{"num_deleted":"0","num_feature":"20","num_nodes":"15","size_leaf_vector":"1"}},{"base_weights":[-2.7915952E-9,-1.9148808E-3,1.5066033E-5,-5.720442E-3,-1.7837946E-4,4.7173377E-4,-1.979843E-5,-6.4714663E-7,-1.3985172E-4,1.1482952E-5,-1.4260574E-5,1.7979779E-5,3.8184658E-6,-2.717711E-7,1.7210727E-5],"categories":[],"categories_nodes":[],"categories_segments":[],"categories_sizes":[],"default_left":[0,0,0,0,0,0,0,0,0,0,0,0,0,0,0],"id":41,"left_children":[1,3,5,7,9,11,13,-1,-1,-1,-1,-1,-1,-1,-1],"loss_changes":[4.8771E-2,8.720954E-2,2.6700564E-2,1.9328167E-1,1.5003284E-2,1.4179748E-2,2.0013908E-2,0E0,0E0,0E0,0E0,0E0,0E0,0E0,0E0],"parents":[2147483647,0,0,1,1,2,2,3,3,4,4,5,5,6,6],"right_children":[2,4,6,8,10,12,14,-1,-1,-1,-1,-1,-1,-1,-1],"split_conditions":[-2.4947422E0,-2.2979743E0,-1.4048723E0,-1.6888206E0,-1.6067371E0,-2.4968882E0,2.9254148E0,-6.4714663E-7,-1.3985172E-4,1.1482952E-5,-1.4260574E-5,1.7979779E-5,3.8184658E-6,-2.717711E-7,1.7210727E-5],"split_indices":[3,9,6,1,1,9,7,0,0,0,0,0,0,0,0],"split_type":[0,0,0,0,0,0,0,0,0,0,0,0,0,0,0],"sum_hessian":[1.69021E6,1.3196E4,1.677014E6,4.134E3,9.062E3,1.1895E5,1.558064E6,2.455E3,1.679E3,4.392E3,4.67E3,7.549E3,1.11401E5,1.551489E6,6.575E3],"tree_param":{"num_deleted":"0","num_feature":"20","num_nodes":"15","size_leaf_vector":"1"}},{"base_weights":[-2.7654787E-9,-2.6852752E-3,1.05495055E-5,-5.982514E-3,9.731745E-5,6.036737E-4,-1.28012325E-5,9.8065475E-6,-1.0858456E-4,-4.3377484E-5,1.06496245E-5,1.1139568E-5,2.41694E-6,-1.9798767E-7,1.7038647E-5],"categories":[],"categories_nodes":[],"categories_segments":[],"categories_sizes":[],"default_left":[0,0,0,0,0,0,0,0,0,0,0,0,0,0,0],"id":42,"left_children":[1,3,5,7,9,11,13,-1,-1,-1,-1,-1,-1,-1,-1],"loss_changes":[4.7893375E-2,6.0701538E-2,2.3317624E-2,1.0281731E-1,1.5407063E-2,1.1779008E-2,1.9458083E-2,0E0,0E0,0E0,0E0,0E0,0E0,0E0,0E0],"parents":[2147483647,0,0,1,1,2,2,3,3,4,4,5,5,6,6],"right_children":[2,4,6,8,10,12,14,-1,-1,-1,-1,-1,-1,-1,-1],"split_conditions":[-2.8324327E0,-2.1561248E0,-1.7226808E0,-1.9765942E0,-2.0735502E0,-1.3546655E0,2.9254148E0,9.8065475E-6,-1.0858456E-4,-4.3377484E-5,1.06496245E-5,1.1139568E-5,2.41694E-6,-1.9798767E-7,1.7038647E-5],"split_indices":[3,9,0,1,17,2,7,0,0,0,0,0,0,0,0],"split_type":[0,0,0,0,0,0,0,0,0,0,0,0,0,0,0],"sum_hessian":[1.69021E6,6.615E3,1.683595E6,3.027E3,3.588E3,6.377E4,1.619825E6,1.247E3,1.78E3,6.42E2,2.946E3,2.6463E4,3.7307E4,1.61325E6,6.575E3],"tree_param":{"num_deleted":"0","num_feature":"20","num_nodes":"15","size_leaf_vector":"1"}},{"base_weights":[-2.8654912E-9,-1.8837197E-3,1.4820742E-5,-5.626536E-3,-1.7584948E-4,2.286971E-4,-5.8818587E-5,-4.879344E-7,-1.3777314E-4,1.1371696E-5,-1.4106851E-5,4.5581633E-6,3.1418473E-8,-7.808282E-7,8.330522E-6],"categories":[],"categories_nodes":[],"categories_segments":[],"categories_sizes":[],"default_left":[0,0,0,0,0,0,0,0,0,0,0,0,0,0,0],"id":43,"left_children":[1,3,5,7,9,11,13,-1,-1,-1,-1,-1,-1,-1,-1],"loss_changes":[4.71966E-2,8.435747E-2,2.6412515E-2,1.8798858E-1,1.4696015E-2,2.2003524E-2,2.1433525E-2,0E0,0E0,0E0,0E0,0E0,0E0,0E0,0E0],"parents":[2147483647,0,0,1,1,2,2,3,3,4,4,5,5,6,6],"right_children":[2,4,6,8,10,12,14,-1,-1,-1,-1,-1,-1,-1,-1],"split_conditions":[-2.4947422E0,-2.2979743E0,-6.4467496E-1,-1.6888206E0,-1.6067371E0,-6.860967E-1,2.268E0,-4.879344E-7,-1.3777314E-4,1.1371696E-5,-1.4106851E-5,4.5581633E-6,3.1418473E-8,-7.808282E-7,8.330522E-6],"split_indices":[3,9,4,1,1,6,7,0,0,0,0,0,0,0,0],"split_type":[0,0,0,0,0,0,0,0,0,0,0,0,0,0,0],"sum_hessian":[1.69021E6,1.3196E4,1.677014E6,4.134E3,9.062E3,4.29521E5,1.247493E6,2.455E3,1.679E3,4.392E3,4.67E3,2.14018E5,2.15503E5,1.221118E6,2.6375E4],"tree_param":{"num_deleted":"0","num_feature":"20","num_nodes":"15","size_leaf_vector":"1"}},{"base_weights":[-2.873765E-9,-1.8648932E-3,1.46725815E-5,8.712485E-4,-4.1558617E-3,2.2641018E-4,-5.823035E-5,5.668319E-5,-4.8806146E-7,-1.6515212E-4,-1.596911E-5,4.5125826E-6,3.110436E-8,-7.7301945E-7,8.247221E-6],"categories":[],"categories_nodes":[],"categories_segments":[],"categories_sizes":[],"default_left":[0,0,0,0,0,0,0,0,0,0,0,0,0,0,0],"id":44,"left_children":[1,3,5,7,9,11,13,-1,-1,-1,-1,-1,-1,-1,-1],"loss_changes":[4.6257917E-2,8.272789E-2,2.5886906E-2,2.6547885E-2,2.2715017E-1,2.1565665E-2,2.1007009E-2,0E0,0E0,0E0,0E0,0E0,0E0,0E0,0E0],"parents":[2147483647,0,0,1,1,2,2,3,3,4,4,5,5,6,6],"right_children":[2,4,6,8,10,12,14,-1,-1,-1,-1,-1,-1,-1,-1],"split_conditions":[-2.4947422E0,-1.7347727E0,-6.4467496E-1,-2.7145696E0,-1.9601961E0,-6.860967E-1,2.268E0,5.668319E-5,-4.8806146E-7,-1.6515212E-4,-1.596911E-5,4.5125826E-6,3.110436E-8,-7.7301945E-7,8.247221E-6],"split_indices":[3,1,4,6,7,6,7,0,0,0,0,0,0,0,0],"split_type":[0,0,0,0,0,0,0,0,0,0,0,0,0,0,0],"sum_hessian":[1.69021E6,1.3196E4,1.677014E6,6.014E3,7.182E3,4.29521E5,1.247493E6,9.67E2,5.047E3,1.231E3,5.951E3,2.14018E5,2.15503E5,1.221118E6,2.6375E4],"tree_param":{"num_deleted":"0","num_feature":"20","num_nodes":"15","size_leaf_vector":"1"}},{"base_weights":[-2.9260192E-9,-2.6179205E-3,1.0284662E-5,-5.848054E-3,1.08037355E-4,5.931485E-4,-1.2662136E-5,9.470079E-6,-1.0606274E-4,-3.4662622E-5,1.2950096E-5,1.09650855E-5,2.3607993E-6,-1.9611417E-7,1.7002732E-5],"categories":[],"categories_nodes":[],"categories_segments":[],"categories_sizes":[],"default_left":[0,0,0,0,0,0,0,0,0,0,0,0,0,0,0],"id":45,"left_children":[1,3,5,7,9,11,13,-1,-1,-1,-1,-1,-1,-1,-1],"loss_changes":[4.5520887E-2,5.8255885E-2,2.2517867E-2,9.791255E-2,1.52311595E-2,1.1461563E-2,1.9281905E-2,0E0,0E0,0E0,0E0,0E0,0E0,0E0,0E0],"parents":[2147483647,0,0,1,1,2,2,3,3,4,4,5,5,6,6],"right_children":[2,4,6,8,10,12,14,-1,-1,-1,-1,-1,-1,-1,-1],"split_conditions":[-2.8324327E0,-2.1561248E0,-1.7226808E0,-1.9765942E0,-1.9402552E0,-1.3546655E0,2.2169569E0,9.470079E-6,-1.0606274E-4,-3.4662622E-5,1.2950096E-5,1.09650855E-5,2.3607993E-6,-1.9611417E-7,1.7002732E-5],"split_indices":[3,9,0,1,17,2,16,0,0,0,0,0,0,0,0],"split_type":[0,0,0,0,0,0,0,0,0,0,0,0,0,0,0],"sum_hessian":[1.69021E6,6.615E3,1.683595E6,3.027E3,3.588E3,6.377E4,1.619825E6,1.247E3,1.78E3,8.94E2,2.694E3,2.6463E4,3.7307E4,1.613281E6,6.544E3],"tree_param":{"num_deleted":"0","num_feature":"20","num_nodes":"15","size_leaf_vector":"1"}},{"base_weights":[-2.9525187E-9,-1.8345444E-3,1.4433676E-5,-5.5060457E-3,-1.5921707E-4,2.2582641E-4,-5.684572E-5,-4.7365938E-7,-1.3482837E-4,1.131374E-5,-1.3729632E-5,4.492195E-6,2.1362235E-8,-7.299477E-7,9.536772E-6],"categories":[],"categories_nodes":[],"categories_segments":[],"categories_sizes":[],"default_left":[0,0,0,0,0,0,0,0,0,0,0,0,0,0,0],"id":46,"left_children":[1,3,5,7,9,11,13,-1,-1,-1,-1,-1,-1,-1,-1],"loss_changes":[4.476458E-2,8.117342E-2,2.5269186E-2,1.8004864E-1,1.4198289E-2,2.113172E-2,2.0466281E-2,0E0,0E0,0E0,0E0,0E0,0E0,0E0,0E0],"parents":[2147483647,0,0,1,1,2,2,3,3,4,4,5,5,6,6],"right_children":[2,4,6,8,10,12,14,-1,-1,-1,-1,-1,-1,-1,-1],"split_conditions":[-2.4947422E0,-2.2979743E0,-6.566058E-1,-1.6888206E0,-1.6067371E0,-6.860967E-1,2.4095209E0,-4.7365938E-7,-1.3482837E-4,1.131374E-5,-1.3729632E-5,4.492195E-6,2.1362235E-8,-7.299477E-7,9.536772E-6],"split_indices":[3,9,4,1,1,6,7,0,0,0,0,0,0,0,0],"split_type":[0,0,0,0,0,0,0,0,0,0,0,0,0,0,0],"sum_hessian":[1.69021E6,1.3196E4,1.677014E6,4.134E3,9.062E3,4.2288E5,1.254134E6,2.455E3,1.679E3,4.392E3,4.67E3,2.1158E5,2.113E5,1.234408E6,1.9726E4],"tree_param":{"num_deleted":"0","num_feature":"20","num_nodes":"15","size_leaf_vector":"1"}},{"base_weights":[-3.0202352E-9,-1.8162094E-3,1.4289324E-5,-5.4510175E-3,-1.5762517E-4,2.79746E-4,-4.1422438E-5,-4.6892535E-7,-1.3348089E-4,1.1200628E-5,-1.3592364E-5,5.5302353E-6,5.0160263E-8,-4.953747E-7,1.670925E-5],"categories":[],"categories_nodes":[],"categories_segments":[],"categories_sizes":[],"default_left":[0,0,0,0,0,0,0,0,0,0,0,0,0,0,0],"id":47,"left_children":[1,3,5,7,9,11,13,-1,-1,-1,-1,-1,-1,-1,-1],"loss_changes":[4.3874264E-2,7.955905E-2,2.4801485E-2,1.764678E-1,1.3915806E-2,2.1840423E-2,1.926114E-2,0E0,0E0,0E0,0E0,0E0,0E0,0E0,0E0],"parents":[2147483647,0,0,1,1,2,2,3,3,4,4,5,5,6,6],"right_children":[2,4,6,8,10,12,14,-1,-1,-1,-1,-1,-1,-1,-1],"split_conditions":[-2.4947422E0,-2.2979743E0,-9.1136456E-1,-1.6888206E0,-1.6067371E0,-7.74091E-1,2.2169569E0,-4.6892535E-7,-1.3348089E-4,1.1200628E-5,-1.3592364E-5,5.5302353E-6,5.0160263E-8,-4.953747E-7,1.670925E-5],"split_indices":[3,9,4,1,1,6,16,0,0,0,0,0,0,0,0],"split_type":[0,0,0,0,0,0,0,0,0,0,0,0,0,0,0],"sum_hessian":[1.69021E6,1.3196E4,1.677014E6,4.134E3,9.062E3,2.90904E5,1.38611E6,2.455E3,1.679E3,4.392E3,4.67E3,1.45837E5,1.45067E5,1.379573E6,6.537E3],"tree_param":{"num_deleted":"0","num_feature":"20","num_nodes":"15","size_leaf_vector":"1"}},{"base_weights":[-3.0499032E-9,-2.5480816E-3,1.0010093E-5,-5.694964E-3,1.0761834E-4,5.8253284E-4,-1.25295865E-5,9.357806E-6,-1.0338127E-4,-3.439427E-5,1.2855397E-5,1.0781842E-5,2.3093264E-6,-1.9336801E-7,1.6653878E-5],"categories":[],"categories_nodes":[],"categories_segments":[],"categories_sizes":[],"default_left":[0,0,0,0,0,0,0,0,0,0,0,0,0,0,0],"id":48,"left_children":[1,3,5,7,9,11,13,-1,-1,-1,-1,-1,-1,-1,-1],"loss_changes":[4.3124534E-2,5.529168E-2,2.1725938E-2,9.323462E-2,1.4999769E-2,1.1113195E-2,1.8501593E-2,0E0,0E0,0E0,0E0,0E0,0E0,0E0,0E0],"parents":[2147483647,0,0,1,1,2,2,3,3,4,4,5,5,6,6],"right_children":[2,4,6,8,10,12,14,-1,-1,-1,-1,-1,-1,-1,-1],"split_conditions":[-2.8324327E0,-2.1561248E0,-1.7226808E0,-1.9765942E0,-1.9402552E0,-1.3546655E0,2.2169569E0,9.357806E-6,-1.0338127E-4,-3.439427E-5,1.2855397E-5,1.0781842E-5,2.3093264E-6,-1.9336801E-7,1.6653878E-5],"split_indices":[3,9,0,1,17,2,16,0,0,0,0,0,0,0,0],"split_type":[0,0,0,0,0,0,0,0,0,0,0,0,0,0,0],"sum_hessian":[1.69021E6,6.615E3,1.683595E6,3.027E3,3.588E3,6.377E4,1.619825E6,1.247E3,1.78E3,8.94E2,2.694E3,2.6463E4,3.7307E4,1.613281E6,6.544E3],"tree_param":{"num_deleted":"0","num_feature":"20","num_nodes":"15","size_leaf_vector":"1"}},{"base_weights":[-3.0720768E-9,-1.7866744E-3,1.4056851E-5,8.585075E-4,-4.0014847E-3,2.1917187E-4,-5.656587E-5,5.6244375E-5,-5.5573076E-7,-1.6062793E-4,-1.5042515E-5,4.362434E-6,3.595101E-8,-7.522897E-7,8.07474E-6],"categories":[],"categories_nodes":[],"categories_segments":[],"categories_sizes":[],"default_left":[0,0,0,0,0,0,0,0,0,0,0,0,0,0,0],"id":49,"left_children":[1,3,5,7,9,11,13,-1,-1,-1,-1,-1,-1,-1,-1],"loss_changes":[4.2458903E-2,7.731907E-2,2.4292883E-2,2.6204325E-2,2.1632707E-1,2.0099731E-2,2.0116724E-2,0E0,0E0,0E0,0E0,0E0,0E0,0E0,0E0],"parents":[2147483647,0,0,1,1,2,2,3,3,4,4,5,5,6,6],"right_children":[2,4,6,8,10,12,14,-1,-1,-1,-1,-1,-1,-1,-1],"split_conditions":[-2.4947422E0,-1.7347727E0,-6.4467496E-1,-2.7145696E0,-1.9601961E0,-6.860967E-1,2.268E0,5.6244375E-5,-5.5573076E-7,-1.6062793E-4,-1.5042515E-5,4.362434E-6,3.595101E-8,-7.522897E-7,8.07474E-6],"split_indices":[3,1,4,6,7,6,7,0,0,0,0,0,0,0,0],"split_type":[0,0,0,0,0,0,0,0,0,0,0,0,0,0,0],"sum_hessian":[1.69021E6,1.3196E4,1.677014E6,6.014E3,7.182E3,4.29521E5,1.247493E6,9.67E2,5.047E3,1.231E3,5.951E3,2.14018E5,2.15503E5,1.221118E6,2.6375E4],"tree_param":{"num_deleted":"0","num_feature":"20","num_nodes":"15","size_leaf_vector":"1"}}]},"name":"gbtree"},"learner_model_param":{"base_score":"6.731823E-5","boost_from_average":"1","num_class":"0","num_feature":"20","num_target":"1"},"objective":{"name":"reg:squarederror","reg_loss_param":{"scale_pos_weight":"1"}}},"version":[2,1,1]}