{"learner":{"attributes":{"scikit_learn":"{\"_estimator_type\": \"regressor\"}"},"feature_names":["Momentum_10","Momentum_30","Momentum_60","Momentum_120","Momentum_300","RSI_10","RSI_30","RSI_60","RSI_120","RSI_300","BB_10","BB_30","BB_60","BB_120","BB_300","MRC_10","MRC_30","MRC_60","MRC_120","MRC_300"],"feature_types":["float","float","float","float","float","float","float","float","float","float","float","float","float","float","float","float","float","float","float","float"],"gradient_booster":{"model":{"gbtree_model_param":{"num_parallel_tree":"1","num_trees":"50"},"iteration_indptr":[0,1,2,3,4,5,6,7,8,9,10,11,12,13,14,15,16,17,18,19,20,21,22,23,24,25,26,27,28,29,30,31,32,33,34,35,36,37,38,39,40,41,42,43,44,45,46,47,48,49,50],"tree_info":[0,0,0,0,0,0,0,0,0,0,0,0,0,0,0,0,0,0,0,0,0,0,0,0,0,0,0,0,0,0,0,0,0,0,0,0,0,0,0,0,0,0,0,0,0,0,0,0,0,0],"trees":[{"base_weights":[9.7942626E-11,-7.946084E-3,3.1225696E-5,-1.9882118E-2,8.973637E-5,1.0063547E-2,1.5558876E-7,-1.5217907E-4,-6.347047E-4,4.106874E-5,-3.9847182E-5,1.3924084E-4,-6.400812E-5,3.6651825E-6,-4.291123E-6],"categories":[],"categories_nodes":[],"categories_segments":[],"categories_sizes":[],"default_left":[0,0,0,0,0,0,0,0,0,0,0,0,0,0,0],"id":0,"left_children":[1,3,5,7,9,11,13,-1,-1,-1,-1,-1,-1,-1,-1],"loss_changes":[4.1937748E-1,6.3458085E-1,5.247858E-1,5.4023266E-1,6.4750396E-2,3.3048064E-1,2.6395816E-1,0E0,0E0,0E0,0E0,0E0,0E0,0E0,0E0],"parents":[2147483647,0,0,1,1,2,2,3,3,4,4,5,5,6,6],"right_children":[2,4,6,8,10,12,14,-1,-1,-1,-1,-1,-1,-1,-1],"split_conditions":[-2.8324327E0,-2.2979743E0,-2.8296402E0,-1.957822E0,-2.0662897E0,-1.6738043E0,1.18385896E-1,-1.5217907E-4,-6.347047E-4,4.106874E-5,-3.9847182E-5,1.3924084E-4,-6.400812E-5,3.6651825E-6,-4.291123E-6],"split_indices":[3,9,9,8,2,6,4,0,0,0,0,0,0,0,0],"split_type":[0,0,0,0,0,0,0,0,0,0,0,0,0,0,0],"sum_hessian":[1.69021E6,6.615E3,1.683595E6,2.661E3,3.954E3,5.197E3,1.678398E6,2.405E3,2.56E2,1.991E3,1.963E3,4.21E3,9.87E2,9.05549E5,7.72849E5],"tree_param":{"num_deleted":"0","num_feature":"20","num_nodes":"15","size_leaf_vector":"1"}},{"base_weights":[-4.4394644E-10,-7.866742E-3,3.091336E-5,-1.9683592E-2,8.8839195E-5,9.962927E-3,1.5391055E-7,-1.5065791E-4,-6.283824E-4,4.065826E-5,-3.944891E-5,1.5595966E-4,-1.1255738E-5,3.6285287E-6,-4.2482125E-6],"categories":[],"categories_nodes":[],"categories_segments":[],"categories_sizes":[],"default_left":[0,0,0,0,0,0,0,0,0,0,0,0,0,0,0],"id":1,"left_children":[1,3,5,7,9,11,13,-1,-1,-1,-1,-1,-1,-1,-1],"loss_changes":[4.110442E-1,6.2197137E-1,5.143441E-1,5.2953553E-1,6.346251E-2,3.246948E-1,2.5870535E-1,0E0,0E0,0E0,0E0,0E0,0E0,0E0,0E0],"parents":[2147483647,0,0,1,1,2,2,3,3,4,4,5,5,6,6],"right_children":[2,4,6,8,10,12,14,-1,-1,-1,-1,-1,-1,-1,-1],"split_conditions":[-2.8324327E0,-2.2979743E0,-2.8296402E0,-1.957822E0,-2.0662897E0,-2.1295345E0,1.18385896E-1,-1.5065791E-4,-6.283824E-4,4.065826E-5,-3.944891E-5,1.5595966E-4,-1.1255738E-5,3.6285287E-6,-4.2482125E-6],"split_indices":[3,9,9,8,2,6,4,0,0,0,0,0,0,0,0],"split_type":[0,0,0,0,0,0,0,0,0,0,0,0,0,0,0],"sum_hessian":[1.69021E6,6.615E3,1.683595E6,2.661E3,3.954E3,5.197E3,1.678398E6,2.405E3,2.56E2,1.991E3,1.963E3,3.446E3,1.751E3,9.05549E5,7.72849E5],"tree_param":{"num_deleted":"0","num_feature":"20","num_nodes":"15","size_leaf_vector":"1"}},{"base_weights":[-8.3336704E-10,-7.788192E-3,3.0604297E-5,-1.948705E-2,8.795108E-5,9.863324E-3,1.5235223E-7,-8.29916E-5,-3.7066176E-4,4.025188E-5,-3.9054627E-5,1.3659292E-4,-6.3256244E-5,3.5922437E-6,-4.2057313E-6],"categories":[],"categories_nodes":[],"categories_segments":[],"categories_sizes":[],"default_left":[0,0,0,0,0,0,0,0,0,0,0,0,0,0,0],"id":2,"left_children":[1,3,5,7,9,11,13,-1,-1,-1,-1,-1,-1,-1,-1],"loss_changes":[4.0287656E-1,6.096124E-1,5.0411147E-1,5.2323675E-1,6.220025E-2,3.1951767E-1,2.5355718E-1,0E0,0E0,0E0,0E0,0E0,0E0,0E0,0E0],"parents":[2147483647,0,0,1,1,2,2,3,3,4,4,5,5,6,6],"right_children":[2,4,6,8,10,12,14,-1,-1,-1,-1,-1,-1,-1,-1],"split_conditions":[-2.8324327E0,-2.2979743E0,-2.8296402E0,-2.3180037E0,-2.0662897E0,-1.6738043E0,1.18385896E-1,-8.29916E-5,-3.7066176E-4,4.025188E-5,-3.9054627E-5,1.3659292E-4,-6.3256244E-5,3.5922437E-6,-4.2057313E-6],"split_indices":[3,9,9,2,2,6,4,0,0,0,0,0,0,0,0],"split_type":[0,0,0,0,0,0,0,0,0,0,0,0,0,0,0],"sum_hessian":[1.69021E6,6.615E3,1.683595E6,2.661E3,3.954E3,5.197E3,1.678398E6,1.627E3,1.034E3,1.991E3,1.963E3,4.21E3,9.87E2,9.05549E5,7.72849E5],"tree_param":{"num_deleted":"0","num_feature":"20","num_nodes":"15","size_leaf_vector":"1"}},{"base_weights":[-1.0428473E-9,-7.7103786E-3,3.0298303E-5,-1.9292349E-2,8.707193E-5,9.764706E-3,1.508359E-7,-1.473049E-4,-6.1924796E-4,3.9849565E-5,-3.8664275E-5,1.5303498E-4,-1.1382531E-5,3.5563212E-6,-4.1636736E-6],"categories":[],"categories_nodes":[],"categories_segments":[],"categories_sizes":[],"default_left":[0,0,0,0,0,0,0,0,0,0,0,0,0,0,0],"id":3,"left_children":[1,3,5,7,9,11,13,-1,-1,-1,-1,-1,-1,-1,-1],"loss_changes":[3.948663E-1,5.974916E-1,4.9408108E-1,5.168021E-1,6.0963083E-2,3.1392062E-1,2.4851133E-1,0E0,0E0,0E0,0E0,0E0,0E0,0E0,0E0],"parents":[2147483647,0,0,1,1,2,2,3,3,4,4,5,5,6,6],"right_children":[2,4,6,8,10,12,14,-1,-1,-1,-1,-1,-1,-1,-1],"split_conditions":[-2.8324327E0,-2.2979743E0,-2.8296402E0,-1.957822E0,-2.0662897E0,-2.1295345E0,1.18385896E-1,-1.473049E-4,-6.1924796E-4,3.9849565E-5,-3.8664275E-5,1.5303498E-4,-1.1382531E-5,3.5563212E-6,-4.1636736E-6],"split_indices":[3,9,9,8,2,6,4,0,0,0,0,0,0,0,0],"split_type":[0,0,0,0,0,0,0,0,0,0,0,0,0,0,0],"sum_hessian":[1.69021E6,6.615E3,1.683595E6,2.661E3,3.954E3,5.197E3,1.678398E6,2.405E3,2.56E2,1.991E3,1.963E3,3.446E3,1.751E3,9.05549E5,7.72849E5],"tree_param":{"num_deleted":"0","num_feature":"20","num_nodes":"15","size_leaf_vector":"1"}},{"base_weights":[-1.3735052E-9,-7.6333904E-3,2.9995432E-5,-1.9099714E-2,8.6201544E-5,9.6670855E-3,1.4935532E-7,-8.047843E-5,-3.6465263E-4,3.945127E-5,-3.827783E-5,1.3399562E-4,-6.251061E-5,3.5207574E-6,-4.1220355E-6],"categories":[],"categories_nodes":[],"categories_segments":[],"categories_sizes":[],"default_left":[0,0,0,0,0,0,0,0,0,0,0,0,0,0,0],"id":4,"left_children":[1,3,5,7,9,11,13,-1,-1,-1,-1,-1,-1,-1,-1],"loss_changes":[3.8702014E-1,5.856191E-1,4.8425162E-1,5.1060236E-1,5.975053E-2,3.0891836E-1,2.4356587E-1,0E0,0E0,0E0,0E0,0E0,0E0,0E0,0E0],"parents":[2147483647,0,0,1,1,2,2,3,3,4,4,5,5,6,6],"right_children":[2,4,6,8,10,12,14,-1,-1,-1,-1,-1,-1,-1,-1],"split_conditions":[-2.8324327E0,-2.2979743E0,-2.8296402E0,-2.3180037E0,-2.0662897E0,-1.6738043E0,1.18385896E-1,-8.047843E-5,-3.6465263E-4,3.945127E-5,-3.827783E-5,1.3399562E-4,-6.251061E-5,3.5207574E-6,-4.1220355E-6],"split_indices":[3,9,9,2,2,6,4,0,0,0,0,0,0,0,0],"split_type":[0,0,0,0,0,0,0,0,0,0,0,0,0,0,0],"sum_hessian":[1.69021E6,6.615E3,1.683595E6,2.661E3,3.954E3,5.197E3,1.678398E6,1.627E3,1.034E3,1.991E3,1.963E3,4.21E3,9.87E2,9.05549E5,7.72849E5],"tree_param":{"num_deleted":"0","num_feature":"20","num_nodes":"15","size_leaf_vector":"1"}},{"base_weights":[-1.5545516E-9,-7.557124E-3,2.9695546E-5,-1.8908884E-2,8.5339794E-5,9.570429E-3,1.4788709E-7,-1.440229E-4,-6.102544E-4,3.9056955E-5,-3.7895246E-5,1.501655E-4,-1.15009325E-5,3.4855511E-6,-4.0808163E-6],"categories":[],"categories_nodes":[],"categories_segments":[],"categories_sizes":[],"default_left":[0,0,0,0,0,0,0,0,0,0,0,0,0,0,0],"id":5,"left_children":[1,3,5,7,9,11,13,-1,-1,-1,-1,-1,-1,-1,-1],"loss_changes":[3.7932515E-1,5.7397544E-1,4.7461638E-1,5.043747E-1,5.8562092E-2,3.0350393E-1,2.3871905E-1,0E0,0E0,0E0,0E0,0E0,0E0,0E0,0E0],"parents":[2147483647,0,0,1,1,2,2,3,3,4,4,5,5,6,6],"right_children":[2,4,6,8,10,12,14,-1,-1,-1,-1,-1,-1,-1,-1],"split_conditions":[-2.8324327E0,-2.2979743E0,-2.8296402E0,-1.957822E0,-2.0662897E0,-2.1295345E0,1.18385896E-1,-1.440229E-4,-6.102544E-4,3.9056955E-5,-3.7895246E-5,1.501655E-4,-1.15009325E-5,3.4855511E-6,-4.0808163E-6],"split_indices":[3,9,9,8,2,6,4,0,0,0,0,0,0,0,0],"split_type":[0,0,0,0,0,0,0,0,0,0,0,0,0,0,0],"sum_hessian":[1.69021E6,6.615E3,1.683595E6,2.661E3,3.954E3,5.197E3,1.678398E6,2.405E3,2.56E2,1.991E3,1.963E3,3.446E3,1.751E3,9.05549E5,7.72849E5],"tree_param":{"num_deleted":"0","num_feature":"20","num_nodes":"15","size_leaf_vector":"1"}},{"base_weights":[-1.8704018E-9,-7.4816663E-3,2.9398705E-5,-1.872008E-2,8.448664E-5,9.474752E-3,1.4644095E-7,-7.802574E-5,-3.5874645E-4,3.866658E-5,-3.751649E-5,1.31448E-4,-6.177125E-5,3.4506952E-6,-4.040007E-6],"categories":[],"categories_nodes":[],"categories_segments":[],"categories_sizes":[],"default_left":[0,0,0,0,0,0,0,0,0,0,0,0,0,0,0],"id":6,"left_children":[1,3,5,7,9,11,13,-1,-1,-1,-1,-1,-1,-1,-1],"loss_changes":[3.717879E-1,5.625702E-1,4.6517414E-1,4.982729E-1,5.739729E-2,2.986707E-1,2.3396844E-1,0E0,0E0,0E0,0E0,0E0,0E0,0E0,0E0],"parents":[2147483647,0,0,1,1,2,2,3,3,4,4,5,5,6,6],"right_children":[2,4,6,8,10,12,14,-1,-1,-1,-1,-1,-1,-1,-1],"split_conditions":[-2.8324327E0,-2.2979743E0,-2.8296402E0,-2.3180037E0,-2.0662897E0,-1.6738043E0,1.18385896E-1,-7.802574E-5,-3.5874645E-4,3.866658E-5,-3.751649E-5,1.31448E-4,-6.177125E-5,3.4506952E-6,-4.040007E-6],"split_indices":[3,9,9,2,2,6,4,0,0,0,0,0,0,0,0],"split_type":[0,0,0,0,0,0,0,0,0,0,0,0,0,0,0],"sum_hessian":[1.69021E6,6.615E3,1.683595E6,2.661E3,3.954E3,5.197E3,1.678398E6,1.627E3,1.034E3,1.991E3,1.963E3,4.21E3,9.87E2,9.05549E5,7.72849E5],"tree_param":{"num_deleted":"0","num_feature":"20","num_nodes":"15","size_leaf_vector":"1"}},{"base_weights":[-2.200494E-9,-7.4069155E-3,2.9104627E-5,-1.8533042E-2,8.364201E-5,9.380017E-3,1.448432E-7,-1.4081043E-4,-6.013995E-4,3.8280108E-5,-3.7141515E-5,4.01749E-5,2.0136865E-4,3.416188E-6,-3.9996094E-6],"categories":[],"categories_nodes":[],"categories_segments":[],"categories_sizes":[],"default_left":[0,0,0,0,0,0,0,0,0,0,0,0,0,0,0],"id":7,"left_children":[1,3,5,7,9,11,13,-1,-1,-1,-1,-1,-1,-1,-1],"loss_changes":[3.6439574E-1,5.513849E-1,4.5591846E-1,4.9224573E-1,5.6255665E-2,2.9975995E-1,2.293126E-1,0E0,0E0,0E0,0E0,0E0,0E0,0E0,0E0],"parents":[2147483647,0,0,1,1,2,2,3,3,4,4,5,5,6,6],"right_children":[2,4,6,8,10,12,14,-1,-1,-1,-1,-1,-1,-1,-1],"split_conditions":[-2.8324327E0,-2.2979743E0,-2.8296402E0,-1.957822E0,-2.0662897E0,-1.0453268E0,1.18385896E-1,-1.4081043E-4,-6.013995E-4,3.8280108E-5,-3.7141515E-5,4.01749E-5,2.0136865E-4,3.416188E-6,-3.9996094E-6],"split_indices":[3,9,9,8,2,11,4,0,0,0,0,0,0,0,0],"split_type":[0,0,0,0,0,0,0,0,0,0,0,0,0,0,0],"sum_hessian":[1.69021E6,6.615E3,1.683595E6,2.661E3,3.954E3,5.197E3,1.678398E6,2.405E3,2.56E2,1.991E3,1.963E3,3.469E3,1.728E3,9.05549E5,7.72849E5],"tree_param":{"num_deleted":"0","num_feature":"20","num_nodes":"15","size_leaf_vector":"1"}},{"base_weights":[-2.3847415E-9,-7.3329583E-3,2.8813814E-5,-1.834799E-2,8.280603E-5,9.286263E-3,1.4348453E-7,-7.56322E-5,-3.5294134E-4,3.7897502E-5,-3.6770285E-5,1.542491E-4,-4.8194988E-8,3.3820263E-6,-3.959611E-6],"categories":[],"categories_nodes":[],"categories_segments":[],"categories_sizes":[],"default_left":[0,0,0,0,0,0,0,0,0,0,0,0,0,0,0],"id":8,"left_children":[1,3,5,7,9,11,13,-1,-1,-1,-1,-1,-1,-1,-1],"loss_changes":[3.5715517E-1,5.4042876E-1,4.4685015E-1,4.8624092E-1,5.5136736E-2,2.964663E-1,2.2474918E-1,0E0,0E0,0E0,0E0,0E0,0E0,0E0,0E0],"parents":[2147483647,0,0,1,1,2,2,3,3,4,4,5,5,6,6],"right_children":[2,4,6,8,10,12,14,-1,-1,-1,-1,-1,-1,-1,-1],"split_conditions":[-2.8324327E0,-2.2979743E0,-2.8296402E0,-2.3180037E0,-2.0662897E0,-2.2564204E0,1.18385896E-1,-7.56322E-5,-3.5294134E-4,3.7897502E-5,-3.6770285E-5,1.542491E-4,-4.8194988E-8,3.3820263E-6,-3.959611E-6],"split_indices":[3,9,9,2,2,6,4,0,0,0,0,0,0,0,0],"split_type":[0,0,0,0,0,0,0,0,0,0,0,0,0,0,0],"sum_hessian":[1.69021E6,6.615E3,1.683595E6,2.661E3,3.954E3,5.197E3,1.678398E6,1.627E3,1.034E3,1.991E3,1.963E3,3.129E3,2.068E3,9.05549E5,7.72849E5],"tree_param":{"num_deleted":"0","num_feature":"20","num_nodes":"15","size_leaf_vector":"1"}},{"base_weights":[-2.5416957E-9,-7.2596935E-3,2.8525748E-5,-1.8164672E-2,8.197828E-5,9.193431E-3,1.4203077E-7,-1.3766607E-4,-5.9268094E-4,3.7518716E-5,-3.640277E-5,3.8679438E-5,1.9876048E-4,3.3747872E-6,-3.889669E-6],"categories":[],"categories_nodes":[],"categories_segments":[],"categories_sizes":[],"default_left":[0,0,0,0,0,0,0,0,0,0,0,0,0,0,0],"id":9,"left_children":[1,3,5,7,9,11,13,-1,-1,-1,-1,-1,-1,-1,-1],"loss_changes":[3.5005403E-1,5.296836E-1,4.3796062E-1,4.8040837E-1,5.404007E-2,2.9563802E-1,2.2030802E-1,0E0,0E0,0E0,0E0,0E0,0E0,0E0,0E0],"parents":[2147483647,0,0,1,1,2,2,3,3,4,4,5,5,6,6],"right_children":[2,4,6,8,10,12,14,-1,-1,-1,-1,-1,-1,-1,-1],"split_conditions":[-2.8324327E0,-2.2979743E0,-2.8296402E0,-1.957822E0,-2.0662897E0,-1.0453268E0,1.08173855E-1,-1.3766607E-4,-5.9268094E-4,3.7518716E-5,-3.640277E-5,3.8679438E-5,1.9876048E-4,3.3747872E-6,-3.889669E-6],"split_indices":[3,9,9,8,2,11,4,0,0,0,0,0,0,0,0],"split_type":[0,0,0,0,0,0,0,0,0,0,0,0,0,0,0],"sum_hessian":[1.69021E6,6.615E3,1.683595E6,2.661E3,3.954E3,5.197E3,1.678398E6,2.405E3,2.56E2,1.991E3,1.963E3,3.469E3,1.728E3,8.99007E5,7.79391E5],"tree_param":{"num_deleted":"0","num_feature":"20","num_nodes":"15","size_leaf_vector":"1"}},{"base_weights":[-2.735387E-9,-7.1872063E-3,2.8240704E-5,-1.7983299E-2,8.11587E-5,9.101542E-3,1.4068226E-7,-7.329648E-5,-3.4723544E-4,3.7143716E-5,-3.603893E-5,1.2734113E-4,-6.390224E-5,3.3149838E-6,-3.8811186E-6],"categories":[],"categories_nodes":[],"categories_segments":[],"categories_sizes":[],"default_left":[0,0,0,0,0,0,0,0,0,0,0,0,0,0,0],"id":10,"left_children":[1,3,5,7,9,11,13,-1,-1,-1,-1,-1,-1,-1,-1],"loss_changes":[3.4309843E-1,5.1915854E-1,4.2924953E-1,4.744993E-1,5.2965213E-2,2.925986E-1,2.1592695E-1,0E0,0E0,0E0,0E0,0E0,0E0,0E0,0E0],"parents":[2147483647,0,0,1,1,2,2,3,3,4,4,5,5,6,6],"right_children":[2,4,6,8,10,12,14,-1,-1,-1,-1,-1,-1,-1,-1],"split_conditions":[-2.8324327E0,-2.2979743E0,-2.8296402E0,-2.3180037E0,-2.0662897E0,-1.6738043E0,1.18385896E-1,-7.329648E-5,-3.4723544E-4,3.7143716E-5,-3.603893E-5,1.2734113E-4,-6.390224E-5,3.3149838E-6,-3.8811186E-6],"split_indices":[3,9,9,2,2,6,4,0,0,0,0,0,0,0,0],"split_type":[0,0,0,0,0,0,0,0,0,0,0,0,0,0,0],"sum_hessian":[1.69021E6,6.615E3,1.683595E6,2.661E3,3.954E3,5.197E3,1.678398E6,1.627E3,1.034E3,1.991E3,1.963E3,4.21E3,9.87E2,9.05549E5,7.72849E5],"tree_param":{"num_deleted":"0","num_feature":"20","num_nodes":"15","size_leaf_vector":"1"}},{"base_weights":[-2.9784968E-9,-7.115398E-3,2.7958275E-5,-1.7803624E-2,8.03473E-5,9.010538E-3,1.3921603E-7,-1.1427117E-4,-4.5557565E-4,3.6772464E-5,-3.5678724E-5,3.7231344E-5,1.961683E-4,-3.882793E-7,3.271683E-5],"categories":[],"categories_nodes":[],"categories_segments":[],"categories_sizes":[],"default_left":[0,0,0,0,0,0,0,0,0,0,0,0,0,0,0],"id":11,"left_children":[1,3,5,7,9,11,13,-1,-1,-1,-1,-1,-1,-1,-1],"loss_changes":[3.3627674E-1,5.088364E-1,4.2070863E-1,4.705819E-1,5.1911734E-2,2.9142952E-1,2.1396701E-1,0E0,0E0,0E0,0E0,0E0,0E0,0E0,0E0],"parents":[2147483647,0,0,1,1,2,2,3,3,4,4,5,5,6,6],"right_children":[2,4,6,8,10,12,14,-1,-1,-1,-1,-1,-1,-1,-1],"split_conditions":[-2.8324327E0,-2.2979743E0,-2.8296402E0,-2.1525319E0,-2.0662897E0,-1.0453268E0,2.4259493E0,-1.1427117E-4,-4.5557565E-4,3.6772464E-5,-3.5678724E-5,3.7231344E-5,1.961683E-4,-3.882793E-7,3.271683E-5],"split_indices":[3,9,9,8,2,11,8,0,0,0,0,0,0,0,0],"split_type":[0,0,0,0,0,0,0,0,0,0,0,0,0,0,0],"sum_hessian":[1.69021E6,6.615E3,1.683595E6,2.661E3,3.954E3,5.197E3,1.678398E6,2.165E3,4.96E2,1.991E3,1.963E3,3.469E3,1.728E3,1.658643E6,1.9755E4],"tree_param":{"num_deleted":"0","num_feature":"20","num_nodes":"15","size_leaf_vector":"1"}},{"base_weights":[-3.0645833E-9,-7.04433E-3,2.7678912E-5,-1.7625801E-2,7.954418E-5,8.920478E-3,1.3790671E-7,-7.103831E-5,-3.4159273E-4,3.6404927E-5,-3.532212E-5,1.4999439E-4,-2.801348E-6,3.3117644E-6,-3.817063E-6],"categories":[],"categories_nodes":[],"categories_segments":[],"categories_sizes":[],"default_left":[0,0,0,0,0,0,0,0,0,0,0,0,0,0,0],"id":12,"left_children":[1,3,5,7,9,11,13,-1,-1,-1,-1,-1,-1,-1,-1],"loss_changes":[3.2959285E-1,4.9872264E-1,4.1234067E-1,4.628513E-1,5.0879214E-2,2.9072917E-1,2.121584E-1,0E0,0E0,0E0,0E0,0E0,0E0,0E0,0E0],"parents":[2147483647,0,0,1,1,2,2,3,3,4,4,5,5,6,6],"right_children":[2,4,6,8,10,12,14,-1,-1,-1,-1,-1,-1,-1,-1],"split_conditions":[-2.8324327E0,-2.2979743E0,-2.8296402E0,-2.3180037E0,-2.0662897E0,-2.2564204E0,1.08173855E-1,-7.103831E-5,-3.4159273E-4,3.6404927E-5,-3.532212E-5,1.4999439E-4,-2.801348E-6,3.3117644E-6,-3.817063E-6],"split_indices":[3,9,9,2,2,6,4,0,0,0,0,0,0,0,0],"split_type":[0,0,0,0,0,0,0,0,0,0,0,0,0,0,0],"sum_hessian":[1.69021E6,6.615E3,1.683595E6,2.661E3,3.954E3,5.197E3,1.678398E6,1.627E3,1.034E3,1.991E3,1.963E3,3.129E3,2.068E3,8.99007E5,7.79391E5],"tree_param":{"num_deleted":"0","num_feature":"20","num_nodes":"15","size_leaf_vector":"1"}},{"base_weights":[-3.2445797E-9,-6.973949E-3,2.7402157E-5,-1.74497E-2,7.8749035E-5,8.831302E-3,1.3647306E-7,-1.3143866E-4,-5.769243E-4,3.604106E-5,-3.4969074E-5,3.580348E-5,1.9364544E-4,-3.8486388E-7,3.2427753E-5],"categories":[],"categories_nodes":[],"categories_segments":[],"categories_sizes":[],"default_left":[0,0,0,0,0,0,0,0,0,0,0,0,0,0,0],"id":13,"left_children":[1,3,5,7,9,11,13,-1,-1,-1,-1,-1,-1,-1,-1],"loss_changes":[3.230397E-1,4.888067E-1,4.0413764E-1,4.6050882E-1,4.986722E-2,2.8742978E-1,2.102028E-1,0E0,0E0,0E0,0E0,0E0,0E0,0E0,0E0],"parents":[2147483647,0,0,1,1,2,2,3,3,4,4,5,5,6,6],"right_children":[2,4,6,8,10,12,14,-1,-1,-1,-1,-1,-1,-1,-1],"split_conditions":[-2.8324327E0,-2.2979743E0,-2.8296402E0,-1.957822E0,-2.0662897E0,-1.0453268E0,2.4259493E0,-1.3143866E-4,-5.769243E-4,3.604106E-5,-3.4969074E-5,3.580348E-5,1.9364544E-4,-3.8486388E-7,3.2427753E-5],"split_indices":[3,9,9,8,2,11,8,0,0,0,0,0,0,0,0],"split_type":[0,0,0,0,0,0,0,0,0,0,0,0,0,0,0],"sum_hessian":[1.69021E6,6.615E3,1.683595E6,2.661E3,3.954E3,5.197E3,1.678398E6,2.405E3,2.56E2,1.991E3,1.963E3,3.469E3,1.728E3,1.658643E6,1.9755E4],"tree_param":{"num_deleted":"0","num_feature":"20","num_nodes":"15","size_leaf_vector":"1"}},{"base_weights":[-3.4075953E-9,-6.904316E-3,2.7128359E-5,-1.7275468E-2,7.79618E-5,8.743033E-3,1.351969E-7,-1.1020455E-4,-4.4500982E-4,3.568083E-5,-3.4619563E-5,1.4780014E-4,-3.9398737E-6,3.256943E-6,-3.813231E-6],"categories":[],"categories_nodes":[],"categories_segments":[],"categories_sizes":[],"default_left":[0,0,0,0,0,0,0,0,0,0,0,0,0,0,0],"id":14,"left_children":[1,3,5,7,9,11,13,-1,-1,-1,-1,-1,-1,-1,-1],"loss_changes":[3.16621E-1,4.7909406E-1,3.960993E-1,4.528374E-1,4.887536E-2,2.8672764E-1,2.0843585E-1,0E0,0E0,0E0,0E0,0E0,0E0,0E0,0E0],"parents":[2147483647,0,0,1,1,2,2,3,3,4,4,5,5,6,6],"right_children":[2,4,6,8,10,12,14,-1,-1,-1,-1,-1,-1,-1,-1],"split_conditions":[-2.8324327E0,-2.2979743E0,-2.8296402E0,-2.1525319E0,-2.0662897E0,-2.2564204E0,1.18385896E-1,-1.1020455E-4,-4.4500982E-4,3.568083E-5,-3.4619563E-5,1.4780014E-4,-3.9398737E-6,3.256943E-6,-3.813231E-6],"split_indices":[3,9,9,8,2,6,4,0,0,0,0,0,0,0,0],"split_type":[0,0,0,0,0,0,0,0,0,0,0,0,0,0,0],"sum_hessian":[1.69021E6,6.615E3,1.683595E6,2.661E3,3.954E3,5.197E3,1.678398E6,2.165E3,4.96E2,1.991E3,1.963E3,3.129E3,2.068E3,9.05549E5,7.72849E5],"tree_param":{"num_deleted":"0","num_feature":"20","num_nodes":"15","size_leaf_vector":"1"}},{"base_weights":[-3.6834726E-9,-6.835357E-3,2.6857093E-5,-1.7102921E-2,7.718247E-5,8.65563E-3,1.3377642E-7,-6.7337314E-5,-3.339658E-4,3.53242E-5,-3.4273544E-5,3.4408764E-5,1.9116323E-4,-3.814819E-7,3.2141525E-5],"categories":[],"categories_nodes":[],"categories_segments":[],"categories_sizes":[],"default_left":[0,0,0,0,0,0,0,0,0,0,0,0,0,0,0],"id":15,"left_children":[1,3,5,7,9,11,13,-1,-1,-1,-1,-1,-1,-1,-1],"loss_changes":[3.103278E-1,4.695715E-1,3.8821945E-1,4.495256E-1,4.7903232E-2,2.8348482E-1,2.0650859E-1,0E0,0E0,0E0,0E0,0E0,0E0,0E0,0E0],"parents":[2147483647,0,0,1,1,2,2,3,3,4,4,5,5,6,6],"right_children":[2,4,6,8,10,12,14,-1,-1,-1,-1,-1,-1,-1,-1],"split_conditions":[-2.8324327E0,-2.2979743E0,-2.8296402E0,-2.3180037E0,-2.0662897E0,-1.0453268E0,2.4259493E0,-6.7337314E-5,-3.339658E-4,3.53242E-5,-3.4273544E-5,3.4408764E-5,1.9116323E-4,-3.814819E-7,3.2141525E-5],"split_indices":[3,9,9,2,2,11,8,0,0,0,0,0,0,0,0],"split_type":[0,0,0,0,0,0,0,0,0,0,0,0,0,0,0],"sum_hessian":[1.69021E6,6.615E3,1.683595E6,2.661E3,3.954E3,5.197E3,1.678398E6,1.627E3,1.034E3,1.991E3,1.963E3,3.469E3,1.728E3,1.658643E6,1.9755E4],"tree_param":{"num_deleted":"0","num_feature":"20","num_nodes":"15","size_leaf_vector":"1"}},{"base_weights":[-3.73247E-9,-6.7670634E-3,2.6588674E-5,-1.6932042E-2,7.64109E-5,8.569117E-3,1.324561E-7,-1.270731E-4,-5.6417537E-4,3.4971134E-5,-3.393098E-5,1.215333E-4,-6.7159956E-5,3.253721E-6,-3.7502282E-6],"categories":[],"categories_nodes":[],"categories_segments":[],"categories_sizes":[],"default_left":[0,0,0,0,0,0,0,0,0,0,0,0,0,0,0],"id":16,"left_children":[1,3,5,7,9,11,13,-1,-1,-1,-1,-1,-1,-1,-1],"loss_changes":[3.0415773E-1,4.6023518E-1,3.804977E-1,4.4334644E-1,4.6950433E-2,2.8485462E-1,2.0479059E-1,0E0,0E0,0E0,0E0,0E0,0E0,0E0,0E0],"parents":[2147483647,0,0,1,1,2,2,3,3,4,4,5,5,6,6],"right_children":[2,4,6,8,10,12,14,-1,-1,-1,-1,-1,-1,-1,-1],"split_conditions":[-2.8324327E0,-2.2979743E0,-2.8296402E0,-1.957822E0,-2.0662897E0,-1.6738043E0,1.08173855E-1,-1.270731E-4,-5.6417537E-4,3.4971134E-5,-3.393098E-5,1.215333E-4,-6.7159956E-5,3.253721E-6,-3.7502282E-6],"split_indices":[3,9,9,8,2,6,4,0,0,0,0,0,0,0,0],"split_type":[0,0,0,0,0,0,0,0,0,0,0,0,0,0,0],"sum_hessian":[1.69021E6,6.615E3,1.683595E6,2.661E3,3.954E3,5.197E3,1.678398E6,2.405E3,2.56E2,1.991E3,1.963E3,4.21E3,9.87E2,8.99007E5,7.79391E5],"tree_param":{"num_deleted":"0","num_feature":"20","num_nodes":"15","size_leaf_vector":"1"}},{"base_weights":[-4.0869637E-9,-6.6994973E-3,2.6322803E-5,-1.6762983E-2,7.5647135E-5,8.483436E-3,1.3111637E-7,-6.519841E-5,-3.2858702E-4,2.6527156E-5,-4.4816148E-5,3.3058604E-5,1.8869615E-4,-3.781262E-7,3.1857533E-5],"categories":[],"categories_nodes":[],"categories_segments":[],"categories_sizes":[],"default_left":[0,0,0,0,0,0,0,0,0,0,0,0,0,0,0],"id":17,"left_children":[1,3,5,7,9,11,13,-1,-1,-1,-1,-1,-1,-1,-1],"loss_changes":[2.9811424E-1,4.5109054E-1,3.7292674E-1,4.3867165E-1,4.64609E-2,2.7946123E-1,2.0287563E-1,0E0,0E0,0E0,0E0,0E0,0E0,0E0,0E0],"parents":[2147483647,0,0,1,1,2,2,3,3,4,4,5,5,6,6],"right_children":[2,4,6,8,10,12,14,-1,-1,-1,-1,-1,-1,-1,-1],"split_conditions":[-2.8324327E0,-2.2979743E0,-2.8296402E0,-2.3180037E0,-1.4101571E0,-1.0453268E0,2.4259493E0,-6.519841E-5,-3.2858702E-4,2.6527156E-5,-4.4816148E-5,3.3058604E-5,1.8869615E-4,-3.781262E-7,3.1857533E-5],"split_indices":[3,9,9,2,1,11,8,0,0,0,0,0,0,0,0],"split_type":[0,0,0,0,0,0,0,0,0,0,0,0,0,0,0],"sum_hessian":[1.69021E6,6.615E3,1.683595E6,2.661E3,3.954E3,5.197E3,1.678398E6,1.627E3,1.034E3,2.526E3,1.428E3,3.469E3,1.728E3,1.658643E6,1.9755E4],"tree_param":{"num_deleted":"0","num_feature":"20","num_nodes":"15","size_leaf_vector":"1"}},{"base_weights":[-4.2063233E-9,-6.6325646E-3,2.6059659E-5,-1.65955E-2,7.488594E-5,4.458911E-3,-2.3000277E-5,-1.0474384E-4,-4.323884E-4,3.4496497E-5,-3.3480286E-5,1.437665E-4,2.429696E-5,-6.114436E-7,3.1538973E-5],"categories":[],"categories_nodes":[],"categories_segments":[],"categories_sizes":[],"default_left":[0,0,0,0,0,0,0,0,0,0,0,0,0,0,0],"id":18,"left_children":[1,3,5,7,9,11,13,-1,-1,-1,-1,-1,-1,-1,-1],"loss_changes":[2.921872E-1,4.421214E-1,3.661408E-1,4.336846E-1,4.5697846E-2,3.708528E-1,2.0178501E-1,0E0,0E0,0E0,0E0,0E0,0E0,0E0,0E0],"parents":[2147483647,0,0,1,1,2,2,3,3,4,4,5,5,6,6],"right_children":[2,4,6,8,10,12,14,-1,-1,-1,-1,-1,-1,-1,-1],"split_conditions":[-2.8324327E0,-2.2979743E0,-2.2564204E0,-2.1525319E0,-2.0662897E0,-2.8296402E0,2.4259493E0,-1.0474384E-4,-4.323884E-4,3.4496497E-5,-3.3480286E-5,1.437665E-4,2.429696E-5,-6.114436E-7,3.1538973E-5],"split_indices":[3,9,6,8,2,9,8,0,0,0,0,0,0,0,0],"split_type":[0,0,0,0,0,0,0,0,0,0,0,0,0,0,0],"sum_hessian":[1.69021E6,6.615E3,1.683595E6,2.661E3,3.954E3,1.8428E4,1.665167E6,2.165E3,4.96E2,1.991E3,1.963E3,3.129E3,1.5299E4,1.645412E6,1.9755E4],"tree_param":{"num_deleted":"0","num_feature":"20","num_nodes":"15","size_leaf_vector":"1"}},{"base_weights":[-4.3455928E-9,-6.56632E-3,2.57992E-5,-1.6429747E-2,7.4137366E-5,4.4143307E-3,-2.2770239E-5,-6.313173E-5,-3.2326704E-4,2.6166257E-5,-4.421973E-5,1.423293E-4,2.4054005E-5,-7.197125E-7,2.391733E-5],"categories":[],"categories_nodes":[],"categories_segments":[],"categories_sizes":[],"default_left":[0,0,0,0,0,0,0,0,0,0,0,0,0,0,0],"id":19,"left_children":[1,3,5,7,9,11,13,-1,-1,-1,-1,-1,-1,-1,-1],"loss_changes":[2.8637975E-1,4.3333378E-1,3.5885608E-1,4.2790627E-1,4.5222398E-2,3.6347553E-1,1.9781546E-1,0E0,0E0,0E0,0E0,0E0,0E0,0E0,0E0],"parents":[2147483647,0,0,1,1,2,2,3,3,4,4,5,5,6,6],"right_children":[2,4,6,8,10,12,14,-1,-1,-1,-1,-1,-1,-1,-1],"split_conditions":[-2.8324327E0,-2.2979743E0,-2.2564204E0,-2.3180037E0,-1.4101571E0,-2.8296402E0,2.1590645E0,-6.313173E-5,-3.2326704E-4,2.6166257E-5,-4.421973E-5,1.423293E-4,2.4054005E-5,-7.197125E-7,2.391733E-5],"split_indices":[3,9,6,2,1,9,7,0,0,0,0,0,0,0,0],"split_type":[0,0,0,0,0,0,0,0,0,0,0,0,0,0,0],"sum_hessian":[1.69021E6,6.615E3,1.683595E6,2.661E3,3.954E3,1.8428E4,1.665167E6,1.627E3,1.034E3,2.526E3,1.428E3,3.129E3,1.5299E4,1.631914E6,3.3253E4],"tree_param":{"num_deleted":"0","num_feature":"20","num_nodes":"15","size_leaf_vector":"1"}},{"base_weights":[-4.398849E-9,-6.5007177E-3,2.554135E-5,-1.6265595E-2,7.339142E-5,4.3701963E-3,-2.254249E-5,-1.212946E-4,-5.492424E-4,3.4028333E-5,-3.3035543E-5,1.4090644E-4,2.381348E-5,-6.009939E-7,3.105451E-5],"categories":[],"categories_nodes":[],"categories_segments":[],"categories_sizes":[],"default_left":[0,0,0,0,0,0,0,0,0,0,0,0,0,0,0],"id":20,"left_children":[1,3,5,7,9,11,13,-1,-1,-1,-1,-1,-1,-1,-1],"loss_changes":[2.8068605E-1,4.2471772E-1,3.5171625E-1,4.2498052E-1,4.4478673E-2,3.56245E-1,1.9562042E-1,0E0,0E0,0E0,0E0,0E0,0E0,0E0,0E0],"parents":[2147483647,0,0,1,1,2,2,3,3,4,4,5,5,6,6],"right_children":[2,4,6,8,10,12,14,-1,-1,-1,-1,-1,-1,-1,-1],"split_conditions":[-2.8324327E0,-2.2979743E0,-2.2564204E0,-1.957822E0,-2.0662897E0,-2.8296402E0,2.4259493E0,-1.212946E-4,-5.492424E-4,3.4028333E-5,-3.3035543E-5,1.4090644E-4,2.381348E-5,-6.009939E-7,3.105451E-5],"split_indices":[3,9,6,8,2,9,8,0,0,0,0,0,0,0,0],"split_type":[0,0,0,0,0,0,0,0,0,0,0,0,0,0,0],"sum_hessian":[1.69021E6,6.615E3,1.683595E6,2.661E3,3.954E3,1.8428E4,1.665167E6,2.405E3,2.56E2,1.991E3,1.963E3,3.129E3,1.5299E4,1.645412E6,1.9755E4],"tree_param":{"num_deleted":"0","num_feature":"20","num_nodes":"15","size_leaf_vector":"1"}},{"base_weights":[-4.5240065E-9,-6.435812E-3,2.5286165E-5,-1.6103191E-2,7.265778E-5,4.3265033E-3,-2.2316935E-5,-6.10967E-5,-3.1806907E-4,2.58103E-5,-4.363122E-5,1.3949785E-4,2.3575361E-5,-5.957726E-7,3.073047E-5],"categories":[],"categories_nodes":[],"categories_segments":[],"categories_sizes":[],"default_left":[0,0,0,0,0,0,0,0,0,0,0,0,0,0,0],"id":21,"left_children":[1,3,5,7,9,11,13,-1,-1,-1,-1,-1,-1,-1,-1],"loss_changes":[2.7510902E-1,4.162788E-1,3.4471855E-1,4.175679E-1,4.4016905E-2,3.4915838E-1,1.9205113E-1,0E0,0E0,0E0,0E0,0E0,0E0,0E0,0E0],"parents":[2147483647,0,0,1,1,2,2,3,3,4,4,5,5,6,6],"right_children":[2,4,6,8,10,12,14,-1,-1,-1,-1,-1,-1,-1,-1],"split_conditions":[-2.8324327E0,-2.2979743E0,-2.2564204E0,-2.3180037E0,-1.4101571E0,-2.8296402E0,2.4095209E0,-6.10967E-5,-3.1806907E-4,2.58103E-5,-4.363122E-5,1.3949785E-4,2.3575361E-5,-5.957726E-7,3.073047E-5],"split_indices":[3,9,6,2,1,9,7,0,0,0,0,0,0,0,0],"split_type":[0,0,0,0,0,0,0,0,0,0,0,0,0,0,0],"sum_hessian":[1.69021E6,6.615E3,1.683595E6,2.661E3,3.954E3,1.8428E4,1.665167E6,1.627E3,1.034E3,2.526E3,1.428E3,3.129E3,1.5299E4,1.645362E6,1.9805E4],"tree_param":{"num_deleted":"0","num_feature":"20","num_nodes":"15","size_leaf_vector":"1"}},{"base_weights":[-4.6463318E-9,-6.371514E-3,2.503337E-5,-1.5942302E-2,7.1926705E-5,3.7007094E-3,-2.971104E-5,-9.9521494E-5,-4.2016196E-4,3.356655E-5,-3.2596672E-5,1.3126477E-4,2.1723561E-5,-6.6918267E-7,3.0573363E-5],"categories":[],"categories_nodes":[],"categories_segments":[],"categories_sizes":[],"default_left":[0,0,0,0,0,0,0,0,0,0,0,0,0,0,0],"id":22,"left_children":[1,3,5,7,9,11,13,-1,-1,-1,-1,-1,-1,-1,-1],"loss_changes":[2.6963946E-1,4.0800193E-1,3.3877787E-1,4.1535056E-1,4.3292016E-2,3.5589817E-1,1.9054109E-1,0E0,0E0,0E0,0E0,0E0,0E0,0E0,0E0],"parents":[2147483647,0,0,1,1,2,2,3,3,4,4,5,5,6,6],"right_children":[2,4,6,8,10,12,14,-1,-1,-1,-1,-1,-1,-1,-1],"split_conditions":[-2.8324327E0,-2.2979743E0,-2.1295345E0,-2.1525319E0,-2.0662897E0,-2.8296402E0,2.4259493E0,-9.9521494E-5,-4.2016196E-4,3.356655E-5,-3.2596672E-5,1.3126477E-4,2.1723561E-5,-6.6918267E-7,3.0573363E-5],"split_indices":[3,9,6,8,2,9,8,0,0,0,0,0,0,0,0],"split_type":[0,0,0,0,0,0,0,0,0,0,0,0,0,0,0],"sum_hessian":[1.69021E6,6.615E3,1.683595E6,2.661E3,3.954E3,2.4706E4,1.658889E6,2.165E3,4.96E2,1.991E3,1.963E3,3.446E3,2.126E4,1.639134E6,1.9755E4],"tree_param":{"num_deleted":"0","num_feature":"20","num_nodes":"15","size_leaf_vector":"1"}},{"base_weights":[-4.774581E-9,-6.307877E-3,2.478317E-5,-1.5783073E-2,7.120775E-5,3.6637087E-3,-2.941389E-5,-1.172479E-4,-5.371477E-4,2.5459218E-5,-4.3050506E-5,1.299525E-4,2.1506337E-5,-7.7561145E-7,2.324288E-5],"categories":[],"categories_nodes":[],"categories_segments":[],"categories_sizes":[],"default_left":[0,0,0,0,0,0,0,0,0,0,0,0,0,0,0],"id":23,"left_children":[1,3,5,7,9,11,13,-1,-1,-1,-1,-1,-1,-1,-1],"loss_changes":[2.642802E-1,3.9989257E-1,3.3203733E-1,4.0915197E-1,4.284356E-2,3.4881818E-1,1.8799272E-1,0E0,0E0,0E0,0E0,0E0,0E0,0E0,0E0],"parents":[2147483647,0,0,1,1,2,2,3,3,4,4,5,5,6,6],"right_children":[2,4,6,8,10,12,14,-1,-1,-1,-1,-1,-1,-1,-1],"split_conditions":[-2.8324327E0,-2.2979743E0,-2.1295345E0,-1.957822E0,-1.4101571E0,-2.8296402E0,2.1590645E0,-1.172479E-4,-5.371477E-4,2.5459218E-5,-4.3050506E-5,1.299525E-4,2.1506337E-5,-7.7561145E-7,2.324288E-5],"split_indices":[3,9,6,8,1,9,7,0,0,0,0,0,0,0,0],"split_type":[0,0,0,0,0,0,0,0,0,0,0,0,0,0,0],"sum_hessian":[1.69021E6,6.615E3,1.683595E6,2.661E3,3.954E3,2.4706E4,1.658889E6,2.405E3,2.56E2,2.526E3,1.428E3,3.446E3,2.126E4,1.625636E6,3.3253E4],"tree_param":{"num_deleted":"0","num_feature":"20","num_nodes":"15","size_leaf_vector":"1"}},{"base_weights":[-5.092637E-9,-6.2449E-3,2.453537E-5,-1.5625488E-2,7.049117E-5,3.627078E-3,-2.911981E-5,-5.777104E-5,-3.1101375E-4,3.3111064E-5,-3.21636E-5,1.2865335E-4,2.1291284E-5,-6.575365E-7,3.010354E-5],"categories":[],"categories_nodes":[],"categories_segments":[],"categories_sizes":[],"default_left":[0,0,0,0,0,0,0,0,0,0,0,0,0,0,0],"id":24,"left_children":[1,3,5,7,9,11,13,-1,-1,-1,-1,-1,-1,-1,-1],"loss_changes":[2.590294E-1,3.9194676E-1,3.254309E-1,4.0554237E-1,4.213702E-2,3.41879E-1,1.8471363E-1,0E0,0E0,0E0,0E0,0E0,0E0,0E0,0E0],"parents":[2147483647,0,0,1,1,2,2,3,3,4,4,5,5,6,6],"right_children":[2,4,6,8,10,12,14,-1,-1,-1,-1,-1,-1,-1,-1],"split_conditions":[-2.8324327E0,-2.2979743E0,-2.1295345E0,-2.3180037E0,-2.0662897E0,-2.8296402E0,2.4259493E0,-5.777104E-5,-3.1101375E-4,3.3111064E-5,-3.21636E-5,1.2865335E-4,2.1291284E-5,-6.575365E-7,3.010354E-5],"split_indices":[3,9,6,2,2,9,8,0,0,0,0,0,0,0,0],"split_type":[0,0,0,0,0,0,0,0,0,0,0,0,0,0,0],"sum_hessian":[1.69021E6,6.615E3,1.683595E6,2.661E3,3.954E3,2.4706E4,1.658889E6,1.627E3,1.034E3,1.991E3,1.963E3,3.446E3,2.126E4,1.639134E6,1.9755E4],"tree_param":{"num_deleted":"0","num_feature":"20","num_nodes":"15","size_leaf_vector":"1"}},{"base_weights":[-5.221135E-9,-6.1825067E-3,2.4290055E-5,-1.4483705E-2,8.22846E-4,4.163489E-3,-2.1519936E-5,-4.7043464E-5,-2.91731E-4,-9.6254684E-5,1.4849066E-5,1.3420584E-4,2.2694454E-5,-5.771732E-7,2.9855413E-5],"categories":[],"categories_nodes":[],"categories_segments":[],"categories_sizes":[],"default_left":[0,0,0,0,0,0,0,0,0,0,0,0,0,0,0],"id":25,"left_children":[1,3,5,7,9,11,13,-1,-1,-1,-1,-1,-1,-1,-1],"loss_changes":[2.5387925E-1,3.84751E-1,3.1923798E-1,4.348436E-1,2.4840904E-2,3.2309157E-1,1.8124998E-1,0E0,0E0,0E0,0E0,0E0,0E0,0E0,0E0],"parents":[2147483647,0,0,1,1,2,2,3,3,4,4,5,5,6,6],"right_children":[2,4,6,8,10,12,14,-1,-1,-1,-1,-1,-1,-1,-1],"split_conditions":[-2.8324327E0,-2.1561248E0,-2.2564204E0,-2.3180037E0,-2.1525319E0,-2.8296402E0,2.4095209E0,-4.7043464E-5,-2.91731E-4,-9.6254684E-5,1.4849066E-5,1.3420584E-4,2.2694454E-5,-5.771732E-7,2.9855413E-5],"split_indices":[3,9,6,2,8,9,7,0,0,0,0,0,0,0,0],"split_type":[0,0,0,0,0,0,0,0,0,0,0,0,0,0,0],"sum_hessian":[1.69021E6,6.615E3,1.683595E6,3.027E3,3.588E3,1.8428E4,1.665167E6,1.818E3,1.209E3,2.13E2,3.375E3,3.129E3,1.5299E4,1.645362E6,1.9805E4],"tree_param":{"num_deleted":"0","num_feature":"20","num_nodes":"15","size_leaf_vector":"1"}},{"base_weights":[-5.2127462E-9,-6.120745E-3,2.404736E-5,-1.5327303E-2,7.747929E-5,3.5599105E-3,-2.8614717E-5,-9.4649666E-5,-4.0845393E-4,2.518716E-5,-4.2395837E-5,1.2614946E-4,2.0916694E-5,-7.5657204E-7,2.2710794E-5],"categories":[],"categories_nodes":[],"categories_segments":[],"categories_sizes":[],"default_left":[0,0,0,0,0,0,0,0,0,0,0,0,0,0,0],"id":26,"left_children":[1,3,5,7,9,11,13,-1,-1,-1,-1,-1,-1,-1,-1],"loss_changes":[2.4883223E-1,3.7753862E-1,3.1349558E-1,3.9783698E-1,4.1692317E-2,3.2845262E-1,1.7946443E-1,0E0,0E0,0E0,0E0,0E0,0E0,0E0,0E0],"parents":[2147483647,0,0,1,1,2,2,3,3,4,4,5,5,6,6],"right_children":[2,4,6,8,10,12,14,-1,-1,-1,-1,-1,-1,-1,-1],"split_conditions":[-2.8324327E0,-2.2979743E0,-2.1295345E0,-2.1525319E0,-1.4101571E0,-2.8296402E0,2.1590645E0,-9.4649666E-5,-4.0845393E-4,2.518716E-5,-4.2395837E-5,1.2614946E-4,2.0916694E-5,-7.5657204E-7,2.2710794E-5],"split_indices":[3,9,6,8,1,9,7,0,0,0,0,0,0,0,0],"split_type":[0,0,0,0,0,0,0,0,0,0,0,0,0,0,0],"sum_hessian":[1.69021E6,6.615E3,1.683595E6,2.661E3,3.954E3,2.4706E4,1.658889E6,2.165E3,4.96E2,2.526E3,1.428E3,3.446E3,2.126E4,1.625636E6,3.3253E4],"tree_param":{"num_deleted":"0","num_feature":"20","num_nodes":"15","size_leaf_vector":"1"}},{"base_weights":[-5.45394E-9,-6.0596163E-3,2.38069E-5,-1.4204988E-2,8.142334E-4,3.5243174E-3,-2.8328644E-5,-4.5428893E-5,-2.8718336E-4,-9.541154E-5,1.4704059E-5,1.2488835E-4,2.0707535E-5,-6.419708E-7,2.9476398E-5],"categories":[],"categories_nodes":[],"categories_segments":[],"categories_sizes":[],"default_left":[0,0,0,0,0,0,0,0,0,0,0,0,0,0,0],"id":27,"left_children":[1,3,5,7,9,11,13,-1,-1,-1,-1,-1,-1,-1,-1],"loss_changes":[2.4388677E-1,3.7044185E-1,3.0725807E-1,4.244842E-1,2.4401E-2,3.219186E-1,1.7707564E-1,0E0,0E0,0E0,0E0,0E0,0E0,0E0,0E0],"parents":[2147483647,0,0,1,1,2,2,3,3,4,4,5,5,6,6],"right_children":[2,4,6,8,10,12,14,-1,-1,-1,-1,-1,-1,-1,-1],"split_conditions":[-2.8324327E0,-2.1561248E0,-2.1295345E0,-2.3180037E0,-2.1525319E0,-2.8296402E0,2.4259493E0,-4.5428893E-5,-2.8718336E-4,-9.541154E-5,1.4704059E-5,1.2488835E-4,2.0707535E-5,-6.419708E-7,2.9476398E-5],"split_indices":[3,9,6,2,8,9,8,0,0,0,0,0,0,0,0],"split_type":[0,0,0,0,0,0,0,0,0,0,0,0,0,0,0],"sum_hessian":[1.69021E6,6.615E3,1.683595E6,3.027E3,3.588E3,2.4706E4,1.658889E6,1.818E3,1.209E3,2.13E2,3.375E3,3.446E3,2.126E4,1.639134E6,1.9755E4],"tree_param":{"num_deleted":"0","num_feature":"20","num_nodes":"15","size_leaf_vector":"1"}},{"base_weights":[-5.4037144E-9,-5.9990822E-3,2.3569073E-5,-1.5034902E-2,8.419196E-5,4.0446855E-3,-2.093405E-5,-1.1069871E-4,-5.2096485E-4,2.5007592E-5,-4.1892505E-5,1.3035465E-4,2.2051308E-5,2.7954238E-6,-3.851758E-6],"categories":[],"categories_nodes":[],"categories_segments":[],"categories_sizes":[],"default_left":[0,0,0,0,0,0,0,0,0,0,0,0,0,0,0],"id":28,"left_children":[1,3,5,7,9,11,13,-1,-1,-1,-1,-1,-1,-1,-1],"loss_changes":[2.3903841E-1,3.636654E-1,3.0128336E-1,3.906049E-1,4.0854007E-2,3.0476895E-1,1.8224618E-1,0E0,0E0,0E0,0E0,0E0,0E0,0E0,0E0],"parents":[2147483647,0,0,1,1,2,2,3,3,4,4,5,5,6,6],"right_children":[2,4,6,8,10,12,14,-1,-1,-1,-1,-1,-1,-1,-1],"split_conditions":[-2.8324327E0,-2.2979743E0,-2.2564204E0,-1.957822E0,-1.4101571E0,-2.8296402E0,1.4882381E-1,-1.1069871E-4,-5.2096485E-4,2.5007592E-5,-4.1892505E-5,1.3035465E-4,2.2051308E-5,2.7954238E-6,-3.851758E-6],"split_indices":[3,9,6,8,1,9,4,0,0,0,0,0,0,0,0],"split_type":[0,0,0,0,0,0,0,0,0,0,0,0,0,0,0],"sum_hessian":[1.69021E6,6.615E3,1.683595E6,2.661E3,3.954E3,1.8428E4,1.665167E6,2.405E3,2.56E2,2.526E3,1.428E3,3.129E3,1.5299E4,9.12452E5,7.52715E5],"tree_param":{"num_deleted":"0","num_feature":"20","num_nodes":"15","size_leaf_vector":"1"}},{"base_weights":[-5.7458327E-9,-5.93919E-3,2.333337E-5,-1.3931673E-2,8.056359E-4,3.4582603E-3,-2.7825396E-5,-4.383787E-5,-2.8273553E-4,-9.457635E-5,1.455972E-5,1.2245397E-4,2.033458E-5,-7.421218E-7,2.239815E-5],"categories":[],"categories_nodes":[],"categories_segments":[],"categories_sizes":[],"default_left":[0,0,0,0,0,0,0,0,0,0,0,0,0,0,0],"id":29,"left_children":[1,3,5,7,9,11,13,-1,-1,-1,-1,-1,-1,-1,-1],"loss_changes":[2.3428924E-1,3.5666585E-1,2.9585272E-1,4.1451406E-1,2.3968821E-2,3.09305E-1,1.744964E-1,0E0,0E0,0E0,0E0,0E0,0E0,0E0,0E0],"parents":[2147483647,0,0,1,1,2,2,3,3,4,4,5,5,6,6],"right_children":[2,4,6,8,10,12,14,-1,-1,-1,-1,-1,-1,-1,-1],"split_conditions":[-2.8324327E0,-2.1561248E0,-2.1295345E0,-2.3180037E0,-2.1525319E0,-2.8296402E0,2.1590645E0,-4.383787E-5,-2.8273553E-4,-9.457635E-5,1.455972E-5,1.2245397E-4,2.033458E-5,-7.421218E-7,2.239815E-5],"split_indices":[3,9,6,2,8,9,7,0,0,0,0,0,0,0,0],"split_type":[0,0,0,0,0,0,0,0,0,0,0,0,0,0,0],"sum_hessian":[1.69021E6,6.615E3,1.683595E6,3.027E3,3.588E3,2.4706E4,1.658889E6,1.818E3,1.209E3,2.13E2,3.375E3,3.446E3,2.126E4,1.625636E6,3.3253E4],"tree_param":{"num_deleted":"0","num_feature":"20","num_nodes":"15","size_leaf_vector":"1"}},{"base_weights":[-5.770441E-9,-5.879859E-3,2.3100194E-5,-1.4748174E-2,9.0642294E-5,3.4236833E-3,-2.7547065E-5,1.5988087E-4,-1.9423386E-4,3.2598775E-5,-3.1238218E-5,1.2122978E-4,2.0131245E-5,2.6601706E-6,-3.8113312E-6],"categories":[],"categories_nodes":[],"categories_segments":[],"categories_sizes":[],"default_left":[0,0,0,0,0,0,0,0,0,0,0,0,0,0,0],"id":30,"left_children":[1,3,5,7,9,11,13,-1,-1,-1,-1,-1,-1,-1,-1],"loss_changes":[2.2963168E-1,3.503072E-1,2.899662E-1,3.8283604E-1,4.0301323E-2,3.0315188E-1,1.7219318E-1,0E0,0E0,0E0,0E0,0E0,0E0,0E0,0E0],"parents":[2147483647,0,0,1,1,2,2,3,3,4,4,5,5,6,6],"right_children":[2,4,6,8,10,12,14,-1,-1,-1,-1,-1,-1,-1,-1],"split_conditions":[-2.8324327E0,-2.2979743E0,-2.1295345E0,-2.3437662E0,-2.0662897E0,-2.8296402E0,1.4882381E-1,1.5988087E-4,-1.9423386E-4,3.2598775E-5,-3.1238218E-5,1.2122978E-4,2.0131245E-5,2.6601706E-6,-3.8113312E-6],"split_indices":[3,9,6,19,2,9,4,0,0,0,0,0,0,0,0],"split_type":[0,0,0,0,0,0,0,0,0,0,0,0,0,0,0],"sum_hessian":[1.69021E6,6.615E3,1.683595E6,2.661E3,3.954E3,2.4706E4,1.658889E6,3.51E2,2.31E3,1.991E3,1.963E3,3.446E3,2.126E4,9.06374E5,7.52515E5],"tree_param":{"num_deleted":"0","num_feature":"20","num_nodes":"15","size_leaf_vector":"1"}},{"base_weights":[-5.669117E-9,-5.8210655E-3,2.2869257E-5,-1.3663598E-2,7.972151E-4,3.9292793E-3,-2.0364372E-5,-4.227288E-5,-2.7837965E-4,-9.370294E-5,1.44148335E-5,1.2661544E-4,2.1426178E-5,2.7447036E-6,-3.777672E-6],"categories":[],"categories_nodes":[],"categories_segments":[],"categories_sizes":[],"default_left":[0,0,0,0,0,0,0,0,0,0,0,0,0,0,0],"id":31,"left_children":[1,3,5,7,9,11,13,-1,-1,-1,-1,-1,-1,-1,-1],"loss_changes":[2.250624E-1,3.434083E-1,2.843397E-1,4.0488857E-1,2.3523625E-2,2.8749484E-1,1.7546678E-1,0E0,0E0,0E0,0E0,0E0,0E0,0E0,0E0],"parents":[2147483647,0,0,1,1,2,2,3,3,4,4,5,5,6,6],"right_children":[2,4,6,8,10,12,14,-1,-1,-1,-1,-1,-1,-1,-1],"split_conditions":[-2.8324327E0,-2.1561248E0,-2.2564204E0,-2.3180037E0,-2.1525319E0,-2.8296402E0,1.4882381E-1,-4.227288E-5,-2.7837965E-4,-9.370294E-5,1.44148335E-5,1.2661544E-4,2.1426178E-5,2.7447036E-6,-3.777672E-6],"split_indices":[3,9,6,2,8,9,4,0,0,0,0,0,0,0,0],"split_type":[0,0,0,0,0,0,0,0,0,0,0,0,0,0,0],"sum_hessian":[1.69021E6,6.615E3,1.683595E6,3.027E3,3.588E3,1.8428E4,1.665167E6,1.818E3,1.209E3,2.13E2,3.375E3,3.129E3,1.5299E4,9.12452E5,7.52715E5],"tree_param":{"num_deleted":"0","num_feature":"20","num_nodes":"15","size_leaf_vector":"1"}},{"base_weights":[-5.732713E-9,-5.762915E-3,2.264068E-5,-1.44667365E-2,9.6840915E-5,3.3595052E-3,-2.7057573E-5,-1.05623476E-4,-5.0962815E-4,2.423433E-5,-4.222123E-5,1.18865966E-4,1.9768684E-5,-6.2502295E-7,2.913756E-5],"categories":[],"categories_nodes":[],"categories_segments":[],"categories_sizes":[],"default_left":[0,0,0,0,0,0,0,0,0,0,0,0,0,0,0],"id":32,"left_children":[1,3,5,7,9,11,13,-1,-1,-1,-1,-1,-1,-1,-1],"loss_changes":[2.2058827E-1,3.3743244E-1,2.7920148E-1,3.787831E-1,3.9751925E-2,2.9126886E-1,1.7291678E-1,0E0,0E0,0E0,0E0,0E0,0E0,0E0,0E0],"parents":[2147483647,0,0,1,1,2,2,3,3,4,4,5,5,6,6],"right_children":[2,4,6,8,10,12,14,-1,-1,-1,-1,-1,-1,-1,-1],"split_conditions":[-2.8324327E0,-2.2979743E0,-2.1295345E0,-1.957822E0,-1.3836305E0,-2.8296402E0,2.4259493E0,-1.05623476E-4,-5.0962815E-4,2.423433E-5,-4.222123E-5,1.18865966E-4,1.9768684E-5,-6.2502295E-7,2.913756E-5],"split_indices":[3,9,6,8,1,9,8,0,0,0,0,0,0,0,0],"split_type":[0,0,0,0,0,0,0,0,0,0,0,0,0,0,0],"sum_hessian":[1.69021E6,6.615E3,1.683595E6,2.661E3,3.954E3,2.4706E4,1.658889E6,2.405E3,2.56E2,2.57E3,1.384E3,3.446E3,2.126E4,1.639134E6,1.9755E4],"tree_param":{"num_deleted":"0","num_feature":"20","num_nodes":"15","size_leaf_vector":"1"}},{"base_weights":[-5.9898233E-9,-5.7053817E-3,2.2414333E-5,-1.43223E-2,9.586797E-5,3.3259157E-3,-2.6787018E-5,1.6015323E-4,-1.8936978E-4,3.2171123E-5,-3.0699237E-5,1.1767764E-4,1.9571005E-5,-6.202102E-7,2.8890743E-5],"categories":[],"categories_nodes":[],"categories_segments":[],"categories_sizes":[],"default_left":[0,0,0,0,0,0,0,0,0,0,0,0,0,0,0],"id":33,"left_children":[1,3,5,7,9,11,13,-1,-1,-1,-1,-1,-1,-1,-1],"loss_changes":[2.1620579E-1,3.30728E-1,2.7364627E-1,3.7297893E-1,3.9090063E-2,2.8547454E-1,1.7043033E-1,0E0,0E0,0E0,0E0,0E0,0E0,0E0,0E0],"parents":[2147483647,0,0,1,1,2,2,3,3,4,4,5,5,6,6],"right_children":[2,4,6,8,10,12,14,-1,-1,-1,-1,-1,-1,-1,-1],"split_conditions":[-2.8324327E0,-2.2979743E0,-2.1295345E0,-2.3437662E0,-2.0662897E0,-2.8296402E0,2.4095209E0,1.6015323E-4,-1.8936978E-4,3.2171123E-5,-3.0699237E-5,1.1767764E-4,1.9571005E-5,-6.202102E-7,2.8890743E-5],"split_indices":[3,9,6,19,2,9,7,0,0,0,0,0,0,0,0],"split_type":[0,0,0,0,0,0,0,0,0,0,0,0,0,0,0],"sum_hessian":[1.69021E6,6.615E3,1.683595E6,2.661E3,3.954E3,2.4706E4,1.658889E6,3.51E2,2.31E3,1.991E3,1.963E3,3.446E3,2.126E4,1.639084E6,1.9805E4],"tree_param":{"num_deleted":"0","num_feature":"20","num_nodes":"15","size_leaf_vector":"1"}},{"base_weights":[-5.80246E-9,-5.648332E-3,2.2190336E-5,-1.3275631E-2,7.8830996E-4,3.8171746E-3,-1.9810104E-5,-3.9670736E-5,-2.7258266E-4,-9.295173E-5,1.4272546E-5,1.2298502E-4,2.0818561E-5,2.7261315E-6,-3.7428972E-6],"categories":[],"categories_nodes":[],"categories_segments":[],"categories_sizes":[],"default_left":[0,0,0,0,0,0,0,0,0,0,0,0,0,0,0],"id":34,"left_children":[1,3,5,7,9,11,13,-1,-1,-1,-1,-1,-1,-1,-1],"loss_changes":[2.1190362E-1,3.2481772E-1,2.6835015E-1,3.9401084E-1,2.313643E-2,2.712088E-1,1.7260824E-1,0E0,0E0,0E0,0E0,0E0,0E0,0E0,0E0],"parents":[2147483647,0,0,1,1,2,2,3,3,4,4,5,5,6,6],"right_children":[2,4,6,8,10,12,14,-1,-1,-1,-1,-1,-1,-1,-1],"split_conditions":[-2.8324327E0,-2.1561248E0,-2.2564204E0,-2.3180037E0,-2.1525319E0,-2.8296402E0,1.4882381E-1,-3.9670736E-5,-2.7258266E-4,-9.295173E-5,1.4272546E-5,1.2298502E-4,2.0818561E-5,2.7261315E-6,-3.7428972E-6],"split_indices":[3,9,6,2,8,9,4,0,0,0,0,0,0,0,0],"split_type":[0,0,0,0,0,0,0,0,0,0,0,0,0,0,0],"sum_hessian":[1.69021E6,6.615E3,1.683595E6,3.027E3,3.588E3,1.8428E4,1.665167E6,1.818E3,1.209E3,2.13E2,3.375E3,3.129E3,1.5299E4,9.12452E5,7.52715E5],"tree_param":{"num_deleted":"0","num_feature":"20","num_nodes":"15","size_leaf_vector":"1"}},{"base_weights":[-5.8254805E-9,-5.591908E-3,2.1968583E-5,-1.4048963E-2,1.01713216E-4,3.2635552E-3,-2.631063E-5,-8.3961866E-5,-3.8656333E-4,2.453598E-5,-4.05736E-5,1.1538232E-4,1.9218463E-5,-7.183253E-7,2.199049E-5],"categories":[],"categories_nodes":[],"categories_segments":[],"categories_sizes":[],"default_left":[0,0,0,0,0,0,0,0,0,0,0,0,0,0,0],"id":35,"left_children":[1,3,5,7,9,11,13,-1,-1,-1,-1,-1,-1,-1,-1],"loss_changes":[2.0769112E-1,3.185702E-1,2.6348495E-1,3.6995953E-1,3.8696423E-2,2.742801E-1,1.6805004E-1,0E0,0E0,0E0,0E0,0E0,0E0,0E0,0E0],"parents":[2147483647,0,0,1,1,2,2,3,3,4,4,5,5,6,6],"right_children":[2,4,6,8,10,12,14,-1,-1,-1,-1,-1,-1,-1,-1],"split_conditions":[-2.8324327E0,-2.2979743E0,-2.1295345E0,-2.1525319E0,-1.4101571E0,-2.8296402E0,2.1590645E0,-8.3961866E-5,-3.8656333E-4,2.453598E-5,-4.05736E-5,1.1538232E-4,1.9218463E-5,-7.183253E-7,2.199049E-5],"split_indices":[3,9,6,8,1,9,7,0,0,0,0,0,0,0,0],"split_type":[0,0,0,0,0,0,0,0,0,0,0,0,0,0,0],"sum_hessian":[1.69021E6,6.615E3,1.683595E6,2.661E3,3.954E3,2.4706E4,1.658889E6,2.165E3,4.96E2,2.526E3,1.428E3,3.446E3,2.126E4,1.625636E6,3.3253E4],"tree_param":{"num_deleted":"0","num_feature":"20","num_nodes":"15","size_leaf_vector":"1"}},{"base_weights":[-6.048808E-9,-5.5360626E-3,2.1748903E-5,-1.3020226E-2,7.7978626E-4,3.230925E-3,-2.6047597E-5,-3.8236354E-5,-2.683475E-4,-9.213994E-5,1.4130473E-5,1.1422882E-4,1.9026287E-5,-6.079375E-7,2.8568063E-5],"categories":[],"categories_nodes":[],"categories_segments":[],"categories_sizes":[],"default_left":[0,0,0,0,0,0,0,0,0,0,0,0,0,0,0],"id":36,"left_children":[1,3,5,7,9,11,13,-1,-1,-1,-1,-1,-1,-1,-1],"loss_changes":[2.0356345E-1,3.127408E-1,2.5824246E-1,3.8459426E-1,2.2726621E-2,2.688237E-1,1.6616803E-1,0E0,0E0,0E0,0E0,0E0,0E0,0E0,0E0],"parents":[2147483647,0,0,1,1,2,2,3,3,4,4,5,5,6,6],"right_children":[2,4,6,8,10,12,14,-1,-1,-1,-1,-1,-1,-1,-1],"split_conditions":[-2.8324327E0,-2.1561248E0,-2.1295345E0,-2.3180037E0,-2.1525319E0,-2.8296402E0,2.4259493E0,-3.8236354E-5,-2.683475E-4,-9.213994E-5,1.4130473E-5,1.1422882E-4,1.9026287E-5,-6.079375E-7,2.8568063E-5],"split_indices":[3,9,6,2,8,9,8,0,0,0,0,0,0,0,0],"split_type":[0,0,0,0,0,0,0,0,0,0,0,0,0,0,0],"sum_hessian":[1.69021E6,6.615E3,1.683595E6,3.027E3,3.588E3,2.4706E4,1.658889E6,1.818E3,1.209E3,2.13E2,3.375E3,3.446E3,2.126E4,1.639134E6,1.9755E4],"tree_param":{"num_deleted":"0","num_feature":"20","num_nodes":"15","size_leaf_vector":"1"}},{"base_weights":[-6.0666836E-9,-5.48076E-3,2.1531563E-5,-1.3781046E-2,1.0731649E-4,3.7082764E-3,-1.9270952E-5,-9.9624194E-5,-4.9476896E-4,2.3800718E-5,-4.1117168E-5,1.1946018E-4,2.0227968E-5,2.7085173E-6,-3.7096179E-6],"categories":[],"categories_nodes":[],"categories_segments":[],"categories_sizes":[],"default_left":[0,0,0,0,0,0,0,0,0,0,0,0,0,0,0],"id":37,"left_children":[1,3,5,7,9,11,13,-1,-1,-1,-1,-1,-1,-1,-1],"loss_changes":[1.9951674E-1,3.06869E-1,2.5326085E-1,3.6236197E-1,3.7933614E-2,2.5585413E-1,1.6990301E-1,0E0,0E0,0E0,0E0,0E0,0E0,0E0,0E0],"parents":[2147483647,0,0,1,1,2,2,3,3,4,4,5,5,6,6],"right_children":[2,4,6,8,10,12,14,-1,-1,-1,-1,-1,-1,-1,-1],"split_conditions":[-2.8324327E0,-2.2979743E0,-2.2564204E0,-1.957822E0,-1.3836305E0,-2.8296402E0,1.4882381E-1,-9.9624194E-5,-4.9476896E-4,2.3800718E-5,-4.1117168E-5,1.1946018E-4,2.0227968E-5,2.7085173E-6,-3.7096179E-6],"split_indices":[3,9,6,8,1,9,4,0,0,0,0,0,0,0,0],"split_type":[0,0,0,0,0,0,0,0,0,0,0,0,0,0,0],"sum_hessian":[1.69021E6,6.615E3,1.683595E6,2.661E3,3.954E3,1.8428E4,1.665167E6,2.405E3,2.56E2,2.57E3,1.384E3,3.129E3,1.5299E4,9.12452E5,7.52715E5],"tree_param":{"num_deleted":"0","num_feature":"20","num_nodes":"15","size_leaf_vector":"1"}},{"base_weights":[-6.2887002E-9,-5.426045E-3,2.1316328E-5,-1.2769836E-2,7.713433E-4,3.1703305E-3,-2.5584139E-5,-3.682275E-5,-2.6420664E-4,-9.1335365E-5,1.3989715E-5,1.1199997E-4,1.8683488E-5,-6.008366E-7,2.8294935E-5],"categories":[],"categories_nodes":[],"categories_segments":[],"categories_sizes":[],"default_left":[0,0,0,0,0,0,0,0,0,0,0,0,0,0,0],"id":38,"left_children":[1,3,5,7,9,11,13,-1,-1,-1,-1,-1,-1,-1,-1],"loss_changes":[1.9555302E-1,3.011194E-1,2.4865077E-1,3.7553442E-1,2.2324093E-2,2.5827795E-1,1.6339888E-1,0E0,0E0,0E0,0E0,0E0,0E0,0E0,0E0],"parents":[2147483647,0,0,1,1,2,2,3,3,4,4,5,5,6,6],"right_children":[2,4,6,8,10,12,14,-1,-1,-1,-1,-1,-1,-1,-1],"split_conditions":[-2.8324327E0,-2.1561248E0,-2.1295345E0,-2.3180037E0,-2.1525319E0,-2.8296402E0,2.4095209E0,-3.682275E-5,-2.6420664E-4,-9.1335365E-5,1.3989715E-5,1.1199997E-4,1.8683488E-5,-6.008366E-7,2.8294935E-5],"split_indices":[3,9,6,2,8,9,7,0,0,0,0,0,0,0,0],"split_type":[0,0,0,0,0,0,0,0,0,0,0,0,0,0,0],"sum_hessian":[1.69021E6,6.615E3,1.683595E6,3.027E3,3.588E3,2.4706E4,1.658889E6,1.818E3,1.209E3,2.13E2,3.375E3,3.446E3,2.126E4,1.639084E6,1.9805E4],"tree_param":{"num_deleted":"0","num_feature":"20","num_nodes":"15","size_leaf_vector":"1"}},{"base_weights":[-6.366732E-9,-5.3718416E-3,2.1103247E-5,-1.3518327E-2,1.1268852E-4,3.1386325E-3,-2.5328292E-5,1.6266653E-4,-1.8049177E-4,3.1652376E-5,-2.9834371E-5,1.10880304E-4,1.8496661E-5,-5.957698E-7,2.8162513E-5],"categories":[],"categories_nodes":[],"categories_segments":[],"categories_sizes":[],"default_left":[0,0,0,0,0,0,0,0,0,0,0,0,0,0,0],"id":39,"left_children":[1,3,5,7,9,11,13,-1,-1,-1,-1,-1,-1,-1,-1],"loss_changes":[1.9166559E-1,2.9560202E-1,2.4370344E-1,3.5953394E-1,3.738845E-2,2.531399E-1,1.6144395E-1,0E0,0E0,0E0,0E0,0E0,0E0,0E0,0E0],"parents":[2147483647,0,0,1,1,2,2,3,3,4,4,5,5,6,6],"right_children":[2,4,6,8,10,12,14,-1,-1,-1,-1,-1,-1,-1,-1],"split_conditions":[-2.8324327E0,-2.2979743E0,-2.1295345E0,-2.3437662E0,-2.0662897E0,-2.8296402E0,2.4259493E0,1.6266653E-4,-1.8049177E-4,3.1652376E-5,-2.9834371E-5,1.10880304E-4,1.8496661E-5,-5.957698E-7,2.8162513E-5],"split_indices":[3,9,6,19,2,9,8,0,0,0,0,0,0,0,0],"split_type":[0,0,0,0,0,0,0,0,0,0,0,0,0,0,0],"sum_hessian":[1.69021E6,6.615E3,1.683595E6,2.661E3,3.954E3,2.4706E4,1.658889E6,3.51E2,2.31E3,1.991E3,1.963E3,3.446E3,2.126E4,1.639134E6,1.9755E4],"tree_param":{"num_deleted":"0","num_feature":"20","num_nodes":"15","size_leaf_vector":"1"}},{"base_weights":[-6.319847E-9,-5.3181257E-3,2.0892207E-5,-1.2524179E-2,7.630251E-4,3.6024936E-3,-1.8746648E-5,-3.5431964E-5,-2.601499E-4,-9.049423E-5,1.3847966E-5,1.1603787E-4,1.9653924E-5,2.69001E-6,-3.6755841E-6],"categories":[],"categories_nodes":[],"categories_segments":[],"categories_sizes":[],"default_left":[0,0,0,0,0,0,0,0,0,0,0,0,0,0,0],"id":40,"left_children":[1,3,5,7,9,11,13,-1,-1,-1,-1,-1,-1,-1,-1],"loss_changes":[1.8785161E-1,2.8992996E-1,2.3902117E-1,3.667826E-1,2.1909386E-2,2.4137734E-1,1.6713265E-1,0E0,0E0,0E0,0E0,0E0,0E0,0E0,0E0],"parents":[2147483647,0,0,1,1,2,2,3,3,4,4,5,5,6,6],"right_children":[2,4,6,8,10,12,14,-1,-1,-1,-1,-1,-1,-1,-1],"split_conditions":[-2.8324327E0,-2.1561248E0,-2.2564204E0,-2.3180037E0,-2.1525319E0,-2.8296402E0,1.4882381E-1,-3.5431964E-5,-2.601499E-4,-9.049423E-5,1.3847966E-5,1.1603787E-4,1.9653924E-5,2.69001E-6,-3.6755841E-6],"split_indices":[3,9,6,2,8,9,4,0,0,0,0,0,0,0,0],"split_type":[0,0,0,0,0,0,0,0,0,0,0,0,0,0,0],"sum_hessian":[1.69021E6,6.615E3,1.683595E6,3.027E3,3.588E3,1.8428E4,1.665167E6,1.818E3,1.209E3,2.13E2,3.375E3,3.129E3,1.5299E4,9.12452E5,7.52715E5],"tree_param":{"num_deleted":"0","num_feature":"20","num_nodes":"15","size_leaf_vector":"1"}},{"base_weights":[-6.2920926E-9,-5.2650003E-3,2.068347E-5,-1.3260445E-2,1.17840784E-4,3.0797538E-3,-2.4877398E-5,-7.749722E-5,-3.725031E-4,2.3598486E-5,-4.0441228E-5,1.0871602E-4,1.8163333E-5,-6.924268E-7,2.1439406E-5],"categories":[],"categories_nodes":[],"categories_segments":[],"categories_sizes":[],"default_left":[0,0,0,0,0,0,0,0,0,0,0,0,0,0,0],"id":41,"left_children":[1,3,5,7,9,11,13,-1,-1,-1,-1,-1,-1,-1,-1],"loss_changes":[1.8411729E-1,2.847423E-1,2.3464942E-1,3.5163173E-1,3.6914263E-2,2.4320535E-1,1.5961894E-1,0E0,0E0,0E0,0E0,0E0,0E0,0E0,0E0],"parents":[2147483647,0,0,1,1,2,2,3,3,4,4,5,5,6,6],"right_children":[2,4,6,8,10,12,14,-1,-1,-1,-1,-1,-1,-1,-1],"split_conditions":[-2.8324327E0,-2.2979743E0,-2.1295345E0,-2.1525319E0,-1.3836305E0,-2.8296402E0,2.1590645E0,-7.749722E-5,-3.725031E-4,2.3598486E-5,-4.0441228E-5,1.0871602E-4,1.8163333E-5,-6.924268E-7,2.1439406E-5],"split_indices":[3,9,6,8,1,9,7,0,0,0,0,0,0,0,0],"split_type":[0,0,0,0,0,0,0,0,0,0,0,0,0,0,0],"sum_hessian":[1.69021E6,6.615E3,1.683595E6,2.661E3,3.954E3,2.4706E4,1.658889E6,2.165E3,4.96E2,2.57E3,1.384E3,3.446E3,2.126E4,1.625636E6,3.3253E4],"tree_param":{"num_deleted":"0","num_feature":"20","num_nodes":"15","size_leaf_vector":"1"}},{"base_weights":[-6.4919377E-9,3.102036E-4,-3.4582475E-4,-3.6662642E-3,3.6996906E-4,-4.5163112E-4,2.1699583E-3,-1.145736E-4,-1.0959704E-6,7.3758754E-5,3.3341594E-6,-3.0480862E-6,-1.2457456E-5,5.040418E-5,1.3841967E-5],"categories":[],"categories_nodes":[],"categories_segments":[],"categories_sizes":[],"default_left":[0,0,0,0,0,0,0,0,0,0,0,0,0,0,0],"id":42,"left_children":[1,3,5,7,9,11,13,-1,-1,-1,-1,-1,-1,-1,-1],"loss_changes":[1.8131971E-1,2.1174692E-1,2.1274605E-1,3.6558124E-1,2.2478752E-1,8.942467E-2,7.274857E-2,0E0,0E0,0E0,0E0,0E0,0E0,0E0,0E0],"parents":[2147483647,0,0,1,1,2,2,3,3,4,4,5,5,6,6],"right_children":[2,4,6,8,10,12,14,-1,-1,-1,-1,-1,-1,-1,-1],"split_conditions":[7.7907525E-2,-2.4947422E0,2.1590645E0,-2.2979743E0,-2.8296402E0,1.4679453E0,1.1872275E0,-1.145736E-4,-1.0959704E-6,7.3758754E-5,3.3341594E-6,-3.0480862E-6,-1.2457456E-5,5.040418E-5,1.3841967E-5],"split_indices":[4,3,7,9,9,13,2,0,0,0,0,0,0,0,0],"split_type":[0,0,0,0,0,0,0,0,0,0,0,0,0,0,0],"sum_hessian":[1.69021E6,8.90976E5,7.99234E5,1.3192E4,8.77784E5,7.66978E5,3.2256E4,4.134E3,9.058E3,4.555E3,8.73229E5,6.47301E5,1.19677E5,6.931E3,2.5325E4],"tree_param":{"num_deleted":"0","num_feature":"20","num_nodes":"15","size_leaf_vector":"1"}},{"base_weights":[-6.343285E-9,3.0710155E-4,-3.4236631E-4,-3.6296104E-3,3.662695E-4,-4.471147E-4,2.1482606E-3,-1.1342814E-4,-1.0850121E-6,7.302133E-5,3.3008182E-6,-3.017604E-6,-1.2332881E-5,4.9900205E-5,1.3703552E-5],"categories":[],"categories_nodes":[],"categories_segments":[],"categories_sizes":[],"default_left":[0,0,0,0,0,0,0,0,0,0,0,0,0,0,0],"id":43,"left_children":[1,3,5,7,9,11,13,-1,-1,-1,-1,-1,-1,-1,-1],"loss_changes":[1.7771134E-1,2.0753407E-1,2.085127E-1,3.583079E-1,2.2031525E-1,8.764513E-2,7.130115E-2,0E0,0E0,0E0,0E0,0E0,0E0,0E0,0E0],"parents":[2147483647,0,0,1,1,2,2,3,3,4,4,5,5,6,6],"right_children":[2,4,6,8,10,12,14,-1,-1,-1,-1,-1,-1,-1,-1],"split_conditions":[7.7907525E-2,-2.4947422E0,2.1590645E0,-2.2979743E0,-2.8296402E0,1.4679453E0,1.1872275E0,-1.1342814E-4,-1.0850121E-6,7.302133E-5,3.3008182E-6,-3.017604E-6,-1.2332881E-5,4.9900205E-5,1.3703552E-5],"split_indices":[4,3,7,9,9,13,2,0,0,0,0,0,0,0,0],"split_type":[0,0,0,0,0,0,0,0,0,0,0,0,0,0,0],"sum_hessian":[1.69021E6,8.90976E5,7.99234E5,1.3192E4,8.77784E5,7.66978E5,3.2256E4,4.134E3,9.058E3,4.555E3,8.73229E5,6.47301E5,1.19677E5,6.931E3,2.5325E4],"tree_param":{"num_deleted":"0","num_feature":"20","num_nodes":"15","size_leaf_vector":"1"}},{"base_weights":[-6.274421E-9,3.0403052E-4,-3.3894263E-4,-3.5933228E-3,3.6260692E-4,-4.4264362E-4,2.12678E-3,-1.1229413E-4,-1.0741632E-6,7.229128E-5,3.2678104E-6,-2.9874286E-6,-1.2209553E-5,4.940128E-5,1.3566523E-5],"categories":[],"categories_nodes":[],"categories_segments":[],"categories_sizes":[],"default_left":[0,0,0,0,0,0,0,0,0,0,0,0,0,0,0],"id":44,"left_children":[1,3,5,7,9,11,13,-1,-1,-1,-1,-1,-1,-1,-1],"loss_changes":[1.7417488E-1,2.0340502E-1,2.0436364E-1,3.5117933E-1,2.1593198E-1,8.590101E-2,6.988253E-2,0E0,0E0,0E0,0E0,0E0,0E0,0E0,0E0],"parents":[2147483647,0,0,1,1,2,2,3,3,4,4,5,5,6,6],"right_children":[2,4,6,8,10,12,14,-1,-1,-1,-1,-1,-1,-1,-1],"split_conditions":[7.7907525E-2,-2.4947422E0,2.1590645E0,-2.2979743E0,-2.8296402E0,1.4679453E0,1.1872275E0,-1.1229413E-4,-1.0741632E-6,7.229128E-5,3.2678104E-6,-2.9874286E-6,-1.2209553E-5,4.940128E-5,1.3566523E-5],"split_indices":[4,3,7,9,9,13,2,0,0,0,0,0,0,0,0],"split_type":[0,0,0,0,0,0,0,0,0,0,0,0,0,0,0],"sum_hessian":[1.69021E6,8.90976E5,7.99234E5,1.3192E4,8.77784E5,7.66978E5,3.2256E4,4.134E3,9.058E3,4.555E3,8.73229E5,6.47301E5,1.19677E5,6.931E3,2.5325E4],"tree_param":{"num_deleted":"0","num_feature":"20","num_nodes":"15","size_leaf_vector":"1"}},{"base_weights":[-6.242891E-9,-5.0736056E-3,1.9931398E-5,-1.1983837E-2,7.578947E-4,3.0253257E-3,-2.4830035E-5,-3.1058782E-5,-2.532022E-4,-8.96733E-5,1.3741388E-5,1.06219646E-4,1.7935567E-5,-5.8199845E-7,2.7438302E-5],"categories":[],"categories_nodes":[],"categories_segments":[],"categories_sizes":[],"default_left":[0,0,0,0,0,0,0,0,0,0,0,0,0,0,0],"id":45,"left_children":[1,3,5,7,9,11,13,-1,-1,-1,-1,-1,-1,-1,-1],"loss_changes":[1.709744E-1,2.6661417E-1,2.264871E-1,3.584361E-1,2.1521606E-2,2.3117188E-1,1.5326446E-1,0E0,0E0,0E0,0E0,0E0,0E0,0E0,0E0],"parents":[2147483647,0,0,1,1,2,2,3,3,4,4,5,5,6,6],"right_children":[2,4,6,8,10,12,14,-1,-1,-1,-1,-1,-1,-1,-1],"split_conditions":[-2.8324327E0,-2.1561248E0,-2.1295345E0,-2.3180037E0,-2.1525319E0,-2.8296402E0,2.4259493E0,-3.1058782E-5,-2.532022E-4,-8.96733E-5,1.3741388E-5,1.06219646E-4,1.7935567E-5,-5.8199845E-7,2.7438302E-5],"split_indices":[3,9,6,2,8,9,8,0,0,0,0,0,0,0,0],"split_type":[0,0,0,0,0,0,0,0,0,0,0,0,0,0,0],"sum_hessian":[1.69021E6,6.615E3,1.683595E6,3.027E3,3.588E3,2.4706E4,1.658889E6,1.818E3,1.209E3,2.13E2,3.375E3,3.446E3,2.126E4,1.639134E6,1.9755E4],"tree_param":{"num_deleted":"0","num_feature":"20","num_nodes":"15","size_leaf_vector":"1"}},{"base_weights":[-6.2922467E-9,2.8506704E-4,-3.548303E-4,-3.5343473E-3,3.396073E-4,-4.6339442E-4,2.0889926E-3,-1.1055053E-4,-1.0187268E-6,7.087929E-5,3.06169E-6,-3.1000488E-6,-1.2569122E-5,4.948718E-5,1.3290289E-5],"categories":[],"categories_nodes":[],"categories_segments":[],"categories_sizes":[],"default_left":[0,0,0,0,0,0,0,0,0,0,0,0,0,0,0],"id":46,"left_children":[1,3,5,7,9,11,13,-1,-1,-1,-1,-1,-1,-1,-1],"loss_changes":[1.7096639E-1,1.9523627E-1,1.9977711E-1,3.4062296E-1,2.0850748E-1,8.775294E-2,6.959951E-2,0E0,0E0,0E0,0E0,0E0,0E0,0E0,0E0],"parents":[2147483647,0,0,1,1,2,2,3,3,4,4,5,5,6,6],"right_children":[2,4,6,8,10,12,14,-1,-1,-1,-1,-1,-1,-1,-1],"split_conditions":[1.4882381E-1,-2.4947422E0,2.1590645E0,-2.2979743E0,-2.8296402E0,1.4679453E0,1.1872275E0,-1.1055053E-4,-1.0187268E-6,7.087929E-5,3.06169E-6,-3.1000488E-6,-1.2569122E-5,4.948718E-5,1.3290289E-5],"split_indices":[4,3,7,9,9,13,2,0,0,0,0,0,0,0,0],"split_type":[0,0,0,0,0,0,0,0,0,0,0,0,0,0,0],"sum_hessian":[1.69021E6,9.37224E5,7.52986E5,1.3194E4,9.2403E5,7.20959E5,3.2027E4,4.134E3,9.06E3,4.555E3,9.19475E5,6.04172E5,1.16787E5,6.723E3,2.5304E4],"tree_param":{"num_deleted":"0","num_feature":"20","num_nodes":"15","size_leaf_vector":"1"}},{"base_weights":[-6.176767E-9,2.9826132E-4,-3.32511E-4,-3.5011615E-3,3.5536583E-4,-4.3368226E-4,2.0730624E-3,-1.0944529E-4,-1.0323375E-6,7.017065E-5,3.2060861E-6,-2.926961E-6,-1.1962299E-5,4.837719E-5,1.3162641E-5],"categories":[],"categories_nodes":[],"categories_segments":[],"categories_sizes":[],"default_left":[0,0,0,0,0,0,0,0,0,0,0,0,0,0,0],"id":47,"left_children":[1,3,5,7,9,11,13,-1,-1,-1,-1,-1,-1,-1,-1],"loss_changes":[1.6762742E-1,1.9331136E-1,1.9451466E-1,3.3367658E-1,2.0324205E-1,8.2456544E-2,6.748456E-2,0E0,0E0,0E0,0E0,0E0,0E0,0E0,0E0],"parents":[2147483647,0,0,1,1,2,2,3,3,4,4,5,5,6,6],"right_children":[2,4,6,8,10,12,14,-1,-1,-1,-1,-1,-1,-1,-1],"split_conditions":[7.7907525E-2,-2.4947422E0,2.1590645E0,-2.2979743E0,-2.8296402E0,1.4679453E0,1.1872275E0,-1.0944529E-4,-1.0323375E-6,7.017065E-5,3.2060861E-6,-2.926961E-6,-1.1962299E-5,4.837719E-5,1.3162641E-5],"split_indices":[4,3,7,9,9,13,2,0,0,0,0,0,0,0,0],"split_type":[0,0,0,0,0,0,0,0,0,0,0,0,0,0,0],"sum_hessian":[1.69021E6,8.90976E5,7.99234E5,1.3192E4,8.77784E5,7.66978E5,3.2256E4,4.134E3,9.058E3,4.555E3,8.73229E5,6.47301E5,1.19677E5,6.931E3,2.5325E4],"tree_param":{"num_deleted":"0","num_feature":"20","num_nodes":"15","size_leaf_vector":"1"}},{"base_weights":[-6.168661E-9,2.795414E-4,-3.4795236E-4,-3.464014E-3,3.3299837E-4,-4.4483846E-4,2.32667E-3,-1.0835111E-4,-9.982136E-7,6.94691E-5,3.002261E-6,-3.118551E-6,-1.3030343E-5,3.395068E-5,-4.1770586E-6],"categories":[],"categories_nodes":[],"categories_segments":[],"categories_sizes":[],"default_left":[0,0,0,0,0,0,0,0,0,0,0,0,0,0,0],"id":48,"left_children":[1,3,5,7,9,11,13,-1,-1,-1,-1,-1,-1,-1,-1],"loss_changes":[1.644027E-1,1.8755797E-1,1.951254E-1,3.2720575E-1,2.0028432E-1,8.293079E-2,7.718271E-2,0E0,0E0,0E0,0E0,0E0,0E0,0E0,0E0],"parents":[2147483647,0,0,1,1,2,2,3,3,4,4,5,5,6,6],"right_children":[2,4,6,8,10,12,14,-1,-1,-1,-1,-1,-1,-1,-1],"split_conditions":[1.4882381E-1,-2.4947422E0,2.2768846E0,-2.2979743E0,-2.8296402E0,1.4741579E0,2.3208168E0,-1.0835111E-4,-9.982136E-7,6.94691E-5,3.002261E-6,-3.118551E-6,-1.3030343E-5,3.395068E-5,-4.1770586E-6],"split_indices":[4,3,8,9,9,17,1,0,0,0,0,0,0,0,0],"split_type":[0,0,0,0,0,0,0,0,0,0,0,0,0,0,0],"sum_hessian":[1.69021E6,9.37224E5,7.52986E5,1.3194E4,9.2403E5,7.26664E5,2.6322E4,4.134E3,9.06E3,4.555E3,9.19475E5,6.29171E5,9.7493E4,1.8946E4,7.376E3],"tree_param":{"num_deleted":"0","num_feature":"20","num_nodes":"15","size_leaf_vector":"1"}},{"base_weights":[-6.0900867E-9,2.8460973E-3,-3.3809225E-5,1.8538788E-3,9.927205E-3,-1.9480196E-3,3.0771418E-5,5.2767573E-5,5.672777E-6,4.0085393E-4,8.712409E-6,8.509943E-6,-3.175103E-5,3.7893724E-6,-3.2528628E-6],"categories":[],"categories_nodes":[],"categories_segments":[],"categories_sizes":[],"default_left":[0,0,0,0,0,0,0,0,0,0,0,0,0,0,0],"id":49,"left_children":[1,3,5,7,9,11,13,-1,-1,-1,-1,-1,-1,-1,-1],"loss_changes":[1.626106E-1,1.3937052E-1,2.0649314E-1,7.663332E-2,6.658109E-1,1.8724123E-1,2.0031352E-1,0E0,0E0,0E0,0E0,0E0,0E0,0E0,0E0],"parents":[2147483647,0,0,1,1,2,2,3,3,4,4,5,5,6,6],"right_children":[2,4,6,8,10,12,14,-1,-1,-1,-1,-1,-1,-1,-1],"split_conditions":[-2.2564204E0,-9.963347E-1,-1.7119153E0,-2.7547722E0,-1.6751457E0,-1.7848997E0,7.7907525E-2,5.2767573E-5,5.672777E-6,4.0085393E-4,8.712409E-6,8.509943E-6,-3.175103E-5,3.7893724E-6,-3.2528628E-6],"split_indices":[6,11,9,7,4,1,4,0,0,0,0,0,0,0,0],"split_type":[0,0,0,0,0,0,0,0,0,0,0,0,0,0,0],"sum_hessian":[1.69021E6,1.9838E4,1.670372E6,1.7401E4,2.437E3,5.4514E4,1.615858E6,4.753E3,1.2648E4,5.62E2,1.875E3,1.6615E4,3.7899E4,8.16983E5,7.98875E5],"tree_param":{"num_deleted":"0","num_feature":"20","num_nodes":"15","size_leaf_vector":"1"}}]},"name":"gbtree"},"learner_model_param":{"base_score":"2.6664542E-4","boost_from_average":"1","num_class":"0","num_feature":"20","num_target":"1"},"objective":{"name":"reg:squarederror","reg_loss_param":{"scale_pos_weight":"1"}}},"version":[2,1,1]}