{"learner":{"attributes":{"scikit_learn":"{\"_estimator_type\": \"regressor\"}"},"feature_names":["Momentum_10","Momentum_30","Momentum_60","Momentum_120","Momentum_300","RSI_10","RSI_30","RSI_60","RSI_120","RSI_300","BB_10","BB_30","BB_60","BB_120","BB_300","MRC_10","MRC_30","MRC_60","MRC_120","MRC_300"],"feature_types":["float","float","float","float","float","float","float","float","float","float","float","float","float","float","float","float","float","float","float","float"],"gradient_booster":{"model":{"gbtree_model_param":{"num_parallel_tree":"1","num_trees":"50"},"iteration_indptr":[0,1,2,3,4,5,6,7,8,9,10,11,12,13,14,15,16,17,18,19,20,21,22,23,24,25,26,27,28,29,30,31,32,33,34,35,36,37,38,39,40,41,42,43,44,45,46,47,48,49,50],"tree_info":[0,0,0,0,0,0,0,0,0,0,0,0,0,0,0,0,0,0,0,0,0,0,0,0,0,0,0,0,0,0,0,0,0,0,0,0,0,0,0,0,0,0,0,0,0,0,0,0,0,0],"trees":[{"base_weights":[-1.3120423E-11,4.6401264E-4,-6.3537323E-4,-2.2296547E-3,7.2349847E-4,-8.109459E-4,2.3846251E-3,8.726762E-6,-5.3109467E-5,6.261241E-6,4.6481633E-5,-9.410599E-6,6.397476E-6,1.679603E-5,6.446099E-5],"categories":[],"categories_nodes":[],"categories_segments":[],"categories_sizes":[],"default_left":[0,0,0,0,0,0,0,0,0,0,0,0,0,0,0],"id":0,"left_children":[1,3,5,7,9,11,13,-1,-1,-1,-1,-1,-1,-1,-1],"loss_changes":[8.30517E-1,1.1379594E0,6.3042617E-1,1.3674753E0,5.6750745E-1,2.1209437E-1,1.8704268E-1,0E0,0E0,0E0,0E0,0E0,0E0,0E0,0E0],"parents":[2147483647,0,0,1,1,2,2,3,3,4,4,5,5,6,6],"right_children":[2,4,6,8,10,12,14,-1,-1,-1,-1,-1,-1,-1,-1],"split_conditions":[2.3311974E-1,-1.5826463E0,2.0608182E0,-1.3861609E0,8.765975E-1,1.6553854E0,2.9142764E0,8.726762E-6,-5.3109467E-5,6.261241E-6,4.6481633E-5,-9.410599E-6,6.397476E-6,1.679603E-5,6.446099E-5],"split_indices":[19,9,6,14,9,5,7,0,0,0,0,0,0,0,0],"split_type":[0,0,0,0,0,0,0,0,0,0,0,0,0,0,0],"sum_hessian":[2.817017E6,1.628052E6,1.188965E6,1.43052E5,1.485E6,1.123641E6,6.5324E4,7.1283E4,7.1769E4,1.449049E6,3.5951E4,1.031156E6,9.2485E4,5.5663E4,9.661E3],"tree_param":{"num_deleted":"0","num_feature":"20","num_nodes":"15","size_leaf_vector":"1"}},{"base_weights":[-2.1049724E-11,4.5937247E-4,-6.290195E-4,-2.2073584E-3,7.162635E-4,-8.313635E-4,1.9436314E-3,8.639495E-6,-5.257838E-5,6.1986284E-6,4.601683E-5,-9.52907E-6,6.3034627E-6,1.1060479E-5,5.1172086E-5],"categories":[],"categories_nodes":[],"categories_segments":[],"categories_sizes":[],"default_left":[0,0,0,0,0,0,0,0,0,0,0,0,0,0,0],"id":1,"left_children":[1,3,5,7,9,11,13,-1,-1,-1,-1,-1,-1,-1,-1],"loss_changes":[8.1398964E-1,1.1153142E0,6.189302E-1,1.3402624E0,5.562145E-1,1.9583166E-1,2.3044407E-1,0E0,0E0,0E0,0E0,0E0,0E0,0E0,0E0],"parents":[2147483647,0,0,1,1,2,2,3,3,4,4,5,5,6,6],"right_children":[2,4,6,8,10,12,14,-1,-1,-1,-1,-1,-1,-1,-1],"split_conditions":[2.3311974E-1,-1.5826463E0,1.9157686E0,-1.3861609E0,8.765975E-1,1.6553854E0,2.6072621E0,8.639495E-6,-5.257838E-5,6.1986284E-6,4.601683E-5,-9.52907E-6,6.3034627E-6,1.1060479E-5,5.1172086E-5],"split_indices":[19,9,6,14,9,5,7,0,0,0,0,0,0,0,0],"split_type":[0,0,0,0,0,0,0,0,0,0,0,0,0,0,0],"sum_hessian":[2.817017E6,1.628052E6,1.188965E6,1.43052E5,1.485E6,1.10227E6,8.6695E4,7.1283E4,7.1769E4,1.449049E6,3.5951E4,1.017651E6,8.4619E4,6.8593E4,1.8102E4],"tree_param":{"num_deleted":"0","num_feature":"20","num_nodes":"15","size_leaf_vector":"1"}},{"base_weights":[3.6417636E-11,4.5477878E-4,-6.2272925E-4,-2.185285E-3,7.091009E-4,-8.230498E-4,1.9241959E-3,8.553105E-6,-5.20526E-5,6.2081276E-6,4.8711983E-5,-9.433779E-6,6.240429E-6,1.0949876E-5,5.066039E-5],"categories":[],"categories_nodes":[],"categories_segments":[],"categories_sizes":[],"default_left":[0,0,0,0,0,0,0,0,0,0,0,0,0,0,0],"id":2,"left_children":[1,3,5,7,9,11,13,-1,-1,-1,-1,-1,-1,-1,-1],"loss_changes":[7.977911E-1,1.0931196E0,6.066139E-1,1.3135918E0,5.456814E-1,1.9193459E-1,2.2585854E-1,0E0,0E0,0E0,0E0,0E0,0E0,0E0,0E0],"parents":[2147483647,0,0,1,1,2,2,3,3,4,4,5,5,6,6],"right_children":[2,4,6,8,10,12,14,-1,-1,-1,-1,-1,-1,-1,-1],"split_conditions":[2.3311974E-1,-1.5826463E0,1.9157686E0,-1.3861609E0,9.232297E-1,1.6553854E0,2.6072621E0,8.553105E-6,-5.20526E-5,6.2081276E-6,4.8711983E-5,-9.433779E-6,6.240429E-6,1.0949876E-5,5.066039E-5],"split_indices":[19,9,6,14,9,5,7,0,0,0,0,0,0,0,0],"split_type":[0,0,0,0,0,0,0,0,0,0,0,0,0,0,0],"sum_hessian":[2.817017E6,1.628052E6,1.188965E6,1.43052E5,1.485E6,1.10227E6,8.6695E4,7.1283E4,7.1769E4,1.454155E6,3.0845E4,1.017651E6,8.4619E4,6.8593E4,1.8102E4],"tree_param":{"num_deleted":"0","num_feature":"20","num_nodes":"15","size_leaf_vector":"1"}},{"base_weights":[1.5663078E-10,4.5023116E-4,-6.1650184E-4,-2.1634325E-3,7.020101E-4,-7.8711833E-4,2.3182468E-3,8.467574E-6,-5.1532083E-5,6.074563E-6,4.5129935E-5,-9.132882E-6,6.196008E-6,1.6305657E-5,6.279823E-5],"categories":[],"categories_nodes":[],"categories_segments":[],"categories_sizes":[],"default_left":[0,0,0,0,0,0,0,0,0,0,0,0,0,0,0],"id":3,"left_children":[1,3,5,7,9,11,13,-1,-1,-1,-1,-1,-1,-1,-1],"loss_changes":[7.819152E-1,1.071367E0,5.953367E-1,1.2874517E0,5.351067E-1,1.9943094E-1,1.7795473E-1,0E0,0E0,0E0,0E0,0E0,0E0,0E0,0E0],"parents":[2147483647,0,0,1,1,2,2,3,3,4,4,5,5,6,6],"right_children":[2,4,6,8,10,12,14,-1,-1,-1,-1,-1,-1,-1,-1],"split_conditions":[2.3311974E-1,-1.5826463E0,2.0608182E0,-1.3861609E0,8.765975E-1,1.6553854E0,2.9142764E0,8.467574E-6,-5.1532083E-5,6.074563E-6,4.5129935E-5,-9.132882E-6,6.196008E-6,1.6305657E-5,6.279823E-5],"split_indices":[19,9,6,14,9,5,7,0,0,0,0,0,0,0,0],"split_type":[0,0,0,0,0,0,0,0,0,0,0,0,0,0,0],"sum_hessian":[2.817017E6,1.628052E6,1.188965E6,1.43052E5,1.485E6,1.123641E6,6.5324E4,7.1283E4,7.1769E4,1.449049E6,3.5951E4,1.031156E6,9.2485E4,5.5663E4,9.661E3],"tree_param":{"num_deleted":"0","num_feature":"20","num_nodes":"15","size_leaf_vector":"1"}},{"base_weights":[6.671501E-11,4.4572863E-4,-6.103367E-4,-2.1417986E-3,6.949898E-4,-8.068631E-4,1.8883481E-3,8.382897E-6,-5.101677E-5,6.083928E-6,4.7773596E-5,-9.248112E-6,6.116064E-6,1.0735195E-5,4.9757076E-5],"categories":[],"categories_nodes":[],"categories_segments":[],"categories_sizes":[],"default_left":[0,0,0,0,0,0,0,0,0,0,0,0,0,0,0],"id":4,"left_children":[1,3,5,7,9,11,13,-1,-1,-1,-1,-1,-1,-1,-1],"loss_changes":[7.663546E-1,1.0500469E0,5.838523E-1,1.2618318E0,5.2497584E-1,1.8441689E-1,2.180931E-1,0E0,0E0,0E0,0E0,0E0,0E0,0E0,0E0],"parents":[2147483647,0,0,1,1,2,2,3,3,4,4,5,5,6,6],"right_children":[2,4,6,8,10,12,14,-1,-1,-1,-1,-1,-1,-1,-1],"split_conditions":[2.3311974E-1,-1.5826463E0,1.9157686E0,-1.3861609E0,9.232297E-1,1.6553854E0,2.6072621E0,8.382897E-6,-5.101677E-5,6.083928E-6,4.7773596E-5,-9.248112E-6,6.116064E-6,1.0735195E-5,4.9757076E-5],"split_indices":[19,9,6,14,9,5,7,0,0,0,0,0,0,0,0],"split_type":[0,0,0,0,0,0,0,0,0,0,0,0,0,0,0],"sum_hessian":[2.817017E6,1.628052E6,1.188965E6,1.43052E5,1.485E6,1.10227E6,8.6695E4,7.1283E4,7.1769E4,1.454155E6,3.0845E4,1.017651E6,8.4619E4,6.8593E4,1.8102E4],"tree_param":{"num_deleted":"0","num_feature":"20","num_nodes":"15","size_leaf_vector":"1"}},{"base_weights":[1.11675454E-10,4.4127135E-4,-6.042333E-4,-2.1203808E-3,6.8803993E-4,-7.715814E-4,2.2742972E-3,8.299071E-6,-5.050661E-5,5.9529752E-6,4.426013E-5,-8.952008E-6,6.0670022E-6,1.5985235E-5,6.167279E-5],"categories":[],"categories_nodes":[],"categories_segments":[],"categories_sizes":[],"default_left":[0,0,0,0,0,0,0,0,0,0,0,0,0,0,0],"id":5,"left_children":[1,3,5,7,9,11,13,-1,-1,-1,-1,-1,-1,-1,-1],"loss_changes":[7.5110406E-1,1.0291511E0,5.7274663E-1,1.2367218E0,5.1480037E-1,1.9144922E-1,1.7184553E-1,0E0,0E0,0E0,0E0,0E0,0E0,0E0,0E0],"parents":[2147483647,0,0,1,1,2,2,3,3,4,4,5,5,6,6],"right_children":[2,4,6,8,10,12,14,-1,-1,-1,-1,-1,-1,-1,-1],"split_conditions":[2.3311974E-1,-1.5826463E0,2.0608182E0,-1.3861609E0,8.765975E-1,1.6553854E0,2.9142764E0,8.299071E-6,-5.050661E-5,5.9529752E-6,4.426013E-5,-8.952008E-6,6.0670022E-6,1.5985235E-5,6.167279E-5],"split_indices":[19,9,6,14,9,5,7,0,0,0,0,0,0,0,0],"split_type":[0,0,0,0,0,0,0,0,0,0,0,0,0,0,0],"sum_hessian":[2.817017E6,1.628052E6,1.188965E6,1.43052E5,1.485E6,1.123641E6,6.5324E4,7.1283E4,7.1769E4,1.449049E6,3.5951E4,1.031156E6,9.2485E4,5.5663E4,9.661E3],"tree_param":{"num_deleted":"0","num_feature":"20","num_nodes":"15","size_leaf_vector":"1"}},{"base_weights":[1.2730081E-10,4.3685868E-4,-5.98191E-4,-2.099177E-3,6.811596E-4,-7.9099555E-4,1.8531736E-3,8.216082E-6,-5.000155E-5,5.962215E-6,4.6853293E-5,-9.0661115E-6,5.9942363E-6,1.05247345E-5,4.887001E-5],"categories":[],"categories_nodes":[],"categories_segments":[],"categories_sizes":[],"default_left":[0,0,0,0,0,0,0,0,0,0,0,0,0,0,0],"id":6,"left_children":[1,3,5,7,9,11,13,-1,-1,-1,-1,-1,-1,-1,-1],"loss_changes":[7.361572E-1,1.0086713E0,5.619477E-1,1.2121112E0,5.050559E-1,1.7719519E-1,2.1059558E-1,0E0,0E0,0E0,0E0,0E0,0E0,0E0,0E0],"parents":[2147483647,0,0,1,1,2,2,3,3,4,4,5,5,6,6],"right_children":[2,4,6,8,10,12,14,-1,-1,-1,-1,-1,-1,-1,-1],"split_conditions":[2.3311974E-1,-1.5826463E0,1.9157686E0,-1.3861609E0,9.232297E-1,1.6553854E0,2.6072621E0,8.216082E-6,-5.000155E-5,5.962215E-6,4.6853293E-5,-9.0661115E-6,5.9942363E-6,1.05247345E-5,4.887001E-5],"split_indices":[19,9,6,14,9,5,7,0,0,0,0,0,0,0,0],"split_type":[0,0,0,0,0,0,0,0,0,0,0,0,0,0,0],"sum_hessian":[2.817017E6,1.628052E6,1.188965E6,1.43052E5,1.485E6,1.10227E6,8.6695E4,7.1283E4,7.1769E4,1.454155E6,3.0845E4,1.017651E6,8.4619E4,6.8593E4,1.8102E4],"tree_param":{"num_deleted":"0","num_feature":"20","num_nodes":"15","size_leaf_vector":"1"}},{"base_weights":[1.2600289E-10,4.3249017E-4,-5.9220917E-4,-2.460506E-3,6.4263906E-4,-7.563511E-4,2.2311718E-3,9.808798E-6,-6.17813E-5,5.5291757E-6,4.3407097E-5,-8.7747085E-6,5.9406175E-6,1.567099E-5,6.0567483E-5],"categories":[],"categories_nodes":[],"categories_segments":[],"categories_sizes":[],"default_left":[0,0,0,0,0,0,0,0,0,0,0,0,0,0,0],"id":7,"left_children":[1,3,5,7,9,11,13,-1,-1,-1,-1,-1,-1,-1,-1],"loss_changes":[7.215079E-1,9.897925E-1,5.510104E-1,1.4105711E0,5.035982E-1,1.8378538E-1,1.6594619E-1,0E0,0E0,0E0,0E0,0E0,0E0,0E0,0E0],"parents":[2147483647,0,0,1,1,2,2,3,3,4,4,5,5,6,6],"right_children":[2,4,6,8,10,12,14,-1,-1,-1,-1,-1,-1,-1,-1],"split_conditions":[2.3311974E-1,-1.7055473E0,2.0608182E0,-1.3861609E0,8.765975E-1,1.6553854E0,2.9142764E0,9.808798E-6,-6.17813E-5,5.5291757E-6,4.3407097E-5,-8.7747085E-6,5.9406175E-6,1.567099E-5,6.0567483E-5],"split_indices":[19,9,6,14,9,5,7,0,0,0,0,0,0,0,0],"split_type":[0,0,0,0,0,0,0,0,0,0,0,0,0,0,0],"sum_hessian":[2.817017E6,1.628052E6,1.188965E6,1.10253E5,1.517799E6,1.123641E6,6.5324E4,5.7254E4,5.2999E4,1.481848E6,3.5951E4,1.031156E6,9.2485E4,5.5663E4,9.661E3],"tree_param":{"num_deleted":"0","num_feature":"20","num_nodes":"15","size_leaf_vector":"1"}},{"base_weights":[2.1466534E-10,4.2816525E-4,-5.862868E-4,-2.0604902E-3,6.6790194E-4,-7.7544054E-4,1.8186596E-3,1.22320425E-5,-4.551006E-5,5.845972E-6,4.5950714E-5,-8.887704E-6,5.8748874E-6,1.0318409E-5,4.79989E-5],"categories":[],"categories_nodes":[],"categories_segments":[],"categories_sizes":[],"default_left":[0,0,0,0,0,0,0,0,0,0,0,0,0,0,0],"id":8,"left_children":[1,3,5,7,9,11,13,-1,-1,-1,-1,-1,-1,-1,-1],"loss_changes":[7.0714957E-1,9.713335E-1,5.4086745E-1,1.1699064E0,4.8581827E-1,1.702578E-1,2.0335677E-1,0E0,0E0,0E0,0E0,0E0,0E0,0E0,0E0],"parents":[2147483647,0,0,1,1,2,2,3,3,4,4,5,5,6,6],"right_children":[2,4,6,8,10,12,14,-1,-1,-1,-1,-1,-1,-1,-1],"split_conditions":[2.3311974E-1,-1.5826463E0,1.9157686E0,-1.4982573E0,9.232297E-1,1.6553854E0,2.6072621E0,1.22320425E-5,-4.551006E-5,5.845972E-6,4.5950714E-5,-8.887704E-6,5.8748874E-6,1.0318409E-5,4.79989E-5],"split_indices":[19,9,6,14,9,5,7,0,0,0,0,0,0,0,0],"split_type":[0,0,0,0,0,0,0,0,0,0,0,0,0,0,0],"sum_hessian":[2.817017E6,1.628052E6,1.188965E6,1.43052E5,1.485E6,1.10227E6,8.6695E4,6.1701E4,8.1351E4,1.454155E6,3.0845E4,1.017651E6,8.4619E4,6.8593E4,1.8102E4],"tree_param":{"num_deleted":"0","num_feature":"20","num_nodes":"15","size_leaf_vector":"1"}},{"base_weights":[1.1735744E-10,4.2388344E-4,-5.80424E-4,-2.4164505E-3,6.302069E-4,-7.676862E-4,1.8004737E-3,9.663998E-6,-6.0708404E-5,5.422135E-6,4.2570504E-5,-8.798827E-6,5.816139E-6,1.0215226E-5,4.7518937E-5],"categories":[],"categories_nodes":[],"categories_segments":[],"categories_sizes":[],"default_left":[0,0,0,0,0,0,0,0,0,0,0,0,0,0,0],"id":9,"left_children":[1,3,5,7,9,11,13,-1,-1,-1,-1,-1,-1,-1,-1],"loss_changes":[6.93077E-1,9.540855E-1,5.3010446E-1,1.362994E0,4.8438567E-1,1.6686976E-1,1.9931024E-1,0E0,0E0,0E0,0E0,0E0,0E0,0E0,0E0],"parents":[2147483647,0,0,1,1,2,2,3,3,4,4,5,5,6,6],"right_children":[2,4,6,8,10,12,14,-1,-1,-1,-1,-1,-1,-1,-1],"split_conditions":[2.3311974E-1,-1.7055473E0,1.9157686E0,-1.3861609E0,8.765975E-1,1.6553854E0,2.6072621E0,9.663998E-6,-6.0708404E-5,5.422135E-6,4.2570504E-5,-8.798827E-6,5.816139E-6,1.0215226E-5,4.7518937E-5],"split_indices":[19,9,6,14,9,5,7,0,0,0,0,0,0,0,0],"split_type":[0,0,0,0,0,0,0,0,0,0,0,0,0,0,0],"sum_hessian":[2.817017E6,1.628052E6,1.188965E6,1.10253E5,1.517799E6,1.10227E6,8.6695E4,5.7254E4,5.2999E4,1.481848E6,3.5951E4,1.017651E6,8.4619E4,6.8593E4,1.8102E4],"tree_param":{"num_deleted":"0","num_feature":"20","num_nodes":"15","size_leaf_vector":"1"}},{"base_weights":[2.1124211E-10,4.3349597E-4,-5.5693905E-4,-2.0231663E-3,6.7735685E-4,-7.105853E-4,2.1823817E-3,1.2021293E-5,-4.4696902E-5,5.870627E-6,4.833909E-5,-8.243388E-6,5.943264E-6,1.5387577E-5,5.900679E-5],"categories":[],"categories_nodes":[],"categories_segments":[],"categories_sizes":[],"default_left":[0,0,0,0,0,0,0,0,0,0,0,0,0,0,0],"id":10,"left_children":[1,3,5,7,9,11,13,-1,-1,-1,-1,-1,-1,-1,-1],"loss_changes":[6.801152E-1,9.48986E-1,5.18937E-1,1.128724E0,5.4082894E-1,1.7329884E-1,1.5670389E-1,0E0,0E0,0E0,0E0,0E0,0E0,0E0,0E0],"parents":[2147483647,0,0,1,1,2,2,3,3,4,4,5,5,6,6],"right_children":[2,4,6,8,10,12,14,-1,-1,-1,-1,-1,-1,-1,-1],"split_conditions":[1.893482E-1,-1.5826463E0,2.0608182E0,-1.4982573E0,8.765975E-1,1.6553854E0,2.9142764E0,1.2021293E-5,-4.4696902E-5,5.870627E-6,4.833909E-5,-8.243388E-6,5.943264E-6,1.5387577E-5,5.900679E-5],"split_indices":[19,9,6,14,9,5,7,0,0,0,0,0,0,0,0],"split_type":[0,0,0,0,0,0,0,0,0,0,0,0,0,0,0],"sum_hessian":[2.817017E6,1.584059E6,1.232958E6,1.43042E5,1.441017E6,1.167476E6,6.5482E4,6.1701E4,8.1341E4,1.41038E6,3.0637E4,1.073864E6,9.3612E4,5.5821E4,9.661E3],"tree_param":{"num_deleted":"0","num_feature":"20","num_nodes":"15","size_leaf_vector":"1"}},{"base_weights":[1.7456502E-10,4.29161E-4,-5.5136974E-4,-2.3738204E-3,6.3883665E-4,-7.034795E-4,2.1605592E-3,9.521419E-6,-5.9671627E-5,5.4381053E-6,4.4894394E-5,1.0782941E-6,-8.858327E-6,1.5233706E-5,5.8416783E-5],"categories":[],"categories_nodes":[],"categories_segments":[],"categories_sizes":[],"default_left":[0,0,0,0,0,0,0,0,0,0,0,0,0,0,0],"id":11,"left_children":[1,3,5,7,9,11,13,-1,-1,-1,-1,-1,-1,-1,-1],"loss_changes":[6.66581E-1,9.3098027E-1,5.086106E-1,1.317615E0,5.39277E-1,1.7272234E-1,1.5358588E-1,0E0,0E0,0E0,0E0,0E0,0E0,0E0,0E0],"parents":[2147483647,0,0,1,1,2,2,3,3,4,4,5,5,6,6],"right_children":[2,4,6,8,10,12,14,-1,-1,-1,-1,-1,-1,-1,-1],"split_conditions":[1.893482E-1,-1.7055473E0,2.0608182E0,-1.3861609E0,8.320978E-1,9.833341E-2,2.9142764E0,9.521419E-6,-5.9671627E-5,5.4381053E-6,4.4894394E-5,1.0782941E-6,-8.858327E-6,1.5233706E-5,5.8416783E-5],"split_indices":[19,9,6,14,9,4,7,0,0,0,0,0,0,0,0],"split_type":[0,0,0,0,0,0,0,0,0,0,0,0,0,0,0],"sum_hessian":[2.817017E6,1.584059E6,1.232958E6,1.10247E5,1.473812E6,1.167476E6,6.5482E4,5.7254E4,5.2993E4,1.438318E6,3.5494E4,2.14251E5,9.53225E5,5.5821E4,9.661E3],"tree_param":{"num_deleted":"0","num_feature":"20","num_nodes":"15","size_leaf_vector":"1"}},{"base_weights":[2.714382E-10,4.0838495E-4,-5.6822784E-4,-2.3490363E-3,6.072497E-4,-7.5238233E-4,1.75201E-3,9.426208E-6,-5.9047787E-5,5.2773094E-6,4.3086107E-5,-8.633073E-6,5.7232537E-6,9.91465E-6,4.6304976E-5],"categories":[],"categories_nodes":[],"categories_segments":[],"categories_sizes":[],"default_left":[0,0,0,0,0,0,0,0,0,0,0,0,0,0,0],"id":12,"left_children":[1,3,5,7,9,11,13,-1,-1,-1,-1,-1,-1,-1,-1],"loss_changes":[6.5370524E-1,8.987764E-1,5.033298E-1,1.2904732E0,4.4996172E-1,1.6036808E-1,1.8962556E-1,0E0,0E0,0E0,0E0,0E0,0E0,0E0,0E0],"parents":[2147483647,0,0,1,1,2,2,3,3,4,4,5,5,6,6],"right_children":[2,4,6,8,10,12,14,-1,-1,-1,-1,-1,-1,-1,-1],"split_conditions":[2.4417107E-1,-1.7055473E0,1.9157686E0,-1.3861609E0,9.232297E-1,1.6553854E0,2.6072621E0,9.426208E-6,-5.9047787E-5,5.2773094E-6,4.3086107E-5,-8.633073E-6,5.7232537E-6,9.91465E-6,4.6304976E-5],"split_indices":[19,9,6,14,9,5,7,0,0,0,0,0,0,0,0],"split_type":[0,0,0,0,0,0,0,0,0,0,0,0,0,0,0],"sum_hessian":[2.817017E6,1.639041E6,1.177976E6,1.10255E5,1.528786E6,1.091357E6,8.6619E4,5.7254E4,5.3001E4,1.496634E6,3.2152E4,1.007033E6,8.4324E4,6.8517E4,1.8102E4],"tree_param":{"num_deleted":"0","num_feature":"20","num_nodes":"15","size_leaf_vector":"1"}},{"base_weights":[2.8042968E-10,4.2096913E-4,-5.4084486E-4,-1.9689936E-3,6.582091E-4,-7.1449147E-4,1.7481248E-3,8.142044E-5,-2.7105207E-5,5.634263E-6,4.411378E-5,7.7489926E-7,-8.944281E-6,1.0022703E-5,4.584195E-5],"categories":[],"categories_nodes":[],"categories_segments":[],"categories_sizes":[],"default_left":[0,0,0,0,0,0,0,0,0,0,0,0,0,0,0],"id":13,"left_children":[1,3,5,7,9,11,13,-1,-1,-1,-1,-1,-1,-1,-1],"loss_changes":[6.4137596E-1,8.9815474E-1,4.900677E-1,1.0725024E0,5.126191E-1,1.633153E-1,1.8389922E-1,0E0,0E0,0E0,0E0,0E0,0E0,0E0,0E0],"parents":[2147483647,0,0,1,1,2,2,3,3,4,4,5,5,6,6],"right_children":[2,4,6,8,10,12,14,-1,-1,-1,-1,-1,-1,-1,-1],"split_conditions":[1.893482E-1,-1.5826463E0,1.9157686E0,-2.6664233E0,8.320978E-1,9.833341E-2,2.6072621E0,8.142044E-5,-2.7105207E-5,5.634263E-6,4.411378E-5,7.7489926E-7,-8.944281E-6,1.0022703E-5,4.584195E-5],"split_indices":[19,9,6,7,9,4,7,0,0,0,0,0,0,0,0],"split_type":[0,0,0,0,0,0,0,0,0,0,0,0,0,0,0],"sum_hessian":[2.817017E6,1.584059E6,1.232958E6,1.43042E5,1.441017E6,1.146019E6,8.6939E4,9.773E3,1.33269E5,1.405523E6,3.5494E4,2.12169E5,9.3385E5,6.8837E4,1.8102E4],"tree_param":{"num_deleted":"0","num_feature":"20","num_nodes":"15","size_leaf_vector":"1"}},{"base_weights":[4.3642848E-10,4.1675972E-4,-5.3543644E-4,-2.308844E-3,6.2064716E-4,-6.832845E-4,2.100511E-3,1.1662196E-5,-5.6010107E-5,5.2818723E-6,4.3672662E-5,-7.946263E-6,5.9396143E-6,5.4801574E-5,1.4097742E-5],"categories":[],"categories_nodes":[],"categories_segments":[],"categories_sizes":[],"default_left":[0,0,0,0,0,0,0,0,0,0,0,0,0,0,0],"id":14,"left_children":[1,3,5,7,9,11,13,-1,-1,-1,-1,-1,-1,-1,-1],"loss_changes":[6.28613E-1,8.8028944E-1,4.805098E-1,1.2612975E0,5.1054436E-1,1.660285E-1,1.5285882E-1,0E0,0E0,0E0,0E0,0E0,0E0,0E0,0E0],"parents":[2147483647,0,0,1,1,2,2,3,3,4,4,5,5,6,6],"right_children":[2,4,6,8,10,12,14,-1,-1,-1,-1,-1,-1,-1,-1],"split_conditions":[1.893482E-1,-1.7055473E0,2.0608182E0,-1.440412E0,8.320978E-1,1.6553854E0,6.6514826E-1,1.1662196E-5,-5.6010107E-5,5.2818723E-6,4.3672662E-5,-7.946263E-6,5.9396143E-6,5.4801574E-5,1.4097742E-5],"split_indices":[19,9,6,14,9,5,3,0,0,0,0,0,0,0,0],"split_type":[0,0,0,0,0,0,0,0,0,0,0,0,0,0,0],"sum_hessian":[2.817017E6,1.584059E6,1.232958E6,1.10247E5,1.473812E6,1.167476E6,6.5482E4,5.3634E4,5.6613E4,1.438318E6,3.5494E4,1.073864E6,9.3612E4,1.1111E4,5.4371E4],"tree_param":{"num_deleted":"0","num_feature":"20","num_nodes":"15","size_leaf_vector":"1"}},{"base_weights":[3.6596798E-10,3.737897E-4,-5.865793E-4,-2.276231E-3,5.545513E-4,-7.9073076E-4,1.7684336E-3,9.366811E-6,-5.772373E-5,1.0445968E-5,2.1715737E-6,-5.6160305E-5,-7.592148E-6,1.0491305E-5,4.524207E-5],"categories":[],"categories_nodes":[],"categories_segments":[],"categories_sizes":[],"default_left":[0,0,0,0,0,0,0,0,0,0,0,0,0,0,0],"id":15,"left_children":[1,3,5,7,9,11,13,-1,-1,-1,-1,-1,-1,-1,-1],"loss_changes":[6.1765176E-1,8.242041E-1,5.271393E-1,1.234153E0,2.663146E-1,1.5343219E-1,1.7337152E-1,0E0,0E0,0E0,0E0,0E0,0E0,0E0,0E0],"parents":[2147483647,0,0,1,1,2,2,3,3,4,4,5,5,6,6],"right_children":[2,4,6,8,10,12,14,-1,-1,-1,-1,-1,-1,-1,-1],"split_conditions":[3.9870173E-1,-1.7055473E0,1.9157686E0,-1.3861609E0,-6.095929E-1,-1.8621236E-1,2.6072621E0,9.366811E-6,-5.772373E-5,1.0445968E-5,2.1715737E-6,-5.6160305E-5,-7.592148E-6,1.0491305E-5,4.524207E-5],"split_indices":[13,9,6,14,7,19,7,0,0,0,0,0,0,0,0],"split_type":[0,0,0,0,0,0,0,0,0,0,0,0,0,0,0],"sum_hessian":[2.817017E6,1.720594E6,1.096423E6,1.09869E5,1.610725E6,1.008959E6,8.7464E4,5.7254E4,5.2615E4,6.56783E5,9.53942E5,6.546E3,1.002413E6,6.9361E4,1.8103E4],"tree_param":{"num_deleted":"0","num_feature":"20","num_nodes":"15","size_leaf_vector":"1"}},{"base_weights":[3.8004125E-10,3.9353748E-4,-5.475688E-4,-1.9162401E-3,6.144132E-4,-6.3474546E-4,4.0448066E-3,8.054098E-5,-2.6473772E-5,5.35778E-6,4.194429E-5,-7.939678E-6,7.692745E-6,2.6340165E-5,7.09663E-5],"categories":[],"categories_nodes":[],"categories_segments":[],"categories_sizes":[],"default_left":[0,0,0,0,0,0,0,0,0,0,0,0,0,0,0],"id":16,"left_children":[1,3,5,7,9,11,13,-1,-1,-1,-1,-1,-1,-1,-1],"loss_changes":[6.07036E-1,8.3619726E-1,4.7160333E-1,1.0428547E0,4.2114067E-1,2.5843334E-1,9.446511E-2,0E0,0E0,0E0,0E0,0E0,0E0,0E0,0E0],"parents":[2147483647,0,0,1,1,2,2,3,3,4,4,5,5,6,6],"right_children":[2,4,6,8,10,12,14,-1,-1,-1,-1,-1,-1,-1,-1],"split_conditions":[2.4417107E-1,-1.5826463E0,2.6072621E0,-2.6664233E0,9.232297E-1,1.6553854E0,2.8790696E0,8.054098E-5,-2.6473772E-5,5.35778E-6,4.194429E-5,-7.939678E-6,7.692745E-6,2.6340165E-5,7.09663E-5],"split_indices":[19,9,7,7,9,5,6,0,0,0,0,0,0,0,0],"split_type":[0,0,0,0,0,0,0,0,0,0,0,0,0,0,0],"sum_hessian":[2.817017E6,1.639041E6,1.177976E6,1.43055E5,1.495986E6,1.156032E6,2.1944E4,9.773E3,1.33282E5,1.463834E6,3.2152E4,1.038286E6,1.17746E5,1.5008E4,6.936E3],"tree_param":{"num_deleted":"0","num_feature":"20","num_nodes":"15","size_leaf_vector":"1"}},{"base_weights":[5.641676E-10,3.6734744E-4,-5.764691E-4,-2.2362508E-3,5.449425E-4,-7.7743497E-4,1.7417958E-3,1.15498615E-5,-5.470598E-5,1.0299807E-5,2.1099609E-6,-5.564294E-5,-7.4617005E-6,1.0386851E-5,4.4355333E-5],"categories":[],"categories_nodes":[],"categories_segments":[],"categories_sizes":[],"default_left":[0,0,0,0,0,0,0,0,0,0,0,0,0,0,0],"id":17,"left_children":[1,3,5,7,9,11,13,-1,-1,-1,-1,-1,-1,-1,-1],"loss_changes":[5.9654415E-1,7.9558057E-1,5.1081645E-1,1.2051086E0,2.6089996E-1,1.5099734E-1,1.656537E-1,0E0,0E0,0E0,0E0,0E0,0E0,0E0,0E0],"parents":[2147483647,0,0,1,1,2,2,3,3,4,4,5,5,6,6],"right_children":[2,4,6,8,10,12,14,-1,-1,-1,-1,-1,-1,-1,-1],"split_conditions":[3.9870173E-1,-1.7055473E0,1.9157686E0,-1.440412E0,-6.095929E-1,-1.8621236E-1,2.6072621E0,1.15498615E-5,-5.470598E-5,1.0299807E-5,2.1099609E-6,-5.564294E-5,-7.4617005E-6,1.0386851E-5,4.4355333E-5],"split_indices":[13,9,6,14,7,19,7,0,0,0,0,0,0,0,0],"split_type":[0,0,0,0,0,0,0,0,0,0,0,0,0,0,0],"sum_hessian":[2.817017E6,1.720594E6,1.096423E6,1.09869E5,1.610725E6,1.008959E6,8.7464E4,5.3634E4,5.6235E4,6.56783E5,9.53942E5,6.546E3,1.002413E6,6.9361E4,1.8103E4],"tree_param":{"num_deleted":"0","num_feature":"20","num_nodes":"15","size_leaf_vector":"1"}},{"base_weights":[5.158039E-10,4.02505E-4,-5.171223E-4,-1.8827517E-3,6.2935124E-4,-5.984868E-4,3.972303E-3,7.9697995E-5,-2.605322E-5,5.8699484E-6,8.711007E-5,-7.4895747E-6,7.794605E-6,2.5815783E-5,6.981325E-5],"categories":[],"categories_nodes":[],"categories_segments":[],"categories_sizes":[],"default_left":[0,0,0,0,0,0,0,0,0,0,0,0,0,0,0],"id":18,"left_children":[1,3,5,7,9,11,13,-1,-1,-1,-1,-1,-1,-1,-1],"loss_changes":[5.8634627E-1,8.2118106E-1,4.5037743E-1,1.018367E0,4.932692E-1,2.510926E-1,9.182823E-2,0E0,0E0,0E0,0E0,0E0,0E0,0E0,0E0],"parents":[2147483647,0,0,1,1,2,2,3,3,4,4,5,5,6,6],"right_children":[2,4,6,8,10,12,14,-1,-1,-1,-1,-1,-1,-1,-1],"split_conditions":[1.893482E-1,-1.5826463E0,2.6072621E0,-2.6664233E0,1.167443E0,1.6553854E0,2.8790696E0,7.9697995E-5,-2.605322E-5,5.8699484E-6,8.711007E-5,-7.4895747E-6,7.794605E-6,2.5815783E-5,6.981325E-5],"split_indices":[19,9,7,7,8,5,6,0,0,0,0,0,0,0,0],"split_type":[0,0,0,0,0,0,0,0,0,0,0,0,0,0,0],"sum_hessian":[2.817017E6,1.584059E6,1.232958E6,1.43042E5,1.441017E6,1.211011E6,2.1947E4,9.773E3,1.33269E5,1.433505E6,7.512E3,1.091789E6,1.19222E5,1.5011E4,6.936E3],"tree_param":{"num_deleted":"0","num_feature":"20","num_nodes":"15","size_leaf_vector":"1"}},{"base_weights":[5.1484716E-10,3.6114795E-4,-5.667405E-4,-2.1969818E-3,5.356415E-4,-7.645703E-4,1.7153487E-3,9.406515E-6,-5.6112094E-5,1.0153002E-5,2.0539883E-6,-5.286232E-5,-7.3193896E-6,7.6222685E-5,1.3950171E-5],"categories":[],"categories_nodes":[],"categories_segments":[],"categories_sizes":[],"default_left":[0,0,0,0,0,0,0,0,0,0,0,0,0,0,0],"id":19,"left_children":[1,3,5,7,9,11,13,-1,-1,-1,-1,-1,-1,-1,-1],"loss_changes":[5.7657915E-1,7.6803553E-1,4.9499866E-1,1.1769981E0,2.5514486E-1,1.4886606E-1,1.654883E-1,0E0,0E0,0E0,0E0,0E0,0E0,0E0,0E0],"parents":[2147483647,0,0,1,1,2,2,3,3,4,4,5,5,6,6],"right_children":[2,4,6,8,10,12,14,-1,-1,-1,-1,-1,-1,-1,-1],"split_conditions":[3.9870173E-1,-1.7055473E0,1.9157686E0,-1.3861609E0,-6.095929E-1,-1.7490092E-1,7.291916E-2,9.406515E-6,-5.6112094E-5,1.0153002E-5,2.0539883E-6,-5.286232E-5,-7.3193896E-6,7.6222685E-5,1.3950171E-5],"split_indices":[13,9,6,14,7,19,3,0,0,0,0,0,0,0,0],"split_type":[0,0,0,0,0,0,0,0,0,0,0,0,0,0,0],"sum_hessian":[2.817017E6,1.720594E6,1.096423E6,1.09869E5,1.610725E6,1.008959E6,8.7464E4,5.7254E4,5.2615E4,6.56783E5,9.53942E5,7.228E3,1.001731E6,4.498E3,8.2966E4],"tree_param":{"num_deleted":"0","num_feature":"20","num_nodes":"15","size_leaf_vector":"1"}},{"base_weights":[5.254101E-10,3.7401976E-4,-5.374448E-4,-1.8484299E-3,5.83469E-4,-6.236955E-4,3.9200424E-3,7.8869634E-5,-2.562317E-5,5.4064258E-6,6.5965134E-5,-7.824458E-6,7.542242E-6,2.5434225E-5,6.8975554E-5],"categories":[],"categories_nodes":[],"categories_segments":[],"categories_sizes":[],"default_left":[0,0,0,0,0,0,0,0,0,0,0,0,0,0,0],"id":20,"left_children":[1,3,5,7,9,11,13,-1,-1,-1,-1,-1,-1,-1,-1],"loss_changes":[5.662628E-1,7.732066E-1,4.4442558E-1,9.942835E-1,3.909064E-1,2.4806234E-1,8.992469E-2,0E0,0E0,0E0,0E0,0E0,0E0,0E0,0E0],"parents":[2147483647,0,0,1,1,2,2,3,3,4,4,5,5,6,6],"right_children":[2,4,6,8,10,12,14,-1,-1,-1,-1,-1,-1,-1,-1],"split_conditions":[2.6625398E-1,-1.5826463E0,2.6072621E0,-2.6664233E0,1.167443E0,1.6553854E0,2.8790696E0,7.8869634E-5,-2.562317E-5,5.4064258E-6,6.5965134E-5,-7.824458E-6,7.542242E-6,2.5434225E-5,6.8975554E-5],"split_indices":[19,9,7,7,8,5,6,0,0,0,0,0,0,0,0],"split_type":[0,0,0,0,0,0,0,0,0,0,0,0,0,0,0],"sum_hessian":[2.817017E6,1.661055E6,1.155962E6,1.43059E5,1.517996E6,1.13402E6,2.1942E4,9.773E3,1.33286E5,1.507262E6,1.0734E4,1.016867E6,1.17153E5,1.5006E4,6.936E3],"tree_param":{"num_deleted":"0","num_feature":"20","num_nodes":"15","size_leaf_vector":"1"}},{"base_weights":[5.506037E-10,3.5500707E-4,-5.5710366E-4,-2.1584264E-3,5.2645185E-4,-7.518526E-4,1.6894453E-3,1.15293915E-5,-5.316598E-5,1.001124E-5,1.9964234E-6,-5.238762E-5,-7.1947197E-6,4.4893433E-5,1.0186221E-5],"categories":[],"categories_nodes":[],"categories_segments":[],"categories_sizes":[],"default_left":[0,0,0,0,0,0,0,0,0,0,0,0,0,0,0],"id":21,"left_children":[1,3,5,7,9,11,13,-1,-1,-1,-1,-1,-1,-1,-1],"loss_changes":[5.5713767E-1,7.4143153E-1,4.7970098E-1,1.1490113E0,2.4986756E-1,1.465866E-1,1.6427542E-1,0E0,0E0,0E0,0E0,0E0,0E0,0E0,0E0],"parents":[2147483647,0,0,1,1,2,2,3,3,4,4,5,5,6,6],"right_children":[2,4,6,8,10,12,14,-1,-1,-1,-1,-1,-1,-1,-1],"split_conditions":[3.9870173E-1,-1.7055473E0,1.9157686E0,-1.440412E0,-6.095929E-1,-1.7490092E-1,6.7666113E-1,1.15293915E-5,-5.316598E-5,1.001124E-5,1.9964234E-6,-5.238762E-5,-7.1947197E-6,4.4893433E-5,1.0186221E-5],"split_indices":[13,9,6,14,7,19,3,0,0,0,0,0,0,0,0],"split_type":[0,0,0,0,0,0,0,0,0,0,0,0,0,0,0],"sum_hessian":[2.817017E6,1.720594E6,1.096423E6,1.09869E5,1.610725E6,1.008959E6,8.7464E4,5.3634E4,5.6235E4,6.56783E5,9.53942E5,7.228E3,1.001731E6,1.6904E4,7.056E4],"tree_param":{"num_deleted":"0","num_feature":"20","num_nodes":"15","size_leaf_vector":"1"}},{"base_weights":[5.233855E-10,3.888002E-4,-4.995149E-4,-1.8157295E-3,6.0763315E-4,-5.787984E-4,3.8750898E-3,7.804182E-5,-2.5212386E-5,5.2212545E-6,4.543849E-5,-7.2543785E-6,7.640636E-6,2.5149953E-5,6.81784E-5],"categories":[],"categories_nodes":[],"categories_segments":[],"categories_sizes":[],"default_left":[0,0,0,0,0,0,0,0,0,0,0,0,0,0,0],"id":22,"left_children":[1,3,5,7,9,11,13,-1,-1,-1,-1,-1,-1,-1,-1],"loss_changes":[5.470973E-1,7.641891E-1,4.2763454E-1,9.7084314E-1,4.8501074E-1,2.3846886E-1,8.782795E-2,0E0,0E0,0E0,0E0,0E0,0E0,0E0,0E0],"parents":[2147483647,0,0,1,1,2,2,3,3,4,4,5,5,6,6],"right_children":[2,4,6,8,10,12,14,-1,-1,-1,-1,-1,-1,-1,-1],"split_conditions":[1.893482E-1,-1.5826463E0,2.6072621E0,-2.6664233E0,8.765975E-1,1.6553854E0,2.8790696E0,7.804182E-5,-2.5212386E-5,5.2212545E-6,4.543849E-5,-7.2543785E-6,7.640636E-6,2.5149953E-5,6.81784E-5],"split_indices":[19,9,7,7,9,5,6,0,0,0,0,0,0,0,0],"split_type":[0,0,0,0,0,0,0,0,0,0,0,0,0,0,0],"sum_hessian":[2.817017E6,1.584059E6,1.232958E6,1.43042E5,1.441017E6,1.211011E6,2.1947E4,9.773E3,1.33269E5,1.41038E6,3.0637E4,1.091789E6,1.19222E5,1.5011E4,6.936E3],"tree_param":{"num_deleted":"0","num_feature":"20","num_nodes":"15","size_leaf_vector":"1"}},{"base_weights":[5.9917943E-10,3.4893534E-4,-5.475753E-4,-2.1205605E-3,5.173831E-4,-7.519208E-4,1.5294385E-3,9.435635E-6,-5.454799E-5,9.870123E-6,1.9404567E-6,-5.6695237E-5,-7.2257185E-6,7.248903E-5,1.2106324E-5],"categories":[],"categories_nodes":[],"categories_segments":[],"categories_sizes":[],"default_left":[0,0,0,0,0,0,0,0,0,0,0,0,0,0,0],"id":23,"left_children":[1,3,5,7,9,11,13,-1,-1,-1,-1,-1,-1,-1,-1],"loss_changes":[5.3824294E-1,7.157359E-1,4.6535462E-1,1.1224943E0,2.4458641E-1,1.4406478E-1,1.7906559E-1,0E0,0E0,0E0,0E0,0E0,0E0,0E0,0E0],"parents":[2147483647,0,0,1,1,2,2,3,3,4,4,5,5,6,6],"right_children":[2,4,6,8,10,12,14,-1,-1,-1,-1,-1,-1,-1,-1],"split_conditions":[3.9870173E-1,-1.7055473E0,1.8565427E0,-1.3861609E0,-6.095929E-1,-1.9754577E-1,7.291916E-2,9.435635E-6,-5.454799E-5,9.870123E-6,1.9404567E-6,-5.6695237E-5,-7.2257185E-6,7.248903E-5,1.2106324E-5],"split_indices":[13,9,6,14,7,19,3,0,0,0,0,0,0,0,0],"split_type":[0,0,0,0,0,0,0,0,0,0,0,0,0,0,0],"sum_hessian":[2.817017E6,1.720594E6,1.096423E6,1.09869E5,1.610725E6,9.98215E5,9.8208E4,5.7254E4,5.2615E4,6.56783E5,9.53942E5,5.921E3,9.92294E5,5.184E3,9.3024E4],"tree_param":{"num_deleted":"0","num_feature":"20","num_nodes":"15","size_leaf_vector":"1"}},{"base_weights":[6.192477E-10,3.6116023E-4,-5.189661E-4,-2.1077471E-3,5.366915E-4,-6.030176E-4,3.8248638E-3,1.141094E-5,-5.1851093E-5,4.5463344E-6,3.5996098E-5,-7.5761805E-6,7.388819E-6,2.4782172E-5,6.737549E-5],"categories":[],"categories_nodes":[],"categories_segments":[],"categories_sizes":[],"default_left":[0,0,0,0,0,0,0,0,0,0,0,0,0,0,0],"id":24,"left_children":[1,3,5,7,9,11,13,-1,-1,-1,-1,-1,-1,-1,-1],"loss_changes":[5.279933E-1,7.198539E-1,4.220506E-1,1.1023401E0,3.8977206E-1,2.3526269E-1,8.605161E-2,0E0,0E0,0E0,0E0,0E0,0E0,0E0,0E0],"parents":[2147483647,0,0,1,1,2,2,3,3,4,4,5,5,6,6],"right_children":[2,4,6,8,10,12,14,-1,-1,-1,-1,-1,-1,-1,-1],"split_conditions":[2.6625398E-1,-1.7055473E0,2.6072621E0,-1.440412E0,8.765975E-1,1.6553854E0,2.8790696E0,1.141094E-5,-5.1851093E-5,4.5463344E-6,3.5996098E-5,-7.5761805E-6,7.388819E-6,2.4782172E-5,6.737549E-5],"split_indices":[19,9,7,14,9,5,6,0,0,0,0,0,0,0,0],"split_type":[0,0,0,0,0,0,0,0,0,0,0,0,0,0,0],"sum_hessian":[2.817017E6,1.661055E6,1.155962E6,1.10256E5,1.550799E6,1.13402E6,2.1942E4,5.3634E4,5.6622E4,1.510337E6,4.0462E4,1.016867E6,1.17153E5,1.5006E4,6.936E3],"tree_param":{"num_deleted":"0","num_feature":"20","num_nodes":"15","size_leaf_vector":"1"}},{"base_weights":[6.501848E-10,3.428977E-4,-5.3810043E-4,-2.0783867E-3,5.0805684E-4,-7.3928037E-4,1.5067382E-3,7.419666E-6,-5.5651097E-5,9.724379E-6,1.8833273E-6,-5.1537463E-5,-7.0709066E-6,7.1767674E-5,1.1906876E-5],"categories":[],"categories_nodes":[],"categories_segments":[],"categories_sizes":[],"default_left":[0,0,0,0,0,0,0,0,0,0,0,0,0,0,0],"id":25,"left_children":[1,3,5,7,9,11,13,-1,-1,-1,-1,-1,-1,-1,-1],"loss_changes":[5.197773E-1,6.880623E-1,4.5104855E-1,1.0804425E0,2.3915046E-1,1.4184302E-1,1.7598358E-1,0E0,0E0,0E0,0E0,0E0,0E0,0E0,0E0],"parents":[2147483647,0,0,1,1,2,2,3,3,4,4,5,5,6,6],"right_children":[2,4,6,8,10,12,14,-1,-1,-1,-1,-1,-1,-1,-1],"split_conditions":[3.9870173E-1,-1.7055473E0,1.8565427E0,-1.3357459E0,-6.095929E-1,-1.7490092E-1,7.291916E-2,7.419666E-6,-5.5651097E-5,9.724379E-6,1.8833273E-6,-5.1537463E-5,-7.0709066E-6,7.1767674E-5,1.1906876E-5],"split_indices":[13,9,6,14,7,19,3,0,0,0,0,0,0,0,0],"split_type":[0,0,0,0,0,0,0,0,0,0,0,0,0,0,0],"sum_hessian":[2.817017E6,1.720594E6,1.096423E6,1.09869E5,1.610725E6,9.98215E5,9.8208E4,6.0739E4,4.913E4,6.56783E5,9.53942E5,7.225E3,9.9099E5,5.184E3,9.3024E4],"tree_param":{"num_deleted":"0","num_feature":"20","num_nodes":"15","size_leaf_vector":"1"}},{"base_weights":[6.790532E-10,6.8003573E-3,-2.6742857E-5,1.0248902E-2,-5.5785193E-3,-3.8181108E-3,6.730238E-5,2.3898478E-5,1.7823093E-4,-6.7512824E-6,-1.4386732E-4,-7.912012E-6,-7.3302406E-5,6.647064E-6,-3.48445E-6],"categories":[],"categories_nodes":[],"categories_segments":[],"categories_sizes":[],"default_left":[0,0,0,0,0,0,0,0,0,0,0,0,0,0,0],"id":26,"left_children":[1,3,5,7,9,11,13,-1,-1,-1,-1,-1,-1,-1,-1],"loss_changes":[5.123188E-1,4.7113156E-1,1.0005022E0,5.137262E-1,1.0386251E-1,7.2202355E-1,6.800516E-1,0E0,0E0,0E0,0E0,0E0,0E0,0E0,0E0],"parents":[2147483647,0,0,1,1,2,2,3,3,4,4,5,5,6,6],"right_children":[2,4,6,8,10,12,14,-1,-1,-1,-1,-1,-1,-1,-1],"split_conditions":[-2.6664233E0,-2.2289686E0,-1.8688017E0,-1.7215747E0,-1.1161978E0,-1.3357459E0,-1.8708122E-1,2.3898478E-5,1.7823093E-4,-6.7512824E-6,-1.4386732E-4,-7.912012E-6,-7.3302406E-5,6.647064E-6,-3.48445E-6],"split_indices":[7,6,9,3,0,14,2,0,0,0,0,0,0,0,0],"split_type":[0,0,0,0,0,0,0,0,0,0,0,0,0,0,0],"sum_hessian":[2.817017E6,1.1034E4,2.805983E6,8.63E3,2.404E3,6.7917E4,2.738066E6,4.236E3,4.394E3,1.545E3,8.59E2,3.6479E4,3.1438E4,1.123567E6,1.614499E6],"tree_param":{"num_deleted":"0","num_feature":"20","num_nodes":"15","size_leaf_vector":"1"}},{"base_weights":[6.1268707E-10,3.733379E-4,-4.7964932E-4,-1.7429484E-3,5.8341137E-4,-5.5691117E-4,3.783405E-3,7.649353E-5,-2.4317651E-5,5.41759E-6,8.53074E-5,-6.998303E-6,7.5188186E-6,2.4530807E-5,6.661745E-5],"categories":[],"categories_nodes":[],"categories_segments":[],"categories_sizes":[],"default_left":[0,0,0,0,0,0,0,0,0,0,0,0,0,0,0],"id":27,"left_children":[1,3,5,7,9,11,13,-1,-1,-1,-1,-1,-1,-1,-1],"loss_changes":[5.0444704E-1,7.042353E-1,4.061037E-1,9.254461E-1,4.770081E-1,2.265222E-1,8.402529E-2,0E0,0E0,0E0,0E0,0E0,0E0,0E0,0E0],"parents":[2147483647,0,0,1,1,2,2,3,3,4,4,5,5,6,6],"right_children":[2,4,6,8,10,12,14,-1,-1,-1,-1,-1,-1,-1,-1],"split_conditions":[1.893482E-1,-1.5826463E0,2.6072621E0,-2.6664233E0,1.167443E0,1.6553854E0,2.8790696E0,7.649353E-5,-2.4317651E-5,5.41759E-6,8.53074E-5,-6.998303E-6,7.5188186E-6,2.4530807E-5,6.661745E-5],"split_indices":[19,9,7,7,8,5,6,0,0,0,0,0,0,0,0],"split_type":[0,0,0,0,0,0,0,0,0,0,0,0,0,0,0],"sum_hessian":[2.817017E6,1.584059E6,1.232958E6,1.43042E5,1.441017E6,1.211011E6,2.1947E4,9.773E3,1.33269E5,1.433505E6,7.512E3,1.091789E6,1.19222E5,1.5011E4,6.936E3],"tree_param":{"num_deleted":"0","num_feature":"20","num_nodes":"15","size_leaf_vector":"1"}},{"base_weights":[7.5845563E-10,3.2109907E-4,-5.494085E-4,-2.0338632E-3,4.768005E-4,-6.420469E-4,3.743809E-3,1.121403E-5,-5.0224313E-5,9.53539E-6,1.6722053E-6,-7.6237325E-6,6.722991E-6,2.4259693E-5,6.595137E-5],"categories":[],"categories_nodes":[],"categories_segments":[],"categories_sizes":[],"default_left":[0,0,0,0,0,0,0,0,0,0,0,0,0,0,0],"id":28,"left_children":[1,3,5,7,9,11,13,-1,-1,-1,-1,-1,-1,-1,-1],"loss_changes":[4.9696267E-1,6.51914E-1,4.1326797E-1,1.0397273E0,2.4612829E-1,1.6086295E-1,8.2455665E-2,0E0,0E0,0E0,0E0,0E0,0E0,0E0,0E0],"parents":[2147483647,0,0,1,1,2,2,3,3,4,4,5,5,6,6],"right_children":[2,4,6,8,10,12,14,-1,-1,-1,-1,-1,-1,-1,-1],"split_conditions":[4.6542662E-1,-1.7055473E0,2.6072621E0,-1.440412E0,-6.095929E-1,1.7893969E0,2.8790696E0,1.121403E-5,-5.0224313E-5,9.53539E-6,1.6722053E-6,-7.6237325E-6,6.722991E-6,2.4259693E-5,6.595137E-5],"split_indices":[14,9,7,14,7,5,6,0,0,0,0,0,0,0,0],"split_type":[0,0,0,0,0,0,0,0,0,0,0,0,0,0,0],"sum_hessian":[2.817017E6,1.777923E6,1.039094E6,1.10259E5,1.667664E6,1.017147E6,2.1947E4,5.3634E4,5.6625E4,6.56572E5,1.011092E6,9.31839E5,8.5308E4,1.5011E4,6.936E3],"tree_param":{"num_deleted":"0","num_feature":"20","num_nodes":"15","size_leaf_vector":"1"}},{"base_weights":[7.178243E-10,6.6593774E-3,-2.618839E-5,1.0067542E-2,-5.574523E-3,-3.7341057E-3,6.5786844E-5,2.2811926E-5,1.7571682E-4,-7.300543E-6,-1.4276819E-4,-7.622045E-6,-7.182409E-5,6.4952173E-6,-3.4044788E-6],"categories":[],"categories_nodes":[],"categories_segments":[],"categories_sizes":[],"default_left":[0,0,0,0,0,0,0,0,0,0,0,0,0,0,0],"id":29,"left_children":[1,3,5,7,9,11,13,-1,-1,-1,-1,-1,-1,-1,-1],"loss_changes":[4.9129692E-1,4.601621E-1,9.5694333E-1,5.04268E-1,1.0137956E-1,6.960194E-1,6.4928734E-1,0E0,0E0,0E0,0E0,0E0,0E0,0E0,0E0],"parents":[2147483647,0,0,1,1,2,2,3,3,4,4,5,5,6,6],"right_children":[2,4,6,8,10,12,14,-1,-1,-1,-1,-1,-1,-1,-1],"split_conditions":[-2.6664233E0,-2.2289686E0,-1.8688017E0,-1.7215747E0,-1.1161978E0,-1.3357459E0,-1.8708122E-1,2.2811926E-5,1.7571682E-4,-7.300543E-6,-1.4276819E-4,-7.622045E-6,-7.182409E-5,6.4952173E-6,-3.4044788E-6],"split_indices":[7,6,9,3,0,14,2,0,0,0,0,0,0,0,0],"split_type":[0,0,0,0,0,0,0,0,0,0,0,0,0,0,0],"sum_hessian":[2.817017E6,1.1034E4,2.805983E6,8.63E3,2.404E3,6.7917E4,2.738066E6,4.236E3,4.394E3,1.545E3,8.59E2,3.6479E4,3.1438E4,1.123567E6,1.614499E6],"tree_param":{"num_deleted":"0","num_feature":"20","num_nodes":"15","size_leaf_vector":"1"}},{"base_weights":[7.7761875E-10,6.5927883E-3,-2.5926458E-5,9.96689E-3,-5.51884E-3,-3.696766E-3,6.5129054E-5,2.2583861E-5,1.7396007E-4,2.9645727E-5,-1.03898594E-4,-7.545828E-6,-7.1105875E-5,5.0531844E-6,-4.6448713E-6],"categories":[],"categories_nodes":[],"categories_segments":[],"categories_sizes":[],"default_left":[0,0,0,0,0,0,0,0,0,0,0,0,0,0,0],"id":30,"left_children":[1,3,5,7,9,11,13,-1,-1,-1,-1,-1,-1,-1,-1],"loss_changes":[4.815208E-1,4.510099E-1,9.379009E-1,4.9423534E-1,9.9412315E-2,6.8216896E-1,6.3832974E-1,0E0,0E0,0E0,0E0,0E0,0E0,0E0,0E0],"parents":[2147483647,0,0,1,1,2,2,3,3,4,4,5,5,6,6],"right_children":[2,4,6,8,10,12,14,-1,-1,-1,-1,-1,-1,-1,-1],"split_conditions":[-2.6664233E0,-2.2289686E0,-1.8688017E0,-1.7215747E0,-1.5820357E0,-1.3357459E0,1.7963916E-1,2.2583861E-5,1.7396007E-4,2.9645727E-5,-1.03898594E-4,-7.545828E-6,-7.1105875E-5,5.0531844E-6,-4.6448713E-6],"split_indices":[7,6,9,3,13,14,19,0,0,0,0,0,0,0,0],"split_type":[0,0,0,0,0,0,0,0,0,0,0,0,0,0,0],"sum_hessian":[2.817017E6,1.1034E4,2.805983E6,8.63E3,2.404E3,6.7917E4,2.738066E6,4.236E3,4.394E3,8.77E2,1.527E3,3.6479E4,3.1438E4,1.495273E6,1.242793E6],"tree_param":{"num_deleted":"0","num_feature":"20","num_nodes":"15","size_leaf_vector":"1"}},{"base_weights":[7.191283E-10,3.2738104E-4,-5.137503E-4,-1.6759575E-3,5.080748E-4,-6.987685E-4,1.6205487E-3,7.437416E-5,-2.3478018E-5,9.947345E-6,1.8561603E-6,-5.0944553E-5,-6.670463E-6,4.3991397E-5,9.548309E-6],"categories":[],"categories_nodes":[],"categories_segments":[],"categories_sizes":[],"default_left":[0,0,0,0,0,0,0,0,0,0,0,0,0,0,0],"id":31,"left_children":[1,3,5,7,9,11,13,-1,-1,-1,-1,-1,-1,-1,-1],"loss_changes":[4.7379994E-1,6.228405E-1,4.3296152E-1,8.7160575E-1,2.4766997E-1,1.4068678E-1,1.6178481E-1,0E0,0E0,0E0,0E0,0E0,0E0,0E0,0E0],"parents":[2147483647,0,0,1,1,2,2,3,3,4,4,5,5,6,6],"right_children":[2,4,6,8,10,12,14,-1,-1,-1,-1,-1,-1,-1,-1],"split_conditions":[3.9870173E-1,-1.5826463E0,1.9157686E0,-2.6664233E0,-6.095929E-1,-1.7490092E-1,6.7666113E-1,7.437416E-5,-2.3478018E-5,9.947345E-6,1.8561603E-6,-5.0944553E-5,-6.670463E-6,4.3991397E-5,9.548309E-6],"split_indices":[13,9,6,7,7,19,3,0,0,0,0,0,0,0,0],"split_type":[0,0,0,0,0,0,0,0,0,0,0,0,0,0,0],"sum_hessian":[2.817017E6,1.720594E6,1.096423E6,1.42351E5,1.578243E6,1.008959E6,8.7464E4,9.773E3,1.32578E5,6.28978E5,9.49265E5,7.228E3,1.001731E6,1.6904E4,7.056E4],"tree_param":{"num_deleted":"0","num_feature":"20","num_nodes":"15","size_leaf_vector":"1"}},{"base_weights":[6.8139533E-10,3.1079806E-4,-5.317833E-4,-1.6727461E-3,4.843706E-4,-6.232429E-4,3.7067998E-3,7.36305E-5,-2.335328E-5,9.865389E-6,1.7053619E-6,-7.418582E-6,6.7241313E-6,2.4032845E-5,6.527136E-5],"categories":[],"categories_nodes":[],"categories_segments":[],"categories_sizes":[],"default_left":[0,0,0,0,0,0,0,0,0,0,0,0,0,0,0],"id":32,"left_children":[1,3,5,7,9,11,13,-1,-1,-1,-1,-1,-1,-1,-1],"loss_changes":[4.6558863E-1,6.1212015E-1,4.0281674E-1,8.5651684E-1,2.576506E-1,1.5632054E-1,8.067289E-2,0E0,0E0,0E0,0E0,0E0,0E0,0E0,0E0],"parents":[2147483647,0,0,1,1,2,2,3,3,4,4,5,5,6,6],"right_children":[2,4,6,8,10,12,14,-1,-1,-1,-1,-1,-1,-1,-1],"split_conditions":[4.6542662E-1,-1.5826463E0,2.6072621E0,-2.6664233E0,-6.095929E-1,1.7893969E0,2.8790696E0,7.36305E-5,-2.335328E-5,9.865389E-6,1.7053619E-6,-7.418582E-6,6.7241313E-6,2.4032845E-5,6.527136E-5],"split_indices":[14,9,7,7,7,5,6,0,0,0,0,0,0,0,0],"split_type":[0,0,0,0,0,0,0,0,0,0,0,0,0,0,0],"sum_hessian":[2.817017E6,1.777923E6,1.039094E6,1.4306E5,1.634863E6,1.017147E6,2.1947E4,9.773E3,1.33287E5,6.28767E5,1.006096E6,9.31839E5,8.5308E4,1.5011E4,6.936E3],"tree_param":{"num_deleted":"0","num_feature":"20","num_nodes":"15","size_leaf_vector":"1"}},{"base_weights":[7.4332024E-10,3.0769006E-4,-5.264653E-4,-1.9521873E-3,4.5710482E-4,-6.1701034E-4,3.669736E-3,1.10835335E-5,-4.851035E-5,1.0800939E-5,2.3412606E-6,-7.3443944E-6,6.6568905E-6,2.379253E-5,6.461873E-5],"categories":[],"categories_nodes":[],"categories_segments":[],"categories_sizes":[],"default_left":[0,0,0,0,0,0,0,0,0,0,0,0,0,0,0],"id":33,"left_children":[1,3,5,7,9,11,13,-1,-1,-1,-1,-1,-1,-1,-1],"loss_changes":[4.5632318E-1,6.00333E-1,3.9480144E-1,9.782367E-1,2.3166057E-1,1.5320972E-1,7.90678E-2,0E0,0E0,0E0,0E0,0E0,0E0,0E0,0E0],"parents":[2147483647,0,0,1,1,2,2,3,3,4,4,5,5,6,6],"right_children":[2,4,6,8,10,12,14,-1,-1,-1,-1,-1,-1,-1,-1],"split_conditions":[4.6542662E-1,-1.7055473E0,2.6072621E0,-1.440412E0,-9.5561796E-1,1.7893969E0,2.8790696E0,1.10835335E-5,-4.851035E-5,1.0800939E-5,2.3412606E-6,-7.3443944E-6,6.6568905E-6,2.379253E-5,6.461873E-5],"split_indices":[14,9,7,14,19,5,6,0,0,0,0,0,0,0,0],"split_type":[0,0,0,0,0,0,0,0,0,0,0,0,0,0,0],"sum_hessian":[2.817017E6,1.777923E6,1.039094E6,1.10259E5,1.667664E6,1.017147E6,2.1947E4,5.3634E4,5.6625E4,4.39559E5,1.228105E6,9.31839E5,8.5308E4,1.5011E4,6.936E3],"tree_param":{"num_deleted":"0","num_feature":"20","num_nodes":"15","size_leaf_vector":"1"}},{"base_weights":[7.537312E-10,6.3887527E-3,-2.512408E-5,9.721597E-3,-5.574724E-3,-3.5922795E-3,6.335954E-5,2.0807125E-5,1.708558E-4,-8.122043E-6,-1.4129702E-4,-7.0354886E-6,-6.944081E-5,6.243701E-6,-3.2706075E-6],"categories":[],"categories_nodes":[],"categories_segments":[],"categories_sizes":[],"default_left":[0,0,0,0,0,0,0,0,0,0,0,0,0,0,0],"id":34,"left_children":[1,3,5,7,9,11,13,-1,-1,-1,-1,-1,-1,-1,-1],"loss_changes":[4.5217755E-1,4.4004607E-1,8.856665E-1,4.8560792E-1,9.797605E-2,6.5760803E-1,5.997187E-1,0E0,0E0,0E0,0E0,0E0,0E0,0E0,0E0],"parents":[2147483647,0,0,1,1,2,2,3,3,4,4,5,5,6,6],"right_children":[2,4,6,8,10,12,14,-1,-1,-1,-1,-1,-1,-1,-1],"split_conditions":[-2.6664233E0,-2.2289686E0,-1.8688017E0,-1.7215747E0,-1.1161978E0,-1.3357459E0,-1.8708122E-1,2.0807125E-5,1.708558E-4,-8.122043E-6,-1.4129702E-4,-7.0354886E-6,-6.944081E-5,6.243701E-6,-3.2706075E-6],"split_indices":[7,6,9,3,0,14,2,0,0,0,0,0,0,0,0],"split_type":[0,0,0,0,0,0,0,0,0,0,0,0,0,0,0],"sum_hessian":[2.817017E6,1.1034E4,2.805983E6,8.63E3,2.404E3,6.7917E4,2.738066E6,4.236E3,4.394E3,1.545E3,8.59E2,3.6479E4,3.1438E4,1.123567E6,1.614499E6],"tree_param":{"num_deleted":"0","num_feature":"20","num_nodes":"15","size_leaf_vector":"1"}},{"base_weights":[7.2667605E-10,6.324869E-3,-2.4872872E-5,1.0476246E-2,-3.1043463E-3,-3.5563577E-3,6.2725936E-5,2.6194417E-5,1.8527532E-4,8.084989E-6,-1.1825709E-4,-6.965134E-6,-6.874643E-5,4.854216E-6,-4.458426E-6],"categories":[],"categories_nodes":[],"categories_segments":[],"categories_sizes":[],"default_left":[0,0,0,0,0,0,0,0,0,0,0,0,0,0,0],"id":35,"left_children":[1,3,5,7,9,11,13,-1,-1,-1,-1,-1,-1,-1,-1],"loss_changes":[4.4317973E-1,4.3198904E-1,8.680423E-1,4.846294E-1,1.1514847E-1,6.44522E-1,5.886016E-1,0E0,0E0,0E0,0E0,0E0,0E0,0E0,0E0],"parents":[2147483647,0,0,1,1,2,2,3,3,4,4,5,5,6,6],"right_children":[2,4,6,8,10,12,14,-1,-1,-1,-1,-1,-1,-1,-1],"split_conditions":[-2.6664233E0,-2.3904624E0,-1.8688017E0,-1.7215747E0,-1.1343453E0,-1.3357459E0,1.7963916E-1,2.6194417E-5,1.8527532E-4,8.084989E-6,-1.1825709E-4,-6.965134E-6,-6.874643E-5,4.854216E-6,-4.458426E-6],"split_indices":[7,6,9,3,0,14,19,0,0,0,0,0,0,0,0],"split_type":[0,0,0,0,0,0,0,0,0,0,0,0,0,0,0],"sum_hessian":[2.817017E6,1.1034E4,2.805983E6,7.661E3,3.373E3,6.7917E4,2.738066E6,3.878E3,3.783E3,2.329E3,1.044E3,3.6479E4,3.1438E4,1.495273E6,1.242793E6],"tree_param":{"num_deleted":"0","num_feature":"20","num_nodes":"15","size_leaf_vector":"1"}},{"base_weights":[7.9140994E-10,6.694592E-4,-2.3251482E-4,6.757326E-3,5.829888E-4,-5.5973968E-3,-1.5607513E-4,1.11778405E-4,-5.8495476E-7,-3.9910465E-5,7.531932E-6,2.0051654E-4,-6.23071E-5,-1.969298E-6,3.6496367E-5],"categories":[],"categories_nodes":[],"categories_segments":[],"categories_sizes":[],"default_left":[0,0,0,0,0,0,0,0,0,0,0,0,0,0,0],"id":36,"left_children":[1,3,5,7,9,11,13,-1,-1,-1,-1,-1,-1,-1,-1],"loss_changes":[4.3849587E-1,3.8227507E-1,8.574288E-1,3.0641705E-1,5.574373E-1,4.7724044E-1,3.205192E-1,0E0,0E0,0E0,0E0,0E0,0E0,0E0,0E0],"parents":[2147483647,0,0,1,1,2,2,3,3,4,4,5,5,6,6],"right_children":[2,4,6,8,10,12,14,-1,-1,-1,-1,-1,-1,-1,-1],"split_conditions":[-6.5854627E-1,-2.6664233E0,-1.8087789E0,-2.6874487E0,-2.10634E0,-2.2289686E0,2.6072621E0,1.11778405E-4,-5.8495476E-7,-3.9910465E-5,7.531932E-6,2.0051654E-4,-6.23071E-5,-1.969298E-6,3.6496367E-5],"split_indices":[5,7,9,8,8,6,7,0,0,0,0,0,0,0,0],"split_type":[0,0,0,0,0,0,0,0,0,0,0,0,0,0,0],"sum_hessian":[2.817017E6,7.26185E5,2.090832E6,1.0169E4,7.16016E5,2.9371E4,2.061461E6,6.168E3,4.001E3,2.5687E4,6.90329E5,7.07E2,2.8664E4,2.039567E6,2.1894E4],"tree_param":{"num_deleted":"0","num_feature":"20","num_nodes":"15","size_leaf_vector":"1"}},{"base_weights":[8.4563606E-10,3.1327832E-4,-4.916188E-4,-1.5985158E-3,4.8571514E-4,-6.8417244E-4,1.4655396E-3,1.1097904E-5,-3.670484E-5,9.5463365E-6,1.7501147E-6,-5.269951E-5,-6.5391046E-6,7.0901435E-5,1.1520213E-5],"categories":[],"categories_nodes":[],"categories_segments":[],"categories_sizes":[],"default_left":[0,0,0,0,0,0,0,0,0,0,0,0,0,0,0],"id":37,"left_children":[1,3,5,7,9,11,13,-1,-1,-1,-1,-1,-1,-1,-1],"loss_changes":[4.3385857E-1,5.6721854E-1,4.131971E-1,7.9881585E-1,2.299416E-1,1.3852385E-1,1.7317516E-1,0E0,0E0,0E0,0E0,0E0,0E0,0E0,0E0],"parents":[2147483647,0,0,1,1,2,2,3,3,4,4,5,5,6,6],"right_children":[2,4,6,8,10,12,14,-1,-1,-1,-1,-1,-1,-1,-1],"split_conditions":[3.9870173E-1,-1.5826463E0,1.8565427E0,-1.4982573E0,-6.095929E-1,-1.8621236E-1,7.291916E-2,1.1097904E-5,-3.670484E-5,9.5463365E-6,1.7501147E-6,-5.269951E-5,-6.5391046E-6,7.0901435E-5,1.1520213E-5],"split_indices":[13,9,6,14,7,19,3,0,0,0,0,0,0,0,0],"split_type":[0,0,0,0,0,0,0,0,0,0,0,0,0,0,0],"sum_hessian":[2.817017E6,1.720594E6,1.096423E6,1.42351E5,1.578243E6,9.98215E5,9.8208E4,6.1701E4,8.065E4,6.28978E5,9.49265E5,6.543E3,9.91672E5,5.184E3,9.3024E4],"tree_param":{"num_deleted":"0","num_feature":"20","num_nodes":"15","size_leaf_vector":"1"}},{"base_weights":[8.2297325E-10,3.2450576E-4,-4.6629514E-4,-1.3949231E-3,5.282223E-4,-5.448804E-4,3.5950355E-3,7.003594E-5,-1.8996454E-5,4.850316E-6,6.472912E-5,-6.9214593E-6,7.3335345E-6,2.318091E-5,6.356965E-5],"categories":[],"categories_nodes":[],"categories_segments":[],"categories_sizes":[],"default_left":[0,0,0,0,0,0,0,0,0,0,0,0,0,0,0],"id":38,"left_children":[1,3,5,7,9,11,13,-1,-1,-1,-1,-1,-1,-1,-1],"loss_changes":[4.2625818E-1,5.8182895E-1,3.6893982E-1,7.4586797E-1,3.8130516E-1,2.1346846E-1,7.737452E-2,0E0,0E0,0E0,0E0,0E0,0E0,0E0,0E0],"parents":[2147483647,0,0,1,1,2,2,3,3,4,4,5,5,6,6],"right_children":[2,4,6,8,10,12,14,-1,-1,-1,-1,-1,-1,-1,-1],"split_conditions":[2.6625398E-1,-1.4820246E0,2.6072621E0,-2.6664233E0,1.167443E0,1.6553854E0,2.8790696E0,7.003594E-5,-1.8996454E-5,4.850316E-6,6.472912E-5,-6.9214593E-6,7.3335345E-6,2.318091E-5,6.356965E-5],"split_indices":[19,9,7,7,8,5,6,0,0,0,0,0,0,0,0],"split_type":[0,0,0,0,0,0,0,0,0,0,0,0,0,0,0],"sum_hessian":[2.817017E6,1.661055E6,1.155962E6,1.75953E5,1.485102E6,1.13402E6,2.1942E4,9.974E3,1.65979E5,1.474391E6,1.0711E4,1.016867E6,1.17153E5,1.5006E4,6.936E3],"tree_param":{"num_deleted":"0","num_feature":"20","num_nodes":"15","size_leaf_vector":"1"}},{"base_weights":[8.840795E-10,6.6489057E-4,-2.2541279E-4,6.650527E-3,5.784096E-4,-5.4809004E-3,-1.4999449E-4,1.1043941E-4,-1.2147882E-6,-3.9060946E-5,7.4744657E-6,1.9504942E-4,-6.1027546E-5,-1.8967938E-6,3.5690002E-5],"categories":[],"categories_nodes":[],"categories_segments":[],"categories_sizes":[],"default_left":[0,0,0,0,0,0,0,0,0,0,0,0,0,0,0],"id":39,"left_children":[1,3,5,7,9,11,13,-1,-1,-1,-1,-1,-1,-1,-1],"loss_changes":[4.2220134E-1,3.6919713E-1,8.3385533E-1,3.0222458E-1,5.329685E-1,4.625635E-1,3.0610138E-1,0E0,0E0,0E0,0E0,0E0,0E0,0E0,0E0],"parents":[2147483647,0,0,1,1,2,2,3,3,4,4,5,5,6,6],"right_children":[2,4,6,8,10,12,14,-1,-1,-1,-1,-1,-1,-1,-1],"split_conditions":[-6.71054E-1,-2.6664233E0,-1.8087789E0,-2.6874487E0,-2.10634E0,-2.2289686E0,2.6072621E0,1.1043941E-4,-1.2147882E-6,-3.9060946E-5,7.4744657E-6,1.9504942E-4,-6.1027546E-5,-1.8967938E-6,3.5690002E-5],"split_indices":[5,7,9,8,8,6,7,0,0,0,0,0,0,0,0],"split_type":[0,0,0,0,0,0,0,0,0,0,0,0,0,0,0],"sum_hessian":[2.817017E6,7.13233E5,2.103784E6,1.0157E4,7.03076E5,2.9762E4,2.074022E6,6.16E3,3.997E3,2.5538E4,6.77538E5,7.22E2,2.904E4,2.052125E6,2.1897E4],"tree_param":{"num_deleted":"0","num_feature":"20","num_nodes":"15","size_leaf_vector":"1"}},{"base_weights":[9.967321E-10,2.946371E-4,-5.041306E-4,-1.3724653E-3,4.777493E-4,-6.2847167E-4,2.3225776E-3,6.863606E-5,-1.867413E-5,9.918502E-6,1.684083E-6,-6.8255245E-6,1.0938332E-5,8.3178646E-5,1.8338102E-5],"categories":[],"categories_nodes":[],"categories_segments":[],"categories_sizes":[],"default_left":[0,0,0,0,0,0,0,0,0,0,0,0,0,0,0],"id":40,"left_children":[1,3,5,7,9,11,13,-1,-1,-1,-1,-1,-1,-1,-1],"loss_changes":[4.18427E-1,5.427417E-1,3.652184E-1,7.1729255E-1,2.5476462E-1,9.270787E-2,1.2827915E-1,0E0,0E0,0E0,0E0,0E0,0E0,0E0,0E0],"parents":[2147483647,0,0,1,1,2,2,3,3,4,4,5,5,6,6],"right_children":[2,4,6,8,10,12,14,-1,-1,-1,-1,-1,-1,-1,-1],"split_conditions":[4.6542662E-1,-1.4820246E0,2.2577982E0,-2.6664233E0,-6.095929E-1,2.1643653E0,4.991577E-1,6.863606E-5,-1.867413E-5,9.918502E-6,1.684083E-6,-6.8255245E-6,1.0938332E-5,8.3178646E-5,1.8338102E-5],"split_indices":[14,9,6,7,7,7,8,0,0,0,0,0,0,0,0],"split_type":[0,0,0,0,0,0,0,0,0,0,0,0,0,0,0],"sum_hessian":[2.817017E6,1.777923E6,1.039094E6,1.75957E5,1.601966E6,9.95313E5,4.3781E4,9.974E3,1.65983E5,6.01807E5,1.000159E6,9.65012E5,3.0301E4,3.299E3,4.0482E4],"tree_param":{"num_deleted":"0","num_feature":"20","num_nodes":"15","size_leaf_vector":"1"}},{"base_weights":[1.0272206E-9,6.4772257E-4,-2.2496496E-4,6.488904E-3,5.64756E-4,-5.419252E-3,-1.5095591E-4,8.655223E-5,-6.88788E-5,-3.876819E-5,7.3003143E-6,1.9644444E-4,-6.038114E-5,-1.9032796E-6,3.5166457E-5],"categories":[],"categories_nodes":[],"categories_segments":[],"categories_sizes":[],"default_left":[0,0,0,0,0,0,0,0,0,0,0,0,0,0,0],"id":41,"left_children":[1,3,5,7,9,11,13,-1,-1,-1,-1,-1,-1,-1,-1],"loss_changes":[4.104828E-1,3.519225E-1,8.03766E-1,2.9476982E-1,5.2561903E-1,4.5570678E-1,2.976779E-1,0E0,0E0,0E0,0E0,0E0,0E0,0E0,0E0],"parents":[2147483647,0,0,1,1,2,2,3,3,4,4,5,5,6,6],"right_children":[2,4,6,8,10,12,14,-1,-1,-1,-1,-1,-1,-1,-1],"split_conditions":[-6.5854627E-1,-2.6664233E0,-1.8087789E0,-1.6047126E0,-2.10634E0,-2.2289686E0,2.6072621E0,8.655223E-5,-6.88788E-5,-3.876819E-5,7.3003143E-6,1.9644444E-4,-6.038114E-5,-1.9032796E-6,3.5166457E-5],"split_indices":[5,7,9,14,8,6,7,0,0,0,0,0,0,0,0],"split_type":[0,0,0,0,0,0,0,0,0,0,0,0,0,0,0],"sum_hessian":[2.817017E6,7.26185E5,2.090832E6,1.0169E4,7.16016E5,2.9371E4,2.061461E6,8.752E3,1.417E3,2.5687E4,6.90329E5,7.07E2,2.8664E4,2.039567E6,2.1894E4],"tree_param":{"num_deleted":"0","num_feature":"20","num_nodes":"15","size_leaf_vector":"1"}},{"base_weights":[1.054053E-9,2.9122457E-4,-4.982915E-4,-1.5494232E-3,4.522928E-4,-6.490058E-4,1.7734158E-3,1.1051806E-5,-3.562609E-5,9.295355E-6,1.5403582E-6,-7.0958276E-6,7.3111614E-6,5.174119E-5,1.1306188E-5],"categories":[],"categories_nodes":[],"categories_segments":[],"categories_sizes":[],"default_left":[0,0,0,0,0,0,0,0,0,0,0,0,0,0,0],"id":42,"left_children":[1,3,5,7,9,11,13,-1,-1,-1,-1,-1,-1,-1,-1],"loss_changes":[4.0879035E-1,5.271016E-1,3.5576525E-1,7.645521E-1,2.3270807E-1,8.146781E-2,1.4131439E-1,0E0,0E0,0E0,0E0,0E0,0E0,0E0,0E0],"parents":[2147483647,0,0,1,1,2,2,3,3,4,4,5,5,6,6],"right_children":[2,4,6,8,10,12,14,-1,-1,-1,-1,-1,-1,-1,-1],"split_conditions":[4.6542662E-1,-1.5826463E0,2.0608182E0,-1.4982573E0,-6.095929E-1,1.9602615E0,6.6514826E-1,1.1051806E-5,-3.562609E-5,9.295355E-6,1.5403582E-6,-7.0958276E-6,7.3111614E-6,5.174119E-5,1.1306188E-5],"split_indices":[14,9,6,14,7,5,3,0,0,0,0,0,0,0,0],"split_type":[0,0,0,0,0,0,0,0,0,0,0,0,0,0,0],"sum_hessian":[2.817017E6,1.777923E6,1.039094E6,1.4306E5,1.634863E6,9.74446E5,6.4648E4,6.1701E4,8.1359E4,6.28767E5,1.006096E6,9.33474E5,4.0972E4,1.0276E4,5.4372E4],"tree_param":{"num_deleted":"0","num_feature":"20","num_nodes":"15","size_leaf_vector":"1"}},{"base_weights":[1.0809407E-9,3.012951E-4,-4.7281326E-4,-1.8017427E-3,4.4474626E-4,-6.5843755E-4,1.4139138E-3,7.221368E-6,-4.921944E-5,1.02307995E-5,2.2768545E-6,-4.9923456E-5,-6.268353E-6,6.9844085E-5,1.103412E-5],"categories":[],"categories_nodes":[],"categories_segments":[],"categories_sizes":[],"default_left":[0,0,0,0,0,0,0,0,0,0,0,0,0,0,0],"id":43,"left_children":[1,3,5,7,9,11,13,-1,-1,-1,-1,-1,-1,-1,-1],"loss_changes":[4.0130168E-1,5.190753E-1,3.8399306E-1,8.6523116E-1,2.0219994E-1,1.367135E-1,1.6985936E-1,0E0,0E0,0E0,0E0,0E0,0E0,0E0,0E0],"parents":[2147483647,0,0,1,1,2,2,3,3,4,4,5,5,6,6],"right_children":[2,4,6,8,10,12,14,-1,-1,-1,-1,-1,-1,-1,-1],"split_conditions":[3.9870173E-1,-1.7055473E0,1.8565427E0,-1.3357459E0,-9.5561796E-1,-1.7490092E-1,7.291916E-2,7.221368E-6,-4.921944E-5,1.02307995E-5,2.2768545E-6,-4.9923456E-5,-6.268353E-6,6.9844085E-5,1.103412E-5],"split_indices":[13,9,6,14,19,19,3,0,0,0,0,0,0,0,0],"split_type":[0,0,0,0,0,0,0,0,0,0,0,0,0,0,0],"sum_hessian":[2.817017E6,1.720594E6,1.096423E6,1.09869E5,1.610725E6,9.98215E5,9.8208E4,6.0739E4,4.913E4,4.39561E5,1.171164E6,7.225E3,9.9099E5,5.184E3,9.3024E4],"tree_param":{"num_deleted":"0","num_feature":"20","num_nodes":"15","size_leaf_vector":"1"}},{"base_weights":[1.0885297E-9,3.3020848E-4,-4.2423714E-4,-1.3316588E-3,5.378331E-4,-5.482814E-4,1.7873184E-3,6.721878E-5,-1.8157336E-5,4.4516205E-6,4.121537E-5,2.3112993E-6,-7.234654E-6,5.1114945E-5,1.1079238E-5],"categories":[],"categories_nodes":[],"categories_segments":[],"categories_sizes":[],"default_left":[0,0,0,0,0,0,0,0,0,0,0,0,0,0,0],"id":44,"left_children":[1,3,5,7,9,11,13,-1,-1,-1,-1,-1,-1,-1,-1],"loss_changes":[3.9462662E-1,5.465719E-1,3.3823967E-1,6.8585837E-1,4.6764785E-1,1.5940785E-1,1.4788292E-1,0E0,0E0,0E0,0E0,0E0,0E0,0E0,0E0],"parents":[2147483647,0,0,1,1,2,2,3,3,4,4,5,5,6,6],"right_children":[2,4,6,8,10,12,14,-1,-1,-1,-1,-1,-1,-1,-1],"split_conditions":[1.893482E-1,-1.4820246E0,2.0608182E0,-2.6664233E0,8.320978E-1,9.833341E-2,6.6514826E-1,6.721878E-5,-1.8157336E-5,4.4516205E-6,4.121537E-5,2.3112993E-6,-7.234654E-6,5.1114945E-5,1.1079238E-5],"split_indices":[19,9,6,7,9,4,3,0,0,0,0,0,0,0,0],"split_type":[0,0,0,0,0,0,0,0,0,0,0,0,0,0,0],"sum_hessian":[2.817017E6,1.584059E6,1.232958E6,1.75924E5,1.408135E6,1.167476E6,6.5482E4,9.974E3,1.6595E5,1.372641E6,3.5494E4,2.14251E5,9.53225E5,1.1111E4,5.4371E4],"tree_param":{"num_deleted":"0","num_feature":"20","num_nodes":"15","size_leaf_vector":"1"}},{"base_weights":[1.1094565E-9,6.450311E-4,-2.1429884E-4,6.433312E-3,5.602164E-4,-5.276609E-3,-1.4106078E-4,1.077118E-4,-2.665455E-6,-3.8007038E-5,7.2625808E-6,1.9052258E-4,-5.8842175E-5,3.5763017E-6,-4.218948E-6],"categories":[],"categories_nodes":[],"categories_segments":[],"categories_sizes":[],"default_left":[0,0,0,0,0,0,0,0,0,0,0,0,0,0,0],"id":45,"left_children":[1,3,5,7,9,11,13,-1,-1,-1,-1,-1,-1,-1,-1],"loss_changes":[3.8939625E-1,3.4488016E-1,7.8396183E-1,2.9484805E-1,5.0134057E-1,4.45876E-1,2.9191294E-1,0E0,0E0,0E0,0E0,0E0,0E0,0E0,0E0],"parents":[2147483647,0,0,1,1,2,2,3,3,4,4,5,5,6,6],"right_children":[2,4,6,8,10,12,14,-1,-1,-1,-1,-1,-1,-1,-1],"split_conditions":[-6.8407226E-1,-2.6664233E0,-1.8087789E0,-2.6874487E0,-2.10634E0,-2.2289686E0,-8.571851E-2,1.077118E-4,-2.665455E-6,-3.8007038E-5,7.2625808E-6,1.9052258E-4,-5.8842175E-5,3.5763017E-6,-4.218948E-6],"split_indices":[5,7,9,8,8,6,2,0,0,0,0,0,0,0,0],"split_type":[0,0,0,0,0,0,0,0,0,0,0,0,0,0,0],"sum_hessian":[2.817017E6,7.02508E5,2.114509E6,1.0144E4,6.92364E5,3.0154E4,2.084355E6,6.157E3,3.987E3,2.5394E4,6.6697E5,7.34E2,2.942E4,7.50916E5,1.333439E6],"tree_param":{"num_deleted":"0","num_feature":"20","num_nodes":"15","size_leaf_vector":"1"}},{"base_weights":[1.1906891E-9,6.3858094E-4,-2.1215578E-4,6.3689887E-3,5.5461423E-4,-5.223839E-3,-1.3965016E-4,8.58579E-6,1.156372E-4,-3.762698E-5,7.189956E-6,1.8861993E-4,-5.8253772E-5,-1.7787958E-6,3.46082E-5],"categories":[],"categories_nodes":[],"categories_segments":[],"categories_sizes":[],"default_left":[0,0,0,0,0,0,0,0,0,0,0,0,0,0,0],"id":46,"left_children":[1,3,5,7,9,11,13,-1,-1,-1,-1,-1,-1,-1,-1],"loss_changes":[3.8164735E-1,3.3801824E-1,7.683597E-1,2.9039165E-1,4.9136418E-1,4.3701226E-1,2.8689942E-1,0E0,0E0,0E0,0E0,0E0,0E0,0E0,0E0],"parents":[2147483647,0,0,1,1,2,2,3,3,4,4,5,5,6,6],"right_children":[2,4,6,8,10,12,14,-1,-1,-1,-1,-1,-1,-1,-1],"split_conditions":[-6.8407226E-1,-2.6664233E0,-1.8087789E0,-1.6770627E0,-2.10634E0,-2.2289686E0,2.6072621E0,8.58579E-6,1.156372E-4,-3.762698E-5,7.189956E-6,1.8861993E-4,-5.8253772E-5,-1.7787958E-6,3.46082E-5],"split_indices":[5,7,9,3,8,6,7,0,0,0,0,0,0,0,0],"split_type":[0,0,0,0,0,0,0,0,0,0,0,0,0,0,0],"sum_hessian":[2.817017E6,7.02508E5,2.114509E6,1.0144E4,6.92364E5,3.0154E4,2.084355E6,4.923E3,5.221E3,2.5394E4,6.6697E5,7.34E2,2.942E4,2.062457E6,2.1898E4],"tree_param":{"num_deleted":"0","num_feature":"20","num_nodes":"15","size_leaf_vector":"1"}},{"base_weights":[1.3034608E-9,2.8092612E-4,-4.806698E-4,-1.3025617E-3,4.5485422E-4,-5.647964E-4,3.418074E-3,6.5292144E-5,-1.7732134E-5,9.516894E-6,1.5590215E-6,-6.7701644E-6,6.610029E-6,2.1604621E-5,6.139113E-5],"categories":[],"categories_nodes":[],"categories_segments":[],"categories_sizes":[],"default_left":[0,0,0,0,0,0,0,0,0,0,0,0,0,0,0],"id":47,"left_children":[1,3,5,7,9,11,13,-1,-1,-1,-1,-1,-1,-1,-1],"loss_changes":[3.8038895E-1,4.8966402E-1,3.4081244E-1,6.485997E-1,2.379399E-1,1.399186E-1,7.509303E-2,0E0,0E0,0E0,0E0,0E0,0E0,0E0,0E0],"parents":[2147483647,0,0,1,1,2,2,3,3,4,4,5,5,6,6],"right_children":[2,4,6,8,10,12,14,-1,-1,-1,-1,-1,-1,-1,-1],"split_conditions":[4.6542662E-1,-1.4820246E0,2.6072621E0,-2.6664233E0,-6.095929E-1,1.7893969E0,2.8790696E0,6.5292144E-5,-1.7732134E-5,9.516894E-6,1.5590215E-6,-6.7701644E-6,6.610029E-6,2.1604621E-5,6.139113E-5],"split_indices":[14,9,7,7,7,5,6,0,0,0,0,0,0,0,0],"split_type":[0,0,0,0,0,0,0,0,0,0,0,0,0,0,0],"sum_hessian":[2.817017E6,1.777923E6,1.039094E6,1.75957E5,1.601966E6,1.017147E6,2.1947E4,9.974E3,1.65983E5,6.01807E5,1.000159E6,9.31839E5,8.5308E4,1.5011E4,6.936E3],"tree_param":{"num_deleted":"0","num_feature":"20","num_nodes":"15","size_leaf_vector":"1"}},{"base_weights":[1.314399E-9,3.0379093E-4,-4.3652783E-4,-1.2900318E-3,4.9262575E-4,-5.104402E-4,3.383306E-3,5.746072E-6,-3.239698E-5,4.497489E-6,6.394118E-5,-6.530887E-6,7.277179E-6,2.13758E-5,6.0777315E-5],"categories":[],"categories_nodes":[],"categories_segments":[],"categories_sizes":[],"default_left":[0,0,0,0,0,0,0,0,0,0,0,0,0,0,0],"id":48,"left_children":[1,3,5,7,9,11,13,-1,-1,-1,-1,-1,-1,-1,-1],"loss_changes":[3.7357342E-1,4.999274E-1,3.2636824E-1,6.396691E-1,3.7578377E-1,2.0029283E-1,7.3639005E-2,0E0,0E0,0E0,0E0,0E0,0E0,0E0,0E0],"parents":[2147483647,0,0,1,1,2,2,3,3,4,4,5,5,6,6],"right_children":[2,4,6,8,10,12,14,-1,-1,-1,-1,-1,-1,-1,-1],"split_conditions":[2.6625398E-1,-1.4820246E0,2.6072621E0,-1.3357459E0,1.167443E0,1.6553854E0,2.8790696E0,5.746072E-6,-3.239698E-5,4.497489E-6,6.394118E-5,-6.530887E-6,7.277179E-6,2.13758E-5,6.0777315E-5],"split_indices":[19,9,7,14,8,5,6,0,0,0,0,0,0,0,0],"split_type":[0,0,0,0,0,0,0,0,0,0,0,0,0,0,0],"sum_hessian":[2.817017E6,1.661055E6,1.155962E6,1.75953E5,1.485102E6,1.13402E6,2.1942E4,8.9938E4,8.6015E4,1.474391E6,1.0711E4,1.016867E6,1.17153E5,1.5006E4,6.936E3],"tree_param":{"num_deleted":"0","num_feature":"20","num_nodes":"15","size_leaf_vector":"1"}},{"base_weights":[1.3242426E-9,4.2026397E-4,-3.118986E-4,-1.3581123E-3,6.479232E-4,-3.8500113E-4,2.2685537E-3,1.0887408E-5,-3.3841327E-5,5.96369E-6,4.3243188E-5,9.115944E-6,-4.8039324E-6,6.344182E-5,1.537593E-5],"categories":[],"categories_nodes":[],"categories_segments":[],"categories_sizes":[],"default_left":[0,0,0,0,0,0,0,0,0,0,0,0,0,0,0],"id":49,"left_children":[1,3,5,7,9,11,13,-1,-1,-1,-1,-1,-1,-1,-1],"loss_changes":[3.6925453E-1,4.858557E-1,3.050229E-1,6.751485E-1,2.0163369E-1,1.9448628E-1,1.3269827E-1,0E0,0E0,0E0,0E0,0E0,0E0,0E0,0E0],"parents":[2147483647,0,0,1,1,2,2,3,3,4,4,5,5,6,6],"right_children":[2,4,6,8,10,12,14,-1,-1,-1,-1,-1,-1,-1,-1],"split_conditions":[-1.8708122E-1,-1.5826463E0,2.2577982E0,-1.4982573E0,9.5636857E-1,-6.213449E-1,6.420311E-1,1.0887408E-5,-3.3841327E-5,5.96369E-6,4.3243188E-5,9.115944E-6,-4.8039324E-6,6.344182E-5,1.537593E-5],"split_indices":[2,9,6,14,9,6,3,0,0,0,0,0,0,0,0],"split_type":[0,0,0,0,0,0,0,0,0,0,0,0,0,0,0],"sum_hessian":[2.817017E6,1.200044E6,1.616973E6,1.36189E5,1.063855E6,1.572428E6,4.4545E4,6.1688E4,7.4501E4,1.049144E6,1.4711E4,1.07757E5,1.464671E6,6.773E3,3.7772E4],"tree_param":{"num_deleted":"0","num_feature":"20","num_nodes":"15","size_leaf_vector":"1"}}]},"name":"gbtree"},"learner_model_param":{"base_score":"7.165857E-4","boost_from_average":"1","num_class":"0","num_feature":"20","num_target":"1"},"objective":{"name":"reg:squarederror","reg_loss_param":{"scale_pos_weight":"1"}}},"version":[2,1,1]}