{"learner":{"attributes":{"scikit_learn":"{\"_estimator_type\": \"regressor\"}"},"feature_names":["Momentum_10","Momentum_30","Momentum_60","Momentum_120","Momentum_300","RSI_10","RSI_30","RSI_60","RSI_120","RSI_300","BB_10","BB_30","BB_60","BB_120","BB_300","MRC_10","MRC_30","MRC_60","MRC_120","MRC_300"],"feature_types":["float","float","float","float","float","float","float","float","float","float","float","float","float","float","float","float","float","float","float","float"],"gradient_booster":{"model":{"gbtree_model_param":{"num_parallel_tree":"1","num_trees":"50"},"iteration_indptr":[0,1,2,3,4,5,6,7,8,9,10,11,12,13,14,15,16,17,18,19,20,21,22,23,24,25,26,27,28,29,30,31,32,33,34,35,36,37,38,39,40,41,42,43,44,45,46,47,48,49,50],"tree_info":[0,0,0,0,0,0,0,0,0,0,0,0,0,0,0,0,0,0,0,0,0,0,0,0,0,0,0,0,0,0,0,0,0,0,0,0,0,0,0,0,0,0,0,0,0,0,0,0,0,0],"trees":[{"base_weights":[-2.7023613E-11,-1.83982E-3,7.2298835E-6,5.4250024E-3,-2.4798636E-3,8.336781E-4,-1.6473299E-6,1.3593475E-4,-2.0918635E-5,-7.8823665E-5,-1.0718995E-5,2.1333151E-5,5.771562E-6,-6.509405E-8,6.095086E-6],"categories":[],"categories_nodes":[],"categories_segments":[],"categories_sizes":[],"default_left":[0,0,0,0,0,0,0,0,0,0,0,0,0,0,0],"id":0,"left_children":[1,3,5,7,9,11,13,-1,-1,-1,-1,-1,-1,-1,-1],"loss_changes":[2.248275E-2,3.0776555E-2,1.23518E-2,3.2939546E-2,4.6246856E-2,5.963699E-3,4.9496233E-3,0E0,0E0,0E0,0E0,0E0,0E0,0E0,0E0],"parents":[2147483647,0,0,1,1,2,2,3,3,4,4,5,5,6,6],"right_children":[2,4,6,8,10,12,14,-1,-1,-1,-1,-1,-1,-1,-1],"split_conditions":[-2.8324327E0,-2.3437662E0,-2.0735502E0,-2.656339E0,-2.4811192E0,-2.1411278E0,2.0793495E0,1.3593475E-4,-2.0918635E-5,-7.8823665E-5,-1.0718995E-5,2.1333151E-5,5.771562E-6,-6.509405E-8,6.095086E-6],"split_indices":[3,19,17,5,8,7,16,0,0,0,0,0,0,0,0],"split_type":[0,0,0,0,0,0,0,0,0,0,0,0,0,0,0],"sum_hessian":[1.69021E6,6.615E3,1.683595E6,5.35E2,6.08E3,1.7891E4,1.665704E6,2.56E2,2.79E2,1.256E3,4.824E3,2.948E3,1.4943E4,1.652558E6,1.3146E4],"tree_param":{"num_deleted":"0","num_feature":"20","num_nodes":"15","size_leaf_vector":"1"}},{"base_weights":[6.711327E-11,-1.821418E-3,7.157664E-6,5.370967E-3,-2.4550797E-3,8.253429E-4,-1.6307932E-6,1.345807E-4,-2.0710197E-5,-7.803606E-5,-1.0611828E-5,2.1119893E-5,5.713851E-6,-6.444251E-8,6.034141E-6],"categories":[],"categories_nodes":[],"categories_segments":[],"categories_sizes":[],"default_left":[0,0,0,0,0,0,0,0,0,0,0,0,0,0,0],"id":1,"left_children":[1,3,5,7,9,11,13,-1,-1,-1,-1,-1,-1,-1,-1],"loss_changes":[2.2035254E-2,3.0165862E-2,1.2106043E-2,3.2286555E-2,4.532737E-2,5.8450745E-3,4.851133E-3,0E0,0E0,0E0,0E0,0E0,0E0,0E0,0E0],"parents":[2147483647,0,0,1,1,2,2,3,3,4,4,5,5,6,6],"right_children":[2,4,6,8,10,12,14,-1,-1,-1,-1,-1,-1,-1,-1],"split_conditions":[-2.8324327E0,-2.3437662E0,-2.0735502E0,-2.656339E0,-2.4811192E0,-2.1411278E0,2.0793495E0,1.345807E-4,-2.0710197E-5,-7.803606E-5,-1.0611828E-5,2.1119893E-5,5.713851E-6,-6.444251E-8,6.034141E-6],"split_indices":[3,19,17,5,8,7,16,0,0,0,0,0,0,0,0],"split_type":[0,0,0,0,0,0,0,0,0,0,0,0,0,0,0],"sum_hessian":[1.69021E6,6.615E3,1.683595E6,5.35E2,6.08E3,1.7891E4,1.665704E6,2.56E2,2.79E2,1.256E3,4.824E3,2.948E3,1.4943E4,1.652558E6,1.3146E4],"tree_param":{"num_deleted":"0","num_feature":"20","num_nodes":"15","size_leaf_vector":"1"}},{"base_weights":[6.7313925E-11,-1.8031999E-3,7.0860733E-6,5.31747E-3,-2.4305433E-3,8.170909E-4,-1.6145156E-6,1.3324012E-4,-2.0503832E-5,-6.803817E-5,-7.5683347E-6,2.0908765E-5,5.656716E-6,-6.3798424E-8,5.973803E-6],"categories":[],"categories_nodes":[],"categories_segments":[],"categories_sizes":[],"default_left":[0,0,0,0,0,0,0,0,0,0,0,0,0,0,0],"id":2,"left_children":[1,3,5,7,9,11,13,-1,-1,-1,-1,-1,-1,-1,-1],"loss_changes":[2.159666E-2,2.95673E-2,1.1865176E-2,3.1646512E-2,4.4505287E-2,5.728808E-3,4.7546024E-3,0E0,0E0,0E0,0E0,0E0,0E0,0E0,0E0],"parents":[2147483647,0,0,1,1,2,2,3,3,4,4,5,5,6,6],"right_children":[2,4,6,8,10,12,14,-1,-1,-1,-1,-1,-1,-1,-1],"split_conditions":[-2.8324327E0,-2.3437662E0,-2.0735502E0,-2.656339E0,-2.0420144E0,-2.1411278E0,2.0793495E0,1.3324012E-4,-2.0503832E-5,-6.803817E-5,-7.5683347E-6,2.0908765E-5,5.656716E-6,-6.3798424E-8,5.973803E-6],"split_indices":[3,19,17,5,7,7,16,0,0,0,0,0,0,0,0],"split_type":[0,0,0,0,0,0,0,0,0,0,0,0,0,0,0],"sum_hessian":[1.69021E6,6.615E3,1.683595E6,5.35E2,6.08E3,1.7891E4,1.665704E6,2.56E2,2.79E2,1.682E3,4.398E3,2.948E3,1.4943E4,1.652558E6,1.3146E4],"tree_param":{"num_deleted":"0","num_feature":"20","num_nodes":"15","size_leaf_vector":"1"}},{"base_weights":[1.2741125E-10,-1.7851623E-3,7.0152514E-6,5.2645053E-3,-2.4062505E-3,9.9352E-4,-2.0871285E-8,1.319129E-4,-2.0299527E-5,-7.6683755E-5,-1.0348727E-5,1.9058489E-5,2.211782E-6,1.6254729E-6,-2.0096839E-7],"categories":[],"categories_nodes":[],"categories_segments":[],"categories_sizes":[],"default_left":[0,0,0,0,0,0,0,0,0,0,0,0,0,0,0],"id":3,"left_children":[1,3,5,7,9,11,13,-1,-1,-1,-1,-1,-1,-1,-1],"loss_changes":[2.1166755E-2,2.898059E-2,1.1686124E-2,3.1019155E-2,4.3874756E-2,8.400877E-3,5.4558674E-3,0E0,0E0,0E0,0E0,0E0,0E0,0E0,0E0],"parents":[2147483647,0,0,1,1,2,2,3,3,4,4,5,5,6,6],"right_children":[2,4,6,8,10,12,14,-1,-1,-1,-1,-1,-1,-1,-1],"split_conditions":[-2.8324327E0,-2.3437662E0,-2.1892323E0,-2.656339E0,-2.4811192E0,-1.6392941E0,-1.1595079E0,1.319129E-4,-2.0299527E-5,-7.6683755E-5,-1.0348727E-5,1.9058489E-5,2.211782E-6,1.6254729E-6,-2.0096839E-7],"split_indices":[3,19,18,5,8,2,6,0,0,0,0,0,0,0,0],"split_type":[0,0,0,0,0,0,0,0,0,0,0,0,0,0,0],"sum_hessian":[1.69021E6,6.615E3,1.683595E6,5.35E2,6.08E3,1.1922E4,1.671673E6,2.56E2,2.79E2,1.256E3,4.824E3,5.465E3,6.457E3,1.83747E5,1.487926E6],"tree_param":{"num_deleted":"0","num_feature":"20","num_nodes":"15","size_leaf_vector":"1"}},{"base_weights":[1.3700371E-10,-1.767307E-3,6.9450953E-6,5.2120686E-3,-2.3822023E-3,8.031503E-4,-1.6072656E-6,1.305989E-4,-2.0097259E-5,-6.684761E-5,-7.3555775E-6,2.0582582E-5,5.554176E-6,-6.326612E-8,5.9160798E-6],"categories":[],"categories_nodes":[],"categories_segments":[],"categories_sizes":[],"default_left":[0,0,0,0,0,0,0,0,0,0,0,0,0,0,0],"id":4,"left_children":[1,3,5,7,9,11,13,-1,-1,-1,-1,-1,-1,-1,-1],"loss_changes":[2.074545E-2,2.8405542E-2,1.1464337E-2,3.0404244E-2,4.307766E-2,5.562039E-3,4.663292E-3,0E0,0E0,0E0,0E0,0E0,0E0,0E0,0E0],"parents":[2147483647,0,0,1,1,2,2,3,3,4,4,5,5,6,6],"right_children":[2,4,6,8,10,12,14,-1,-1,-1,-1,-1,-1,-1,-1],"split_conditions":[-2.8324327E0,-2.3437662E0,-2.0735502E0,-2.656339E0,-2.0420144E0,-2.1411278E0,2.0793495E0,1.305989E-4,-2.0097259E-5,-6.684761E-5,-7.3555775E-6,2.0582582E-5,5.554176E-6,-6.326612E-8,5.9160798E-6],"split_indices":[3,19,17,5,7,7,16,0,0,0,0,0,0,0,0],"split_type":[0,0,0,0,0,0,0,0,0,0,0,0,0,0,0],"sum_hessian":[1.69021E6,6.615E3,1.683595E6,5.35E2,6.08E3,1.7891E4,1.665704E6,2.56E2,2.79E2,1.682E3,4.398E3,2.948E3,1.4943E4,1.652558E6,1.3146E4],"tree_param":{"num_deleted":"0","num_feature":"20","num_nodes":"15","size_leaf_vector":"1"}},{"base_weights":[1.6062852E-10,-1.7496285E-3,6.875648E-6,5.1601543E-3,-2.3583923E-3,9.764673E-4,-3.9843748E-8,1.29298E-4,-1.9897001E-5,-7.535513E-5,-1.00917E-5,1.8776318E-5,2.1357753E-6,1.6076964E-6,-1.9898627E-7],"categories":[],"categories_nodes":[],"categories_segments":[],"categories_sizes":[],"default_left":[0,0,0,0,0,0,0,0,0,0,0,0,0,0,0],"id":5,"left_children":[1,3,5,7,9,11,13,-1,-1,-1,-1,-1,-1,-1,-1],"loss_changes":[2.0332487E-2,2.784189E-2,1.1288853E-2,2.9801512E-2,4.246871E-2,8.196532E-3,5.338462E-3,0E0,0E0,0E0,0E0,0E0,0E0,0E0,0E0],"parents":[2147483647,0,0,1,1,2,2,3,3,4,4,5,5,6,6],"right_children":[2,4,6,8,10,12,14,-1,-1,-1,-1,-1,-1,-1,-1],"split_conditions":[-2.8324327E0,-2.3437662E0,-2.1892323E0,-2.656339E0,-2.4811192E0,-1.6392941E0,-1.1595079E0,1.29298E-4,-1.9897001E-5,-7.535513E-5,-1.00917E-5,1.8776318E-5,2.1357753E-6,1.6076964E-6,-1.9898627E-7],"split_indices":[3,19,18,5,8,2,6,0,0,0,0,0,0,0,0],"split_type":[0,0,0,0,0,0,0,0,0,0,0,0,0,0,0],"sum_hessian":[1.69021E6,6.615E3,1.683595E6,5.35E2,6.08E3,1.1922E4,1.671673E6,2.56E2,2.79E2,1.256E3,4.824E3,5.465E3,6.457E3,1.83747E5,1.487926E6],"tree_param":{"num_deleted":"0","num_feature":"20","num_nodes":"15","size_leaf_vector":"1"}},{"base_weights":[1.9384101E-10,-1.7321286E-3,6.806912E-6,5.1087565E-3,-2.3348227E-3,7.894446E-4,-1.5997144E-6,1.2801006E-4,-1.9698744E-5,-6.56781E-5,-7.14806E-6,2.0261463E-5,5.453451E-6,-6.273522E-8,5.858913E-6],"categories":[],"categories_nodes":[],"categories_segments":[],"categories_sizes":[],"default_left":[0,0,0,0,0,0,0,0,0,0,0,0,0,0,0],"id":6,"left_children":[1,3,5,7,9,11,13,-1,-1,-1,-1,-1,-1,-1,-1],"loss_changes":[1.9927789E-2,2.7289439E-2,1.1076956E-2,2.9210735E-2,4.1695826E-2,5.4001007E-3,4.5737294E-3,0E0,0E0,0E0,0E0,0E0,0E0,0E0,0E0],"parents":[2147483647,0,0,1,1,2,2,3,3,4,4,5,5,6,6],"right_children":[2,4,6,8,10,12,14,-1,-1,-1,-1,-1,-1,-1,-1],"split_conditions":[-2.8324327E0,-2.3437662E0,-2.0735502E0,-2.656339E0,-2.0420144E0,-2.1411278E0,2.0793495E0,1.2801006E-4,-1.9698744E-5,-6.56781E-5,-7.14806E-6,2.0261463E-5,5.453451E-6,-6.273522E-8,5.858913E-6],"split_indices":[3,19,17,5,7,7,16,0,0,0,0,0,0,0,0],"split_type":[0,0,0,0,0,0,0,0,0,0,0,0,0,0,0],"sum_hessian":[1.69021E6,6.615E3,1.683595E6,5.35E2,6.08E3,1.7891E4,1.665704E6,2.56E2,2.79E2,1.682E3,4.398E3,2.948E3,1.4943E4,1.652558E6,1.3146E4],"tree_param":{"num_deleted":"0","num_feature":"20","num_nodes":"15","size_leaf_vector":"1"}},{"base_weights":[2.573605E-10,-1.7148019E-3,6.738888E-6,5.0578713E-3,-2.3114863E-3,9.597046E-4,-5.8021538E-8,1.2673493E-4,-1.950246E-5,-7.4049756E-5,-9.84061E-6,1.849847E-5,2.0614643E-6,1.5901305E-6,-1.9702124E-7],"categories":[],"categories_nodes":[],"categories_segments":[],"categories_sizes":[],"default_left":[0,0,0,0,0,0,0,0,0,0,0,0,0,0,0],"id":7,"left_children":[1,3,5,7,9,11,13,-1,-1,-1,-1,-1,-1,-1,-1],"loss_changes":[1.9531105E-2,2.6747933E-2,1.0905024E-2,2.8631661E-2,4.110773E-2,7.997259E-3,5.2236645E-3,0E0,0E0,0E0,0E0,0E0,0E0,0E0,0E0],"parents":[2147483647,0,0,1,1,2,2,3,3,4,4,5,5,6,6],"right_children":[2,4,6,8,10,12,14,-1,-1,-1,-1,-1,-1,-1,-1],"split_conditions":[-2.8324327E0,-2.3437662E0,-2.1892323E0,-2.656339E0,-2.4811192E0,-1.6392941E0,-1.1595079E0,1.2673493E-4,-1.950246E-5,-7.4049756E-5,-9.84061E-6,1.849847E-5,2.0614643E-6,1.5901305E-6,-1.9702124E-7],"split_indices":[3,19,18,5,8,2,6,0,0,0,0,0,0,0,0],"split_type":[0,0,0,0,0,0,0,0,0,0,0,0,0,0,0],"sum_hessian":[1.69021E6,6.615E3,1.683595E6,5.35E2,6.08E3,1.1922E4,1.671673E6,2.56E2,2.79E2,1.256E3,4.824E3,5.465E3,6.457E3,1.83747E5,1.487926E6],"tree_param":{"num_deleted":"0","num_feature":"20","num_nodes":"15","size_leaf_vector":"1"}},{"base_weights":[2.8259273E-10,-1.6976504E-3,6.671513E-6,5.0074924E-3,-2.2883853E-3,7.759698E-4,-1.59183E-6,1.2547252E-4,-1.930813E-5,-6.452925E-5,-6.945663E-6,2.879164E-5,6.356186E-6,-6.220535E-8,5.802299E-6],"categories":[],"categories_nodes":[],"categories_segments":[],"categories_sizes":[],"default_left":[0,0,0,0,0,0,0,0,0,0,0,0,0,0,0],"id":8,"left_children":[1,3,5,7,9,11,13,-1,-1,-1,-1,-1,-1,-1,-1],"loss_changes":[1.914236E-2,2.6217183E-2,1.070258E-2,2.8064074E-2,4.0358305E-2,5.279633E-3,4.4858833E-3,0E0,0E0,0E0,0E0,0E0,0E0,0E0,0E0],"parents":[2147483647,0,0,1,1,2,2,3,3,4,4,5,5,6,6],"right_children":[2,4,6,8,10,12,14,-1,-1,-1,-1,-1,-1,-1,-1],"split_conditions":[-2.8324327E0,-2.3437662E0,-2.0735502E0,-2.656339E0,-2.0420144E0,-2.7845402E0,2.0793495E0,1.2547252E-4,-1.930813E-5,-6.452925E-5,-6.945663E-6,2.879164E-5,6.356186E-6,-6.220535E-8,5.802299E-6],"split_indices":[3,19,17,5,7,8,16,0,0,0,0,0,0,0,0],"split_type":[0,0,0,0,0,0,0,0,0,0,0,0,0,0,0],"sum_hessian":[1.69021E6,6.615E3,1.683595E6,5.35E2,6.08E3,1.7891E4,1.665704E6,2.56E2,2.79E2,1.682E3,4.398E3,1.118E3,1.6773E4,1.652558E6,1.3146E4],"tree_param":{"num_deleted":"0","num_feature":"20","num_nodes":"15","size_leaf_vector":"1"}},{"base_weights":[2.9741148E-10,-1.6806687E-3,6.604795E-6,4.9576154E-3,-2.2655132E-3,1.3562695E-3,1.9528384E-6,1.2422267E-4,-1.911574E-5,-7.276722E-5,-9.595327E-6,2.4163746E-5,2.2601598E-6,1.6537095E-6,-1.8748882E-7],"categories":[],"categories_nodes":[],"categories_segments":[],"categories_sizes":[],"default_left":[0,0,0,0,0,0,0,0,0,0,0,0,0,0,0],"id":9,"left_children":[1,3,5,7,9,11,13,-1,-1,-1,-1,-1,-1,-1,-1],"loss_changes":[1.8761309E-2,2.5696957E-2,1.0570592E-2,2.7507735E-2,3.9790373E-2,6.9285715E-3,5.6761084E-3,0E0,0E0,0E0,0E0,0E0,0E0,0E0,0E0],"parents":[2147483647,0,0,1,1,2,2,3,3,4,4,5,5,6,6],"right_children":[2,4,6,8,10,12,14,-1,-1,-1,-1,-1,-1,-1,-1],"split_conditions":[-2.8324327E0,-2.3437662E0,-2.3327744E0,-2.656339E0,-2.4811192E0,-1.4880943E0,-1.1595079E0,1.2422267E-4,-1.911574E-5,-7.276722E-5,-9.595327E-6,2.4163746E-5,2.2601598E-6,1.6537095E-6,-1.8748882E-7],"split_indices":[3,19,18,5,8,7,6,0,0,0,0,0,0,0,0],"split_type":[0,0,0,0,0,0,0,0,0,0,0,0,0,0,0],"sum_hessian":[1.69021E6,6.615E3,1.683595E6,5.35E2,6.08E3,5.782E3,1.677813E6,2.56E2,2.79E2,1.256E3,4.824E3,2.983E3,2.799E3,1.88646E5,1.489167E6],"tree_param":{"num_deleted":"0","num_feature":"20","num_nodes":"15","size_leaf_vector":"1"}},{"base_weights":[3.11673E-10,-1.6638585E-3,6.5387508E-6,4.9082357E-3,-2.2428716E-3,9.365605E-4,-9.451385E-8,1.2298528E-4,-1.8925264E-5,-6.340071E-5,-6.7482665E-6,1.8126228E-5,1.9492331E-6,1.5560936E-6,-1.9322793E-7],"categories":[],"categories_nodes":[],"categories_segments":[],"categories_sizes":[],"default_left":[0,0,0,0,0,0,0,0,0,0,0,0,0,0,0],"id":10,"left_children":[1,3,5,7,9,11,13,-1,-1,-1,-1,-1,-1,-1,-1],"loss_changes":[1.8387882E-2,2.5187064E-2,1.0386239E-2,2.6962433E-2,3.9063673E-2,7.7462606E-3,5.004857E-3,0E0,0E0,0E0,0E0,0E0,0E0,0E0,0E0],"parents":[2147483647,0,0,1,1,2,2,3,3,4,4,5,5,6,6],"right_children":[2,4,6,8,10,12,14,-1,-1,-1,-1,-1,-1,-1,-1],"split_conditions":[-2.8324327E0,-2.3437662E0,-2.1892323E0,-2.656339E0,-2.0420144E0,-1.6392941E0,-1.1595079E0,1.2298528E-4,-1.8925264E-5,-6.340071E-5,-6.7482665E-6,1.8126228E-5,1.9492331E-6,1.5560936E-6,-1.9322793E-7],"split_indices":[3,19,18,5,7,2,6,0,0,0,0,0,0,0,0],"split_type":[0,0,0,0,0,0,0,0,0,0,0,0,0,0,0],"sum_hessian":[1.69021E6,6.615E3,1.683595E6,5.35E2,6.08E3,1.1922E4,1.671673E6,2.56E2,2.79E2,1.682E3,4.398E3,5.465E3,6.457E3,1.83747E5,1.487926E6],"tree_param":{"num_deleted":"0","num_feature":"20","num_nodes":"15","size_leaf_vector":"1"}},{"base_weights":[3.7110787E-10,-1.6472148E-3,6.473406E-6,4.8593474E-3,-2.2204544E-3,7.577956E-4,-1.5968486E-6,1.21760204E-4,-1.8736688E-5,-7.150713E-5,-9.355724E-6,1.2089924E-5,1.195278E-6,-6.182465E-8,5.7480866E-6],"categories":[],"categories_nodes":[],"categories_segments":[],"categories_sizes":[],"default_left":[0,0,0,0,0,0,0,0,0,0,0,0,0,0,0],"id":11,"left_children":[1,3,5,7,9,11,13,-1,-1,-1,-1,-1,-1,-1,-1],"loss_changes":[1.8021854E-2,2.4687275E-2,1.0208252E-2,2.6427936E-2,3.8515233E-2,5.1524723E-3,4.4027525E-3,0E0,0E0,0E0,0E0,0E0,0E0,0E0,0E0],"parents":[2147483647,0,0,1,1,2,2,3,3,4,4,5,5,6,6],"right_children":[2,4,6,8,10,12,14,-1,-1,-1,-1,-1,-1,-1,-1],"split_conditions":[-2.8324327E0,-2.3437662E0,-2.0735502E0,-2.656339E0,-2.4811192E0,-1.7377123E0,2.0793495E0,1.21760204E-4,-1.8736688E-5,-7.150713E-5,-9.355724E-6,1.2089924E-5,1.195278E-6,-6.182465E-8,5.7480866E-6],"split_indices":[3,19,17,5,8,15,16,0,0,0,0,0,0,0,0],"split_type":[0,0,0,0,0,0,0,0,0,0,0,0,0,0,0],"sum_hessian":[1.69021E6,6.615E3,1.683595E6,5.35E2,6.08E3,1.7891E4,1.665704E6,2.56E2,2.79E2,1.256E3,4.824E3,1.0481E4,7.41E3,1.652558E6,1.3146E4],"tree_param":{"num_deleted":"0","num_feature":"20","num_nodes":"15","size_leaf_vector":"1"}},{"base_weights":[4.1311363E-10,-1.6307392E-3,6.4087044E-6,4.810946E-3,-2.198263E-3,1.3247993E-3,1.8645422E-6,1.20547345E-4,-1.854999E-5,-6.22921E-5,-6.5557565E-6,2.3694913E-5,2.109828E-6,1.616934E-6,-1.8382492E-7],"categories":[],"categories_nodes":[],"categories_segments":[],"categories_sizes":[],"default_left":[0,0,0,0,0,0,0,0,0,0,0,0,0,0,0],"id":12,"left_children":[1,3,5,7,9,11,13,-1,-1,-1,-1,-1,-1,-1,-1],"loss_changes":[1.7663145E-2,2.4197415E-2,1.0086388E-2,2.5904033E-2,3.7810568E-2,6.72857E-3,5.4295105E-3,0E0,0E0,0E0,0E0,0E0,0E0,0E0,0E0],"parents":[2147483647,0,0,1,1,2,2,3,3,4,4,5,5,6,6],"right_children":[2,4,6,8,10,12,14,-1,-1,-1,-1,-1,-1,-1,-1],"split_conditions":[-2.8324327E0,-2.3437662E0,-2.3327744E0,-2.656339E0,-2.0420144E0,-1.4880943E0,-1.1595079E0,1.20547345E-4,-1.854999E-5,-6.22921E-5,-6.5557565E-6,2.3694913E-5,2.109828E-6,1.616934E-6,-1.8382492E-7],"split_indices":[3,19,18,5,7,7,6,0,0,0,0,0,0,0,0],"split_type":[0,0,0,0,0,0,0,0,0,0,0,0,0,0,0],"sum_hessian":[1.69021E6,6.615E3,1.683595E6,5.35E2,6.08E3,5.782E3,1.677813E6,2.56E2,2.79E2,1.682E3,4.398E3,2.983E3,2.799E3,1.88646E5,1.489167E6],"tree_param":{"num_deleted":"0","num_feature":"20","num_nodes":"15","size_leaf_vector":"1"}},{"base_weights":[4.2678508E-10,-1.6144268E-3,6.3446155E-6,4.763027E-3,-2.1762918E-3,9.13823E-4,-1.2786144E-7,1.19346565E-4,-1.8365152E-5,-7.026908E-5,-9.121672E-6,3.7013593E-5,6.8424965E-6,1.5229958E-6,-1.8951526E-7],"categories":[],"categories_nodes":[],"categories_segments":[],"categories_sizes":[],"default_left":[0,0,0,0,0,0,0,0,0,0,0,0,0,0,0],"id":13,"left_children":[1,3,5,7,9,11,13,-1,-1,-1,-1,-1,-1,-1,-1],"loss_changes":[1.7311543E-2,2.3717264E-2,9.888825E-3,2.5390517E-2,3.7280962E-2,7.627518E-3,4.7964426E-3,0E0,0E0,0E0,0E0,0E0,0E0,0E0,0E0],"parents":[2147483647,0,0,1,1,2,2,3,3,4,4,5,5,6,6],"right_children":[2,4,6,8,10,12,14,-1,-1,-1,-1,-1,-1,-1,-1],"split_conditions":[-2.8324327E0,-2.3437662E0,-2.1892323E0,-2.656339E0,-2.4811192E0,-2.7845402E0,-1.1595079E0,1.19346565E-4,-1.8365152E-5,-7.026908E-5,-9.121672E-6,3.7013593E-5,6.8424965E-6,1.5229958E-6,-1.8951526E-7],"split_indices":[3,19,18,5,8,8,6,0,0,0,0,0,0,0,0],"split_type":[0,0,0,0,0,0,0,0,0,0,0,0,0,0,0],"sum_hessian":[1.69021E6,6.615E3,1.683595E6,5.35E2,6.08E3,1.1922E4,1.671673E6,2.56E2,2.79E2,1.256E3,4.824E3,9.06E2,1.1016E4,1.83747E5,1.487926E6],"tree_param":{"num_deleted":"0","num_feature":"20","num_nodes":"15","size_leaf_vector":"1"}},{"base_weights":[4.736418E-10,-1.5982793E-3,6.281208E-6,4.715585E-3,-2.154542E-3,1.3021475E-3,1.8146811E-6,1.1815774E-4,-1.8182156E-5,-6.120307E-5,-6.36802E-6,2.3339895E-5,2.0203365E-6,1.5834911E-6,-1.8015017E-7],"categories":[],"categories_nodes":[],"categories_segments":[],"categories_sizes":[],"default_left":[0,0,0,0,0,0,0,0,0,0,0,0,0,0,0],"id":14,"left_children":[1,3,5,7,9,11,13,-1,-1,-1,-1,-1,-1,-1,-1],"loss_changes":[1.6966974E-2,2.3246653E-2,9.744688E-3,2.4887178E-2,3.6597647E-2,6.564064E-3,5.2079884E-3,0E0,0E0,0E0,0E0,0E0,0E0,0E0,0E0],"parents":[2147483647,0,0,1,1,2,2,3,3,4,4,5,5,6,6],"right_children":[2,4,6,8,10,12,14,-1,-1,-1,-1,-1,-1,-1,-1],"split_conditions":[-2.8324327E0,-2.3437662E0,-2.3327744E0,-2.656339E0,-2.0420144E0,-1.4880943E0,-1.1595079E0,1.1815774E-4,-1.8182156E-5,-6.120307E-5,-6.36802E-6,2.3339895E-5,2.0203365E-6,1.5834911E-6,-1.8015017E-7],"split_indices":[3,19,18,5,7,7,6,0,0,0,0,0,0,0,0],"split_type":[0,0,0,0,0,0,0,0,0,0,0,0,0,0,0],"sum_hessian":[1.69021E6,6.615E3,1.683595E6,5.35E2,6.08E3,5.782E3,1.677813E6,2.56E2,2.79E2,1.682E3,4.398E3,2.983E3,2.799E3,1.88646E5,1.489167E6],"tree_param":{"num_deleted":"0","num_feature":"20","num_nodes":"15","size_leaf_vector":"1"}},{"base_weights":[4.6169438E-10,-1.5822917E-3,6.2183694E-6,4.6686158E-3,-2.1330076E-3,7.354141E-4,-1.6142158E-6,1.16980766E-4,-1.8000985E-5,-6.905269E-5,-8.893049E-6,1.1806361E-5,1.0559999E-6,-4.8173035E-8,8.103705E-6],"categories":[],"categories_nodes":[],"categories_segments":[],"categories_sizes":[],"default_left":[0,0,0,0,0,0,0,0,0,0,0,0,0,0,0],"id":15,"left_children":[1,3,5,7,9,11,13,-1,-1,-1,-1,-1,-1,-1,-1],"loss_changes":[1.662923E-2,2.2785371E-2,9.6158385E-3,2.439382E-2,3.608626E-2,5.01692E-3,4.3322663E-3,0E0,0E0,0E0,0E0,0E0,0E0,0E0,0E0],"parents":[2147483647,0,0,1,1,2,2,3,3,4,4,5,5,6,6],"right_children":[2,4,6,8,10,12,14,-1,-1,-1,-1,-1,-1,-1,-1],"split_conditions":[-2.8324327E0,-2.3437662E0,-2.0735502E0,-2.656339E0,-2.4811192E0,-1.7377123E0,2.2169569E0,1.16980766E-4,-1.8000985E-5,-6.905269E-5,-8.893049E-6,1.1806361E-5,1.0559999E-6,-4.8173035E-8,8.103705E-6],"split_indices":[3,19,17,5,8,15,16,0,0,0,0,0,0,0,0],"split_type":[0,0,0,0,0,0,0,0,0,0,0,0,0,0,0],"sum_hessian":[1.69021E6,6.615E3,1.683595E6,5.35E2,6.08E3,1.7891E4,1.665704E6,2.56E2,2.79E2,1.256E3,4.824E3,1.0481E4,7.41E3,1.65916E6,6.544E3],"tree_param":{"num_deleted":"0","num_feature":"20","num_nodes":"15","size_leaf_vector":"1"}},{"base_weights":[5.165191E-10,-1.5664655E-3,6.1562328E-6,4.6221144E-3,-2.1116904E-3,1.2813745E-3,1.760875E-6,1.15815514E-4,-1.7821616E-5,-6.013328E-5,-6.184947E-6,2.3024382E-5,1.927545E-6,1.5650619E-6,-1.7842179E-7],"categories":[],"categories_nodes":[],"categories_segments":[],"categories_sizes":[],"default_left":[0,0,0,0,0,0,0,0,0,0,0,0,0,0,0],"id":16,"left_children":[1,3,5,7,9,11,13,-1,-1,-1,-1,-1,-1,-1,-1],"loss_changes":[1.6298242E-2,2.2333257E-2,9.436621E-3,2.391024E-2,3.542363E-2,6.427654E-3,5.0896197E-3,0E0,0E0,0E0,0E0,0E0,0E0,0E0,0E0],"parents":[2147483647,0,0,1,1,2,2,3,3,4,4,5,5,6,6],"right_children":[2,4,6,8,10,12,14,-1,-1,-1,-1,-1,-1,-1,-1],"split_conditions":[-2.8324327E0,-2.3437662E0,-2.3327744E0,-2.656339E0,-2.0420144E0,-1.4880943E0,-1.1595079E0,1.15815514E-4,-1.7821616E-5,-6.013328E-5,-6.184947E-6,2.3024382E-5,1.927545E-6,1.5650619E-6,-1.7842179E-7],"split_indices":[3,19,18,5,7,7,6,0,0,0,0,0,0,0,0],"split_type":[0,0,0,0,0,0,0,0,0,0,0,0,0,0,0],"sum_hessian":[1.69021E6,6.615E3,1.683595E6,5.35E2,6.08E3,5.782E3,1.677813E6,2.56E2,2.79E2,1.682E3,4.398E3,2.983E3,2.799E3,1.88646E5,1.489167E6],"tree_param":{"num_deleted":"0","num_feature":"20","num_nodes":"15","size_leaf_vector":"1"}},{"base_weights":[5.4080607E-10,-1.5507962E-3,6.094682E-6,4.576076E-3,-2.0905845E-3,7.2336494E-4,-1.6098071E-6,1.1466185E-4,-1.7644037E-5,-6.785756E-5,-8.669736E-6,2.7575117E-5,5.8762307E-6,-6.123725E-8,5.657834E-6],"categories":[],"categories_nodes":[],"categories_segments":[],"categories_sizes":[],"default_left":[0,0,0,0,0,0,0,0,0,0,0,0,0,0,0],"id":17,"left_children":[1,3,5,7,9,11,13,-1,-1,-1,-1,-1,-1,-1,-1],"loss_changes":[1.5973812E-2,2.1890093E-2,9.30389E-3,2.3436248E-2,3.4929845E-2,4.9386974E-3,4.266152E-3,0E0,0E0,0E0,0E0,0E0,0E0,0E0,0E0],"parents":[2147483647,0,0,1,1,2,2,3,3,4,4,5,5,6,6],"right_children":[2,4,6,8,10,12,14,-1,-1,-1,-1,-1,-1,-1,-1],"split_conditions":[-2.8324327E0,-2.3437662E0,-2.0735502E0,-2.656339E0,-2.4811192E0,-2.7845402E0,2.0793495E0,1.1466185E-4,-1.7644037E-5,-6.785756E-5,-8.669736E-6,2.7575117E-5,5.8762307E-6,-6.123725E-8,5.657834E-6],"split_indices":[3,19,17,5,8,8,16,0,0,0,0,0,0,0,0],"split_type":[0,0,0,0,0,0,0,0,0,0,0,0,0,0,0],"sum_hessian":[1.69021E6,6.615E3,1.683595E6,5.35E2,6.08E3,1.7891E4,1.665704E6,2.56E2,2.79E2,1.256E3,4.824E3,1.118E3,1.6773E4,1.652558E6,1.3146E4],"tree_param":{"num_deleted":"0","num_feature":"20","num_nodes":"15","size_leaf_vector":"1"}},{"base_weights":[5.8017424E-10,-1.535285E-3,6.0337675E-6,3.4602168E-3,-2.1861277E-3,8.788836E-4,-1.9172529E-7,8.226943E-5,-7.2941857E-6,-1.8360808E-4,-1.6491547E-5,1.7306491E-5,1.5781981E-6,1.4733814E-6,-1.8410573E-7],"categories":[],"categories_nodes":[],"categories_segments":[],"categories_sizes":[],"default_left":[0,0,0,0,0,0,0,0,0,0,0,0,0,0,0],"id":18,"left_children":[1,3,5,7,9,11,13,-1,-1,-1,-1,-1,-1,-1,-1],"loss_changes":[1.5655868E-2,2.151807E-2,9.148526E-3,1.5243757E-2,5.081386E-2,7.322563E-3,4.493169E-3,0E0,0E0,0E0,0E0,0E0,0E0,0E0,0E0],"parents":[2147483647,0,0,1,1,2,2,3,3,4,4,5,5,6,6],"right_children":[2,4,6,8,10,12,14,-1,-1,-1,-1,-1,-1,-1,-1],"split_conditions":[-2.8324327E0,-2.3327744E0,-2.1892323E0,-2.656339E0,-2.656339E0,-1.6392941E0,-1.1595079E0,8.226943E-5,-7.2941857E-6,-1.8360808E-4,-1.6491547E-5,1.7306491E-5,1.5781981E-6,1.4733814E-6,-1.8410573E-7],"split_indices":[3,18,18,5,5,2,6,0,0,0,0,0,0,0,0],"split_type":[0,0,0,0,0,0,0,0,0,0,0,0,0,0,0],"sum_hessian":[1.69021E6,6.615E3,1.683595E6,7.62E2,5.853E3,1.1922E4,1.671673E6,3.56E2,4.06E2,1.87E2,5.666E3,5.465E3,6.457E3,1.83747E5,1.487926E6],"tree_param":{"num_deleted":"0","num_feature":"20","num_nodes":"15","size_leaf_vector":"1"}},{"base_weights":[5.1804494E-10,-1.5199512E-3,5.9734475E-6,4.5005125E-3,-2.0503653E-3,1.2518732E-3,1.6791429E-6,1.1278297E-4,-1.7365985E-5,-5.8834725E-5,-5.8340247E-6,2.2565822E-5,1.8069326E-6,1.9909673E-6,-1.3088044E-7],"categories":[],"categories_nodes":[],"categories_segments":[],"categories_sizes":[],"default_left":[0,0,0,0,0,0,0,0,0,0,0,0,0,0,0],"id":19,"left_children":[1,3,5,7,9,11,13,-1,-1,-1,-1,-1,-1,-1,-1],"loss_changes":[1.5344698E-2,2.1136362E-2,9.007696E-3,2.2678342E-2,3.4190185E-2,6.2233973E-3,4.891338E-3,0E0,0E0,0E0,0E0,0E0,0E0,0E0,0E0],"parents":[2147483647,0,0,1,1,2,2,3,3,4,4,5,5,6,6],"right_children":[2,4,6,8,10,12,14,-1,-1,-1,-1,-1,-1,-1,-1],"split_conditions":[-2.8324327E0,-2.3437662E0,-2.3327744E0,-2.656339E0,-2.0420144E0,-1.4880943E0,-1.4101571E0,1.1278297E-4,-1.7365985E-5,-5.8834725E-5,-5.8340247E-6,2.2565822E-5,1.8069326E-6,1.9909673E-6,-1.3088044E-7],"split_indices":[3,19,18,5,7,7,1,0,0,0,0,0,0,0,0],"split_type":[0,0,0,0,0,0,0,0,0,0,0,0,0,0,0],"sum_hessian":[1.69021E6,6.615E3,1.683595E6,5.35E2,6.08E3,5.782E3,1.677813E6,2.56E2,2.79E2,1.682E3,4.398E3,2.983E3,2.799E3,1.16768E5,1.561045E6],"tree_param":{"num_deleted":"0","num_feature":"20","num_nodes":"15","size_leaf_vector":"1"}},{"base_weights":[5.1514204E-10,-1.504747E-3,5.913697E-6,2.7787043E-3,-2.2447081E-3,7.0631306E-4,-1.6095747E-6,9.859508E-5,1.3567751E-6,-7.261463E-5,-8.719813E-6,1.14538125E-5,8.520675E-7,-4.7603123E-8,7.9710435E-6],"categories":[],"categories_nodes":[],"categories_segments":[],"categories_sizes":[],"default_left":[0,0,0,0,0,0,0,0,0,0,0,0,0,0,0],"id":20,"left_children":[1,3,5,7,9,11,13,-1,-1,-1,-1,-1,-1,-1,-1],"loss_changes":[1.5039245E-2,2.0976225E-2,8.871365E-3,1.8245548E-2,3.8848054E-2,4.8791934E-3,4.1918145E-3,0E0,0E0,0E0,0E0,0E0,0E0,0E0,0E0],"parents":[2147483647,0,0,1,1,2,2,3,3,4,4,5,5,6,6],"right_children":[2,4,6,8,10,12,14,-1,-1,-1,-1,-1,-1,-1,-1],"split_conditions":[-2.8324327E0,-2.4927661E0,-2.0735502E0,-2.656339E0,-2.4811192E0,-1.7377123E0,2.2169569E0,9.859508E-5,1.3567751E-6,-7.261463E-5,-8.719813E-6,1.14538125E-5,8.520675E-7,-4.7603123E-8,7.9710435E-6],"split_indices":[3,1,17,5,8,15,16,0,0,0,0,0,0,0,0],"split_type":[0,0,0,0,0,0,0,0,0,0,0,0,0,0,0],"sum_hessian":[1.69021E6,6.615E3,1.683595E6,9.74E2,5.641E3,1.7891E4,1.665704E6,2.64E2,7.1E2,1.211E3,4.43E3,1.0481E4,7.41E3,1.65916E6,6.544E3],"tree_param":{"num_deleted":"0","num_feature":"20","num_nodes":"15","size_leaf_vector":"1"}},{"base_weights":[5.2428717E-10,-1.4896967E-3,5.8545634E-6,3.4078208E-3,-2.127776E-3,1.2601826E-3,1.7119746E-6,8.047988E-5,-6.706745E-6,-1.8114313E-4,-1.5970549E-5,4.09016E-5,8.239045E-6,1.9799782E-6,-1.3008157E-7],"categories":[],"categories_nodes":[],"categories_segments":[],"categories_sizes":[],"default_left":[0,0,0,0,0,0,0,0,0,0,0,0,0,0,0],"id":21,"left_children":[1,3,5,7,9,11,13,-1,-1,-1,-1,-1,-1,-1,-1],"loss_changes":[1.4739909E-2,2.0682279E-2,8.748241E-3,1.4445095E-2,4.963871E-2,6.8390993E-3,4.848497E-3,0E0,0E0,0E0,0E0,0E0,0E0,0E0,0E0],"parents":[2147483647,0,0,1,1,2,2,3,3,4,4,5,5,6,6],"right_children":[2,4,6,8,10,12,14,-1,-1,-1,-1,-1,-1,-1,-1],"split_conditions":[-2.8324327E0,-2.3327744E0,-2.3011107E0,-2.656339E0,-2.656339E0,-2.7145696E0,-1.4101571E0,8.047988E-5,-6.706745E-6,-1.8114313E-4,-1.5970549E-5,4.09016E-5,8.239045E-6,1.9799782E-6,-1.3008157E-7],"split_indices":[3,18,17,5,5,6,1,0,0,0,0,0,0,0,0],"split_type":[0,0,0,0,0,0,0,0,0,0,0,0,0,0,0],"sum_hessian":[1.69021E6,6.615E3,1.683595E6,7.62E2,5.853E3,5.541E3,1.678054E6,3.56E2,4.06E2,1.87E2,5.666E3,7.39E2,4.802E3,1.17063E5,1.560991E6],"tree_param":{"num_deleted":"0","num_feature":"20","num_nodes":"15","size_leaf_vector":"1"}},{"base_weights":[4.99075E-10,-1.4748183E-3,5.796071E-6,2.7522037E-3,-2.205033E-3,1.2234142E-3,1.5992459E-6,9.7265234E-5,1.4890268E-6,-7.1679824E-5,-8.470325E-6,2.2140257E-5,1.672686E-6,1.5103728E-6,-1.7331483E-7],"categories":[],"categories_nodes":[],"categories_segments":[],"categories_sizes":[],"default_left":[0,0,0,0,0,0,0,0,0,0,0,0,0,0,0],"id":22,"left_children":[1,3,5,7,9,11,13,-1,-1,-1,-1,-1,-1,-1,-1],"loss_changes":[1.4446949E-2,2.0427238E-2,8.603394E-3,1.7700898E-2,3.8019247E-2,6.0499776E-3,4.74649E-3,0E0,0E0,0E0,0E0,0E0,0E0,0E0,0E0],"parents":[2147483647,0,0,1,1,2,2,3,3,4,4,5,5,6,6],"right_children":[2,4,6,8,10,12,14,-1,-1,-1,-1,-1,-1,-1,-1],"split_conditions":[-2.8324327E0,-2.4927661E0,-2.3327744E0,-2.656339E0,-2.4811192E0,-1.4880943E0,-1.1595079E0,9.7265234E-5,1.4890268E-6,-7.1679824E-5,-8.470325E-6,2.2140257E-5,1.672686E-6,1.5103728E-6,-1.7331483E-7],"split_indices":[3,1,18,5,8,7,6,0,0,0,0,0,0,0,0],"split_type":[0,0,0,0,0,0,0,0,0,0,0,0,0,0,0],"sum_hessian":[1.69021E6,6.615E3,1.683595E6,9.74E2,5.641E3,5.782E3,1.677813E6,2.64E2,7.1E2,1.211E3,4.43E3,2.983E3,2.799E3,1.88646E5,1.489167E6],"tree_param":{"num_deleted":"0","num_feature":"20","num_nodes":"15","size_leaf_vector":"1"}},{"base_weights":[4.96823E-10,-1.4600673E-3,5.7381017E-6,3.3694403E-3,-2.0892874E-3,1.2401296E-3,1.6613562E-6,7.933037E-5,-6.4179694E-6,-1.7913585E-4,-1.5639553E-5,4.0305436E-5,8.099512E-6,1.9477309E-6,-1.2820738E-7],"categories":[],"categories_nodes":[],"categories_segments":[],"categories_sizes":[],"default_left":[0,0,0,0,0,0,0,0,0,0,0,0,0,0,0],"id":23,"left_children":[1,3,5,7,9,11,13,-1,-1,-1,-1,-1,-1,-1,-1],"loss_changes":[1.4159401E-2,2.0111892E-2,8.472358E-3,1.3972319E-2,4.863637E-2,6.6492176E-3,4.692956E-3,0E0,0E0,0E0,0E0,0E0,0E0,0E0,0E0],"parents":[2147483647,0,0,1,1,2,2,3,3,4,4,5,5,6,6],"right_children":[2,4,6,8,10,12,14,-1,-1,-1,-1,-1,-1,-1,-1],"split_conditions":[-2.8324327E0,-2.3327744E0,-2.3011107E0,-2.656339E0,-2.656339E0,-2.7145696E0,-1.4101571E0,7.933037E-5,-6.4179694E-6,-1.7913585E-4,-1.5639553E-5,4.0305436E-5,8.099512E-6,1.9477309E-6,-1.2820738E-7],"split_indices":[3,18,17,5,5,6,1,0,0,0,0,0,0,0,0],"split_type":[0,0,0,0,0,0,0,0,0,0,0,0,0,0,0],"sum_hessian":[1.69021E6,6.615E3,1.683595E6,7.62E2,5.853E3,5.541E3,1.678054E6,3.56E2,4.06E2,1.87E2,5.666E3,7.39E2,4.802E3,1.17063E5,1.560991E6],"tree_param":{"num_deleted":"0","num_feature":"20","num_nodes":"15","size_leaf_vector":"1"}},{"base_weights":[4.460095E-10,-1.445485E-3,5.680747E-6,2.7258927E-3,-2.1660891E-3,8.404774E-4,-2.7333635E-7,9.59546E-5,1.6167141E-6,-7.075773E-5,-8.226672E-6,3.5350007E-5,6.1856827E-6,1.4172508E-6,-1.7809091E-7],"categories":[],"categories_nodes":[],"categories_segments":[],"categories_sizes":[],"default_left":[0,0,0,0,0,0,0,0,0,0,0,0,0,0,0],"id":24,"left_children":[1,3,5,7,9,11,13,-1,-1,-1,-1,-1,-1,-1,-1],"loss_changes":[1.3877981E-2,1.9893013E-2,8.368229E-3,1.7173162E-2,3.720755E-2,7.1270457E-3,4.162554E-3,0E0,0E0,0E0,0E0,0E0,0E0,0E0,0E0],"parents":[2147483647,0,0,1,1,2,2,3,3,4,4,5,5,6,6],"right_children":[2,4,6,8,10,12,14,-1,-1,-1,-1,-1,-1,-1,-1],"split_conditions":[-2.8324327E0,-2.4927661E0,-2.1892323E0,-2.656339E0,-2.4811192E0,-2.7845402E0,-1.1595079E0,9.59546E-5,1.6167141E-6,-7.075773E-5,-8.226672E-6,3.5350007E-5,6.1856827E-6,1.4172508E-6,-1.7809091E-7],"split_indices":[3,1,18,5,8,8,6,0,0,0,0,0,0,0,0],"split_type":[0,0,0,0,0,0,0,0,0,0,0,0,0,0,0],"sum_hessian":[1.69021E6,6.615E3,1.683595E6,9.74E2,5.641E3,1.1922E4,1.671673E6,2.64E2,7.1E2,1.211E3,4.43E3,9.06E2,1.1016E4,1.83747E5,1.487926E6],"tree_param":{"num_deleted":"0","num_feature":"20","num_nodes":"15","size_leaf_vector":"1"}},{"base_weights":[4.5921308E-10,1.4435187E-3,-5.610999E-6,4.9026925E-3,9.326372E-4,-2.051517E-3,1.5273008E-6,5.514355E-5,-1.6174577E-4,1.367204E-5,-8.064478E-6,-1.7715126E-4,-1.5315221E-5,1.470441E-6,-1.6906691E-7],"categories":[],"categories_nodes":[],"categories_segments":[],"categories_sizes":[],"default_left":[0,0,0,0,0,0,0,0,0,0,0,0,0,0,0],"id":25,"left_children":[1,3,5,7,9,11,13,-1,-1,-1,-1,-1,-1,-1,-1],"loss_changes":[1.3691125E-2,1.1561936E-2,2.4588762E-2,1.0944407E-2,4.3118927E-3,4.7653668E-2,4.500664E-3,0E0,0E0,0E0,0E0,0E0,0E0,0E0,0E0],"parents":[2147483647,0,0,1,1,2,2,3,3,4,4,5,5,6,6],"right_children":[2,4,6,8,10,12,14,-1,-1,-1,-1,-1,-1,-1,-1],"split_conditions":[-2.3327744E0,-2.7845402E0,-2.8324327E0,-2.1119576E0,-8.4659123E-1,-2.656339E0,-1.1595079E0,5.514355E-5,-1.6174577E-4,1.367204E-5,-8.064478E-6,-1.7715126E-4,-1.5315221E-5,1.470441E-6,-1.6906691E-7],"split_indices":[18,8,3,5,3,5,6,0,0,0,0,0,0,0,0],"split_type":[0,0,0,0,0,0,0,0,0,0,0,0,0,0,0],"sum_hessian":[1.69021E6,6.544E3,1.683666E6,8.41E2,5.703E3,5.853E3,1.677813E6,8.18E2,2.3E1,4.563E3,1.14E3,1.87E2,5.666E3,1.88646E5,1.489167E6],"tree_param":{"num_deleted":"0","num_feature":"20","num_nodes":"15","size_leaf_vector":"1"}},{"base_weights":[3.4321337E-10,1.429068E-3,-5.554941E-6,4.853539E-3,9.233118E-4,-2.0310348E-3,1.5120906E-6,5.459279E-5,-1.6019572E-4,1.3535349E-5,-7.983904E-6,-1.7538916E-4,-1.5162098E-5,1.8927536E-6,-1.2532935E-7],"categories":[],"categories_nodes":[],"categories_segments":[],"categories_sizes":[],"default_left":[0,0,0,0,0,0,0,0,0,0,0,0,0,0,0],"id":26,"left_children":[1,3,5,7,9,11,13,-1,-1,-1,-1,-1,-1,-1,-1],"loss_changes":[1.3418385E-2,1.1331117E-2,2.4100231E-2,1.0733431E-2,4.2261267E-3,4.6710834E-2,4.424633E-3,0E0,0E0,0E0,0E0,0E0,0E0,0E0,0E0],"parents":[2147483647,0,0,1,1,2,2,3,3,4,4,5,5,6,6],"right_children":[2,4,6,8,10,12,14,-1,-1,-1,-1,-1,-1,-1,-1],"split_conditions":[-2.3327744E0,-2.7845402E0,-2.8324327E0,-2.1119576E0,-8.4659123E-1,-2.656339E0,-1.4101571E0,5.459279E-5,-1.6019572E-4,1.3535349E-5,-7.983904E-6,-1.7538916E-4,-1.5162098E-5,1.8927536E-6,-1.2532935E-7],"split_indices":[18,8,3,5,3,5,1,0,0,0,0,0,0,0,0],"split_type":[0,0,0,0,0,0,0,0,0,0,0,0,0,0,0],"sum_hessian":[1.69021E6,6.544E3,1.683666E6,8.41E2,5.703E3,5.853E3,1.677813E6,8.18E2,2.3E1,4.563E3,1.14E3,1.87E2,5.666E3,1.16768E5,1.561045E6],"tree_param":{"num_deleted":"0","num_feature":"20","num_nodes":"15","size_leaf_vector":"1"}},{"base_weights":[1.3717467E-10,1.4147621E-3,-5.4995353E-6,4.8048785E-3,9.1407966E-4,-2.0107569E-3,1.4969389E-6,5.404753E-5,-1.5866048E-4,1.3400026E-5,-7.904135E-6,-1.736446E-4,-1.50105025E-5,1.4479039E-6,-1.66554E-7],"categories":[],"categories_nodes":[],"categories_segments":[],"categories_sizes":[],"default_left":[0,0,0,0,0,0,0,0,0,0,0,0,0,0,0],"id":27,"left_children":[1,3,5,7,9,11,13,-1,-1,-1,-1,-1,-1,-1,-1],"loss_changes":[1.31510785E-2,1.1104904E-2,2.3621397E-2,1.0526525E-2,4.142065E-3,4.578666E-2,4.3641836E-3,0E0,0E0,0E0,0E0,0E0,0E0,0E0,0E0],"parents":[2147483647,0,0,1,1,2,2,3,3,4,4,5,5,6,6],"right_children":[2,4,6,8,10,12,14,-1,-1,-1,-1,-1,-1,-1,-1],"split_conditions":[-2.3327744E0,-2.7845402E0,-2.8324327E0,-2.1119576E0,-8.4659123E-1,-2.656339E0,-1.1595079E0,5.404753E-5,-1.5866048E-4,1.3400026E-5,-7.904135E-6,-1.736446E-4,-1.50105025E-5,1.4479039E-6,-1.66554E-7],"split_indices":[18,8,3,5,3,5,6,0,0,0,0,0,0,0,0],"split_type":[0,0,0,0,0,0,0,0,0,0,0,0,0,0,0],"sum_hessian":[1.69021E6,6.544E3,1.683666E6,8.41E2,5.703E3,5.853E3,1.677813E6,8.18E2,2.3E1,4.563E3,1.14E3,1.87E2,5.666E3,1.88646E5,1.489167E6],"tree_param":{"num_deleted":"0","num_feature":"20","num_nodes":"15","size_leaf_vector":"1"}},{"base_weights":[-3.918861E-11,1.4005994E-3,-5.444657E-6,4.7567054E-3,9.0493984E-4,-1.9906815E-3,1.4819647E-6,5.3507712E-5,-1.5714E-4,1.3266055E-5,-7.825161E-6,-1.7191739E-4,-1.4860425E-5,1.8637483E-6,-1.2348349E-7],"categories":[],"categories_nodes":[],"categories_segments":[],"categories_sizes":[],"default_left":[0,0,0,0,0,0,0,0,0,0,0,0,0,0,0],"id":28,"left_children":[1,3,5,7,9,11,13,-1,-1,-1,-1,-1,-1,-1,-1],"loss_changes":[1.2889097E-2,1.0883209E-2,2.315208E-2,1.0323605E-2,4.0596756E-3,4.488077E-2,4.290385E-3,0E0,0E0,0E0,0E0,0E0,0E0,0E0,0E0],"parents":[2147483647,0,0,1,1,2,2,3,3,4,4,5,5,6,6],"right_children":[2,4,6,8,10,12,14,-1,-1,-1,-1,-1,-1,-1,-1],"split_conditions":[-2.3327744E0,-2.7845402E0,-2.8324327E0,-2.1119576E0,-8.4659123E-1,-2.656339E0,-1.4101571E0,5.3507712E-5,-1.5714E-4,1.3266055E-5,-7.825161E-6,-1.7191739E-4,-1.4860425E-5,1.8637483E-6,-1.2348349E-7],"split_indices":[18,8,3,5,3,5,1,0,0,0,0,0,0,0,0],"split_type":[0,0,0,0,0,0,0,0,0,0,0,0,0,0,0],"sum_hessian":[1.69021E6,6.544E3,1.683666E6,8.41E2,5.703E3,5.853E3,1.677813E6,8.18E2,2.3E1,4.563E3,1.14E3,1.87E2,5.666E3,1.16768E5,1.561045E6],"tree_param":{"num_deleted":"0","num_feature":"20","num_nodes":"15","size_leaf_vector":"1"}},{"base_weights":[-1.6973317E-10,1.3865783E-3,-5.390283E-6,4.709015E-3,8.958914E-4,-1.9708066E-3,1.4671829E-6,5.2973286E-5,-1.5563407E-4,1.3133424E-5,-7.7469795E-6,-1.7020738E-4,-1.4711846E-5,1.425713E-6,-1.640781E-7],"categories":[],"categories_nodes":[],"categories_segments":[],"categories_sizes":[],"default_left":[0,0,0,0,0,0,0,0,0,0,0,0,0,0,0],"id":29,"left_children":[1,3,5,7,9,11,13,-1,-1,-1,-1,-1,-1,-1,-1],"loss_changes":[1.2632333E-2,1.0665941E-2,2.269209E-2,1.0124598E-2,3.978926E-3,4.3992795E-2,4.2318436E-3,0E0,0E0,0E0,0E0,0E0,0E0,0E0,0E0],"parents":[2147483647,0,0,1,1,2,2,3,3,4,4,5,5,6,6],"right_children":[2,4,6,8,10,12,14,-1,-1,-1,-1,-1,-1,-1,-1],"split_conditions":[-2.3327744E0,-2.7845402E0,-2.8324327E0,-2.1119576E0,-8.4659123E-1,-2.656339E0,-1.1595079E0,5.2973286E-5,-1.5563407E-4,1.3133424E-5,-7.7469795E-6,-1.7020738E-4,-1.4711846E-5,1.425713E-6,-1.640781E-7],"split_indices":[18,8,3,5,3,5,6,0,0,0,0,0,0,0,0],"split_type":[0,0,0,0,0,0,0,0,0,0,0,0,0,0,0],"sum_hessian":[1.69021E6,6.544E3,1.683666E6,8.41E2,5.703E3,5.853E3,1.677813E6,8.18E2,2.3E1,4.563E3,1.14E3,1.87E2,5.666E3,1.88646E5,1.489167E6],"tree_param":{"num_deleted":"0","num_feature":"20","num_nodes":"15","size_leaf_vector":"1"}},{"base_weights":[-3.446841E-10,1.3726976E-3,-5.3365E-6,3.6152783E-3,6.5593433E-4,-1.9511302E-3,1.4525014E-6,6.85271E-5,1.5004369E-5,1.0756374E-5,-7.549624E-6,-1.6851434E-4,-1.4564755E-5,1.8351881E-6,-1.2166382E-7],"categories":[],"categories_nodes":[],"categories_segments":[],"categories_sizes":[],"default_left":[0,0,0,0,0,0,0,0,0,0,0,0,0,0,0],"id":30,"left_children":[1,3,5,7,9,11,13,-1,-1,-1,-1,-1,-1,-1,-1],"loss_changes":[1.2380685E-2,1.051806E-2,2.2241235E-2,1.0841666E-2,2.938507E-3,4.31224E-2,4.1602086E-3,0E0,0E0,0E0,0E0,0E0,0E0,0E0,0E0],"parents":[2147483647,0,0,1,1,2,2,3,3,4,4,5,5,6,6],"right_children":[2,4,6,8,10,12,14,-1,-1,-1,-1,-1,-1,-1,-1],"split_conditions":[-2.3327744E0,-2.3180037E0,-2.8324327E0,-2.656339E0,-8.4659123E-1,-2.656339E0,-1.4101571E0,6.85271E-5,1.5004369E-5,1.0756374E-5,-7.549624E-6,-1.6851434E-4,-1.4564755E-5,1.8351881E-6,-1.2166382E-7],"split_indices":[18,2,3,5,3,5,1,0,0,0,0,0,0,0,0],"split_type":[0,0,0,0,0,0,0,0,0,0,0,0,0,0,0],"sum_hessian":[1.69021E6,6.544E3,1.683666E6,1.584E3,4.96E3,5.853E3,1.677813E6,6.25E2,9.59E2,3.823E3,1.137E3,1.87E2,5.666E3,1.16768E5,1.561045E6],"tree_param":{"num_deleted":"0","num_feature":"20","num_nodes":"15","size_leaf_vector":"1"}},{"base_weights":[-4.1592266E-10,1.3589839E-3,-5.2832615E-6,3.5791781E-3,6.4937567E-4,-1.9316501E-3,1.4379585E-6,6.784292E-5,1.4854481E-5,1.0648839E-5,-7.4741943E-6,-1.6683816E-4,-1.4419132E-5,-2.9574043E-8,5.5797695E-6],"categories":[],"categories_nodes":[],"categories_segments":[],"categories_sizes":[],"default_left":[0,0,0,0,0,0,0,0,0,0,0,0,0,0,0],"id":31,"left_children":[1,3,5,7,9,11,13,-1,-1,-1,-1,-1,-1,-1,-1],"loss_changes":[1.2134547E-2,1.0309116E-2,2.179934E-2,1.0626292E-2,2.8800603E-3,4.2269222E-2,4.104255E-3,0E0,0E0,0E0,0E0,0E0,0E0,0E0,0E0],"parents":[2147483647,0,0,1,1,2,2,3,3,4,4,5,5,6,6],"right_children":[2,4,6,8,10,12,14,-1,-1,-1,-1,-1,-1,-1,-1],"split_conditions":[-2.3327744E0,-2.3180037E0,-2.8324327E0,-2.656339E0,-8.4659123E-1,-2.656339E0,2.0793495E0,6.784292E-5,1.4854481E-5,1.0648839E-5,-7.4741943E-6,-1.6683816E-4,-1.4419132E-5,-2.9574043E-8,5.5797695E-6],"split_indices":[18,2,3,5,3,5,16,0,0,0,0,0,0,0,0],"split_type":[0,0,0,0,0,0,0,0,0,0,0,0,0,0,0],"sum_hessian":[1.69021E6,6.544E3,1.683666E6,1.584E3,4.96E3,5.853E3,1.677813E6,6.25E2,9.59E2,3.823E3,1.137E3,1.87E2,5.666E3,1.664667E6,1.3146E4],"tree_param":{"num_deleted":"0","num_feature":"20","num_nodes":"15","size_leaf_vector":"1"}},{"base_weights":[-4.6223914E-10,1.3454072E-3,-5.2305304E-6,4.5882133E-3,8.664822E-4,-1.9123646E-3,1.4235851E-6,5.169582E-5,-1.5442168E-4,1.2709292E-5,-7.520651E-6,-1.6517866E-4,-1.4274966E-5,1.4041575E-6,-1.6183868E-7],"categories":[],"categories_nodes":[],"categories_segments":[],"categories_sizes":[],"default_left":[0,0,0,0,0,0,0,0,0,0,0,0,0,0,0],"id":32,"left_children":[1,3,5,7,9,11,13,-1,-1,-1,-1,-1,-1,-1,-1],"loss_changes":[1.1893302E-2,1.0160807E-2,2.1366226E-2,9.884952E-3,3.734889E-3,4.143292E-2,4.106113E-3,0E0,0E0,0E0,0E0,0E0,0E0,0E0,0E0],"parents":[2147483647,0,0,1,1,2,2,3,3,4,4,5,5,6,6],"right_children":[2,4,6,8,10,12,14,-1,-1,-1,-1,-1,-1,-1,-1],"split_conditions":[-2.3327744E0,-2.7845402E0,-2.8324327E0,-2.1119576E0,-8.4659123E-1,-2.656339E0,-1.1595079E0,5.169582E-5,-1.5442168E-4,1.2709292E-5,-7.520651E-6,-1.6517866E-4,-1.4274966E-5,1.4041575E-6,-1.6183868E-7],"split_indices":[18,8,3,5,3,5,6,0,0,0,0,0,0,0,0],"split_type":[0,0,0,0,0,0,0,0,0,0,0,0,0,0,0],"sum_hessian":[1.69021E6,6.544E3,1.683666E6,8.41E2,5.703E3,5.853E3,1.677813E6,8.18E2,2.3E1,4.563E3,1.14E3,1.87E2,5.666E3,1.88646E5,1.489167E6],"tree_param":{"num_deleted":"0","num_feature":"20","num_nodes":"15","size_leaf_vector":"1"}},{"base_weights":[-6.525287E-10,1.3319383E-3,-5.178363E-6,3.521503E-3,6.321213E-4,-1.8932716E-3,1.4093179E-6,6.680576E-5,1.4578554E-5,1.0380407E-5,-7.3243773E-6,-7.308866E-5,-5.9629215E-6,-1.66014E-8,7.8519715E-6],"categories":[],"categories_nodes":[],"categories_segments":[],"categories_sizes":[],"default_left":[0,0,0,0,0,0,0,0,0,0,0,0,0,0,0],"id":33,"left_children":[1,3,5,7,9,11,13,-1,-1,-1,-1,-1,-1,-1,-1],"loss_changes":[1.1656368E-2,1.0026643E-2,2.0941716E-2,1.0323215E-2,2.7486638E-3,4.1113637E-2,4.0364927E-3,0E0,0E0,0E0,0E0,0E0,0E0,0E0,0E0],"parents":[2147483647,0,0,1,1,2,2,3,3,4,4,5,5,6,6],"right_children":[2,4,6,8,10,12,14,-1,-1,-1,-1,-1,-1,-1,-1],"split_conditions":[-2.3327744E0,-2.3180037E0,-2.8324327E0,-2.656339E0,-8.4659123E-1,-2.4811192E0,2.2169569E0,6.680576E-5,1.4578554E-5,1.0380407E-5,-7.3243773E-6,-7.308866E-5,-5.9629215E-6,-1.66014E-8,7.8519715E-6],"split_indices":[18,2,3,5,3,8,16,0,0,0,0,0,0,0,0],"split_type":[0,0,0,0,0,0,0,0,0,0,0,0,0,0,0],"sum_hessian":[1.69021E6,6.544E3,1.683666E6,1.584E3,4.96E3,5.853E3,1.677813E6,6.25E2,9.59E2,3.823E3,1.137E3,1.13E3,4.723E3,1.671269E6,6.544E3],"tree_param":{"num_deleted":"0","num_feature":"20","num_nodes":"15","size_leaf_vector":"1"}},{"base_weights":[-5.8057714E-10,1.3186318E-3,-5.126564E-6,3.4863392E-3,6.258007E-4,-1.8743525E-3,1.3952874E-6,6.6138775E-5,1.4432921E-5,1.22258925E-5,-2.878088E-6,-1.6296218E-4,-1.39558315E-5,1.8075261E-6,-1.2020958E-7],"categories":[],"categories_nodes":[],"categories_segments":[],"categories_sizes":[],"default_left":[0,0,0,0,0,0,0,0,0,0,0,0,0,0,0],"id":34,"left_children":[1,3,5,7,9,11,13,-1,-1,-1,-1,-1,-1,-1,-1],"loss_changes":[1.1424629E-2,9.827462E-3,2.0525273E-2,1.0118142E-2,2.7052462E-3,4.0397648E-2,4.037329E-3,0E0,0E0,0E0,0E0,0E0,0E0,0E0,0E0],"parents":[2147483647,0,0,1,1,2,2,3,3,4,4,5,5,6,6],"right_children":[2,4,6,8,10,12,14,-1,-1,-1,-1,-1,-1,-1,-1],"split_conditions":[-2.3327744E0,-2.3180037E0,-2.8324327E0,-2.656339E0,-1.7377123E0,-2.656339E0,-1.4101571E0,6.6138775E-5,1.4432921E-5,1.22258925E-5,-2.878088E-6,-1.6296218E-4,-1.39558315E-5,1.8075261E-6,-1.2020958E-7],"split_indices":[18,2,3,5,15,5,1,0,0,0,0,0,0,0,0],"split_type":[0,0,0,0,0,0,0,0,0,0,0,0,0,0,0],"sum_hessian":[1.69021E6,6.544E3,1.683666E6,1.584E3,4.96E3,5.853E3,1.677813E6,6.25E2,9.59E2,3E3,1.96E3,1.87E2,5.666E3,1.16768E5,1.561045E6],"tree_param":{"num_deleted":"0","num_feature":"20","num_nodes":"15","size_leaf_vector":"1"}},{"base_weights":[-6.591196E-10,1.3054592E-3,-5.075436E-6,4.473071E-3,8.3764107E-4,-1.8556392E-3,1.3813014E-6,5.04765E-5,-1.5320821E-4,1.2324554E-5,-7.4235018E-6,-7.202927E-5,-5.750213E-6,1.3828051E-6,-1.5961017E-7],"categories":[],"categories_nodes":[],"categories_segments":[],"categories_sizes":[],"default_left":[0,0,0,0,0,0,0,0,0,0,0,0,0,0,0],"id":35,"left_children":[1,3,5,7,9,11,13,-1,-1,-1,-1,-1,-1,-1,-1],"loss_changes":[1.1197516E-2,9.695069E-3,2.0117475E-2,9.653533E-3,3.5590879E-3,4.0083066E-2,3.9833835E-3,0E0,0E0,0E0,0E0,0E0,0E0,0E0,0E0],"parents":[2147483647,0,0,1,1,2,2,3,3,4,4,5,5,6,6],"right_children":[2,4,6,8,10,12,14,-1,-1,-1,-1,-1,-1,-1,-1],"split_conditions":[-2.3327744E0,-2.7845402E0,-2.8324327E0,-2.1119576E0,-8.4659123E-1,-2.4811192E0,-1.1595079E0,5.04765E-5,-1.5320821E-4,1.2324554E-5,-7.4235018E-6,-7.202927E-5,-5.750213E-6,1.3828051E-6,-1.5961017E-7],"split_indices":[18,8,3,5,3,8,6,0,0,0,0,0,0,0,0],"split_type":[0,0,0,0,0,0,0,0,0,0,0,0,0,0,0],"sum_hessian":[1.69021E6,6.544E3,1.683666E6,8.41E2,5.703E3,5.853E3,1.677813E6,8.18E2,2.3E1,4.563E3,1.14E3,1.13E3,4.723E3,1.88646E5,1.489167E6],"tree_param":{"num_deleted":"0","num_feature":"20","num_nodes":"15","size_leaf_vector":"1"}},{"base_weights":[-7.3248113E-10,1.2923897E-3,-5.024704E-6,3.4301996E-3,6.0911593E-4,-1.8370961E-3,1.3675125E-6,6.512745E-5,1.4165493E-5,1.199901E-5,-2.9529774E-6,-1.6077637E-4,-1.3643486E-5,-2.9570291E-8,5.4893917E-6],"categories":[],"categories_nodes":[],"categories_segments":[],"categories_sizes":[],"default_left":[0,0,0,0,0,0,0,0,0,0,0,0,0,0,0],"id":36,"left_children":[1,3,5,7,9,11,13,-1,-1,-1,-1,-1,-1,-1,-1],"loss_changes":[1.0974433E-2,9.558254E-3,1.9717421E-2,9.829139E-3,2.6510865E-3,3.9388232E-2,3.9730594E-3,0E0,0E0,0E0,0E0,0E0,0E0,0E0,0E0],"parents":[2147483647,0,0,1,1,2,2,3,3,4,4,5,5,6,6],"right_children":[2,4,6,8,10,12,14,-1,-1,-1,-1,-1,-1,-1,-1],"split_conditions":[-2.3327744E0,-2.3180037E0,-2.8324327E0,-2.656339E0,-1.7377123E0,-2.656339E0,2.0793495E0,6.512745E-5,1.4165493E-5,1.199901E-5,-2.9529774E-6,-1.6077637E-4,-1.3643486E-5,-2.9570291E-8,5.4893917E-6],"split_indices":[18,2,3,5,15,5,16,0,0,0,0,0,0,0,0],"split_type":[0,0,0,0,0,0,0,0,0,0,0,0,0,0,0],"sum_hessian":[1.69021E6,6.544E3,1.683666E6,1.584E3,4.96E3,5.853E3,1.677813E6,6.25E2,9.59E2,3E3,1.96E3,1.87E2,5.666E3,1.664667E6,1.3146E4],"tree_param":{"num_deleted":"0","num_feature":"20","num_nodes":"15","size_leaf_vector":"1"}},{"base_weights":[-7.921573E-10,1.2794792E-3,-4.9745768E-6,4.395627E-3,8.1926264E-4,-1.8187548E-3,1.3538212E-6,4.964103E-5,-1.5186767E-4,1.2088582E-5,-7.3983792E-6,-7.098597E-5,-5.542924E-6,9.303911E-7,-2.4157478E-7],"categories":[],"categories_nodes":[],"categories_segments":[],"categories_sizes":[],"default_left":[0,0,0,0,0,0,0,0,0,0,0,0,0,0,0],"id":37,"left_children":[1,3,5,7,9,11,13,-1,-1,-1,-1,-1,-1,-1,-1],"loss_changes":[1.075627E-2,9.382604E-3,1.9325675E-2,9.448634E-3,3.465611E-3,3.9078318E-2,3.9244276E-3,0E0,0E0,0E0,0E0,0E0,0E0,0E0,0E0],"parents":[2147483647,0,0,1,1,2,2,3,3,4,4,5,5,6,6],"right_children":[2,4,6,8,10,12,14,-1,-1,-1,-1,-1,-1,-1,-1],"split_conditions":[-2.3327744E0,-2.7845402E0,-2.8324327E0,-2.1119576E0,-8.4659123E-1,-2.4811192E0,-7.4858326E-1,4.964103E-5,-1.5186767E-4,1.2088582E-5,-7.3983792E-6,-7.098597E-5,-5.542924E-6,9.303911E-7,-2.4157478E-7],"split_indices":[18,8,3,5,3,8,6,0,0,0,0,0,0,0,0],"split_type":[0,0,0,0,0,0,0,0,0,0,0,0,0,0,0],"sum_hessian":[1.69021E6,6.544E3,1.683666E6,8.41E2,5.703E3,5.853E3,1.677813E6,8.18E2,2.3E1,4.563E3,1.14E3,1.13E3,4.723E3,3.65225E5,1.312588E6],"tree_param":{"num_deleted":"0","num_feature":"20","num_nodes":"15","size_leaf_vector":"1"}},{"base_weights":[-8.809625E-10,1.2666696E-3,-4.92487E-6,3.3750115E-3,5.928158E-4,-1.8005803E-3,1.3402891E-6,6.4132175E-5,1.3903321E-5,1.1776564E-5,-3.0249255E-6,-1.5862077E-4,-1.3337792E-5,-1.6792415E-8,7.723792E-6],"categories":[],"categories_nodes":[],"categories_segments":[],"categories_sizes":[],"default_left":[0,0,0,0,0,0,0,0,0,0,0,0,0,0,0],"id":38,"left_children":[1,3,5,7,9,11,13,-1,-1,-1,-1,-1,-1,-1,-1],"loss_changes":[1.0541974E-2,9.296574E-3,1.8941369E-2,9.548418E-3,2.5979993E-3,3.8404044E-2,3.906247E-3,0E0,0E0,0E0,0E0,0E0,0E0,0E0,0E0],"parents":[2147483647,0,0,1,1,2,2,3,3,4,4,5,5,6,6],"right_children":[2,4,6,8,10,12,14,-1,-1,-1,-1,-1,-1,-1,-1],"split_conditions":[-2.3327744E0,-2.3180037E0,-2.8324327E0,-2.656339E0,-1.7377123E0,-2.656339E0,2.2169569E0,6.4132175E-5,1.3903321E-5,1.1776564E-5,-3.0249255E-6,-1.5862077E-4,-1.3337792E-5,-1.6792415E-8,7.723792E-6],"split_indices":[18,2,3,5,15,5,16,0,0,0,0,0,0,0,0],"split_type":[0,0,0,0,0,0,0,0,0,0,0,0,0,0,0],"sum_hessian":[1.69021E6,6.544E3,1.683666E6,1.584E3,4.96E3,5.853E3,1.677813E6,6.25E2,9.59E2,3E3,1.96E3,1.87E2,5.666E3,1.671269E6,6.544E3],"tree_param":{"num_deleted":"0","num_feature":"20","num_nodes":"15","size_leaf_vector":"1"}},{"base_weights":[-9.207422E-10,1.2540162E-3,-4.875722E-6,3.3413107E-3,5.868894E-4,-1.7826039E-3,1.3268881E-6,6.3491876E-5,1.3764433E-5,1.1658838E-5,-2.9946918E-6,-6.99585E-5,-5.340933E-6,1.7712459E-6,-1.1823092E-7],"categories":[],"categories_nodes":[],"categories_segments":[],"categories_sizes":[],"default_left":[0,0,0,0,0,0,0,0,0,0,0,0,0,0,0],"id":39,"left_children":[1,3,5,7,9,11,13,-1,-1,-1,-1,-1,-1,-1,-1],"loss_changes":[1.0332407E-2,9.111886E-3,1.856505E-2,9.358738E-3,2.5463179E-3,3.8098738E-2,3.8786663E-3,0E0,0E0,0E0,0E0,0E0,0E0,0E0,0E0],"parents":[2147483647,0,0,1,1,2,2,3,3,4,4,5,5,6,6],"right_children":[2,4,6,8,10,12,14,-1,-1,-1,-1,-1,-1,-1,-1],"split_conditions":[-2.3327744E0,-2.3180037E0,-2.8324327E0,-2.656339E0,-1.7377123E0,-2.4811192E0,-1.4101571E0,6.3491876E-5,1.3764433E-5,1.1658838E-5,-2.9946918E-6,-6.99585E-5,-5.340933E-6,1.7712459E-6,-1.1823092E-7],"split_indices":[18,2,3,5,15,8,1,0,0,0,0,0,0,0,0],"split_type":[0,0,0,0,0,0,0,0,0,0,0,0,0,0,0],"sum_hessian":[1.69021E6,6.544E3,1.683666E6,1.584E3,4.96E3,5.853E3,1.677813E6,6.25E2,9.59E2,3E3,1.96E3,1.13E3,4.723E3,1.16768E5,1.561045E6],"tree_param":{"num_deleted":"0","num_feature":"20","num_nodes":"15","size_leaf_vector":"1"}},{"base_weights":[-8.930302E-10,1.2414891E-3,-4.826997E-6,4.2877616E-3,7.915938E-4,-1.7647907E-3,1.3136317E-6,4.8496742E-5,-1.5066164E-4,1.1747953E-5,-7.4190602E-6,-1.5649493E-4,-1.303861E-5,-2.9405305E-8,5.3997387E-6],"categories":[],"categories_nodes":[],"categories_segments":[],"categories_sizes":[],"default_left":[0,0,0,0,0,0,0,0,0,0,0,0,0,0,0],"id":40,"left_children":[1,3,5,7,9,11,13,-1,-1,-1,-1,-1,-1,-1,-1],"loss_changes":[1.0127006E-2,8.966554E-3,1.819587E-2,9.229998E-3,3.3527669E-3,3.7444446E-2,3.8447932E-3,0E0,0E0,0E0,0E0,0E0,0E0,0E0,0E0],"parents":[2147483647,0,0,1,1,2,2,3,3,4,4,5,5,6,6],"right_children":[2,4,6,8,10,12,14,-1,-1,-1,-1,-1,-1,-1,-1],"split_conditions":[-2.3327744E0,-2.7845402E0,-2.8324327E0,-2.1119576E0,-8.4659123E-1,-2.656339E0,2.0793495E0,4.8496742E-5,-1.5066164E-4,1.1747953E-5,-7.4190602E-6,-1.5649493E-4,-1.303861E-5,-2.9405305E-8,5.3997387E-6],"split_indices":[18,8,3,5,3,5,16,0,0,0,0,0,0,0,0],"split_type":[0,0,0,0,0,0,0,0,0,0,0,0,0,0,0],"sum_hessian":[1.69021E6,6.544E3,1.683666E6,8.41E2,5.703E3,5.853E3,1.677813E6,8.18E2,2.3E1,4.563E3,1.14E3,1.87E2,5.666E3,1.664667E6,1.3146E4],"tree_param":{"num_deleted":"0","num_feature":"20","num_nodes":"15","size_leaf_vector":"1"}},{"base_weights":[-1.0671446E-9,1.2290593E-3,-4.7788526E-6,3.2875661E-3,5.7113497E-4,-1.7471719E-3,1.3004703E-6,6.2521125E-5,1.35101E-5,1.1443005E-5,-3.0629546E-6,-6.894662E-5,-5.1441184E-6,1.3531059E-6,-1.5675859E-7],"categories":[],"categories_nodes":[],"categories_segments":[],"categories_sizes":[],"default_left":[0,0,0,0,0,0,0,0,0,0,0,0,0,0,0],"id":41,"left_children":[1,3,5,7,9,11,13,-1,-1,-1,-1,-1,-1,-1,-1],"loss_changes":[9.92524E-3,8.862288E-3,1.7834362E-2,9.091057E-3,2.495302E-3,3.7143707E-2,3.817029E-3,0E0,0E0,0E0,0E0,0E0,0E0,0E0,0E0],"parents":[2147483647,0,0,1,1,2,2,3,3,4,4,5,5,6,6],"right_children":[2,4,6,8,10,12,14,-1,-1,-1,-1,-1,-1,-1,-1],"split_conditions":[-2.3327744E0,-2.3180037E0,-2.8324327E0,-2.656339E0,-1.7377123E0,-2.4811192E0,-1.1595079E0,6.2521125E-5,1.35101E-5,1.1443005E-5,-3.0629546E-6,-6.894662E-5,-5.1441184E-6,1.3531059E-6,-1.5675859E-7],"split_indices":[18,2,3,5,15,8,6,0,0,0,0,0,0,0,0],"split_type":[0,0,0,0,0,0,0,0,0,0,0,0,0,0,0],"sum_hessian":[1.69021E6,6.544E3,1.683666E6,1.584E3,4.96E3,5.853E3,1.677813E6,6.25E2,9.59E2,3E3,1.96E3,1.13E3,4.723E3,1.88646E5,1.489167E6],"tree_param":{"num_deleted":"0","num_feature":"20","num_nodes":"15","size_leaf_vector":"1"}},{"base_weights":[-1.0164987E-9,1.2167816E-3,-4.731074E-6,3.2547384E-3,5.6542526E-4,-1.7297127E-3,1.2874997E-6,6.189691E-5,1.337514E-5,9.498249E-6,-7.267625E-6,-1.5439844E-4,-1.2745804E-5,-1.681928E-8,7.595326E-6],"categories":[],"categories_nodes":[],"categories_segments":[],"categories_sizes":[],"default_left":[0,0,0,0,0,0,0,0,0,0,0,0,0,0,0],"id":42,"left_children":[1,3,5,7,9,11,13,-1,-1,-1,-1,-1,-1,-1,-1],"loss_changes":[9.727933E-3,8.68623E-3,1.7479714E-2,8.91046E-3,2.464901E-3,3.650883E-2,3.7776902E-3,0E0,0E0,0E0,0E0,0E0,0E0,0E0,0E0],"parents":[2147483647,0,0,1,1,2,2,3,3,4,4,5,5,6,6],"right_children":[2,4,6,8,10,12,14,-1,-1,-1,-1,-1,-1,-1,-1],"split_conditions":[-2.3327744E0,-2.3180037E0,-2.8324327E0,-2.656339E0,-8.4659123E-1,-2.656339E0,2.2169569E0,6.189691E-5,1.337514E-5,9.498249E-6,-7.267625E-6,-1.5439844E-4,-1.2745804E-5,-1.681928E-8,7.595326E-6],"split_indices":[18,2,3,5,3,5,16,0,0,0,0,0,0,0,0],"split_type":[0,0,0,0,0,0,0,0,0,0,0,0,0,0,0],"sum_hessian":[1.69021E6,6.544E3,1.683666E6,1.584E3,4.96E3,5.853E3,1.677813E6,6.25E2,9.59E2,3.823E3,1.137E3,1.87E2,5.666E3,1.671269E6,6.544E3],"tree_param":{"num_deleted":"0","num_feature":"20","num_nodes":"15","size_leaf_vector":"1"}},{"base_weights":[-1.0645144E-9,1.2046256E-3,-4.6838677E-6,4.1802665E-3,7.651631E-4,-1.7124441E-3,1.2746194E-6,4.735652E-5,-1.4946444E-4,1.1392479E-5,-7.31847E-6,-6.795006E-5,-4.952363E-6,9.107609E-7,-2.3712512E-7],"categories":[],"categories_nodes":[],"categories_segments":[],"categories_sizes":[],"default_left":[0,0,0,0,0,0,0,0,0,0,0,0,0,0,0],"id":43,"left_children":[1,3,5,7,9,11,13,-1,-1,-1,-1,-1,-1,-1,-1],"loss_changes":[9.534536E-3,8.555585E-3,1.7132437E-2,9.015094E-3,3.1951237E-3,3.621261E-2,3.7648175E-3,0E0,0E0,0E0,0E0,0E0,0E0,0E0,0E0],"parents":[2147483647,0,0,1,1,2,2,3,3,4,4,5,5,6,6],"right_children":[2,4,6,8,10,12,14,-1,-1,-1,-1,-1,-1,-1,-1],"split_conditions":[-2.3327744E0,-2.7845402E0,-2.8324327E0,-2.1119576E0,-8.4659123E-1,-2.4811192E0,-7.4858326E-1,4.735652E-5,-1.4946444E-4,1.1392479E-5,-7.31847E-6,-6.795006E-5,-4.952363E-6,9.107609E-7,-2.3712512E-7],"split_indices":[18,8,3,5,3,8,6,0,0,0,0,0,0,0,0],"split_type":[0,0,0,0,0,0,0,0,0,0,0,0,0,0,0],"sum_hessian":[1.69021E6,6.544E3,1.683666E6,8.41E2,5.703E3,5.853E3,1.677813E6,8.18E2,2.3E1,4.563E3,1.14E3,1.13E3,4.723E3,3.65225E5,1.312588E6],"tree_param":{"num_deleted":"0","num_feature":"20","num_nodes":"15","size_leaf_vector":"1"}},{"base_weights":[-1.1786038E-9,1.1925644E-3,-4.637096E-6,3.2024237E-3,5.501899E-4,-1.6953321E-3,1.2618494E-6,6.0950326E-5,1.3128654E-5,1.1170755E-5,-3.1761929E-6,-1.5233086E-4,-1.2459244E-5,-4.7176695E-8,3.7551827E-6],"categories":[],"categories_nodes":[],"categories_segments":[],"categories_sizes":[],"default_left":[0,0,0,0,0,0,0,0,0,0,0,0,0,0,0],"id":44,"left_children":[1,3,5,7,9,11,13,-1,-1,-1,-1,-1,-1,-1,-1],"loss_changes":[9.344567E-3,8.448371E-3,1.6791748E-2,8.655217E-3,2.4409115E-3,3.5596583E-2,3.7547373E-3,0E0,0E0,0E0,0E0,0E0,0E0,0E0,0E0],"parents":[2147483647,0,0,1,1,2,2,3,3,4,4,5,5,6,6],"right_children":[2,4,6,8,10,12,14,-1,-1,-1,-1,-1,-1,-1,-1],"split_conditions":[-2.3327744E0,-2.3180037E0,-2.8324327E0,-2.656339E0,-1.7377123E0,-2.656339E0,2.2768846E0,6.0950326E-5,1.3128654E-5,1.1170755E-5,-3.1761929E-6,-1.5233086E-4,-1.2459244E-5,-4.7176695E-8,3.7551827E-6],"split_indices":[18,2,3,5,15,5,8,0,0,0,0,0,0,0,0],"split_type":[0,0,0,0,0,0,0,0,0,0,0,0,0,0,0],"sum_hessian":[1.69021E6,6.544E3,1.683666E6,1.584E3,4.96E3,5.853E3,1.677813E6,6.25E2,9.59E2,3E3,1.96E3,1.87E2,5.666E3,1.651429E6,2.6384E4],"tree_param":{"num_deleted":"0","num_feature":"20","num_nodes":"15","size_leaf_vector":"1"}},{"base_weights":[-1.2056194E-9,1.1806512E-3,-4.5908128E-6,3.170446E-3,5.4468965E-4,-1.6784071E-3,1.2492413E-6,6.0341798E-5,1.2997504E-5,1.1059085E-5,-3.1444474E-6,-6.696859E-5,-4.7655517E-6,1.7361986E-6,-1.1644386E-7],"categories":[],"categories_nodes":[],"categories_segments":[],"categories_sizes":[],"default_left":[0,0,0,0,0,0,0,0,0,0,0,0,0,0,0],"id":45,"left_children":[1,3,5,7,9,11,13,-1,-1,-1,-1,-1,-1,-1,-1],"loss_changes":[9.158805E-3,8.280533E-3,1.6458148E-2,8.483278E-3,2.3923556E-3,3.5304837E-2,3.7289145E-3,0E0,0E0,0E0,0E0,0E0,0E0,0E0,0E0],"parents":[2147483647,0,0,1,1,2,2,3,3,4,4,5,5,6,6],"right_children":[2,4,6,8,10,12,14,-1,-1,-1,-1,-1,-1,-1,-1],"split_conditions":[-2.3327744E0,-2.3180037E0,-2.8324327E0,-2.656339E0,-1.7377123E0,-2.4811192E0,-1.4101571E0,6.0341798E-5,1.2997504E-5,1.1059085E-5,-3.1444474E-6,-6.696859E-5,-4.7655517E-6,1.7361986E-6,-1.1644386E-7],"split_indices":[18,2,3,5,15,8,1,0,0,0,0,0,0,0,0],"split_type":[0,0,0,0,0,0,0,0,0,0,0,0,0,0,0],"sum_hessian":[1.69021E6,6.544E3,1.683666E6,1.584E3,4.96E3,5.853E3,1.677813E6,6.25E2,9.59E2,3E3,1.96E3,1.13E3,4.723E3,1.16768E5,1.561045E6],"tree_param":{"num_deleted":"0","num_feature":"20","num_nodes":"15","size_leaf_vector":"1"}},{"base_weights":[-1.1467458E-9,1.1688572E-3,-4.544906E-6,4.077883E-3,7.392343E-4,-1.6616351E-3,1.2367902E-6,4.626885E-5,-1.4826731E-4,1.1071856E-5,-7.3321844E-6,-1.502918E-4,-1.2178801E-5,-2.9446785E-8,5.306926E-6],"categories":[],"categories_nodes":[],"categories_segments":[],"categories_sizes":[],"default_left":[0,0,0,0,0,0,0,0,0,0,0,0,0,0,0],"id":46,"left_children":[1,3,5,7,9,11,13,-1,-1,-1,-1,-1,-1,-1,-1],"loss_changes":[8.976734E-3,8.17682E-3,1.6130868E-2,8.807448E-3,3.0911868E-3,3.4707136E-2,3.714519E-3,0E0,0E0,0E0,0E0,0E0,0E0,0E0,0E0],"parents":[2147483647,0,0,1,1,2,2,3,3,4,4,5,5,6,6],"right_children":[2,4,6,8,10,12,14,-1,-1,-1,-1,-1,-1,-1,-1],"split_conditions":[-2.3327744E0,-2.7845402E0,-2.8324327E0,-2.1119576E0,-8.4659123E-1,-2.656339E0,2.0793495E0,4.626885E-5,-1.4826731E-4,1.1071856E-5,-7.3321844E-6,-1.502918E-4,-1.2178801E-5,-2.9446785E-8,5.306926E-6],"split_indices":[18,8,3,5,3,5,16,0,0,0,0,0,0,0,0],"split_type":[0,0,0,0,0,0,0,0,0,0,0,0,0,0,0],"sum_hessian":[1.69021E6,6.544E3,1.683666E6,8.41E2,5.703E3,5.853E3,1.677813E6,8.18E2,2.3E1,4.563E3,1.14E3,1.87E2,5.666E3,1.664667E6,1.3146E4],"tree_param":{"num_deleted":"0","num_feature":"20","num_nodes":"15","size_leaf_vector":"1"}},{"base_weights":[-1.2913398E-9,1.1571535E-3,-4.4995554E-6,3.1194985E-3,5.299667E-4,-1.6450466E-3,1.2244205E-6,2.7450835E-5,1.715247E-4,1.0855344E-5,-3.2051203E-6,-6.600197E-5,-4.5835723E-6,-4.6905786E-8,3.7144257E-6],"categories":[],"categories_nodes":[],"categories_segments":[],"categories_sizes":[],"default_left":[0,0,0,0,0,0,0,0,0,0,0,0,0,0,0],"id":47,"left_children":[1,3,5,7,9,11,13,-1,-1,-1,-1,-1,-1,-1,-1],"loss_changes":[8.797871E-3,8.053652E-3,1.5810393E-2,8.280754E-3,2.3444134E-3,3.4419812E-2,3.6741463E-3,0E0,0E0,0E0,0E0,0E0,0E0,0E0,0E0],"parents":[2147483647,0,0,1,1,2,2,3,3,4,4,5,5,6,6],"right_children":[2,4,6,8,10,12,14,-1,-1,-1,-1,-1,-1,-1,-1],"split_conditions":[-2.3327744E0,-2.3180037E0,-2.8324327E0,-1.3182267E0,-1.7377123E0,-2.4811192E0,2.2768846E0,2.7450835E-5,1.715247E-4,1.0855344E-5,-3.2051203E-6,-6.600197E-5,-4.5835723E-6,-4.6905786E-8,3.7144257E-6],"split_indices":[18,2,3,10,15,8,8,0,0,0,0,0,0,0,0],"split_type":[0,0,0,0,0,0,0,0,0,0,0,0,0,0,0],"sum_hessian":[1.69021E6,6.544E3,1.683666E6,1.584E3,4.96E3,5.853E3,1.677813E6,1.544E3,4E1,3E3,1.96E3,1.13E3,4.723E3,1.651429E6,2.6384E4],"tree_param":{"num_deleted":"0","num_feature":"20","num_nodes":"15","size_leaf_vector":"1"}},{"base_weights":[-1.1830473E-9,1.1456136E-3,-4.454587E-6,4.0163603E-3,7.216454E-4,-1.6286082E-3,1.2121915E-6,4.5601842E-5,-1.4708978E-4,1.08442755E-5,-7.3011543E-6,-1.4828086E-4,-1.1904344E-5,8.9825477E-7,-2.3444328E-7],"categories":[],"categories_nodes":[],"categories_segments":[],"categories_sizes":[],"default_left":[0,0,0,0,0,0,0,0,0,0,0,0,0,0,0],"id":48,"left_children":[1,3,5,7,9,11,13,-1,-1,-1,-1,-1,-1,-1,-1],"loss_changes":[8.6232675E-3,7.963056E-3,1.5495999E-2,8.641405E-3,3.0049342E-3,3.3839915E-2,3.6658498E-3,0E0,0E0,0E0,0E0,0E0,0E0,0E0,0E0],"parents":[2147483647,0,0,1,1,2,2,3,3,4,4,5,5,6,6],"right_children":[2,4,6,8,10,12,14,-1,-1,-1,-1,-1,-1,-1,-1],"split_conditions":[-2.3327744E0,-2.7845402E0,-2.8324327E0,-2.1119576E0,-8.4659123E-1,-2.656339E0,-7.4858326E-1,4.5601842E-5,-1.4708978E-4,1.08442755E-5,-7.3011543E-6,-1.4828086E-4,-1.1904344E-5,8.9825477E-7,-2.3444328E-7],"split_indices":[18,8,3,5,3,5,6,0,0,0,0,0,0,0,0],"split_type":[0,0,0,0,0,0,0,0,0,0,0,0,0,0,0],"sum_hessian":[1.69021E6,6.544E3,1.683666E6,8.41E2,5.703E3,5.853E3,1.677813E6,8.18E2,2.3E1,4.563E3,1.14E3,1.87E2,5.666E3,3.65225E5,1.312588E6],"tree_param":{"num_deleted":"0","num_feature":"20","num_nodes":"15","size_leaf_vector":"1"}},{"base_weights":[-1.3601241E-9,1.1341425E-3,-4.410172E-6,3.0694776E-3,5.155897E-4,-1.6123494E-3,1.200033E-6,5.87917E-5,1.2341268E-5,1.0655642E-5,-3.2632208E-6,-6.5049964E-5,-4.406315E-6,-1.7153436E-8,7.4564314E-6],"categories":[],"categories_nodes":[],"categories_segments":[],"categories_sizes":[],"default_left":[0,0,0,0,0,0,0,0,0,0,0,0,0,0,0],"id":49,"left_children":[1,3,5,7,9,11,13,-1,-1,-1,-1,-1,-1,-1,-1],"loss_changes":[8.451444E-3,7.833481E-3,1.5188142E-2,8.1662275E-3,2.2974396E-3,3.355696E-2,3.641415E-3,0E0,0E0,0E0,0E0,0E0,0E0,0E0,0E0],"parents":[2147483647,0,0,1,1,2,2,3,3,4,4,5,5,6,6],"right_children":[2,4,6,8,10,12,14,-1,-1,-1,-1,-1,-1,-1,-1],"split_conditions":[-2.3327744E0,-2.3180037E0,-2.8324327E0,-2.656339E0,-1.7377123E0,-2.4811192E0,2.2169569E0,5.87917E-5,1.2341268E-5,1.0655642E-5,-3.2632208E-6,-6.5049964E-5,-4.406315E-6,-1.7153436E-8,7.4564314E-6],"split_indices":[18,2,3,5,15,8,16,0,0,0,0,0,0,0,0],"split_type":[0,0,0,0,0,0,0,0,0,0,0,0,0,0,0],"sum_hessian":[1.69021E6,6.544E3,1.683666E6,1.584E3,4.96E3,5.853E3,1.677813E6,6.25E2,9.59E2,3E3,1.96E3,1.13E3,4.723E3,1.671269E6,6.544E3],"tree_param":{"num_deleted":"0","num_feature":"20","num_nodes":"15","size_leaf_vector":"1"}}]},"name":"gbtree"},"learner_model_param":{"base_score":"2.2683247E-5","boost_from_average":"1","num_class":"0","num_feature":"20","num_target":"1"},"objective":{"name":"reg:squarederror","reg_loss_param":{"scale_pos_weight":"1"}}},"version":[2,1,1]}