{"learner":{"attributes":{"scikit_learn":"{\"_estimator_type\": \"regressor\"}"},"feature_names":["Momentum_10","Momentum_30","Momentum_60","Momentum_120","Momentum_300","RSI_10","RSI_30","RSI_60","RSI_120","RSI_300","BB_10","BB_30","BB_60","BB_120","BB_300","MRC_10","MRC_30","MRC_60","MRC_120","MRC_300","Active_AAVEUSDT.csv","Active_ALGOUSDT.csv","Active_AVAXUSDT.csv","Active_BCHUSDT.csv","Active_BTCUSDT.csv","Active_CHZUSDT.csv","Active_DASHUSDT.csv","Active_DOTUSDT.csv","Active_EOSUSDT.csv","Active_ETHUSDT.csv","Active_GRTUSDT.csv","Active_ICPUSDT.csv","Active_IOTAUSDT.csv","Active_LTCUSDT.csv","Active_MATICUSDT.csv","Active_NEOUSDT.csv","Active_RVNUSDT.csv","Active_SHIBUSDT.csv","Active_STMXUSDT.csv","Active_TFUELUSDT.csv","Active_TRXUSDT.csv","Active_VETUSDT.csv","Active_XEMUSDT.csv","Active_XRPUSDT.csv","Active_ZECUSDT.csv"],"feature_types":["float","float","float","float","float","float","float","float","float","float","float","float","float","float","float","float","float","float","float","float","float","float","float","float","float","float","float","float","float","float","float","float","float","float","float","float","float","float","float","float","float","float","float","float","float"],"gradient_booster":{"model":{"gbtree_model_param":{"num_parallel_tree":"1","num_trees":"50"},"iteration_indptr":[0,1,2,3,4,5,6,7,8,9,10,11,12,13,14,15,16,17,18,19,20,21,22,23,24,25,26,27,28,29,30,31,32,33,34,35,36,37,38,39,40,41,42,43,44,45,46,47,48,49,50],"tree_info":[0,0,0,0,0,0,0,0,0,0,0,0,0,0,0,0,0,0,0,0,0,0,0,0,0,0,0,0,0,0,0,0,0,0,0,0,0,0,0,0,0,0,0,0,0,0,0,0,0,0],"trees":[{"base_weights":[-2.0736121E-10,7.949685E-3,-3.118307E-5,1.2997345E-2,-3.7494683E-4,-4.3326337E-3,7.49846E-5,5.5740427E-5,2.3078758E-4,3.6257345E-5,-1.103202E-4,-1.1444405E-5,-8.014355E-5,5.2712576E-6,-6.0208226E-6],"categories":[],"categories_nodes":[],"categories_segments":[],"categories_sizes":[],"default_left":[0,0,0,0,0,0,0,0,0,0,0,0,0,0,0],"id":0,"left_children":[1,3,5,7,9,11,13,-1,-1,-1,-1,-1,-1,-1,-1],"loss_changes":[5.2374166E-1,3.4687918E-1,9.610774E-1,3.8446063E-1,1.3293505E-1,5.950156E-1,6.287356E-1,0E0,0E0,0E0,0E0,0E0,0E0,0E0,0E0],"parents":[2147483647,0,0,1,1,2,2,3,3,4,4,5,5,6,6],"right_children":[2,4,6,8,10,12,14,-1,-1,-1,-1,-1,-1,-1,-1],"split_conditions":[-2.687299E0,-2.7103422E0,-1.8734001E0,-1.7752388E0,-1.3589671E0,-1.3362162E0,3.9886135E-1,5.5740427E-5,2.3078758E-4,3.6257345E-5,-1.103202E-4,-1.1444405E-5,-8.014355E-5,5.2712576E-6,-6.0208226E-6],"split_indices":[7,8,9,2,12,14,13,0,0,0,0,0,0,0,0],"split_type":[0,0,0,0,0,0,0,0,0,0,0,0,0,0,0],"sum_hessian":[2.112763E6,8.254E3,2.104509E6,5.138E3,3.116E3,5.0691E4,2.053818E6,2.96E3,2.178E3,2.266E3,8.5E2,2.7167E4,2.3524E4,1.231458E6,8.2236E5],"tree_param":{"num_deleted":"0","num_feature":"45","num_nodes":"15","size_leaf_vector":"1"}},{"base_weights":[-7.265913E-11,7.870213E-3,-3.0871208E-5,1.2867427E-2,-3.7122096E-4,-3.975017E-3,8.269002E-5,5.5183213E-5,2.2848077E-4,3.5894936E-5,-1.092183E-4,-1.0107883E-5,-7.312854E-5,5.389481E-6,-5.960539E-6],"categories":[],"categories_nodes":[],"categories_segments":[],"categories_sizes":[],"default_left":[0,0,0,0,0,0,0,0,0,0,0,0,0,0,0],"id":1,"left_children":[1,3,5,7,9,11,13,-1,-1,-1,-1,-1,-1,-1,-1],"loss_changes":[5.133225E-1,3.3998042E-1,9.426147E-1,3.7681365E-1,1.3029225E-1,5.8273596E-1,6.334906E-1,0E0,0E0,0E0,0E0,0E0,0E0,0E0,0E0],"parents":[2147483647,0,0,1,1,2,2,3,3,4,4,5,5,6,6],"right_children":[2,4,6,8,10,12,14,-1,-1,-1,-1,-1,-1,-1,-1],"split_conditions":[-2.687299E0,-2.7103422E0,-1.8121221E0,-1.7752388E0,-1.3589671E0,-1.3362162E0,3.9886135E-1,5.5183213E-5,2.2848077E-4,3.5894936E-5,-1.092183E-4,-1.0107883E-5,-7.312854E-5,5.389481E-6,-5.960539E-6],"split_indices":[7,8,9,2,12,14,13,0,0,0,0,0,0,0,0],"split_type":[0,0,0,0,0,0,0,0,0,0,0,0,0,0,0],"sum_hessian":[2.112763E6,8.254E3,2.104509E6,5.138E3,3.116E3,5.8897E4,2.045612E6,2.96E3,2.178E3,2.266E3,8.5E2,3.1195E4,2.7702E4,1.223299E6,8.22313E5],"tree_param":{"num_deleted":"0","num_feature":"45","num_nodes":"15","size_leaf_vector":"1"}},{"base_weights":[3.701167E-11,7.791537E-3,-3.0562485E-5,1.2738808E-2,-3.6753196E-4,-4.249956E-3,7.357986E-5,5.4631568E-5,2.26197E-4,3.5536148E-5,-1.08127395E-4,-1.1228887E-5,-7.8610894E-5,5.1677926E-6,-5.90097E-6],"categories":[],"categories_nodes":[],"categories_segments":[],"categories_sizes":[],"default_left":[0,0,0,0,0,0,0,0,0,0,0,0,0,0,0],"id":2,"left_children":[1,3,5,7,9,11,13,-1,-1,-1,-1,-1,-1,-1,-1],"loss_changes":[5.0311065E-1,3.332188E-1,9.247589E-1,3.6931872E-1,1.27702E-1,5.724182E-1,6.041131E-1,0E0,0E0,0E0,0E0,0E0,0E0,0E0,0E0],"parents":[2147483647,0,0,1,1,2,2,3,3,4,4,5,5,6,6],"right_children":[2,4,6,8,10,12,14,-1,-1,-1,-1,-1,-1,-1,-1],"split_conditions":[-2.687299E0,-2.7103422E0,-1.8734001E0,-1.7752388E0,-1.3589671E0,-1.3362162E0,3.9886135E-1,5.4631568E-5,2.26197E-4,3.5536148E-5,-1.08127395E-4,-1.1228887E-5,-7.8610894E-5,5.1677926E-6,-5.90097E-6],"split_indices":[7,8,9,2,12,14,13,0,0,0,0,0,0,0,0],"split_type":[0,0,0,0,0,0,0,0,0,0,0,0,0,0,0],"sum_hessian":[2.112763E6,8.254E3,2.104509E6,5.138E3,3.116E3,5.0691E4,2.053818E6,2.96E3,2.178E3,2.266E3,8.5E2,2.7167E4,2.3524E4,1.231458E6,8.2236E5],"tree_param":{"num_deleted":"0","num_feature":"45","num_nodes":"15","size_leaf_vector":"1"}},{"base_weights":[6.2173565E-11,7.7136466E-3,-3.0256935E-5,1.2611475E-2,-3.638803E-4,-3.8994022E-3,8.1144855E-5,5.4085438E-5,2.2393606E-4,3.518094E-5,-1.07047395E-4,-9.915691E-6,-7.173736E-5,5.283909E-6,-5.8419246E-6],"categories":[],"categories_nodes":[],"categories_segments":[],"categories_sizes":[],"default_left":[0,0,0,0,0,0,0,0,0,0,0,0,0,0,0],"id":3,"left_children":[1,3,5,7,9,11,13,-1,-1,-1,-1,-1,-1,-1,-1],"loss_changes":[4.9310198E-1,3.2659167E-1,9.071067E-1,3.619728E-1,1.2516323E-1,5.6077355E-1,6.087123E-1,0E0,0E0,0E0,0E0,0E0,0E0,0E0,0E0],"parents":[2147483647,0,0,1,1,2,2,3,3,4,4,5,5,6,6],"right_children":[2,4,6,8,10,12,14,-1,-1,-1,-1,-1,-1,-1,-1],"split_conditions":[-2.687299E0,-2.7103422E0,-1.8121221E0,-1.7752388E0,-1.3589671E0,-1.3362162E0,3.9886135E-1,5.4085438E-5,2.2393606E-4,3.518094E-5,-1.07047395E-4,-9.915691E-6,-7.173736E-5,5.283909E-6,-5.8419246E-6],"split_indices":[7,8,9,2,12,14,13,0,0,0,0,0,0,0,0],"split_type":[0,0,0,0,0,0,0,0,0,0,0,0,0,0,0],"sum_hessian":[2.112763E6,8.254E3,2.104509E6,5.138E3,3.116E3,5.8897E4,2.045612E6,2.96E3,2.178E3,2.266E3,8.5E2,3.1195E4,2.7702E4,1.223299E6,8.22313E5],"tree_param":{"num_deleted":"0","num_feature":"45","num_nodes":"15","size_leaf_vector":"1"}},{"base_weights":[2.9413946E-10,7.636535E-3,-2.995423E-5,1.2485414E-2,-3.602645E-4,-4.168854E-3,7.220139E-5,5.3544765E-5,2.2169774E-4,5.082683E-5,-7.5915144E-5,-1.1017451E-5,-7.710748E-5,5.066358E-6,-5.7835027E-6],"categories":[],"categories_nodes":[],"categories_segments":[],"categories_sizes":[],"default_left":[0,0,0,0,0,0,0,0,0,0,0,0,0,0,0],"id":4,"left_children":[1,3,5,7,9,11,13,-1,-1,-1,-1,-1,-1,-1,-1],"loss_changes":[4.832924E-1,3.2009637E-1,8.898122E-1,3.5477316E-1,1.2272158E-1,5.506776E-1,5.8045477E-1,0E0,0E0,0E0,0E0,0E0,0E0,0E0,0E0],"parents":[2147483647,0,0,1,1,2,2,3,3,4,4,5,5,6,6],"right_children":[2,4,6,8,10,12,14,-1,-1,-1,-1,-1,-1,-1,-1],"split_conditions":[-2.687299E0,-2.7103422E0,-1.8734001E0,-1.7752388E0,-1.5851817E0,-1.3362162E0,3.9886135E-1,5.3544765E-5,2.2169774E-4,5.082683E-5,-7.5915144E-5,-1.1017451E-5,-7.710748E-5,5.066358E-6,-5.7835027E-6],"split_indices":[7,8,9,2,12,14,13,0,0,0,0,0,0,0,0],"split_type":[0,0,0,0,0,0,0,0,0,0,0,0,0,0,0],"sum_hessian":[2.112763E6,8.254E3,2.104509E6,5.138E3,3.116E3,5.0691E4,2.053818E6,2.96E3,2.178E3,1.778E3,1.338E3,2.7167E4,2.3524E4,1.231458E6,8.2236E5],"tree_param":{"num_deleted":"0","num_feature":"45","num_nodes":"15","size_leaf_vector":"1"}},{"base_weights":[3.318527E-10,7.5602005E-3,-2.9654766E-5,1.0724411E-2,-4.5391913E-3,-3.8252282E-3,7.962871E-5,3.5671746E-5,1.8515592E-4,-2.6873324E-5,-4.7940112E-4,-9.727134E-6,-7.037271E-5,5.180408E-6,-5.7256693E-6],"categories":[],"categories_nodes":[],"categories_segments":[],"categories_sizes":[],"default_left":[0,0,0,0,0,0,0,0,0,0,0,0,0,0,0],"id":5,"left_children":[1,3,5,7,9,11,13,-1,-1,-1,-1,-1,-1,-1,-1],"loss_changes":[4.736787E-1,3.1609166E-1,8.729373E-1,3.6484897E-1,1.3746867E-1,5.396402E-1,5.8490336E-1,0E0,0E0,0E0,0E0,0E0,0E0,0E0,0E0],"parents":[2147483647,0,0,1,1,2,2,3,3,4,4,5,5,6,6],"right_children":[2,4,6,8,10,12,14,-1,-1,-1,-1,-1,-1,-1,-1],"split_conditions":[-2.687299E0,-2.2387905E0,-1.8121221E0,-1.7248442E0,1E0,-1.3362162E0,3.9886135E-1,3.5671746E-5,1.8515592E-4,-2.6873324E-5,-4.7940112E-4,-9.727134E-6,-7.037271E-5,5.180408E-6,-5.7256693E-6],"split_indices":[7,6,9,3,22,14,13,0,0,0,0,0,0,0,0],"split_type":[0,0,0,0,0,0,0,0,0,0,0,0,0,0,0],"sum_hessian":[2.112763E6,8.254E3,2.104509E6,6.543E3,1.711E3,5.8897E4,2.045612E6,3.411E3,3.132E3,1.642E3,6.9E1,3.1195E4,2.7702E4,1.223299E6,8.22313E5],"tree_param":{"num_deleted":"0","num_feature":"45","num_nodes":"15","size_leaf_vector":"1"}},{"base_weights":[4.6090163E-12,7.4845636E-3,-2.9358409E-5,1.2284062E-2,-4.3077258E-4,-4.0892973E-3,7.0848306E-5,5.2552903E-5,2.1829682E-4,7.06311E-6,-3.4392657E-4,-1.0810012E-5,-7.5632735E-5,4.96691E-6,-5.6683743E-6],"categories":[],"categories_nodes":[],"categories_segments":[],"categories_sizes":[],"default_left":[0,0,0,0,0,0,0,0,0,0,0,0,0,0,0],"id":6,"left_children":[1,3,5,7,9,11,13,-1,-1,-1,-1,-1,-1,-1,-1],"loss_changes":[4.6424824E-1,3.1360975E-1,8.5618466E-1,3.446812E-1,1.2039505E-1,5.297614E-1,5.577227E-1,0E0,0E0,0E0,0E0,0E0,0E0,0E0,0E0],"parents":[2147483647,0,0,1,1,2,2,3,3,4,4,5,5,6,6],"right_children":[2,4,6,8,10,12,14,-1,-1,-1,-1,-1,-1,-1,-1],"split_conditions":[-2.687299E0,-2.7103422E0,-1.8734001E0,-1.7752388E0,1E0,-1.3362162E0,3.9886135E-1,5.2552903E-5,2.1829682E-4,7.06311E-6,-3.4392657E-4,-1.0810012E-5,-7.5632735E-5,4.96691E-6,-5.6683743E-6],"split_indices":[7,8,9,2,25,14,13,0,0,0,0,0,0,0,0],"split_type":[0,0,0,0,0,0,0,0,0,0,0,0,0,0,0],"sum_hessian":[2.112763E6,8.254E3,2.104509E6,5.138E3,3.116E3,5.0691E4,2.053818E6,2.96E3,2.178E3,3.016E3,1E2,2.7167E4,2.3524E4,1.231458E6,8.2236E5],"tree_param":{"num_deleted":"0","num_feature":"45","num_nodes":"15","size_leaf_vector":"1"}},{"base_weights":[6.098167E-11,7.40971E-3,-2.9064735E-5,1.0537523E-2,-4.5504645E-3,-3.7524665E-3,7.814076E-5,3.4722205E-5,1.822864E-4,-2.7180136E-5,-4.7495688E-4,-9.542138E-6,-6.903408E-5,5.0789345E-6,-5.6117287E-6],"categories":[],"categories_nodes":[],"categories_segments":[],"categories_sizes":[],"default_left":[0,0,0,0,0,0,0,0,0,0,0,0,0,0,0],"id":7,"left_children":[1,3,5,7,9,11,13,-1,-1,-1,-1,-1,-1,-1,-1],"loss_changes":[4.550087E-1,3.0886075E-1,8.4005564E-1,3.555383E-1,1.3459677E-1,5.193048E-1,5.6202585E-1,0E0,0E0,0E0,0E0,0E0,0E0,0E0,0E0],"parents":[2147483647,0,0,1,1,2,2,3,3,4,4,5,5,6,6],"right_children":[2,4,6,8,10,12,14,-1,-1,-1,-1,-1,-1,-1,-1],"split_conditions":[-2.687299E0,-2.2387905E0,-1.8121221E0,-1.7248442E0,1E0,-1.3362162E0,3.9886135E-1,3.4722205E-5,1.822864E-4,-2.7180136E-5,-4.7495688E-4,-9.542138E-6,-6.903408E-5,5.0789345E-6,-5.6117287E-6],"split_indices":[7,6,9,3,22,14,13,0,0,0,0,0,0,0,0],"split_type":[0,0,0,0,0,0,0,0,0,0,0,0,0,0,0],"sum_hessian":[2.112763E6,8.254E3,2.104509E6,6.543E3,1.711E3,5.8897E4,2.045612E6,3.411E3,3.132E3,1.642E3,6.9E1,3.1195E4,2.7702E4,1.223299E6,8.22313E5],"tree_param":{"num_deleted":"0","num_feature":"45","num_nodes":"15","size_leaf_vector":"1"}},{"base_weights":[-6.175615E-11,7.3355786E-3,-2.8774075E-5,1.2086223E-2,-4.9916556E-4,-4.0112566E-3,6.9520866E-5,1.6691598E-4,-2.2100134E-5,3.290964E-5,-1.05951985E-4,-1.0606496E-5,-7.418613E-5,4.8694187E-6,-5.555537E-6],"categories":[],"categories_nodes":[],"categories_segments":[],"categories_sizes":[],"default_left":[0,0,0,0,0,0,0,0,0,0,0,0,0,0,0],"id":8,"left_children":[1,3,5,7,9,11,13,-1,-1,-1,-1,-1,-1,-1,-1],"loss_changes":[4.4594982E-1,3.072578E-1,8.238273E-1,3.383863E-1,1.1930773E-1,5.096377E-1,5.3588116E-1,0E0,0E0,0E0,0E0,0E0,0E0,0E0,0E0],"parents":[2147483647,0,0,1,1,2,2,3,3,4,4,5,5,6,6],"right_children":[2,4,6,8,10,12,14,-1,-1,-1,-1,-1,-1,-1,-1],"split_conditions":[-2.687299E0,-2.7103422E0,-1.8734001E0,1E0,-1.3589671E0,-1.3362162E0,3.9886135E-1,1.6691598E-4,-2.2100134E-5,3.290964E-5,-1.05951985E-4,-1.0606496E-5,-7.418613E-5,4.8694187E-6,-5.555537E-6],"split_indices":[7,8,9,40,12,14,13,0,0,0,0,0,0,0,0],"split_type":[0,0,0,0,0,0,0,0,0,0,0,0,0,0,0],"sum_hessian":[2.112763E6,8.254E3,2.104509E6,5.138E3,3.116E3,5.0691E4,2.053818E6,3.886E3,1.252E3,2.266E3,8.5E2,2.7167E4,2.3524E4,1.231458E6,8.2236E5],"tree_param":{"num_deleted":"0","num_feature":"45","num_nodes":"15","size_leaf_vector":"1"}},{"base_weights":[-1.3661289E-10,7.2622313E-3,-2.8486445E-5,1.1965389E-2,-4.941973E-4,-3.6810911E-3,7.668063E-5,5.0390227E-5,2.1371999E-4,6.31436E-6,-3.411342E-4,-9.360645E-6,-6.772098E-5,4.9794503E-6,-5.5000564E-6],"categories":[],"categories_nodes":[],"categories_segments":[],"categories_sizes":[],"default_left":[0,0,0,0,0,0,0,0,0,0,0,0,0,0,0],"id":9,"left_children":[1,3,5,7,9,11,13,-1,-1,-1,-1,-1,-1,-1,-1],"loss_changes":[4.370765E-1,3.0114588E-1,8.0841357E-1,3.3471686E-1,1.1797791E-1,4.9973714E-1,5.400434E-1,0E0,0E0,0E0,0E0,0E0,0E0,0E0,0E0],"parents":[2147483647,0,0,1,1,2,2,3,3,4,4,5,5,6,6],"right_children":[2,4,6,8,10,12,14,-1,-1,-1,-1,-1,-1,-1,-1],"split_conditions":[-2.687299E0,-2.7103422E0,-1.8121221E0,-1.7752388E0,1E0,-1.3362162E0,3.9886135E-1,5.0390227E-5,2.1371999E-4,6.31436E-6,-3.411342E-4,-9.360645E-6,-6.772098E-5,4.9794503E-6,-5.5000564E-6],"split_indices":[7,8,9,2,25,14,13,0,0,0,0,0,0,0,0],"split_type":[0,0,0,0,0,0,0,0,0,0,0,0,0,0,0],"sum_hessian":[2.112763E6,8.254E3,2.104509E6,5.138E3,3.116E3,5.8897E4,2.045612E6,2.96E3,2.178E3,3.016E3,1E2,3.1195E4,2.7702E4,1.223299E6,8.22313E5],"tree_param":{"num_deleted":"0","num_feature":"45","num_nodes":"15","size_leaf_vector":"1"}},{"base_weights":[-2.5338973E-10,7.1896007E-3,-2.8201666E-5,1.0268423E-2,-4.5831786E-3,-3.934703E-3,6.8217916E-5,3.2821903E-5,1.7873514E-4,-2.7700806E-5,-4.70737E-4,-1.0406835E-5,-7.276712E-5,4.7738363E-6,-5.444946E-6],"categories":[],"categories_nodes":[],"categories_segments":[],"categories_sizes":[],"default_left":[0,0,0,0,0,0,0,0,0,0,0,0,0,0,0],"id":10,"left_children":[1,3,5,7,9,11,13,-1,-1,-1,-1,-1,-1,-1,-1],"loss_changes":[4.2837772E-1,2.9926014E-1,7.9269177E-1,3.476302E-1,1.3176116E-1,4.9027735E-1,5.148946E-1,0E0,0E0,0E0,0E0,0E0,0E0,0E0,0E0],"parents":[2147483647,0,0,1,1,2,2,3,3,4,4,5,5,6,6],"right_children":[2,4,6,8,10,12,14,-1,-1,-1,-1,-1,-1,-1,-1],"split_conditions":[-2.687299E0,-2.2387905E0,-1.8734001E0,-1.7248442E0,1E0,-1.3362162E0,3.9886135E-1,3.2821903E-5,1.7873514E-4,-2.7700806E-5,-4.70737E-4,-1.0406835E-5,-7.276712E-5,4.7738363E-6,-5.444946E-6],"split_indices":[7,6,9,3,22,14,13,0,0,0,0,0,0,0,0],"split_type":[0,0,0,0,0,0,0,0,0,0,0,0,0,0,0],"sum_hessian":[2.112763E6,8.254E3,2.104509E6,6.543E3,1.711E3,5.0691E4,2.053818E6,3.411E3,3.132E3,1.642E3,6.9E1,2.7167E4,2.3524E4,1.231458E6,8.2236E5],"tree_param":{"num_deleted":"0","num_feature":"45","num_nodes":"15","size_leaf_vector":"1"}},{"base_weights":[-3.837576E-10,7.1176696E-3,-2.7919645E-5,1.1772987E-2,-5.5984076E-4,-3.6110748E-3,7.5247815E-5,1.6328081E-4,-2.367012E-5,3.6174963E-5,-9.6052216E-5,-9.182577E-6,-6.643292E-5,4.8819184E-6,-5.3906065E-6],"categories":[],"categories_nodes":[],"categories_segments":[],"categories_sizes":[],"default_left":[0,0,0,0,0,0,0,0,0,0,0,0,0,0,0],"id":11,"left_children":[1,3,5,7,9,11,13,-1,-1,-1,-1,-1,-1,-1,-1],"loss_changes":[4.1984883E-1,2.9505062E-1,7.77964E-1,3.3103657E-1,1.17812485E-1,4.8090822E-1,5.189212E-1,0E0,0E0,0E0,0E0,0E0,0E0,0E0,0E0],"parents":[2147483647,0,0,1,1,2,2,3,3,4,4,5,5,6,6],"right_children":[2,4,6,8,10,12,14,-1,-1,-1,-1,-1,-1,-1,-1],"split_conditions":[-2.687299E0,-2.7103422E0,-1.8121221E0,1E0,-1.6446917E0,-1.3362162E0,3.9886135E-1,1.6328081E-4,-2.367012E-5,3.6174963E-5,-9.6052216E-5,-9.182577E-6,-6.643292E-5,4.8819184E-6,-5.3906065E-6],"split_indices":[7,8,9,40,1,14,13,0,0,0,0,0,0,0,0],"split_type":[0,0,0,0,0,0,0,0,0,0,0,0,0,0,0],"sum_hessian":[2.112763E6,8.254E3,2.104509E6,5.138E3,3.116E3,5.8897E4,2.045612E6,3.886E3,1.252E3,2.132E3,9.84E2,3.1195E4,2.7702E4,1.223299E6,8.22313E5],"tree_param":{"num_deleted":"0","num_feature":"45","num_nodes":"15","size_leaf_vector":"1"}},{"base_weights":[-3.2921493E-10,7.0465025E-3,-2.7640435E-5,1.0085211E-2,-4.5728646E-3,-3.8596073E-3,6.693951E-5,3.1559804E-5,1.7628283E-4,-2.7773985E-5,-4.6649695E-4,-1.0210945E-5,-7.137518E-5,4.6801333E-6,-5.336556E-6],"categories":[],"categories_nodes":[],"categories_segments":[],"categories_sizes":[],"default_left":[0,0,0,0,0,0,0,0,0,0,0,0,0,0,0],"id":12,"left_children":[1,3,5,7,9,11,13,-1,-1,-1,-1,-1,-1,-1,-1],"loss_changes":[4.1149497E-1,2.915126E-1,7.6273197E-1,3.4198427E-1,1.292078E-1,4.7165096E-1,4.9473035E-1,0E0,0E0,0E0,0E0,0E0,0E0,0E0,0E0],"parents":[2147483647,0,0,1,1,2,2,3,3,4,4,5,5,6,6],"right_children":[2,4,6,8,10,12,14,-1,-1,-1,-1,-1,-1,-1,-1],"split_conditions":[-2.687299E0,-2.2387905E0,-1.8734001E0,-1.7248442E0,1E0,-1.3362162E0,3.9886135E-1,3.1559804E-5,1.7628283E-4,-2.7773985E-5,-4.6649695E-4,-1.0210945E-5,-7.137518E-5,4.6801333E-6,-5.336556E-6],"split_indices":[7,6,9,3,22,14,13,0,0,0,0,0,0,0,0],"split_type":[0,0,0,0,0,0,0,0,0,0,0,0,0,0,0],"sum_hessian":[2.112763E6,8.254E3,2.104509E6,6.543E3,1.711E3,5.0691E4,2.053818E6,3.411E3,3.132E3,1.642E3,6.9E1,2.7167E4,2.3524E4,1.231458E6,8.2236E5],"tree_param":{"num_deleted":"0","num_feature":"45","num_nodes":"15","size_leaf_vector":"1"}},{"base_weights":[-6.1521943E-10,-3.9145063E-5,4.951081E-3,2.990416E-4,-7.1520044E-4,3.6148606E-3,2.8833043E-2,-2.1413105E-5,4.5231122E-6,-8.422908E-6,1.2443078E-5,4.3979846E-5,-2.9212497E-5,8.17072E-5,5.442927E-4],"categories":[],"categories_nodes":[],"categories_segments":[],"categories_sizes":[],"default_left":[0,0,0,0,0,0,0,0,0,0,0,0,0,0,0],"id":13,"left_children":[1,3,5,7,9,11,13,-1,-1,-1,-1,-1,-1,-1,-1],"loss_changes":[4.0946937E-1,4.792587E-1,5.2876616E-1,5.2261436E-1,1.7406386E-1,8.0354184E-2,4.6390963E-1,0E0,0E0,0E0,0E0,0E0,0E0,0E0,0E0],"parents":[2147483647,0,0,1,1,2,2,3,3,4,4,5,5,6,6],"right_children":[2,4,6,8,10,12,14,-1,-1,-1,-1,-1,-1,-1,-1],"split_conditions":[2.6055074E0,5.626487E-1,1E0,-1.7092422E0,1.9795493E0,1E0,2.949924E0,-2.1413105E-5,4.5231122E-6,-8.422908E-6,1.2443078E-5,4.3979846E-5,-2.9212497E-5,8.17072E-5,5.442927E-4],"split_indices":[7,14,35,9,6,40,8,0,0,0,0,0,0,0,0],"split_type":[0,0,0,0,0,0,0,0,0,0,0,0,0,0,0],"sum_hessian":[2.112763E6,2.096191E6,1.6572E4,1.397242E6,6.98949E5,1.5695E4,8.77E2,8.2569E4,1.314673E6,6.56378E5,4.2571E4,1.4016E4,1.679E3,4.86E2,3.91E2],"tree_param":{"num_deleted":"0","num_feature":"45","num_nodes":"15","size_leaf_vector":"1"}},{"base_weights":[-2.3769303E-10,6.994441E-3,-2.7436132E-5,1.1604993E-2,-6.092228E-4,-3.52098E-3,7.3151205E-5,1.6111323E-4,-2.3836024E-5,3.5280467E-5,-9.567789E-5,-8.793751E-6,-6.4955304E-5,4.7449475E-6,-5.239001E-6],"categories":[],"categories_nodes":[],"categories_segments":[],"categories_sizes":[],"default_left":[0,0,0,0,0,0,0,0,0,0,0,0,0,0,0],"id":14,"left_children":[1,3,5,7,9,11,13,-1,-1,-1,-1,-1,-1,-1,-1],"loss_changes":[4.0543696E-1,2.8940332E-1,7.3953825E-1,3.239867E-1,1.1556225E-1,4.6279055E-1,4.9017555E-1,0E0,0E0,0E0,0E0,0E0,0E0,0E0,0E0],"parents":[2147483647,0,0,1,1,2,2,3,3,4,4,5,5,6,6],"right_children":[2,4,6,8,10,12,14,-1,-1,-1,-1,-1,-1,-1,-1],"split_conditions":[-2.687299E0,-2.7103422E0,-1.8121221E0,1E0,-1.6446917E0,-1.3362162E0,3.9886135E-1,1.6111323E-4,-2.3836024E-5,3.5280467E-5,-9.567789E-5,-8.793751E-6,-6.4955304E-5,4.7449475E-6,-5.239001E-6],"split_indices":[7,8,9,40,1,14,13,0,0,0,0,0,0,0,0],"split_type":[0,0,0,0,0,0,0,0,0,0,0,0,0,0,0],"sum_hessian":[2.112763E6,8.254E3,2.104509E6,5.138E3,3.116E3,5.8897E4,2.045612E6,3.886E3,1.252E3,2.132E3,9.84E2,3.1195E4,2.7702E4,1.223299E6,8.22313E5],"tree_param":{"num_deleted":"0","num_feature":"45","num_nodes":"15","size_leaf_vector":"1"}},{"base_weights":[-3.2957265E-10,-3.8795042E-5,4.906846E-3,2.933976E-4,-7.0286804E-4,3.5839502E-3,2.8550658E-2,-2.1027017E-5,4.4388785E-6,-8.059763E-6,1.7104641E-5,4.3592452E-5,-2.8868186E-5,8.094408E-5,5.389158E-4],"categories":[],"categories_nodes":[],"categories_segments":[],"categories_sizes":[],"default_left":[0,0,0,0,0,0,0,0,0,0,0,0,0,0,0],"id":15,"left_children":[1,3,5,7,9,11,13,-1,-1,-1,-1,-1,-1,-1,-1],"loss_changes":[4.021853E-1,4.6242046E-1,5.182729E-1,5.0383216E-1,1.739243E-1,7.875556E-2,4.547016E-1,0E0,0E0,0E0,0E0,0E0,0E0,0E0,0E0],"parents":[2147483647,0,0,1,1,2,2,3,3,4,4,5,5,6,6],"right_children":[2,4,6,8,10,12,14,-1,-1,-1,-1,-1,-1,-1,-1],"split_conditions":[2.6055074E0,5.626487E-1,1E0,-1.7092422E0,1E0,1E0,2.949924E0,-2.1027017E-5,4.4388785E-6,-8.059763E-6,1.7104641E-5,4.3592452E-5,-2.8868186E-5,8.094408E-5,5.389158E-4],"split_indices":[7,14,35,9,36,40,8,0,0,0,0,0,0,0,0],"split_type":[0,0,0,0,0,0,0,0,0,0,0,0,0,0,0],"sum_hessian":[2.112763E6,2.096191E6,1.6572E4,1.397242E6,6.98949E5,1.5695E4,8.77E2,8.2569E4,1.314673E6,6.70311E5,2.8638E4,1.4016E4,1.679E3,4.86E2,3.91E2],"tree_param":{"num_deleted":"0","num_feature":"45","num_nodes":"15","size_leaf_vector":"1"}},{"base_weights":[-3.1372197E-11,6.942612E-3,-2.7232625E-5,9.943412E-3,-4.531788E-3,-3.7437188E-3,6.449705E-5,3.07367E-5,1.7421742E-4,-2.7537739E-5,-4.619958E-4,-9.596521E-6,-6.958757E-5,4.5100487E-6,-5.1428597E-6],"categories":[],"categories_nodes":[],"categories_segments":[],"categories_sizes":[],"default_left":[0,0,0,0,0,0,0,0,0,0,0,0,0,0,0],"id":16,"left_children":[1,3,5,7,9,11,13,-1,-1,-1,-1,-1,-1,-1,-1],"loss_changes":[3.9945063E-1,2.8428432E-1,7.1745306E-1,3.361392E-1,1.2670788E-1,4.5373142E-1,4.594481E-1,0E0,0E0,0E0,0E0,0E0,0E0,0E0,0E0],"parents":[2147483647,0,0,1,1,2,2,3,3,4,4,5,5,6,6],"right_children":[2,4,6,8,10,12,14,-1,-1,-1,-1,-1,-1,-1,-1],"split_conditions":[-2.687299E0,-2.2387905E0,-1.8734001E0,-1.7248442E0,1E0,-1.3362162E0,3.9886135E-1,3.07367E-5,1.7421742E-4,-2.7537739E-5,-4.619958E-4,-9.596521E-6,-6.958757E-5,4.5100487E-6,-5.1428597E-6],"split_indices":[7,6,9,3,22,14,13,0,0,0,0,0,0,0,0],"split_type":[0,0,0,0,0,0,0,0,0,0,0,0,0,0,0],"sum_hessian":[2.112763E6,8.254E3,2.104509E6,6.543E3,1.711E3,5.0691E4,2.053818E6,3.411E3,3.132E3,1.642E3,6.9E1,2.7167E4,2.3524E4,1.231458E6,8.2236E5],"tree_param":{"num_deleted":"0","num_feature":"45","num_nodes":"15","size_leaf_vector":"1"}},{"base_weights":[-1.698313E-10,-3.8447884E-5,4.862957E-3,2.8785804E-4,-6.9075293E-4,3.553253E-3,2.8270995E-2,-2.06621E-5,4.3570844E-6,-8.28286E-6,1.0842068E-5,4.3207965E-5,-2.8528277E-5,8.018762E-5,5.335918E-4],"categories":[],"categories_nodes":[],"categories_segments":[],"categories_sizes":[],"default_left":[0,0,0,0,0,0,0,0,0,0,0,0,0,0,0],"id":17,"left_children":[1,3,5,7,9,11,13,-1,-1,-1,-1,-1,-1,-1,-1],"loss_changes":[3.9502284E-1,4.4617677E-1,5.079881E-1,4.8631132E-1,1.7062551E-1,7.7188745E-2,4.4567662E-1,0E0,0E0,0E0,0E0,0E0,0E0,0E0,0E0],"parents":[2147483647,0,0,1,1,2,2,3,3,4,4,5,5,6,6],"right_children":[2,4,6,8,10,12,14,-1,-1,-1,-1,-1,-1,-1,-1],"split_conditions":[2.6055074E0,5.626487E-1,1E0,-1.7092422E0,1.9098653E0,1E0,2.949924E0,-2.06621E-5,4.3570844E-6,-8.28286E-6,1.0842068E-5,4.3207965E-5,-2.8528277E-5,8.018762E-5,5.335918E-4],"split_indices":[7,14,35,9,6,40,8,0,0,0,0,0,0,0,0],"split_type":[0,0,0,0,0,0,0,0,0,0,0,0,0,0,0],"sum_hessian":[2.112763E6,2.096191E6,1.6572E4,1.397242E6,6.98949E5,1.5695E4,8.77E2,8.2569E4,1.314673E6,6.48686E5,5.0263E4,1.4016E4,1.679E3,4.86E2,3.91E2],"tree_param":{"num_deleted":"0","num_feature":"45","num_nodes":"15","size_leaf_vector":"1"}},{"base_weights":[2.542632E-10,6.890944E-3,-2.7029668E-5,1.1459664E-2,-6.4371916E-4,-3.6856222E-3,6.327108E-5,4.6966266E-5,2.0644563E-4,4.688235E-6,-3.3870427E-4,-9.293949E-6,-6.868512E-5,6.1821133E-6,-3.2956102E-6],"categories":[],"categories_nodes":[],"categories_segments":[],"categories_sizes":[],"default_left":[0,0,0,0,0,0,0,0,0,0,0,0,0,0,0],"id":18,"left_children":[1,3,5,7,9,11,13,-1,-1,-1,-1,-1,-1,-1,-1],"loss_changes":[3.9352715E-1,2.8417563E-1,6.952749E-1,3.191265E-1,1.15239315E-1,4.4470286E-1,4.4772935E-1,0E0,0E0,0E0,0E0,0E0,0E0,0E0,0E0],"parents":[2147483647,0,0,1,1,2,2,3,3,4,4,5,5,6,6],"right_children":[2,4,6,8,10,12,14,-1,-1,-1,-1,-1,-1,-1,-1],"split_conditions":[-2.687299E0,-2.7103422E0,-1.8734001E0,-1.7752388E0,1E0,-1.3362162E0,-1.7513579E-1,4.6966266E-5,2.0644563E-4,4.688235E-6,-3.3870427E-4,-9.293949E-6,-6.868512E-5,6.1821133E-6,-3.2956102E-6],"split_indices":[7,8,9,2,25,14,2,0,0,0,0,0,0,0,0],"split_type":[0,0,0,0,0,0,0,0,0,0,0,0,0,0,0],"sum_hessian":[2.112763E6,8.254E3,2.104509E6,5.138E3,3.116E3,5.0691E4,2.053818E6,2.96E3,2.178E3,3.016E3,1E2,2.7167E4,2.3524E4,8.51265E5,1.202553E6],"tree_param":{"num_deleted":"0","num_feature":"45","num_nodes":"15","size_leaf_vector":"1"}},{"base_weights":[2.8571229E-11,-3.808956E-5,4.817661E-3,2.8335623E-4,-6.8067893E-4,3.5210168E-3,2.7992276E-2,-2.0314445E-5,4.2874044E-6,-7.827497E-6,1.7083694E-5,4.2808875E-5,-2.8210228E-5,7.942029E-5,5.283023E-4],"categories":[],"categories_nodes":[],"categories_segments":[],"categories_sizes":[],"default_left":[0,0,0,0,0,0,0,0,0,0,0,0,0,0,0],"id":19,"left_children":[1,3,5,7,9,11,13,-1,-1,-1,-1,-1,-1,-1,-1],"loss_changes":[3.8769817E-1,4.3298468E-1,4.9790743E-1,4.7022274E-1,1.7044175E-1,7.5653136E-2,4.3683076E-1,0E0,0E0,0E0,0E0,0E0,0E0,0E0,0E0],"parents":[2147483647,0,0,1,1,2,2,3,3,4,4,5,5,6,6],"right_children":[2,4,6,8,10,12,14,-1,-1,-1,-1,-1,-1,-1,-1],"split_conditions":[2.6055074E0,5.626487E-1,1E0,-1.7092422E0,1E0,1E0,2.949924E0,-2.0314445E-5,4.2874044E-6,-7.827497E-6,1.7083694E-5,4.2808875E-5,-2.8210228E-5,7.942029E-5,5.283023E-4],"split_indices":[7,14,35,9,36,40,8,0,0,0,0,0,0,0,0],"split_type":[0,0,0,0,0,0,0,0,0,0,0,0,0,0,0],"sum_hessian":[2.112763E6,2.096191E6,1.6572E4,1.397242E6,6.98949E5,1.5695E4,8.77E2,8.2569E4,1.314673E6,6.70311E5,2.8638E4,1.4016E4,1.679E3,4.86E2,3.91E2],"tree_param":{"num_deleted":"0","num_feature":"45","num_nodes":"15","size_leaf_vector":"1"}},{"base_weights":[3.5512157E-10,6.8395175E-3,-2.6827845E-5,1.1365059E-2,-6.2394E-4,-3.6284537E-3,6.2066865E-5,1.5821923E-4,-2.4698977E-5,4.628853E-5,-7.602353E-5,-8.997875E-6,-6.7795176E-5,6.085364E-6,-3.24769E-6],"categories":[],"categories_nodes":[],"categories_segments":[],"categories_sizes":[],"default_left":[0,0,0,0,0,0,0,0,0,0,0,0,0,0,0],"id":20,"left_children":[1,3,5,7,9,11,13,-1,-1,-1,-1,-1,-1,-1,-1],"loss_changes":[3.8767532E-1,2.7882954E-1,6.7379177E-1,3.169126E-1,1.1429244E-1,4.3585384E-1,4.3416524E-1,0E0,0E0,0E0,0E0,0E0,0E0,0E0,0E0],"parents":[2147483647,0,0,1,1,2,2,3,3,4,4,5,5,6,6],"right_children":[2,4,6,8,10,12,14,-1,-1,-1,-1,-1,-1,-1,-1],"split_conditions":[-2.687299E0,-2.7103422E0,-1.8734001E0,1E0,-1.5851817E0,-1.3362162E0,-1.7513579E-1,1.5821923E-4,-2.4698977E-5,4.628853E-5,-7.602353E-5,-8.997875E-6,-6.7795176E-5,6.085364E-6,-3.24769E-6],"split_indices":[7,8,9,40,12,14,2,0,0,0,0,0,0,0,0],"split_type":[0,0,0,0,0,0,0,0,0,0,0,0,0,0,0],"sum_hessian":[2.112763E6,8.254E3,2.104509E6,5.138E3,3.116E3,5.0691E4,2.053818E6,3.886E3,1.252E3,1.778E3,1.338E3,2.7167E4,2.3524E4,8.51265E5,1.202553E6],"tree_param":{"num_deleted":"0","num_feature":"45","num_nodes":"15","size_leaf_vector":"1"}},{"base_weights":[4.1574955E-10,-3.7734248E-5,4.7727698E-3,3.1645977E-4,-6.04775E-4,3.489055E-3,2.7716288E-2,-1.9793384E-5,4.7281924E-6,-7.3563306E-6,1.2945191E-5,4.2413292E-5,-2.7895838E-5,7.866013E-5,5.2306516E-4],"categories":[],"categories_nodes":[],"categories_segments":[],"categories_sizes":[],"default_left":[0,0,0,0,0,0,0,0,0,0,0,0,0,0,0],"id":21,"left_children":[1,3,5,7,9,11,13,-1,-1,-1,-1,-1,-1,-1,-1],"loss_changes":[3.8050652E-1,4.210045E-1,4.8802668E-1,4.6316317E-1,2.0030743E-1,7.414806E-2,4.2816043E-1,0E0,0E0,0E0,0E0,0E0,0E0,0E0,0E0],"parents":[2147483647,0,0,1,1,2,2,3,3,4,4,5,5,6,6],"right_children":[2,4,6,8,10,12,14,-1,-1,-1,-1,-1,-1,-1,-1],"split_conditions":[2.6055074E0,3.9886135E-1,1E0,-1.7092422E0,1.9098653E0,1E0,2.949924E0,-1.9793384E-5,4.7281924E-6,-7.3563306E-6,1.2945191E-5,4.2413292E-5,-2.7895838E-5,7.866013E-5,5.2306516E-4],"split_indices":[7,13,35,9,6,40,8,0,0,0,0,0,0,0,0],"split_type":[0,0,0,0,0,0,0,0,0,0,0,0,0,0,0],"sum_hessian":[2.112763E6,2.096191E6,1.6572E4,1.290253E6,8.05938E5,1.5695E4,8.77E2,8.2271E4,1.207982E6,7.5399E5,5.1948E4,1.4016E4,1.679E3,4.86E2,3.91E2],"tree_param":{"num_deleted":"0","num_feature":"45","num_nodes":"15","size_leaf_vector":"1"}},{"base_weights":[6.40153E-10,6.788116E-3,-2.6625934E-5,9.744679E-3,-4.5171017E-3,-3.3110417E-3,6.794012E-5,2.9553825E-5,1.7135465E-4,-2.757598E-5,-4.5750636E-4,-7.666653E-6,-6.176112E-5,6.1892874E-6,-3.1867637E-6],"categories":[],"categories_nodes":[],"categories_segments":[],"categories_sizes":[],"default_left":[0,0,0,0,0,0,0,0,0,0,0,0,0,0,0],"id":22,"left_children":[1,3,5,7,9,11,13,-1,-1,-1,-1,-1,-1,-1,-1],"loss_changes":[3.8187015E-1,2.7596396E-1,6.536489E-1,3.2831568E-1,1.2408039E-1,4.2935103E-1,4.357593E-1,0E0,0E0,0E0,0E0,0E0,0E0,0E0,0E0],"parents":[2147483647,0,0,1,1,2,2,3,3,4,4,5,5,6,6],"right_children":[2,4,6,8,10,12,14,-1,-1,-1,-1,-1,-1,-1,-1],"split_conditions":[-2.687299E0,-2.2387905E0,-1.8121221E0,-1.7248442E0,1E0,-1.3362162E0,-1.7513579E-1,2.9553825E-5,1.7135465E-4,-2.757598E-5,-4.5750636E-4,-7.666653E-6,-6.176112E-5,6.1892874E-6,-3.1867637E-6],"split_indices":[7,6,9,3,22,14,2,0,0,0,0,0,0,0,0],"split_type":[0,0,0,0,0,0,0,0,0,0,0,0,0,0,0],"sum_hessian":[2.112763E6,8.254E3,2.104509E6,6.543E3,1.711E3,5.8897E4,2.045612E6,3.411E3,3.132E3,1.642E3,6.9E1,3.1195E4,2.7702E4,8.43497E5,1.202115E6],"tree_param":{"num_deleted":"0","num_feature":"45","num_nodes":"15","size_leaf_vector":"1"}},{"base_weights":[4.0123188E-10,6.7202E-3,-2.6359772E-5,1.1202207E-2,-6.71443E-4,-3.5396458E-3,6.0354552E-5,1.5611376E-4,-2.4846613E-5,4.3004106E-6,-3.3567543E-4,-8.633308E-6,-6.630255E-5,5.928164E-6,-3.165655E-6],"categories":[],"categories_nodes":[],"categories_segments":[],"categories_sizes":[],"default_left":[0,0,0,0,0,0,0,0,0,0,0,0,0,0,0],"id":23,"left_children":[1,3,5,7,9,11,13,-1,-1,-1,-1,-1,-1,-1,-1],"loss_changes":[3.7426707E-1,2.7349064E-1,6.411439E-1,3.1016576E-1,1.1295747E-1,4.192903E-1,4.1219252E-1,0E0,0E0,0E0,0E0,0E0,0E0,0E0,0E0],"parents":[2147483647,0,0,1,1,2,2,3,3,4,4,5,5,6,6],"right_children":[2,4,6,8,10,12,14,-1,-1,-1,-1,-1,-1,-1,-1],"split_conditions":[-2.687299E0,-2.7103422E0,-1.8734001E0,1E0,1E0,-1.3362162E0,-1.7513579E-1,1.5611376E-4,-2.4846613E-5,4.3004106E-6,-3.3567543E-4,-8.633308E-6,-6.630255E-5,5.928164E-6,-3.165655E-6],"split_indices":[7,8,9,40,25,14,2,0,0,0,0,0,0,0,0],"split_type":[0,0,0,0,0,0,0,0,0,0,0,0,0,0,0],"sum_hessian":[2.112763E6,8.254E3,2.104509E6,5.138E3,3.116E3,5.0691E4,2.053818E6,3.886E3,1.252E3,3.016E3,1E2,2.7167E4,2.3524E4,8.51265E5,1.202553E6],"tree_param":{"num_deleted":"0","num_feature":"45","num_nodes":"15","size_leaf_vector":"1"}},{"base_weights":[3.728094E-10,-3.7407463E-5,4.731431E-3,2.7344786E-4,-6.5882585E-4,3.4605174E-3,2.7446156E-2,-1.8383958E-5,4.202917E-6,-7.5987004E-6,1.7061933E-5,4.2052707E-5,-2.7553557E-5,7.793853E-5,5.179112E-4],"categories":[],"categories_nodes":[],"categories_segments":[],"categories_sizes":[],"default_left":[0,0,0,0,0,0,0,0,0,0,0,0,0,0,0],"id":24,"left_children":[1,3,5,7,9,11,13,-1,-1,-1,-1,-1,-1,-1,-1],"loss_changes":[3.739437E-1,4.0492415E-1,4.783419E-1,4.3330148E-1,1.6703036E-1,7.267293E-2,4.19662E-1,0E0,0E0,0E0,0E0,0E0,0E0,0E0,0E0],"parents":[2147483647,0,0,1,1,2,2,3,3,4,4,5,5,6,6],"right_children":[2,4,6,8,10,12,14,-1,-1,-1,-1,-1,-1,-1,-1],"split_conditions":[2.6055074E0,5.626487E-1,1E0,-1.6643828E0,1E0,1E0,2.949924E0,-1.8383958E-5,4.202917E-6,-7.5987004E-6,1.7061933E-5,4.2052707E-5,-2.7553557E-5,7.793853E-5,5.179112E-4],"split_indices":[7,14,35,9,36,40,8,0,0,0,0,0,0,0,0],"split_type":[0,0,0,0,0,0,0,0,0,0,0,0,0,0,0],"sum_hessian":[2.112763E6,2.096191E6,1.6572E4,1.397242E6,6.98949E5,1.5695E4,8.77E2,9.0838E4,1.306404E6,6.70311E5,2.8638E4,1.4016E4,1.679E3,4.86E2,3.91E2],"tree_param":{"num_deleted":"0","num_feature":"45","num_nodes":"15","size_leaf_vector":"1"}},{"base_weights":[6.4624467E-10,6.6689425E-3,-2.6158466E-5,9.588653E-3,-4.4953437E-3,-3.229844E-3,6.6083165E-5,2.8593271E-5,1.6914179E-4,-2.7528482E-5,-4.5329984E-4,-7.338616E-6,-6.040421E-5,6.0334846E-6,-3.1090397E-6],"categories":[],"categories_nodes":[],"categories_segments":[],"categories_sizes":[],"default_left":[0,0,0,0,0,0,0,0,0,0,0,0,0,0,0],"id":25,"left_children":[1,3,5,7,9,11,13,-1,-1,-1,-1,-1,-1,-1,-1],"loss_changes":[3.6857945E-1,2.6912713E-1,6.219107E-1,3.2254368E-1,1.2169115E-1,4.131739E-1,4.1432297E-1,0E0,0E0,0E0,0E0,0E0,0E0,0E0,0E0],"parents":[2147483647,0,0,1,1,2,2,3,3,4,4,5,5,6,6],"right_children":[2,4,6,8,10,12,14,-1,-1,-1,-1,-1,-1,-1,-1],"split_conditions":[-2.687299E0,-2.2387905E0,-1.8121221E0,-1.7248442E0,1E0,-1.3362162E0,-1.7513579E-1,2.8593271E-5,1.6914179E-4,-2.7528482E-5,-4.5329984E-4,-7.338616E-6,-6.040421E-5,6.0334846E-6,-3.1090397E-6],"split_indices":[7,6,9,3,22,14,2,0,0,0,0,0,0,0,0],"split_type":[0,0,0,0,0,0,0,0,0,0,0,0,0,0,0],"sum_hessian":[2.112763E6,8.254E3,2.104509E6,6.543E3,1.711E3,5.8897E4,2.045612E6,3.411E3,3.132E3,1.642E3,6.9E1,3.1195E4,2.7702E4,8.43497E5,1.202115E6],"tree_param":{"num_deleted":"0","num_feature":"45","num_nodes":"15","size_leaf_vector":"1"}},{"base_weights":[4.2206136E-10,-3.7058206E-5,4.6872627E-3,2.6918322E-4,-6.4925314E-4,3.4290222E-3,2.7175479E-2,-1.806008E-5,4.1347844E-6,-7.727239E-6,1.2544456E-5,4.1663297E-5,-2.7247115E-5,7.719178E-5,5.127763E-4],"categories":[],"categories_nodes":[],"categories_segments":[],"categories_sizes":[],"default_left":[0,0,0,0,0,0,0,0,0,0,0,0,0,0,0],"id":26,"left_children":[1,3,5,7,9,11,13,-1,-1,-1,-1,-1,-1,-1,-1],"loss_changes":[3.6699468E-1,3.9299303E-1,4.6884948E-1,4.1839153E-1,1.6428998E-1,7.122718E-2,4.1133243E-1,0E0,0E0,0E0,0E0,0E0,0E0,0E0,0E0],"parents":[2147483647,0,0,1,1,2,2,3,3,4,4,5,5,6,6],"right_children":[2,4,6,8,10,12,14,-1,-1,-1,-1,-1,-1,-1,-1],"split_conditions":[2.6055074E0,5.626487E-1,1E0,-1.6643828E0,1.9795493E0,1E0,2.949924E0,-1.806008E-5,4.1347844E-6,-7.727239E-6,1.2544456E-5,4.1663297E-5,-2.7247115E-5,7.719178E-5,5.127763E-4],"split_indices":[7,14,35,9,6,40,8,0,0,0,0,0,0,0,0],"split_type":[0,0,0,0,0,0,0,0,0,0,0,0,0,0,0],"sum_hessian":[2.112763E6,2.096191E6,1.6572E4,1.397242E6,6.98949E5,1.5695E4,8.77E2,9.0838E4,1.306404E6,6.56378E5,4.2571E4,1.4016E4,1.679E3,4.86E2,3.91E2],"tree_param":{"num_deleted":"0","num_feature":"45","num_nodes":"15","size_leaf_vector":"1"}},{"base_weights":[7.636467E-10,6.6179056E-3,-2.5958154E-5,1.1058619E-2,-7.0562604E-4,-3.4358443E-3,5.8204074E-5,4.426051E-5,2.006641E-4,3.3784865E-5,-9.5489835E-5,-8.109168E-6,-6.467113E-5,5.7474763E-6,-3.074477E-6],"categories":[],"categories_nodes":[],"categories_segments":[],"categories_sizes":[],"default_left":[0,0,0,0,0,0,0,0,0,0,0,0,0,0,0],"id":27,"left_children":[1,3,5,7,9,11,13,-1,-1,-1,-1,-1,-1,-1,-1],"loss_changes":[3.629596E-1,2.6847452E-1,6.039601E-1,3.0693966E-1,1.12609796E-1,4.0334392E-1,3.879154E-1,0E0,0E0,0E0,0E0,0E0,0E0,0E0,0E0],"parents":[2147483647,0,0,1,1,2,2,3,3,4,4,5,5,6,6],"right_children":[2,4,6,8,10,12,14,-1,-1,-1,-1,-1,-1,-1,-1],"split_conditions":[-2.687299E0,-2.7103422E0,-1.8734001E0,-1.7752388E0,-1.6446917E0,-1.3362162E0,-1.7513579E-1,4.426051E-5,2.006641E-4,3.3784865E-5,-9.5489835E-5,-8.109168E-6,-6.467113E-5,5.7474763E-6,-3.074477E-6],"split_indices":[7,8,9,2,1,14,2,0,0,0,0,0,0,0,0],"split_type":[0,0,0,0,0,0,0,0,0,0,0,0,0,0,0],"sum_hessian":[2.112763E6,8.254E3,2.104509E6,5.138E3,3.116E3,5.0691E4,2.053818E6,2.96E3,2.178E3,2.132E3,9.84E2,2.7167E4,2.3524E4,8.51265E5,1.202553E6],"tree_param":{"num_deleted":"0","num_feature":"45","num_nodes":"15","size_leaf_vector":"1"}},{"base_weights":[7.266961E-10,-3.6711903E-5,4.6435003E-3,3.0065016E-4,-5.768058E-4,3.3978068E-3,2.6907468E-2,-1.7599714E-5,4.5604993E-6,-7.0548954E-6,1.29092905E-5,4.1277435E-5,-2.6944079E-5,7.645213E-5,5.076923E-4],"categories":[],"categories_nodes":[],"categories_segments":[],"categories_sizes":[],"default_left":[0,0,0,0,0,0,0,0,0,0,0,0,0,0,0],"id":28,"left_children":[1,3,5,7,9,11,13,-1,-1,-1,-1,-1,-1,-1,-1],"loss_changes":[3.601738E-1,3.8194144E-1,4.5954555E-1,4.1316605E-1,1.9370607E-1,6.981018E-2,4.0316814E-1,0E0,0E0,0E0,0E0,0E0,0E0,0E0,0E0],"parents":[2147483647,0,0,1,1,2,2,3,3,4,4,5,5,6,6],"right_children":[2,4,6,8,10,12,14,-1,-1,-1,-1,-1,-1,-1,-1],"split_conditions":[2.6055074E0,3.9886135E-1,1E0,-1.6643828E0,1.9098653E0,1E0,2.949924E0,-1.7599714E-5,4.5604993E-6,-7.0548954E-6,1.29092905E-5,4.1277435E-5,-2.6944079E-5,7.645213E-5,5.076923E-4],"split_indices":[7,13,35,9,6,40,8,0,0,0,0,0,0,0,0],"split_type":[0,0,0,0,0,0,0,0,0,0,0,0,0,0,0],"sum_hessian":[2.112763E6,2.096191E6,1.6572E4,1.290253E6,8.05938E5,1.5695E4,8.77E2,9.0479E4,1.199774E6,7.5399E5,5.1948E4,1.4016E4,1.679E3,4.86E2,3.91E2],"tree_param":{"num_deleted":"0","num_feature":"45","num_nodes":"15","size_leaf_vector":"1"}},{"base_weights":[1.0856042E-9,6.5669785E-3,-2.5758069E-5,1.0965375E-2,-6.8676844E-4,-3.3839203E-3,5.7127512E-5,1.5326159E-4,-2.5712023E-5,4.032083E-6,-3.3238975E-4,-7.852091E-6,-6.384915E-5,4.4774E-6,-4.120962E-6],"categories":[],"categories_nodes":[],"categories_segments":[],"categories_sizes":[],"default_left":[0,0,0,0,0,0,0,0,0,0,0,0,0,0,0],"id":29,"left_children":[1,3,5,7,9,11,13,-1,-1,-1,-1,-1,-1,-1,-1],"loss_changes":[3.5739484E-1,2.6338217E-1,5.8577627E-1,3.0339503E-1,1.10608146E-1,3.9532763E-1,3.764337E-1,0E0,0E0,0E0,0E0,0E0,0E0,0E0,0E0],"parents":[2147483647,0,0,1,1,2,2,3,3,4,4,5,5,6,6],"right_children":[2,4,6,8,10,12,14,-1,-1,-1,-1,-1,-1,-1,-1],"split_conditions":[-2.687299E0,-2.7103422E0,-1.8734001E0,1E0,1E0,-1.3362162E0,1.7794801E-1,1.5326159E-4,-2.5712023E-5,4.032083E-6,-3.3238975E-4,-7.852091E-6,-6.384915E-5,4.4774E-6,-4.120962E-6],"split_indices":[7,8,9,40,25,14,19,0,0,0,0,0,0,0,0],"split_type":[0,0,0,0,0,0,0,0,0,0,0,0,0,0,0],"sum_hessian":[2.112763E6,8.254E3,2.104509E6,5.138E3,3.116E3,5.0691E4,2.053818E6,3.886E3,1.252E3,3.016E3,1E2,2.7167E4,2.3524E4,1.120795E6,9.33023E5],"tree_param":{"num_deleted":"0","num_feature":"45","num_nodes":"15","size_leaf_vector":"1"}},{"base_weights":[8.696156E-10,-3.6377438E-5,4.6012145E-3,2.6069686E-4,-6.302467E-4,3.3679423E-3,2.6643176E-2,-1.7478143E-5,4.003556E-6,-7.3026804E-6,1.7108314E-5,4.090584E-5,-2.6633921E-5,7.57303E-5,5.026694E-4],"categories":[],"categories_nodes":[],"categories_segments":[],"categories_sizes":[],"default_left":[0,0,0,0,0,0,0,0,0,0,0,0,0,0,0],"id":30,"left_children":[1,3,5,7,9,11,13,-1,-1,-1,-1,-1,-1,-1,-1],"loss_changes":[3.5364383E-1,3.6981726E-1,4.5042634E-1,3.9193594E-1,1.6366586E-1,6.8421856E-2,3.9516604E-1,0E0,0E0,0E0,0E0,0E0,0E0,0E0,0E0],"parents":[2147483647,0,0,1,1,2,2,3,3,4,4,5,5,6,6],"right_children":[2,4,6,8,10,12,14,-1,-1,-1,-1,-1,-1,-1,-1],"split_conditions":[2.6055074E0,5.626487E-1,1E0,-1.6643828E0,1E0,1E0,2.949924E0,-1.7478143E-5,4.003556E-6,-7.3026804E-6,1.7108314E-5,4.090584E-5,-2.6633921E-5,7.57303E-5,5.026694E-4],"split_indices":[7,14,35,9,36,40,8,0,0,0,0,0,0,0,0],"split_type":[0,0,0,0,0,0,0,0,0,0,0,0,0,0,0],"sum_hessian":[2.112763E6,2.096191E6,1.6572E4,1.397242E6,6.98949E5,1.5695E4,8.77E2,9.0838E4,1.306404E6,6.70311E5,2.8638E4,1.4016E4,1.679E3,4.86E2,3.91E2],"tree_param":{"num_deleted":"0","num_feature":"45","num_nodes":"15","size_leaf_vector":"1"}},{"base_weights":[1.193961E-9,6.516465E-3,-2.555982E-5,9.395759E-3,-4.493239E-3,-3.3326047E-3,5.6064095E-5,2.7444876E-5,1.663634E-4,-2.768744E-5,-4.490541E-4,-7.598794E-6,-6.303591E-5,5.5849923E-6,-2.996006E-6],"categories":[],"categories_nodes":[],"categories_segments":[],"categories_sizes":[],"default_left":[0,0,0,0,0,0,0,0,0,0,0,0,0,0,0],"id":31,"left_children":[1,3,5,7,9,11,13,-1,-1,-1,-1,-1,-1,-1,-1],"loss_changes":[3.5191783E-1,2.6172712E-1,5.680789E-1,3.151073E-1,1.1918594E-1,3.8746125E-1,3.6701447E-1,0E0,0E0,0E0,0E0,0E0,0E0,0E0,0E0],"parents":[2147483647,0,0,1,1,2,2,3,3,4,4,5,5,6,6],"right_children":[2,4,6,8,10,12,14,-1,-1,-1,-1,-1,-1,-1,-1],"split_conditions":[-2.687299E0,-2.2387905E0,-1.8734001E0,-1.7248442E0,1E0,-1.3362162E0,-1.7513579E-1,2.7444876E-5,1.663634E-4,-2.768744E-5,-4.490541E-4,-7.598794E-6,-6.303591E-5,5.5849923E-6,-2.996006E-6],"split_indices":[7,6,9,3,22,14,2,0,0,0,0,0,0,0,0],"split_type":[0,0,0,0,0,0,0,0,0,0,0,0,0,0,0],"sum_hessian":[2.112763E6,8.254E3,2.104509E6,6.543E3,1.711E3,5.0691E4,2.053818E6,3.411E3,3.132E3,1.642E3,6.9E1,2.7167E4,2.3524E4,8.51265E5,1.202553E6],"tree_param":{"num_deleted":"0","num_feature":"45","num_nodes":"15","size_leaf_vector":"1"}},{"base_weights":[1.0121222E-9,-3.603748E-5,4.558234E-3,2.9108033E-4,-5.5973104E-4,3.3372596E-3,2.6380394E-2,-1.7022918E-5,4.414085E-6,-6.872367E-6,1.2909059E-5,4.052677E-5,-2.6337797E-5,-3.145348E-6,4.3009795E-4],"categories":[],"categories_nodes":[],"categories_segments":[],"categories_sizes":[],"default_left":[0,0,0,0,0,0,0,0,0,0,0,0,0,0,0],"id":32,"left_children":[1,3,5,7,9,11,13,-1,-1,-1,-1,-1,-1,-1,-1],"loss_changes":[3.470678E-1,3.5909775E-1,4.41488E-1,3.8663834E-1,1.9017571E-1,6.706065E-2,3.8977587E-1,0E0,0E0,0E0,0E0,0E0,0E0,0E0,0E0],"parents":[2147483647,0,0,1,1,2,2,3,3,4,4,5,5,6,6],"right_children":[2,4,6,8,10,12,14,-1,-1,-1,-1,-1,-1,-1,-1],"split_conditions":[2.6055074E0,3.9886135E-1,1E0,-1.6643828E0,1.9098653E0,1E0,1.3004155E0,-1.7022918E-5,4.414085E-6,-6.872367E-6,1.2909059E-5,4.052677E-5,-2.6337797E-5,-3.145348E-6,4.3009795E-4],"split_indices":[7,13,35,9,6,40,4,0,0,0,0,0,0,0,0],"split_type":[0,0,0,0,0,0,0,0,0,0,0,0,0,0,0],"sum_hessian":[2.112763E6,2.096191E6,1.6572E4,1.290253E6,8.05938E5,1.5695E4,8.77E2,9.0479E4,1.199774E6,7.5399E5,5.1948E4,1.4016E4,1.679E3,3.37E2,5.4E2],"tree_param":{"num_deleted":"0","num_feature":"45","num_nodes":"15","size_leaf_vector":"1"}},{"base_weights":[1.2004071E-9,6.4659966E-3,-2.536185E-5,1.0823789E-2,-7.207738E-4,-3.0421559E-3,6.149875E-5,4.288658E-5,1.9699283E-4,3.3223037E-5,-9.4752555E-5,-6.3788725E-6,-5.7494628E-5,5.6811673E-6,-2.9398384E-6],"categories":[],"categories_nodes":[],"categories_segments":[],"categories_sizes":[],"default_left":[0,0,0,0,0,0,0,0,0,0,0,0,0,0,0],"id":33,"left_children":[1,3,5,7,9,11,13,-1,-1,-1,-1,-1,-1,-1,-1],"loss_changes":[3.464879E-1,2.585416E-1,5.514671E-1,2.9799044E-1,1.1035785E-1,3.8336885E-1,3.6840254E-1,0E0,0E0,0E0,0E0,0E0,0E0,0E0,0E0],"parents":[2147483647,0,0,1,1,2,2,3,3,4,4,5,5,6,6],"right_children":[2,4,6,8,10,12,14,-1,-1,-1,-1,-1,-1,-1,-1],"split_conditions":[-2.687299E0,-2.7103422E0,-1.8121221E0,-1.7752388E0,-1.6446917E0,-1.3362162E0,-1.7513579E-1,4.288658E-5,1.9699283E-4,3.3223037E-5,-9.4752555E-5,-6.3788725E-6,-5.7494628E-5,5.6811673E-6,-2.9398384E-6],"split_indices":[7,8,9,2,1,14,2,0,0,0,0,0,0,0,0],"split_type":[0,0,0,0,0,0,0,0,0,0,0,0,0,0,0],"sum_hessian":[2.112763E6,8.254E3,2.104509E6,5.138E3,3.116E3,5.8897E4,2.045612E6,2.96E3,2.178E3,2.132E3,9.84E2,3.1195E4,2.7702E4,8.43497E5,1.202115E6],"tree_param":{"num_deleted":"0","num_feature":"45","num_nodes":"15","size_leaf_vector":"1"}},{"base_weights":[1.2644885E-9,-3.570029E-5,4.515618E-3,2.5301494E-4,-6.128593E-4,3.3068275E-3,2.6120013E-2,-1.689448E-5,3.880811E-6,-7.118742E-6,1.7046616E-5,4.0150928E-5,-2.6045196E-5,7.3125804E-5,4.9418735E-4],"categories":[],"categories_nodes":[],"categories_segments":[],"categories_sizes":[],"default_left":[0,0,0,0,0,0,0,0,0,0,0,0,0,0,0],"id":34,"left_children":[1,3,5,7,9,11,13,-1,-1,-1,-1,-1,-1,-1,-1],"loss_changes":[3.4060845E-1,3.492983E-1,4.327206E-1,3.6658284E-1,1.6038859E-1,6.572652E-2,3.8436866E-1,0E0,0E0,0E0,0E0,0E0,0E0,0E0,0E0],"parents":[2147483647,0,0,1,1,2,2,3,3,4,4,5,5,6,6],"right_children":[2,4,6,8,10,12,14,-1,-1,-1,-1,-1,-1,-1,-1],"split_conditions":[2.6055074E0,5.626487E-1,1E0,-1.6643828E0,1E0,1E0,2.949924E0,-1.689448E-5,3.880811E-6,-7.118742E-6,1.7046616E-5,4.0150928E-5,-2.6045196E-5,7.3125804E-5,4.9418735E-4],"split_indices":[7,14,35,9,36,40,8,0,0,0,0,0,0,0,0],"split_type":[0,0,0,0,0,0,0,0,0,0,0,0,0,0,0],"sum_hessian":[2.112763E6,2.096191E6,1.6572E4,1.397242E6,6.98949E5,1.5695E4,8.77E2,9.0838E4,1.306404E6,6.70311E5,2.8638E4,1.4016E4,1.679E3,4.86E2,3.91E2],"tree_param":{"num_deleted":"0","num_feature":"45","num_nodes":"15","size_leaf_vector":"1"}},{"base_weights":[1.4566871E-9,6.4160307E-3,-2.51656E-5,9.262592E-3,-4.4684946E-3,-3.2352954E-3,5.406627E-5,2.6960452E-5,1.6410944E-4,-2.7621245E-5,-4.4455598E-4,-7.1198638E-6,-6.1492174E-5,5.4114885E-6,-2.9073065E-6],"categories":[],"categories_nodes":[],"categories_segments":[],"categories_sizes":[],"default_left":[0,0,0,0,0,0,0,0,0,0,0,0,0,0,0],"id":35,"left_children":[1,3,5,7,9,11,13,-1,-1,-1,-1,-1,-1,-1,-1],"loss_changes":[3.411536E-1,2.5580984E-1,5.3527087E-1,3.071311E-1,1.1669175E-1,3.7272E-1,3.449279E-1,0E0,0E0,0E0,0E0,0E0,0E0,0E0,0E0],"parents":[2147483647,0,0,1,1,2,2,3,3,4,4,5,5,6,6],"right_children":[2,4,6,8,10,12,14,-1,-1,-1,-1,-1,-1,-1,-1],"split_conditions":[-2.687299E0,-2.2387905E0,-1.8734001E0,-1.7248442E0,1E0,-1.3362162E0,-1.7513579E-1,2.6960452E-5,1.6410944E-4,-2.7621245E-5,-4.4455598E-4,-7.1198638E-6,-6.1492174E-5,5.4114885E-6,-2.9073065E-6],"split_indices":[7,6,9,3,22,14,2,0,0,0,0,0,0,0,0],"split_type":[0,0,0,0,0,0,0,0,0,0,0,0,0,0,0],"sum_hessian":[2.112763E6,8.254E3,2.104509E6,6.543E3,1.711E3,5.0691E4,2.053818E6,3.411E3,3.132E3,1.642E3,6.9E1,2.7167E4,2.3524E4,8.51265E5,1.202553E6],"tree_param":{"num_deleted":"0","num_feature":"45","num_nodes":"15","size_leaf_vector":"1"}},{"base_weights":[1.3395112E-9,6.3518365E-3,-2.4913914E-5,1.0667339E-2,-7.6517276E-4,-2.6211354E-3,7.1381626E-5,1.4977349E-4,-2.7114918E-5,4.3556298E-5,-7.568118E-5,-4.602017E-6,-4.9408867E-5,5.8840637E-6,-2.8507402E-6],"categories":[],"categories_nodes":[],"categories_segments":[],"categories_sizes":[],"default_left":[0,0,0,0,0,0,0,0,0,0,0,0,0,0,0],"id":36,"left_children":[1,3,5,7,9,11,13,-1,-1,-1,-1,-1,-1,-1,-1],"loss_changes":[3.3436108E-1,2.5354788E-1,5.2613723E-1,2.9637027E-1,1.0861846E-1,3.7729335E-1,3.7398276E-1,0E0,0E0,0E0,0E0,0E0,0E0,0E0,0E0],"parents":[2147483647,0,0,1,1,2,2,3,3,4,4,5,5,6,6],"right_children":[2,4,6,8,10,12,14,-1,-1,-1,-1,-1,-1,-1,-1],"split_conditions":[-2.687299E0,-2.7103422E0,-1.7092422E0,1E0,-1.5851817E0,-1.3362162E0,-1.7513579E-1,1.4977349E-4,-2.7114918E-5,4.3556298E-5,-7.568118E-5,-4.602017E-6,-4.9408867E-5,5.8840637E-6,-2.8507402E-6],"split_indices":[7,8,9,40,12,14,2,0,0,0,0,0,0,0,0],"split_type":[0,0,0,0,0,0,0,0,0,0,0,0,0,0,0],"sum_hessian":[2.112763E6,8.254E3,2.104509E6,5.138E3,3.116E3,7.5265E4,2.029244E6,3.886E3,1.252E3,1.778E3,1.338E3,3.8967E4,3.6298E4,8.28107E5,1.201137E6],"tree_param":{"num_deleted":"0","num_feature":"45","num_nodes":"15","size_leaf_vector":"1"}},{"base_weights":[1.3252585E-9,-3.5389017E-5,4.476255E-3,2.476522E-4,-6.012054E-4,3.279518E-3,2.586521E-2,-1.6460479E-5,3.7932773E-6,-6.99231E-6,1.6931603E-5,3.9807026E-5,-2.5727353E-5,-4.6159234E-6,4.2265566E-4],"categories":[],"categories_nodes":[],"categories_segments":[],"categories_sizes":[],"default_left":[0,0,0,0,0,0,0,0,0,0,0,0,0,0,0],"id":37,"left_children":[1,3,5,7,9,11,13,-1,-1,-1,-1,-1,-1,-1,-1],"loss_changes":[3.3469608E-1,3.3570394E-1,4.2413333E-1,3.4840873E-1,1.5719968E-1,6.441894E-2,3.7911272E-1,0E0,0E0,0E0,0E0,0E0,0E0,0E0,0E0],"parents":[2147483647,0,0,1,1,2,2,3,3,4,4,5,5,6,6],"right_children":[2,4,6,8,10,12,14,-1,-1,-1,-1,-1,-1,-1,-1],"split_conditions":[2.6055074E0,5.626487E-1,1E0,-1.6643828E0,1E0,1E0,1.3004155E0,-1.6460479E-5,3.7932773E-6,-6.99231E-6,1.6931603E-5,3.9807026E-5,-2.5727353E-5,-4.6159234E-6,4.2265566E-4],"split_indices":[7,14,35,9,36,40,4,0,0,0,0,0,0,0,0],"split_type":[0,0,0,0,0,0,0,0,0,0,0,0,0,0,0],"sum_hessian":[2.112763E6,2.096191E6,1.6572E4,1.397242E6,6.98949E5,1.5695E4,8.77E2,9.0838E4,1.306404E6,6.70311E5,2.8638E4,1.4016E4,1.679E3,3.37E2,5.4E2],"tree_param":{"num_deleted":"0","num_feature":"45","num_nodes":"15","size_leaf_vector":"1"}},{"base_weights":[1.4772866E-9,-4.9857892E-5,3.141814E-3,2.7794644E-4,-5.854341E-4,2.5761134E-3,1.4354263E-2,-1.612729E-5,4.205297E-6,-6.842315E-6,1.7760953E-5,7.440414E-5,1.8242828E-5,4.287523E-5,4.4467614E-4],"categories":[],"categories_nodes":[],"categories_segments":[],"categories_sizes":[],"default_left":[0,0,0,0,0,0,0,0,0,0,0,0,0,0,0],"id":38,"left_children":[1,3,5,7,9,11,13,-1,-1,-1,-1,-1,-1,-1,-1],"loss_changes":[3.309621E-1,3.6513156E-1,2.0931005E-1,3.477914E-1,1.8423313E-1,1.1489713E-1,4.8029146E-1,0E0,0E0,0E0,0E0,0E0,0E0,0E0,0E0],"parents":[2147483647,0,0,1,1,2,2,3,3,4,4,5,5,6,6],"right_children":[2,4,6,8,10,12,14,-1,-1,-1,-1,-1,-1,-1,-1],"split_conditions":[2.2562485E0,3.9886135E-1,1E0,-1.6643828E0,1E0,3.8253456E-1,2.9160142E0,-1.612729E-5,4.205297E-6,-6.842315E-6,1.7760953E-5,7.440414E-5,1.8242828E-5,4.287523E-5,4.4467614E-4],"split_indices":[6,13,35,9,37,4,7,0,0,0,0,0,0,0,0],"split_type":[0,0,0,0,0,0,0,0,0,0,0,0,0,0,0],"sum_hessian":[2.112763E6,2.079759E6,3.3004E4,1.290126E6,7.89633E5,3.142E4,1.584E3,9.047E4,1.199656E6,7.57925E5,3.1708E4,4.205E3,2.7215E4,1.188E3,3.96E2],"tree_param":{"num_deleted":"0","num_feature":"45","num_nodes":"15","size_leaf_vector":"1"}},{"base_weights":[1.7425776E-9,6.3165766E-3,-2.4775201E-5,1.0592718E-2,-7.3552714E-4,-3.8737627E-3,3.7790753E-5,1.4859482E-4,-2.6519016E-5,3.4299458E-6,-3.2945076E-4,-2.1246937E-5,-8.439047E-5,6.2467075E-6,-2.3334972E-6],"categories":[],"categories_nodes":[],"categories_segments":[],"categories_sizes":[],"default_left":[0,0,0,0,0,0,0,0,0,0,0,0,0,0,0],"id":39,"left_children":[1,3,5,7,9,11,13,-1,-1,-1,-1,-1,-1,-1,-1],"loss_changes":[3.3065915E-1,2.4894384E-1,5.067989E-1,2.9045296E-1,1.0829182E-1,2.6877302E-1,3.2952797E-1,0E0,0E0,0E0,0E0,0E0,0E0,0E0,0E0],"parents":[2147483647,0,0,1,1,2,2,3,3,4,4,5,5,6,6],"right_children":[2,4,6,8,10,12,14,-1,-1,-1,-1,-1,-1,-1,-1],"split_conditions":[-2.687299E0,-2.7103422E0,-2.0217094E0,1E0,1E0,-1.288333E0,-4.5830137E-1,1.4859482E-4,-2.6519016E-5,3.4299458E-6,-3.2945076E-4,-2.1246937E-5,-8.439047E-5,6.2467075E-6,-2.3334972E-6],"split_indices":[7,8,8,40,25,6,5,0,0,0,0,0,0,0,0],"split_type":[0,0,0,0,0,0,0,0,0,0,0,0,0,0,0],"sum_hessian":[2.112763E6,8.254E3,2.104509E6,5.138E3,3.116E3,3.3661E4,2.070848E6,3.886E3,1.252E3,3.016E3,1E2,2.4338E4,9.323E3,6.54402E5,1.416446E6],"tree_param":{"num_deleted":"0","num_feature":"45","num_nodes":"15","size_leaf_vector":"1"}},{"base_weights":[1.5524438E-9,-3.4881392E-5,4.4120783E-3,6.253386E-3,-5.9743055E-5,3.2379483E-3,2.539697E-2,9.053373E-5,-4.453019E-5,-3.1285916E-5,1.6617898E-7,3.93235E-5,-2.5576872E-5,6.941735E-5,4.8259983E-4],"categories":[],"categories_nodes":[],"categories_segments":[],"categories_sizes":[],"default_left":[0,0,0,0,0,0,0,0,0,0,0,0,0,0,0],"id":40,"left_children":[1,3,5,7,9,11,13,-1,-1,-1,-1,-1,-1,-1,-1],"loss_changes":[3.2516772E-1,3.277123E-1,4.0825978E-1,2.4750698E-1,4.8928785E-1,6.31786E-2,3.7013042E-1,0E0,0E0,0E0,0E0,0E0,0E0,0E0,0E0],"parents":[2147483647,0,0,1,1,2,2,3,3,4,4,5,5,6,6],"right_children":[2,4,6,8,10,12,14,-1,-1,-1,-1,-1,-1,-1,-1],"split_conditions":[2.6055074E0,-2.687299E0,1E0,-2.2387905E0,-1.8734001E0,1E0,2.949924E0,9.053373E-5,-4.453019E-5,-3.1285916E-5,1.6617898E-7,3.93235E-5,-2.5576872E-5,6.941735E-5,4.8259983E-4],"split_indices":[7,7,35,6,9,40,8,0,0,0,0,0,0,0,0],"split_type":[0,0,0,0,0,0,0,0,0,0,0,0,0,0,0],"sum_hessian":[2.112763E6,2.096191E6,1.6572E4,8.254E3,2.087937E6,1.5695E4,8.77E2,6.543E3,1.711E3,5.0691E4,2.037246E6,1.4016E4,1.679E3,4.86E2,3.91E2],"tree_param":{"num_deleted":"0","num_feature":"45","num_nodes":"15","size_leaf_vector":"1"}},{"base_weights":[1.8181503E-9,-4.913993E-5,3.0965945E-3,2.7461722E-4,-5.7810376E-4,2.5416915E-3,1.4095022E-2,-1.3561148E-5,4.3405084E-6,-6.7592214E-6,1.7600241E-5,7.367032E-5,1.795883E-5,4.211075E-5,4.3661566E-4],"categories":[],"categories_nodes":[],"categories_segments":[],"categories_sizes":[],"default_left":[0,0,0,0,0,0,0,0,0,0,0,0,0,0,0],"id":41,"left_children":[1,3,5,7,9,11,13,-1,-1,-1,-1,-1,-1,-1,-1],"loss_changes":[3.2150364E-1,3.5617116E-1,2.0139566E-1,3.3542523E-1,1.8059993E-1,1.1306405E-1,4.6300727E-1,0E0,0E0,0E0,0E0,0E0,0E0,0E0,0E0],"parents":[2147483647,0,0,1,1,2,2,3,3,4,4,5,5,6,6],"right_children":[2,4,6,8,10,12,14,-1,-1,-1,-1,-1,-1,-1,-1],"split_conditions":[2.2562485E0,3.9886135E-1,1E0,-1.5492378E0,1E0,3.8253456E-1,2.9160142E0,-1.3561148E-5,4.3405084E-6,-6.7592214E-6,1.7600241E-5,7.367032E-5,1.795883E-5,4.211075E-5,4.3661566E-4],"split_indices":[6,13,35,9,37,4,7,0,0,0,0,0,0,0,0],"split_type":[0,0,0,0,0,0,0,0,0,0,0,0,0,0,0],"sum_hessian":[2.112763E6,2.079759E6,3.3004E4,1.290126E6,7.89633E5,3.142E4,1.584E3,1.14899E5,1.175227E6,7.57925E5,3.1708E4,4.205E3,2.7215E4,1.188E3,3.96E2],"tree_param":{"num_deleted":"0","num_feature":"45","num_nodes":"15","size_leaf_vector":"1"}},{"base_weights":[2.0852498E-9,6.2028253E-3,-2.4328665E-5,1.0429162E-2,-7.6712767E-4,-3.8012436E-3,3.7065736E-5,3.9884784E-5,1.9176492E-4,3.218854E-5,-9.397921E-5,-2.0691403E-5,-8.322249E-5,6.1673586E-6,-2.3074372E-6],"categories":[],"categories_nodes":[],"categories_segments":[],"categories_sizes":[],"default_left":[0,0,0,0,0,0,0,0,0,0,0,0,0,0,0],"id":42,"left_children":[1,3,5,7,9,11,13,-1,-1,-1,-1,-1,-1,-1,-1],"loss_changes":[3.188571E-1,2.4317858E-1,4.8799694E-1,2.894485E-1,1.0726186E-1,2.6358482E-1,3.214811E-1,0E0,0E0,0E0,0E0,0E0,0E0,0E0,0E0],"parents":[2147483647,0,0,1,1,2,2,3,3,4,4,5,5,6,6],"right_children":[2,4,6,8,10,12,14,-1,-1,-1,-1,-1,-1,-1,-1],"split_conditions":[-2.687299E0,-2.7103422E0,-2.0217094E0,-1.7752388E0,-1.6446917E0,-1.288333E0,-4.5830137E-1,3.9884784E-5,1.9176492E-4,3.218854E-5,-9.397921E-5,-2.0691403E-5,-8.322249E-5,6.1673586E-6,-2.3074372E-6],"split_indices":[7,8,8,2,1,6,5,0,0,0,0,0,0,0,0],"split_type":[0,0,0,0,0,0,0,0,0,0,0,0,0,0,0],"sum_hessian":[2.112763E6,8.254E3,2.104509E6,5.138E3,3.116E3,3.3661E4,2.070848E6,2.96E3,2.178E3,2.132E3,9.84E2,2.4338E4,9.323E3,6.54402E5,1.416446E6],"tree_param":{"num_deleted":"0","num_feature":"45","num_nodes":"15","size_leaf_vector":"1"}},{"base_weights":[2.0861417E-9,-3.4381304E-5,4.348894E-3,6.140818E-3,-5.8795937E-5,3.1969415E-3,2.4937393E-2,8.90817E-5,-4.4407792E-5,-3.0676867E-5,1.6073116E-7,3.8846258E-5,-2.5426238E-5,-8.801369E-6,4.102129E-4],"categories":[],"categories_nodes":[],"categories_segments":[],"categories_sizes":[],"default_left":[0,0,0,0,0,0,0,0,0,0,0,0,0,0,0],"id":43,"left_children":[1,3,5,7,9,11,13,-1,-1,-1,-1,-1,-1,-1,-1],"loss_changes":[3.1592104E-1,3.1603315E-1,3.9298183E-1,2.4177083E-1,4.7035572E-1,6.1962128E-2,3.6462253E-1,0E0,0E0,0E0,0E0,0E0,0E0,0E0,0E0],"parents":[2147483647,0,0,1,1,2,2,3,3,4,4,5,5,6,6],"right_children":[2,4,6,8,10,12,14,-1,-1,-1,-1,-1,-1,-1,-1],"split_conditions":[2.6055074E0,-2.687299E0,1E0,-2.2387905E0,-1.8734001E0,1E0,1.3004155E0,8.90817E-5,-4.4407792E-5,-3.0676867E-5,1.6073116E-7,3.8846258E-5,-2.5426238E-5,-8.801369E-6,4.102129E-4],"split_indices":[7,7,35,6,9,40,4,0,0,0,0,0,0,0,0],"split_type":[0,0,0,0,0,0,0,0,0,0,0,0,0,0,0],"sum_hessian":[2.112763E6,2.096191E6,1.6572E4,8.254E3,2.087937E6,1.5695E4,8.77E2,6.543E3,1.711E3,5.0691E4,2.037246E6,1.4016E4,1.679E3,3.37E2,5.4E2],"tree_param":{"num_deleted":"0","num_feature":"45","num_nodes":"15","size_leaf_vector":"1"}},{"base_weights":[2.2953273E-9,-4.8430993E-5,3.0519527E-3,2.6451942E-4,-5.824389E-4,2.5077292E-3,1.3838696E-2,-1.336398E-5,4.183617E-6,-6.778539E-6,1.701183E-5,7.2943796E-5,1.767901E-5,4.1168172E-5,4.2920499E-4],"categories":[],"categories_nodes":[],"categories_segments":[],"categories_sizes":[],"default_left":[0,0,0,0,0,0,0,0,0,0,0,0,0,0,0],"id":44,"left_children":[1,3,5,7,9,11,13,-1,-1,-1,-1,-1,-1,-1,-1],"loss_changes":[3.1230044E-1,3.4756547E-1,1.9371781E-1,3.2295683E-1,1.6744459E-1,1.1125825E-1,4.479499E-1,0E0,0E0,0E0,0E0,0E0,0E0,0E0,0E0],"parents":[2147483647,0,0,1,1,2,2,3,3,4,4,5,5,6,6],"right_children":[2,4,6,8,10,12,14,-1,-1,-1,-1,-1,-1,-1,-1],"split_conditions":[2.2562485E0,4.3156132E-1,1E0,-1.5492378E0,1E0,3.8253456E-1,2.9160142E0,-1.336398E-5,4.183617E-6,-6.778539E-6,1.701183E-5,7.2943796E-5,1.767901E-5,4.1168172E-5,4.2920499E-4],"split_indices":[6,13,35,9,37,4,7,0,0,0,0,0,0,0,0],"split_type":[0,0,0,0,0,0,0,0,0,0,0,0,0,0,0],"sum_hessian":[2.112763E6,2.079759E6,3.3004E4,1.31129E6,7.68469E5,3.142E4,1.584E3,1.14962E5,1.196328E6,7.37649E5,3.082E4,4.205E3,2.7215E4,1.188E3,3.96E2],"tree_param":{"num_deleted":"0","num_feature":"45","num_nodes":"15","size_leaf_vector":"1"}},{"base_weights":[2.577212E-9,-5.912031E-5,2.4622306E-3,2.618267E-4,-6.186431E-4,2.0835458E-3,1.0365539E-2,-1.3218524E-5,4.1400385E-6,-7.1474046E-6,1.6654274E-5,5.6822162E-5,1.4082172E-5,3.371627E-5,4.063713E-4],"categories":[],"categories_nodes":[],"categories_segments":[],"categories_sizes":[],"default_left":[0,0,0,0,0,0,0,0,0,0,0,0,0,0,0],"id":45,"left_children":[1,3,5,7,9,11,13,-1,-1,-1,-1,-1,-1,-1,-1],"loss_changes":[3.075637E-1,3.7050796E-1,1.4825079E-1,3.1598544E-1,1.6507804E-1,1.1489101E-1,4.7940165E-1,0E0,0E0,0E0,0E0,0E0,0E0,0E0,0E0],"parents":[2147483647,0,0,1,1,2,2,3,3,4,4,5,5,6,6],"right_children":[2,4,6,8,10,12,14,-1,-1,-1,-1,-1,-1,-1,-1],"split_conditions":[2.056762E0,4.3156132E-1,1E0,-1.5492378E0,1E0,5.953513E-1,2.9160142E0,-1.3218524E-5,4.1400385E-6,-7.1474046E-6,1.6654274E-5,5.6822162E-5,1.4082172E-5,3.371627E-5,4.063713E-4],"split_indices":[6,13,35,9,37,3,7,0,0,0,0,0,0,0,0],"split_type":[0,0,0,0,0,0,0,0,0,0,0,0,0,0,0],"sum_hessian":[2.112763E6,2.063222E6,4.9541E4,1.311141E6,7.52081E5,4.7277E4,2.264E3,1.14943E5,1.196198E6,7.21717E5,3.0364E4,7.469E3,3.9808E4,1.84E3,4.24E2],"tree_param":{"num_deleted":"0","num_feature":"45","num_nodes":"15","size_leaf_vector":"1"}},{"base_weights":[2.7617357E-9,6.1028907E-3,-2.3935989E-5,9.54669E-3,-2.263156E-3,-3.7189028E-3,3.6126334E-5,3.013681E-5,1.7037916E-4,-7.936344E-6,-3.803378E-4,-2.003382E-5,-8.196631E-5,6.066713E-6,-2.2746726E-6],"categories":[],"categories_nodes":[],"categories_segments":[],"categories_sizes":[],"default_left":[0,0,0,0,0,0,0,0,0,0,0,0,0,0,0],"id":46,"left_children":[1,3,5,7,9,11,13,-1,-1,-1,-1,-1,-1,-1,-1],"loss_changes":[3.0866548E-1,2.3785624E-1,4.670504E-1,2.861513E-1,1.2654802E-1,2.5856286E-1,3.114393E-1,0E0,0E0,0E0,0E0,0E0,0E0,0E0,0E0],"parents":[2147483647,0,0,1,1,2,2,3,3,4,4,5,5,6,6],"right_children":[2,4,6,8,10,12,14,-1,-1,-1,-1,-1,-1,-1,-1],"split_conditions":[-2.687299E0,-2.404015E0,-2.0217094E0,-1.7248442E0,1E0,-1.288333E0,-4.5830137E-1,3.013681E-5,1.7037916E-4,-7.936344E-6,-3.803378E-4,-2.003382E-5,-8.196631E-5,6.066713E-6,-2.2746726E-6],"split_indices":[7,6,8,3,22,6,5,0,0,0,0,0,0,0,0],"split_type":[0,0,0,0,0,0,0,0,0,0,0,0,0,0,0],"sum_hessian":[2.112763E6,8.254E3,2.104509E6,5.847E3,2.407E3,3.3661E4,2.070848E6,3.124E3,2.723E3,2.313E3,9.4E1,2.4338E4,9.323E3,6.54402E5,1.416446E6],"tree_param":{"num_deleted":"0","num_feature":"45","num_nodes":"15","size_leaf_vector":"1"}},{"base_weights":[2.5913143E-9,-3.3726734E-5,4.2661666E-3,6.694282E-4,-2.4165715E-4,3.1464568E-3,2.4278356E-2,6.839978E-5,5.7116204E-6,-3.7913473E-5,-1.5184344E-6,3.8277092E-5,-2.539414E-5,-1.1460248E-5,4.0117843E-4],"categories":[],"categories_nodes":[],"categories_segments":[],"categories_sizes":[],"default_left":[0,0,0,0,0,0,0,0,0,0,0,0,0,0,0],"id":47,"left_children":[1,3,5,7,9,11,13,-1,-1,-1,-1,-1,-1,-1,-1],"loss_changes":[3.0401596E-1,3.0647874E-1,3.7128884E-1,2.900763E-1,5.1576966E-1,6.0808375E-2,3.5362464E-1,0E0,0E0,0E0,0E0,0E0,0E0,0E0,0E0],"parents":[2147483647,0,0,1,1,2,2,3,3,4,4,5,5,6,6],"right_children":[2,4,6,8,10,12,14,-1,-1,-1,-1,-1,-1,-1,-1],"split_conditions":[2.6055074E0,-7.546784E-1,1E0,-2.687299E0,-1.6226053E0,1E0,1.3004155E0,6.839978E-5,5.7116204E-6,-3.7913473E-5,-1.5184344E-6,3.8277092E-5,-2.539414E-5,-1.1460248E-5,4.0117843E-4],"split_indices":[7,5,35,7,9,40,4,0,0,0,0,0,0,0,0],"split_type":[0,0,0,0,0,0,0,0,0,0,0,0,0,0,0],"sum_hessian":[2.112763E6,2.096191E6,1.6572E4,4.78398E5,1.617793E6,1.5695E4,8.77E2,7.498E3,4.709E5,3.9922E4,1.577871E6,1.4016E4,1.679E3,3.37E2,5.4E2],"tree_param":{"num_deleted":"0","num_feature":"45","num_nodes":"15","size_leaf_vector":"1"}},{"base_weights":[2.7751013E-9,-5.8332393E-5,2.4294255E-3,2.5774006E-4,-6.093572E-4,2.0580918E-3,1.017931E-2,-1.5152369E-5,3.891672E-6,-7.0450114E-6,1.6520538E-5,5.628602E-5,1.3880479E-5,3.3035383E-5,3.9939582E-4],"categories":[],"categories_nodes":[],"categories_segments":[],"categories_sizes":[],"default_left":[0,0,0,0,0,0,0,0,0,0,0,0,0,0,0],"id":48,"left_children":[1,3,5,7,9,11,13,-1,-1,-1,-1,-1,-1,-1,-1],"loss_changes":[2.994227E-1,3.5933882E-1,1.425507E-1,3.0551934E-1,1.6181886E-1,1.1310001E-1,4.6334332E-1,0E0,0E0,0E0,0E0,0E0,0E0,0E0,0E0],"parents":[2147483647,0,0,1,1,2,2,3,3,4,4,5,5,6,6],"right_children":[2,4,6,8,10,12,14,-1,-1,-1,-1,-1,-1,-1,-1],"split_conditions":[2.056762E0,4.3156132E-1,1E0,-1.6643828E0,1E0,5.953513E-1,2.9160142E0,-1.5152369E-5,3.891672E-6,-7.0450114E-6,1.6520538E-5,5.628602E-5,1.3880479E-5,3.3035383E-5,3.9939582E-4],"split_indices":[6,13,35,9,37,3,7,0,0,0,0,0,0,0,0],"split_type":[0,0,0,0,0,0,0,0,0,0,0,0,0,0,0],"sum_hessian":[2.112763E6,2.063222E6,4.9541E4,1.311141E6,7.52081E5,4.7277E4,2.264E3,9.0484E4,1.220657E6,7.21717E5,3.0364E4,7.469E3,3.9808E4,1.84E3,4.24E2],"tree_param":{"num_deleted":"0","num_feature":"45","num_nodes":"15","size_leaf_vector":"1"}},{"base_weights":[3.0700593E-9,5.9959996E-3,-2.3516397E-5,1.0173463E-2,-8.933116E-4,-3.663902E-3,3.5658697E-5,1.4387163E-4,-2.9062032E-5,1.7350976E-6,-3.2751792E-4,-1.9693109E-5,-8.087001E-5,5.953199E-6,-2.2290658E-6],"categories":[],"categories_nodes":[],"categories_segments":[],"categories_sizes":[],"default_left":[0,0,0,0,0,0,0,0,0,0,0,0,0,0,0],"id":49,"left_children":[1,3,5,7,9,11,13,-1,-1,-1,-1,-1,-1,-1,-1],"loss_changes":[2.9794773E-1,2.375867E-1,4.53354E-1,2.8327155E-1,1.0594411E-1,2.5229242E-1,2.9967052E-1,0E0,0E0,0E0,0E0,0E0,0E0,0E0,0E0],"parents":[2147483647,0,0,1,1,2,2,3,3,4,4,5,5,6,6],"right_children":[2,4,6,8,10,12,14,-1,-1,-1,-1,-1,-1,-1,-1],"split_conditions":[-2.687299E0,-2.7103422E0,-2.0217094E0,1E0,1E0,-1.288333E0,-4.5830137E-1,1.4387163E-4,-2.9062032E-5,1.7350976E-6,-3.2751792E-4,-1.9693109E-5,-8.087001E-5,5.953199E-6,-2.2290658E-6],"split_indices":[7,8,8,40,25,6,5,0,0,0,0,0,0,0,0],"split_type":[0,0,0,0,0,0,0,0,0,0,0,0,0,0,0],"sum_hessian":[2.112763E6,8.254E3,2.104509E6,5.138E3,3.116E3,3.3661E4,2.070848E6,3.886E3,1.252E3,3.016E3,1E2,2.4338E4,9.323E3,6.54402E5,1.416446E6],"tree_param":{"num_deleted":"0","num_feature":"45","num_nodes":"15","size_leaf_vector":"1"}}]},"name":"gbtree"},"learner_model_param":{"base_score":"7.369961E-4","boost_from_average":"1","num_class":"0","num_feature":"45","num_target":"1"},"objective":{"name":"reg:squarederror","reg_loss_param":{"scale_pos_weight":"1"}}},"version":[2,1,1]}