{"learner":{"attributes":{"scikit_learn":"{\"_estimator_type\": \"regressor\"}"},"feature_names":["Momentum_10","Momentum_30","Momentum_60","Momentum_120","Momentum_300","RSI_10","RSI_30","RSI_60","RSI_120","RSI_300","BB_10","BB_30","BB_60","BB_120","BB_300","MRC_10","MRC_30","MRC_60","MRC_120","MRC_300","Active_AAVEUSDT.csv","Active_ALGOUSDT.csv","Active_AVAXUSDT.csv","Active_BCHUSDT.csv","Active_BTCUSDT.csv","Active_CHZUSDT.csv","Active_DASHUSDT.csv","Active_DOTUSDT.csv","Active_EOSUSDT.csv","Active_ETHUSDT.csv","Active_GRTUSDT.csv","Active_ICPUSDT.csv","Active_IOTAUSDT.csv","Active_LTCUSDT.csv","Active_MATICUSDT.csv","Active_NEOUSDT.csv","Active_RVNUSDT.csv","Active_SHIBUSDT.csv","Active_STMXUSDT.csv","Active_TFUELUSDT.csv","Active_TRXUSDT.csv","Active_VETUSDT.csv","Active_XEMUSDT.csv","Active_XRPUSDT.csv","Active_ZECUSDT.csv"],"feature_types":["float","float","float","float","float","float","float","float","float","float","float","float","float","float","float","float","float","float","float","float","float","float","float","float","float","float","float","float","float","float","float","float","float","float","float","float","float","float","float","float","float","float","float","float","float"],"gradient_booster":{"model":{"gbtree_model_param":{"num_parallel_tree":"1","num_trees":"50"},"iteration_indptr":[0,1,2,3,4,5,6,7,8,9,10,11,12,13,14,15,16,17,18,19,20,21,22,23,24,25,26,27,28,29,30,31,32,33,34,35,36,37,38,39,40,41,42,43,44,45,46,47,48,49,50],"tree_info":[0,0,0,0,0,0,0,0,0,0,0,0,0,0,0,0,0,0,0,0,0,0,0,0,0,0,0,0,0,0,0,0,0,0,0,0,0,0,0,0,0,0,0,0,0,0,0,0,0,0],"trees":[{"base_weights":[-1.8653506E-11,1.696467E-3,-2.0135974E-5,7.395361E-3,1.3665166E-3,-3.7187915E-3,-8.482521E-6,1.3614433E-4,4.0299845E-5,2.1273685E-5,-5.352588E-7,-1.4230255E-4,-6.4162086E-6,4.7686144E-6,-3.7168675E-7],"categories":[],"categories_nodes":[],"categories_segments":[],"categories_sizes":[],"default_left":[0,0,0,0,0,0,0,0,0,0,0,0,0,0,0],"id":0,"left_children":[1,3,5,7,9,11,13,-1,-1,-1,-1,-1,-1,-1,-1],"loss_changes":[4.8114713E-2,3.105709E-2,5.999763E-2,1.8865421E-2,1.6875537E-2,1.414057E-1,1.931934E-2,0E0,0E0,0E0,0E0,0E0,0E0,0E0,0E0],"parents":[2147483647,0,0,1,1,2,2,3,3,4,4,5,5,6,6],"right_children":[2,4,6,8,10,12,14,-1,-1,-1,-1,-1,-1,-1,-1],"split_conditions":[-2.2814393E0,-2.3665583E0,-2.8047035E0,-2.709163E0,-1.291962E0,-2.4202545E0,-1.4922945E0,1.3614433E-4,4.0299845E-5,2.1273685E-5,-5.352588E-7,-1.4230255E-4,-6.4162086E-6,4.7686144E-6,-3.7168675E-7],"split_indices":[1,19,3,8,3,9,0,0,0,0,0,0,0,0,0],"split_type":[0,0,0,0,0,0,0,0,0,0,0,0,0,0,0],"sum_hessian":[1.408509E6,1.6521E4,1.391988E6,9.03E2,1.5618E4,4.371E3,1.387617E6,3.16E2,5.87E2,1.0169E4,5.449E3,9.89E2,3.382E3,7.7437E4,1.31018E6],"tree_param":{"num_deleted":"0","num_feature":"45","num_nodes":"15","size_leaf_vector":"1"}},{"base_weights":[7.2104864E-11,1.6795143E-3,-1.9934665E-5,7.3216027E-3,1.3528527E-3,-3.6816373E-3,-8.397638E-6,1.3478719E-4,3.989753E-5,2.1060969E-5,-5.299074E-7,-1.4088096E-4,-6.3520656E-6,-1.887236E-7,1.3000868E-5],"categories":[],"categories_nodes":[],"categories_segments":[],"categories_sizes":[],"default_left":[0,0,0,0,0,0,0,0,0,0,0,0,0,0,0],"id":1,"left_children":[1,3,5,7,9,11,13,-1,-1,-1,-1,-1,-1,-1,-1],"loss_changes":[4.71579E-2,3.0441027E-2,5.880477E-2,1.849141E-2,1.6539747E-2,1.3859463E-1,1.9018732E-2,0E0,0E0,0E0,0E0,0E0,0E0,0E0,0E0],"parents":[2147483647,0,0,1,1,2,2,3,3,4,4,5,5,6,6],"right_children":[2,4,6,8,10,12,14,-1,-1,-1,-1,-1,-1,-1,-1],"split_conditions":[-2.2814393E0,-2.3665583E0,-2.8047035E0,-2.709163E0,-1.291962E0,-2.4202545E0,2.6069121E0,1.3478719E-4,3.989753E-5,2.1060969E-5,-5.299074E-7,-1.4088096E-4,-6.3520656E-6,-1.887236E-7,1.3000868E-5],"split_indices":[1,19,3,8,3,9,7,0,0,0,0,0,0,0,0],"split_type":[0,0,0,0,0,0,0,0,0,0,0,0,0,0,0],"sum_hessian":[1.408509E6,1.6521E4,1.391988E6,9.03E2,1.5618E4,4.371E3,1.387617E6,3.16E2,5.87E2,1.0169E4,5.449E3,9.89E2,3.382E3,1.376598E6,1.1019E4],"tree_param":{"num_deleted":"0","num_feature":"45","num_nodes":"15","size_leaf_vector":"1"}},{"base_weights":[4.277282E-11,1.6627309E-3,-1.9735486E-5,7.24858E-3,1.3393254E-3,-3.6448548E-3,-8.313726E-6,1.3344357E-4,3.949924E-5,2.0850379E-5,-5.246096E-7,-1.3947357E-4,-6.2885633E-6,4.722816E-6,-3.6719217E-7],"categories":[],"categories_nodes":[],"categories_segments":[],"categories_sizes":[],"default_left":[0,0,0,0,0,0,0,0,0,0,0,0,0,0,0],"id":2,"left_children":[1,3,5,7,9,11,13,-1,-1,-1,-1,-1,-1,-1,-1],"loss_changes":[4.6220113E-2,2.9837187E-2,5.7635617E-2,1.8124808E-2,1.621064E-2,1.3583946E-1,1.894315E-2,0E0,0E0,0E0,0E0,0E0,0E0,0E0,0E0],"parents":[2147483647,0,0,1,1,2,2,3,3,4,4,5,5,6,6],"right_children":[2,4,6,8,10,12,14,-1,-1,-1,-1,-1,-1,-1,-1],"split_conditions":[-2.2814393E0,-2.3665583E0,-2.8047035E0,-2.709163E0,-1.291962E0,-2.4202545E0,-1.4922945E0,1.3344357E-4,3.949924E-5,2.0850379E-5,-5.246096E-7,-1.3947357E-4,-6.2885633E-6,4.722816E-6,-3.6719217E-7],"split_indices":[1,19,3,8,3,9,0,0,0,0,0,0,0,0,0],"split_type":[0,0,0,0,0,0,0,0,0,0,0,0,0,0,0],"sum_hessian":[1.408509E6,1.6521E4,1.391988E6,9.03E2,1.5618E4,4.371E3,1.387617E6,3.16E2,5.87E2,1.0169E4,5.449E3,9.89E2,3.382E3,7.7437E4,1.31018E6],"tree_param":{"num_deleted":"0","num_feature":"45","num_nodes":"15","size_leaf_vector":"1"}},{"base_weights":[1.0038843E-10,1.6461153E-3,-1.9538213E-5,7.1762856E-3,1.3259335E-3,-3.6084396E-3,-8.230564E-6,1.3211333E-4,3.9104918E-5,2.0641895E-5,-5.1936365E-7,-1.3808024E-4,-6.225697E-6,-1.860282E-7,1.2874542E-5],"categories":[],"categories_nodes":[],"categories_segments":[],"categories_sizes":[],"default_left":[0,0,0,0,0,0,0,0,0,0,0,0,0,0,0],"id":3,"left_children":[1,3,5,7,9,11,13,-1,-1,-1,-1,-1,-1,-1,-1],"loss_changes":[4.530097E-2,2.9245332E-2,5.6489717E-2,1.7765477E-2,1.5888078E-2,1.3313906E-1,1.8648466E-2,0E0,0E0,0E0,0E0,0E0,0E0,0E0,0E0],"parents":[2147483647,0,0,1,1,2,2,3,3,4,4,5,5,6,6],"right_children":[2,4,6,8,10,12,14,-1,-1,-1,-1,-1,-1,-1,-1],"split_conditions":[-2.2814393E0,-2.3665583E0,-2.8047035E0,-2.709163E0,-1.291962E0,-2.4202545E0,2.6069121E0,1.3211333E-4,3.9104918E-5,2.0641895E-5,-5.1936365E-7,-1.3808024E-4,-6.225697E-6,-1.860282E-7,1.2874542E-5],"split_indices":[1,19,3,8,3,9,7,0,0,0,0,0,0,0,0],"split_type":[0,0,0,0,0,0,0,0,0,0,0,0,0,0,0],"sum_hessian":[1.408509E6,1.6521E4,1.391988E6,9.03E2,1.5618E4,4.371E3,1.387617E6,3.16E2,5.87E2,1.0169E4,5.449E3,9.89E2,3.382E3,1.376598E6,1.1019E4],"tree_param":{"num_deleted":"0","num_feature":"45","num_nodes":"15","size_leaf_vector":"1"}},{"base_weights":[1.2478991E-10,1.6296657E-3,-1.9342942E-5,7.104712E-3,1.3126754E-3,-3.5723883E-3,-8.148266E-6,1.3079637E-4,3.871453E-5,2.0435496E-5,-5.14171E-7,-1.3670084E-4,-6.1634573E-6,4.67745E-6,-3.6275839E-7],"categories":[],"categories_nodes":[],"categories_segments":[],"categories_sizes":[],"default_left":[0,0,0,0,0,0,0,0,0,0,0,0,0,0,0],"id":4,"left_children":[1,3,5,7,9,11,13,-1,-1,-1,-1,-1,-1,-1,-1],"loss_changes":[4.440011E-2,2.8665207E-2,5.5366598E-2,1.7413273E-2,1.5571943E-2,1.3049234E-1,1.8574286E-2,0E0,0E0,0E0,0E0,0E0,0E0,0E0,0E0],"parents":[2147483647,0,0,1,1,2,2,3,3,4,4,5,5,6,6],"right_children":[2,4,6,8,10,12,14,-1,-1,-1,-1,-1,-1,-1,-1],"split_conditions":[-2.2814393E0,-2.3665583E0,-2.8047035E0,-2.709163E0,-1.291962E0,-2.4202545E0,-1.4922945E0,1.3079637E-4,3.871453E-5,2.0435496E-5,-5.14171E-7,-1.3670084E-4,-6.1634573E-6,4.67745E-6,-3.6275839E-7],"split_indices":[1,19,3,8,3,9,0,0,0,0,0,0,0,0,0],"split_type":[0,0,0,0,0,0,0,0,0,0,0,0,0,0,0],"sum_hessian":[1.408509E6,1.6521E4,1.391988E6,9.03E2,1.5618E4,4.371E3,1.387617E6,3.16E2,5.87E2,1.0169E4,5.449E3,9.89E2,3.382E3,7.7437E4,1.31018E6],"tree_param":{"num_deleted":"0","num_feature":"45","num_nodes":"15","size_leaf_vector":"1"}},{"base_weights":[2.1282129E-10,1.6133806E-3,-1.9149558E-5,7.0338524E-3,1.2995501E-3,-3.5366968E-3,-8.066728E-6,1.2949255E-4,3.8328046E-5,2.0231164E-5,-5.0903077E-7,-1.3533521E-4,-6.101841E-6,-1.8337523E-7,1.2749437E-5],"categories":[],"categories_nodes":[],"categories_segments":[],"categories_sizes":[],"default_left":[0,0,0,0,0,0,0,0,0,0,0,0,0,0,0],"id":5,"left_children":[1,3,5,7,9,11,13,-1,-1,-1,-1,-1,-1,-1,-1],"loss_changes":[4.351717E-2,2.8096601E-2,5.4265805E-2,1.7068043E-2,1.5262093E-2,1.2789825E-1,1.828541E-2,0E0,0E0,0E0,0E0,0E0,0E0,0E0,0E0],"parents":[2147483647,0,0,1,1,2,2,3,3,4,4,5,5,6,6],"right_children":[2,4,6,8,10,12,14,-1,-1,-1,-1,-1,-1,-1,-1],"split_conditions":[-2.2814393E0,-2.3665583E0,-2.8047035E0,-2.709163E0,-1.291962E0,-2.4202545E0,2.6069121E0,1.2949255E-4,3.8328046E-5,2.0231164E-5,-5.0903077E-7,-1.3533521E-4,-6.101841E-6,-1.8337523E-7,1.2749437E-5],"split_indices":[1,19,3,8,3,9,7,0,0,0,0,0,0,0,0],"split_type":[0,0,0,0,0,0,0,0,0,0,0,0,0,0,0],"sum_hessian":[1.408509E6,1.6521E4,1.391988E6,9.03E2,1.5618E4,4.371E3,1.387617E6,3.16E2,5.87E2,1.0169E4,5.449E3,9.89E2,3.382E3,1.376598E6,1.1019E4],"tree_param":{"num_deleted":"0","num_feature":"45","num_nodes":"15","size_leaf_vector":"1"}},{"base_weights":[2.4318872E-10,1.2372867E-3,-2.462407E-5,4.4042263E-3,9.331465E-4,-4.3077553E-3,-1.2899731E-5,5.4063225E-5,-6.855003E-6,2.1350208E-5,4.215863E-6,-1.6908407E-4,-9.240933E-6,-2.3184568E-7,1.2621953E-5],"categories":[],"categories_nodes":[],"categories_segments":[],"categories_sizes":[],"default_left":[0,0,0,0,0,0,0,0,0,0,0,0,0,0,0],"id":6,"left_children":[1,3,5,7,9,11,13,-1,-1,-1,-1,-1,-1,-1,-1],"loss_changes":[4.291357E-2,2.6469268E-2,6.935078E-2,1.2285456E-2,1.5417835E-2,1.6072339E-1,1.8061575E-2,0E0,0E0,0E0,0E0,0E0,0E0,0E0,0E0],"parents":[2147483647,0,0,1,1,2,2,3,3,4,4,5,5,6,6],"right_children":[2,4,6,8,10,12,14,-1,-1,-1,-1,-1,-1,-1,-1],"split_conditions":[-2.0522776E0,-2.709163E0,-2.8047035E0,1E0,-1.6433986E0,-2.4202545E0,2.6069121E0,5.4063225E-5,-6.855003E-6,2.1350208E-5,4.215863E-6,-1.6908407E-4,-9.240933E-6,-2.3184568E-7,1.2621953E-5],"split_indices":[1,8,3,40,4,9,7,0,0,0,0,0,0,0,0],"split_type":[0,0,0,0,0,0,0,0,0,0,0,0,0,0,0],"sum_hessian":[1.408509E6,2.7484E4,1.381025E6,2.407E3,2.5077E4,3.769E3,1.377256E6,2.011E3,3.96E2,7.486E3,1.7591E4,7.97E2,2.972E3,1.366237E6,1.1019E4],"tree_param":{"num_deleted":"0","num_feature":"45","num_nodes":"15","size_leaf_vector":"1"}},{"base_weights":[2.1382819E-10,1.2249165E-3,-2.437791E-5,4.3602036E-3,9.2381606E-4,-4.2647254E-3,-1.2770684E-5,5.352286E-5,-6.7866254E-6,2.1136735E-5,4.173707E-6,-1.6739534E-4,-9.148554E-6,-2.2952683E-7,1.2495747E-5],"categories":[],"categories_nodes":[],"categories_segments":[],"categories_sizes":[],"default_left":[0,0,0,0,0,0,0,0,0,0,0,0,0,0,0],"id":7,"left_children":[1,3,5,7,9,11,13,-1,-1,-1,-1,-1,-1,-1,-1],"loss_changes":[4.2059775E-2,2.5942806E-2,6.797221E-2,1.2041155E-2,1.5111068E-2,1.5752918E-1,1.7702185E-2,0E0,0E0,0E0,0E0,0E0,0E0,0E0,0E0],"parents":[2147483647,0,0,1,1,2,2,3,3,4,4,5,5,6,6],"right_children":[2,4,6,8,10,12,14,-1,-1,-1,-1,-1,-1,-1,-1],"split_conditions":[-2.0522776E0,-2.709163E0,-2.8047035E0,1E0,-1.6433986E0,-2.4202545E0,2.6069121E0,5.352286E-5,-6.7866254E-6,2.1136735E-5,4.173707E-6,-1.6739534E-4,-9.148554E-6,-2.2952683E-7,1.2495747E-5],"split_indices":[1,8,3,40,4,9,7,0,0,0,0,0,0,0,0],"split_type":[0,0,0,0,0,0,0,0,0,0,0,0,0,0,0],"sum_hessian":[1.408509E6,2.7484E4,1.381025E6,2.407E3,2.5077E4,3.769E3,1.377256E6,2.011E3,3.96E2,7.486E3,1.7591E4,7.97E2,2.972E3,1.366237E6,1.1019E4],"tree_param":{"num_deleted":"0","num_feature":"45","num_nodes":"15","size_leaf_vector":"1"}},{"base_weights":[1.0327505E-10,1.571228E-3,-1.8649347E-5,6.9100494E-3,1.262126E-3,-3.4340888E-3,-7.8882285E-6,1.2727454E-4,3.762043E-5,1.9716676E-5,-6.214938E-7,-1.3141053E-4,-5.924311E-6,4.6214222E-6,-3.5669282E-7],"categories":[],"categories_nodes":[],"categories_segments":[],"categories_sizes":[],"default_left":[0,0,0,0,0,0,0,0,0,0,0,0,0,0,0],"id":8,"left_children":[1,3,5,7,9,11,13,-1,-1,-1,-1,-1,-1,-1,-1],"loss_changes":[4.1272946E-2,2.7256556E-2,5.1161062E-2,1.6507275E-2,1.4676182E-2,1.205889E-1,1.8119453E-2,0E0,0E0,0E0,0E0,0E0,0E0,0E0,0E0],"parents":[2147483647,0,0,1,1,2,2,3,3,4,4,5,5,6,6],"right_children":[2,4,6,8,10,12,14,-1,-1,-1,-1,-1,-1,-1,-1],"split_conditions":[-2.2814393E0,-2.3665583E0,-2.8047035E0,-2.709163E0,-1.291962E0,-2.4202545E0,-1.4922945E0,1.2727454E-4,3.762043E-5,1.9716676E-5,-6.214938E-7,-1.3141053E-4,-5.924311E-6,4.6214222E-6,-3.5669282E-7],"split_indices":[1,19,3,8,3,9,0,0,0,0,0,0,0,0,0],"split_type":[0,0,0,0,0,0,0,0,0,0,0,0,0,0,0],"sum_hessian":[1.408509E6,1.6521E4,1.391988E6,9.03E2,1.5618E4,4.371E3,1.387617E6,3.16E2,5.87E2,1.0169E4,5.449E3,9.89E2,3.382E3,7.7437E4,1.31018E6],"tree_param":{"num_deleted":"0","num_feature":"45","num_nodes":"15","size_leaf_vector":"1"}},{"base_weights":[1.7060807E-10,1.203549E-3,-2.3952702E-5,4.295201E-3,9.066393E-4,-4.189674E-3,-1.2549753E-5,5.276796E-5,-6.9035227E-6,2.0807707E-5,4.0688788E-6,-2.0154749E-4,-1.6461448E-5,-2.2632065E-7,1.2374367E-5],"categories":[],"categories_nodes":[],"categories_segments":[],"categories_sizes":[],"default_left":[0,0,0,0,0,0,0,0,0,0,0,0,0,0,0],"id":9,"left_children":[1,3,5,7,9,11,13,-1,-1,-1,-1,-1,-1,-1,-1],"loss_changes":[4.0605195E-2,2.5225729E-2,6.560076E-2,1.1787899E-2,1.4714267E-2,1.5305758E-1,1.735726E-2,0E0,0E0,0E0,0E0,0E0,0E0,0E0,0E0],"parents":[2147483647,0,0,1,1,2,2,3,3,4,4,5,5,6,6],"right_children":[2,4,6,8,10,12,14,-1,-1,-1,-1,-1,-1,-1,-1],"split_conditions":[-2.0522776E0,-2.709163E0,-2.8047035E0,1E0,-1.6433986E0,-2.4202282E0,2.6069121E0,5.276796E-5,-6.9035227E-6,2.0807707E-5,4.0688788E-6,-2.0154749E-4,-1.6461448E-5,-2.2632065E-7,1.2374367E-5],"split_indices":[1,8,3,40,4,8,7,0,0,0,0,0,0,0,0],"split_type":[0,0,0,0,0,0,0,0,0,0,0,0,0,0,0],"sum_hessian":[1.408509E6,2.7484E4,1.381025E6,2.407E3,2.5077E4,3.769E3,1.377256E6,2.011E3,3.96E2,7.486E3,1.7591E4,5.17E2,3.252E3,1.366237E6,1.1019E4],"tree_param":{"num_deleted":"0","num_feature":"45","num_nodes":"15","size_leaf_vector":"1"}},{"base_weights":[3.5604422E-11,1.191516E-3,-2.3713363E-5,4.252268E-3,8.975739E-4,-4.1478346E-3,-1.2424285E-5,5.2240546E-5,-6.8346617E-6,2.0599657E-5,4.028191E-6,-1.9953589E-4,-1.6296884E-5,-2.2405781E-7,1.2250634E-5],"categories":[],"categories_nodes":[],"categories_segments":[],"categories_sizes":[],"default_left":[0,0,0,0,0,0,0,0,0,0,0,0,0,0,0],"id":10,"left_children":[1,3,5,7,9,11,13,-1,-1,-1,-1,-1,-1,-1,-1],"loss_changes":[3.9797332E-2,2.4724007E-2,6.4297095E-2,1.1553492E-2,1.44215E-2,1.50018E-1,1.701188E-2,0E0,0E0,0E0,0E0,0E0,0E0,0E0,0E0],"parents":[2147483647,0,0,1,1,2,2,3,3,4,4,5,5,6,6],"right_children":[2,4,6,8,10,12,14,-1,-1,-1,-1,-1,-1,-1,-1],"split_conditions":[-2.0522776E0,-2.709163E0,-2.8047035E0,1E0,-1.6433986E0,-2.4202282E0,2.6069121E0,5.2240546E-5,-6.8346617E-6,2.0599657E-5,4.028191E-6,-1.9953589E-4,-1.6296884E-5,-2.2405781E-7,1.2250634E-5],"split_indices":[1,8,3,40,4,8,7,0,0,0,0,0,0,0,0],"split_type":[0,0,0,0,0,0,0,0,0,0,0,0,0,0,0],"sum_hessian":[1.408509E6,2.7484E4,1.381025E6,2.407E3,2.5077E4,3.769E3,1.377256E6,2.011E3,3.96E2,7.486E3,1.7591E4,5.17E2,3.252E3,1.366237E6,1.1019E4],"tree_param":{"num_deleted":"0","num_feature":"45","num_nodes":"15","size_leaf_vector":"1"}},{"base_weights":[-5.228545E-11,1.5302018E-3,-1.8162547E-5,6.78883E-3,1.2257437E-3,-3.3343837E-3,-7.714041E-6,1.2510139E-4,3.692837E-5,1.92156E-5,-7.291293E-7,-1.2814002E-4,-5.5928567E-6,4.5644333E-6,-3.5147968E-7],"categories":[],"categories_nodes":[],"categories_segments":[],"categories_sizes":[],"default_left":[0,0,0,0,0,0,0,0,0,0,0,0,0,0,0],"id":11,"left_children":[1,3,5,7,9,11,13,-1,-1,-1,-1,-1,-1,-1,-1],"loss_changes":[3.9145738E-2,2.6443921E-2,4.823178E-2,1.5966475E-2,1.4113886E-2,1.1500648E-1,1.7669471E-2,0E0,0E0,0E0,0E0,0E0,0E0,0E0,0E0],"parents":[2147483647,0,0,1,1,2,2,3,3,4,4,5,5,6,6],"right_children":[2,4,6,8,10,12,14,-1,-1,-1,-1,-1,-1,-1,-1],"split_conditions":[-2.2814393E0,-2.3665583E0,-2.8047035E0,-2.709163E0,-1.291962E0,-2.4202545E0,-1.4922945E0,1.2510139E-4,3.692837E-5,1.92156E-5,-7.291293E-7,-1.2814002E-4,-5.5928567E-6,4.5644333E-6,-3.5147968E-7],"split_indices":[1,19,3,8,3,9,0,0,0,0,0,0,0,0,0],"split_type":[0,0,0,0,0,0,0,0,0,0,0,0,0,0,0],"sum_hessian":[1.408509E6,1.6521E4,1.391988E6,9.03E2,1.5618E4,4.371E3,1.387617E6,3.16E2,5.87E2,1.0169E4,5.449E3,9.89E2,3.382E3,7.7437E4,1.31018E6],"tree_param":{"num_deleted":"0","num_feature":"45","num_nodes":"15","size_leaf_vector":"1"}},{"base_weights":[-5.903452E-11,1.1707096E-3,-2.329937E-5,4.188749E-3,8.8086945E-4,-4.074915E-3,-1.2208764E-5,5.150258E-5,-6.9474067E-6,2.0278696E-5,3.9266624E-6,-1.7049136E-4,-1.09548E-5,-2.2092556E-7,1.2131653E-5],"categories":[],"categories_nodes":[],"categories_segments":[],"categories_sizes":[],"default_left":[0,0,0,0,0,0,0,0,0,0,0,0,0,0,0],"id":12,"left_children":[1,3,5,7,9,11,13,-1,-1,-1,-1,-1,-1,-1,-1],"loss_changes":[3.8419567E-2,2.4038788E-2,6.2056173E-2,1.1310391E-2,1.4042111E-2,1.4571387E-1,1.6680457E-2,0E0,0E0,0E0,0E0,0E0,0E0,0E0,0E0],"parents":[2147483647,0,0,1,1,2,2,3,3,4,4,5,5,6,6],"right_children":[2,4,6,8,10,12,14,-1,-1,-1,-1,-1,-1,-1,-1],"split_conditions":[-2.0522776E0,-2.709163E0,-2.8047035E0,1E0,-1.6433986E0,-2.243902E0,2.6069121E0,5.150258E-5,-6.9474067E-6,2.0278696E-5,3.9266624E-6,-1.7049136E-4,-1.09548E-5,-2.2092556E-7,1.2131653E-5],"split_indices":[1,8,3,40,4,8,7,0,0,0,0,0,0,0,0],"split_type":[0,0,0,0,0,0,0,0,0,0,0,0,0,0,0],"sum_hessian":[1.408509E6,2.7484E4,1.381025E6,2.407E3,2.5077E4,3.769E3,1.377256E6,2.011E3,3.96E2,7.486E3,1.7591E4,7.03E2,3.066E3,1.366237E6,1.1019E4],"tree_param":{"num_deleted":"0","num_feature":"45","num_nodes":"15","size_leaf_vector":"1"}},{"base_weights":[-1.1993677E-10,1.5025294E-3,-1.7834163E-5,6.6955E-3,1.2018732E-3,-3.269108E-3,-7.5902867E-6,1.23411E-4,3.6404825E-5,1.8874784E-5,-7.7724354E-7,-1.258602E-4,-5.4164357E-6,4.513527E-6,-3.4716024E-7],"categories":[],"categories_nodes":[],"categories_segments":[],"categories_sizes":[],"default_left":[0,0,0,0,0,0,0,0,0,0,0,0,0,0,0],"id":13,"left_children":[1,3,5,7,9,11,13,-1,-1,-1,-1,-1,-1,-1,-1],"loss_changes":[3.7742708E-2,2.5787726E-2,4.636107E-2,1.5546728E-2,1.3702676E-2,1.1109246E-1,1.7274704E-2,0E0,0E0,0E0,0E0,0E0,0E0,0E0,0E0],"parents":[2147483647,0,0,1,1,2,2,3,3,4,4,5,5,6,6],"right_children":[2,4,6,8,10,12,14,-1,-1,-1,-1,-1,-1,-1,-1],"split_conditions":[-2.2814393E0,-2.3665583E0,-2.8047035E0,-2.709163E0,-1.291962E0,-2.4202545E0,-1.4922945E0,1.23411E-4,3.6404825E-5,1.8874784E-5,-7.7724354E-7,-1.258602E-4,-5.4164357E-6,4.513527E-6,-3.4716024E-7],"split_indices":[1,19,3,8,3,9,0,0,0,0,0,0,0,0,0],"split_type":[0,0,0,0,0,0,0,0,0,0,0,0,0,0,0],"sum_hessian":[1.408509E6,1.6521E4,1.391988E6,9.03E2,1.5618E4,4.371E3,1.387617E6,3.16E2,5.87E2,1.0169E4,5.449E3,9.89E2,3.382E3,7.7437E4,1.31018E6],"tree_param":{"num_deleted":"0","num_feature":"45","num_nodes":"15","size_leaf_vector":"1"}},{"base_weights":[-1.1720366E-10,1.1502663E-3,-2.289257E-5,4.126166E-3,8.6447323E-4,-4.003336E-3,-1.19967835E-5,5.0775074E-5,-7.0563456E-6,2.3653383E-5,5.009965E-6,-1.9342965E-4,-1.5594598E-5,-2.178382E-7,1.2013818E-5],"categories":[],"categories_nodes":[],"categories_segments":[],"categories_sizes":[],"default_left":[0,0,0,0,0,0,0,0,0,0,0,0,0,0,0],"id":14,"left_children":[1,3,5,7,9,11,13,-1,-1,-1,-1,-1,-1,-1,-1],"loss_changes":[3.7089497E-2,2.3372184E-2,5.9895135E-2,1.1072416E-2,1.3679599E-2,1.413002E-1,1.6355477E-2,0E0,0E0,0E0,0E0,0E0,0E0,0E0,0E0],"parents":[2147483647,0,0,1,1,2,2,3,3,4,4,5,5,6,6],"right_children":[2,4,6,8,10,12,14,-1,-1,-1,-1,-1,-1,-1,-1],"split_conditions":[-2.0522776E0,-2.709163E0,-2.8047035E0,1E0,-1.8985081E0,-2.4202282E0,2.6069121E0,5.0775074E-5,-7.0563456E-6,2.3653383E-5,5.009965E-6,-1.9342965E-4,-1.5594598E-5,-2.178382E-7,1.2013818E-5],"split_indices":[1,8,3,40,4,8,7,0,0,0,0,0,0,0,0],"split_type":[0,0,0,0,0,0,0,0,0,0,0,0,0,0,0],"sum_hessian":[1.408509E6,2.7484E4,1.381025E6,2.407E3,2.5077E4,3.769E3,1.377256E6,2.011E3,3.96E2,4.888E3,2.0189E4,5.17E2,3.252E3,1.366237E6,1.1019E4],"tree_param":{"num_deleted":"0","num_feature":"45","num_nodes":"15","size_leaf_vector":"1"}},{"base_weights":[-1.9120243E-10,1.475379E-3,-1.7511979E-5,6.6030566E-3,1.1785036E-3,-3.2052072E-3,-7.4684212E-6,1.2174395E-4,3.588231E-5,1.8544784E-5,-8.3118914E-7,-1.2366203E-4,-5.2338896E-6,3.4662964E-6,-4.205825E-7],"categories":[],"categories_nodes":[],"categories_segments":[],"categories_sizes":[],"default_left":[0,0,0,0,0,0,0,0,0,0,0,0,0,0,0],"id":15,"left_children":[1,3,5,7,9,11,13,-1,-1,-1,-1,-1,-1,-1,-1],"loss_changes":[3.639103E-2,2.5143344E-2,4.4565614E-2,1.5140455E-2,1.3320429E-2,1.0740535E-1,1.6995823E-2,0E0,0E0,0E0,0E0,0E0,0E0,0E0,0E0],"parents":[2147483647,0,0,1,1,2,2,3,3,4,4,5,5,6,6],"right_children":[2,4,6,8,10,12,14,-1,-1,-1,-1,-1,-1,-1,-1],"split_conditions":[-2.2814393E0,-2.3665583E0,-2.8047035E0,-2.709163E0,-1.291962E0,-2.4202545E0,-1.2437718E0,1.2174395E-4,3.588231E-5,1.8544784E-5,-8.3118914E-7,-1.2366203E-4,-5.2338896E-6,3.4662964E-6,-4.205825E-7],"split_indices":[1,19,3,8,3,9,1,0,0,0,0,0,0,0,0],"split_type":[0,0,0,0,0,0,0,0,0,0,0,0,0,0,0],"sum_hessian":[1.408509E6,1.6521E4,1.391988E6,9.03E2,1.5618E4,4.371E3,1.387617E6,3.16E2,5.87E2,1.0169E4,5.449E3,9.89E2,3.382E3,1.23485E5,1.264132E6],"tree_param":{"num_deleted":"0","num_feature":"45","num_nodes":"15","size_leaf_vector":"1"}},{"base_weights":[-1.14501325E-10,1.129539E-3,-2.2480053E-5,4.064421E-3,8.4768527E-4,-3.93309E-3,-1.1775428E-5,9.0647074E-5,3.1521686E-5,1.9675837E-5,3.7101818E-6,-1.981981E-4,-1.6258362E-5,-2.3664899E-7,9.706201E-6],"categories":[],"categories_nodes":[],"categories_segments":[],"categories_sizes":[],"default_left":[0,0,0,0,0,0,0,0,0,0,0,0,0,0,0],"id":16,"left_children":[1,3,5,7,9,11,13,-1,-1,-1,-1,-1,-1,-1,-1],"loss_changes":[3.576487E-2,2.2732347E-2,5.7811927E-2,1.0955576E-2,1.3386374E-2,1.3815597E-1,1.608661E-2,0E0,0E0,0E0,0E0,0E0,0E0,0E0,0E0],"parents":[2147483647,0,0,1,1,2,2,3,3,4,4,5,5,6,6],"right_children":[2,4,6,8,10,12,14,-1,-1,-1,-1,-1,-1,-1,-1],"split_conditions":[-2.0522776E0,-2.709163E0,-2.8047035E0,-2.7791374E0,-1.6433986E0,-2.2388582E0,2.4215815E0,9.0647074E-5,3.1521686E-5,1.9675837E-5,3.7101818E-6,-1.981981E-4,-1.6258362E-5,-2.3664899E-7,9.706201E-6],"split_indices":[1,8,3,4,4,7,7,0,0,0,0,0,0,0,0],"split_type":[0,0,0,0,0,0,0,0,0,0,0,0,0,0,0],"sum_hessian":[1.408509E6,2.7484E4,1.381025E6,2.407E3,2.5077E4,3.769E3,1.377256E6,3.7E2,2.037E3,7.486E3,1.7591E4,4.77E2,3.292E3,1.360788E6,1.6468E4],"tree_param":{"num_deleted":"0","num_feature":"45","num_nodes":"15","size_leaf_vector":"1"}},{"base_weights":[-1.1768261E-10,1.4486212E-3,-1.7194305E-5,6.5055685E-3,1.1558412E-3,-3.1432384E-3,-7.3449933E-6,1.17437536E-4,3.356716E-5,1.8218803E-5,-8.723658E-7,-1.216808E-4,-5.0128256E-6,4.442538E-6,-3.4036648E-7],"categories":[],"categories_nodes":[],"categories_segments":[],"categories_sizes":[],"default_left":[0,0,0,0,0,0,0,0,0,0,0,0,0,0,0],"id":17,"left_children":[1,3,5,7,9,11,13,-1,-1,-1,-1,-1,-1,-1,-1],"loss_changes":[3.5083E-2,2.44545E-2,4.285846E-2,1.48714E-2,1.2931734E-2,1.0423653E-1,1.6726252E-2,0E0,0E0,0E0,0E0,0E0,0E0,0E0,0E0],"parents":[2147483647,0,0,1,1,2,2,3,3,4,4,5,5,6,6],"right_children":[2,4,6,8,10,12,14,-1,-1,-1,-1,-1,-1,-1,-1],"split_conditions":[-2.2814393E0,-2.3665583E0,-2.8047035E0,-2.8350596E0,-1.291962E0,-2.4202545E0,-1.4922945E0,1.17437536E-4,3.356716E-5,1.8218803E-5,-8.723658E-7,-1.216808E-4,-5.0128256E-6,4.442538E-6,-3.4036648E-7],"split_indices":[1,19,3,2,3,9,0,0,0,0,0,0,0,0,0],"split_type":[0,0,0,0,0,0,0,0,0,0,0,0,0,0,0],"sum_hessian":[1.408509E6,1.6521E4,1.391988E6,9.03E2,1.5618E4,4.371E3,1.387617E6,3.38E2,5.65E2,1.0169E4,5.449E3,9.89E2,3.382E3,7.7437E4,1.31018E6],"tree_param":{"num_deleted":"0","num_feature":"45","num_nodes":"15","size_leaf_vector":"1"}},{"base_weights":[-9.4706486E-11,1.1098089E-3,-2.2087368E-5,4.008096E-3,8.314699E-4,-3.8641398E-3,-1.1570407E-5,4.9488888E-5,-7.6994575E-6,2.2980312E-5,4.7630147E-6,-1.9521834E-4,-1.5901518E-5,-2.1184965E-7,1.1804248E-5],"categories":[],"categories_nodes":[],"categories_segments":[],"categories_sizes":[],"default_left":[0,0,0,0,0,0,0,0,0,0,0,0,0,0,0],"id":18,"left_children":[1,3,5,7,9,11,13,-1,-1,-1,-1,-1,-1,-1,-1],"loss_changes":[3.4526348E-2,2.2168994E-2,5.5802688E-2,1.0828126E-2,1.3061438E-2,1.3420136E-1,1.5784089E-2,0E0,0E0,0E0,0E0,0E0,0E0,0E0,0E0],"parents":[2147483647,0,0,1,1,2,2,3,3,4,4,5,5,6,6],"right_children":[2,4,6,8,10,12,14,-1,-1,-1,-1,-1,-1,-1,-1],"split_conditions":[-2.0522776E0,-2.709163E0,-2.8047035E0,1E0,-1.8985081E0,-2.2388582E0,2.6069121E0,4.9488888E-5,-7.6994575E-6,2.2980312E-5,4.7630147E-6,-1.9521834E-4,-1.5901518E-5,-2.1184965E-7,1.1804248E-5],"split_indices":[1,8,3,40,4,7,7,0,0,0,0,0,0,0,0],"split_type":[0,0,0,0,0,0,0,0,0,0,0,0,0,0,0],"sum_hessian":[1.408509E6,2.7484E4,1.381025E6,2.407E3,2.5077E4,3.769E3,1.377256E6,2.011E3,3.96E2,4.888E3,2.0189E4,4.77E2,3.292E3,1.366237E6,1.1019E4],"tree_param":{"num_deleted":"0","num_feature":"45","num_nodes":"15","size_leaf_vector":"1"}},{"base_weights":[-1.5988014E-10,1.0987134E-3,-2.1866614E-5,3.9680325E-3,8.231563E-4,-3.8255544E-3,-1.1454667E-5,8.9075686E-5,3.0668867E-5,1.9190285E-5,3.5671594E-6,-1.617776E-4,-9.889783E-6,-2.3132176E-7,9.53427E-6],"categories":[],"categories_nodes":[],"categories_segments":[],"categories_sizes":[],"default_left":[0,0,0,0,0,0,0,0,0,0,0,0,0,0,0],"id":19,"left_children":[1,3,5,7,9,11,13,-1,-1,-1,-1,-1,-1,-1,-1],"loss_changes":[3.3839434E-2,2.1728057E-2,5.4693818E-2,1.0691274E-2,1.2818161E-2,1.3207717E-1,1.5518148E-2,0E0,0E0,0E0,0E0,0E0,0E0,0E0,0E0],"parents":[2147483647,0,0,1,1,2,2,3,3,4,4,5,5,6,6],"right_children":[2,4,6,8,10,12,14,-1,-1,-1,-1,-1,-1,-1,-1],"split_conditions":[-2.0522776E0,-2.709163E0,-2.8047035E0,-2.7791374E0,-1.6433986E0,-2.243902E0,2.4215815E0,8.9075686E-5,3.0668867E-5,1.9190285E-5,3.5671594E-6,-1.617776E-4,-9.889783E-6,-2.3132176E-7,9.53427E-6],"split_indices":[1,8,3,4,4,8,7,0,0,0,0,0,0,0,0],"split_type":[0,0,0,0,0,0,0,0,0,0,0,0,0,0,0],"sum_hessian":[1.408509E6,2.7484E4,1.381025E6,2.407E3,2.5077E4,3.769E3,1.377256E6,3.7E2,2.037E3,7.486E3,1.7591E4,7.03E2,3.066E3,1.360788E6,1.6468E4],"tree_param":{"num_deleted":"0","num_feature":"45","num_nodes":"15","size_leaf_vector":"1"}},{"base_weights":[-2.1787258E-10,1.4107397E-3,-1.674478E-5,6.384808E-3,1.1227592E-3,-3.052587E-3,-7.17967E-6,1.1544789E-4,3.283009E-5,1.776326E-5,-9.703854E-7,-1.1878601E-4,-4.6884256E-6,3.4022555E-6,-4.1115715E-7],"categories":[],"categories_nodes":[],"categories_segments":[],"categories_sizes":[],"default_left":[0,0,0,0,0,0,0,0,0,0,0,0,0,0,0],"id":20,"left_children":[1,3,5,7,9,11,13,-1,-1,-1,-1,-1,-1,-1,-1],"loss_changes":[3.3272155E-2,2.3659524E-2,4.0420786E-2,1.4430821E-2,1.2451941E-2,9.969424E-2,1.6359419E-2,0E0,0E0,0E0,0E0,0E0,0E0,0E0,0E0],"parents":[2147483647,0,0,1,1,2,2,3,3,4,4,5,5,6,6],"right_children":[2,4,6,8,10,12,14,-1,-1,-1,-1,-1,-1,-1,-1],"split_conditions":[-2.2814393E0,-2.3665583E0,-2.8047035E0,-2.8350596E0,-1.291962E0,-2.4202545E0,-1.2437718E0,1.1544789E-4,3.283009E-5,1.776326E-5,-9.703854E-7,-1.1878601E-4,-4.6884256E-6,3.4022555E-6,-4.1115715E-7],"split_indices":[1,19,3,2,3,9,1,0,0,0,0,0,0,0,0],"split_type":[0,0,0,0,0,0,0,0,0,0,0,0,0,0,0],"sum_hessian":[1.408509E6,1.6521E4,1.391988E6,9.03E2,1.5618E4,4.371E3,1.387617E6,3.38E2,5.65E2,1.0169E4,5.449E3,9.89E2,3.382E3,1.23485E5,1.264132E6],"tree_param":{"num_deleted":"0","num_feature":"45","num_nodes":"15","size_leaf_vector":"1"}},{"base_weights":[-2.0747726E-10,1.0788742E-3,-2.1471827E-5,3.912904E-3,8.0670655E-4,-3.7585364E-3,-1.1242251E-5,4.843812E-5,-8.148034E-6,2.2431563E-5,4.5883085E-6,-1.9094824E-4,-1.5312347E-5,-2.0685378E-7,1.1594992E-5],"categories":[],"categories_nodes":[],"categories_segments":[],"categories_sizes":[],"default_left":[0,0,0,0,0,0,0,0,0,0,0,0,0,0,0],"id":21,"left_children":[1,3,5,7,9,11,13,-1,-1,-1,-1,-1,-1,-1,-1],"loss_changes":[3.2628413E-2,2.1196887E-2,5.2794624E-2,1.0601707E-2,1.2530597E-2,1.2874848E-1,1.5226237E-2,0E0,0E0,0E0,0E0,0E0,0E0,0E0,0E0],"parents":[2147483647,0,0,1,1,2,2,3,3,4,4,5,5,6,6],"right_children":[2,4,6,8,10,12,14,-1,-1,-1,-1,-1,-1,-1,-1],"split_conditions":[-2.0522776E0,-2.709163E0,-2.8047035E0,1E0,-1.8985081E0,-2.2388582E0,2.6069121E0,4.843812E-5,-8.148034E-6,2.2431563E-5,4.5883085E-6,-1.9094824E-4,-1.5312347E-5,-2.0685378E-7,1.1594992E-5],"split_indices":[1,8,3,40,4,7,7,0,0,0,0,0,0,0,0],"split_type":[0,0,0,0,0,0,0,0,0,0,0,0,0,0,0],"sum_hessian":[1.408509E6,2.7484E4,1.381025E6,2.407E3,2.5077E4,3.769E3,1.377256E6,2.011E3,3.96E2,4.888E3,2.0189E4,4.77E2,3.292E3,1.366237E6,1.1019E4],"tree_param":{"num_deleted":"0","num_feature":"45","num_nodes":"15","size_leaf_vector":"1"}},{"base_weights":[-2.9336517E-10,1.3852511E-3,-1.6442322E-5,6.2968014E-3,1.1008905E-3,-2.0850361E-3,-2.936987E-6,1.1674286E-4,3.387006E-5,1.7452747E-5,-1.0176801E-6,-1.0642949E-4,-2.6421699E-6,2.5865E-5,-8.839057E-8],"categories":[],"categories_nodes":[],"categories_segments":[],"categories_sizes":[],"default_left":[0,0,0,0,0,0,0,0,0,0,0,0,0,0,0],"id":22,"left_children":[1,3,5,7,9,11,13,-1,-1,-1,-1,-1,-1,-1,-1],"loss_changes":[3.208073E-2,2.3068536E-2,3.8888063E-2,1.41056925E-2,1.2104502E-2,1.4069079E-1,2.113587E-2,0E0,0E0,0E0,0E0,0E0,0E0,0E0,0E0],"parents":[2147483647,0,0,1,1,2,2,3,3,4,4,5,5,6,6],"right_children":[2,4,6,8,10,12,14,-1,-1,-1,-1,-1,-1,-1,-1],"split_conditions":[-2.2814393E0,-2.3665583E0,-2.4873376E0,-2.709163E0,-1.291962E0,-2.4202545E0,-2.7227287E0,1.1674286E-4,3.387006E-5,1.7452747E-5,-1.0176801E-6,-1.0642949E-4,-2.6421699E-6,2.5865E-5,-8.839057E-8],"split_indices":[1,19,3,8,3,9,9,0,0,0,0,0,0,0,0],"split_type":[0,0,0,0,0,0,0,0,0,0,0,0,0,0,0],"sum_hessian":[1.408509E6,1.6521E4,1.391988E6,9.03E2,1.5618E4,9.028E3,1.38296E6,3.16E2,5.87E2,1.0169E4,5.449E3,1.583E3,7.445E3,3.144E3,1.379816E6],"tree_param":{"num_deleted":"0","num_feature":"45","num_nodes":"15","size_leaf_vector":"1"}},{"base_weights":[-1.7396498E-10,1.0606084E-3,-2.110827E-5,3.8533702E-3,7.9240405E-4,-3.696423E-3,-1.1047723E-5,8.72159E-5,2.9652625E-5,2.2114791E-5,4.4873627E-6,-1.8139675E-4,-1.3953774E-5,-2.2517908E-7,9.367034E-6],"categories":[],"categories_nodes":[],"categories_segments":[],"categories_sizes":[],"default_left":[0,0,0,0,0,0,0,0,0,0,0,0,0,0,0],"id":23,"left_children":[1,3,5,7,9,11,13,-1,-1,-1,-1,-1,-1,-1,-1],"loss_changes":[3.153294E-2,2.0584067E-2,5.1064324E-2,1.038513E-2,1.2229307E-2,1.2526906E-1,1.4972019E-2,0E0,0E0,0E0,0E0,0E0,0E0,0E0,0E0],"parents":[2147483647,0,0,1,1,2,2,3,3,4,4,5,5,6,6],"right_children":[2,4,6,8,10,12,14,-1,-1,-1,-1,-1,-1,-1,-1],"split_conditions":[-2.0522776E0,-2.709163E0,-2.8047035E0,-2.7791374E0,-1.8985081E0,-2.4202282E0,2.4215815E0,8.72159E-5,2.9652625E-5,2.2114791E-5,4.4873627E-6,-1.8139675E-4,-1.3953774E-5,-2.2517908E-7,9.367034E-6],"split_indices":[1,8,3,4,4,8,7,0,0,0,0,0,0,0,0],"split_type":[0,0,0,0,0,0,0,0,0,0,0,0,0,0,0],"sum_hessian":[1.408509E6,2.7484E4,1.381025E6,2.407E3,2.5077E4,3.769E3,1.377256E6,3.7E2,2.037E3,4.888E3,2.0189E4,5.17E2,3.252E3,1.360788E6,1.6468E4],"tree_param":{"num_deleted":"0","num_feature":"45","num_nodes":"15","size_leaf_vector":"1"}},{"base_weights":[-2.4712044E-10,1.3601468E-3,-1.6144304E-5,6.203443E-3,1.0797384E-3,-2.0514291E-3,-2.8564368E-6,1.1266226E-4,3.1601798E-5,1.7150614E-5,-1.0600785E-6,-1.0485409E-4,-2.5697886E-6,1.3775156E-5,-1.3744375E-7],"categories":[],"categories_nodes":[],"categories_segments":[],"categories_sizes":[],"default_left":[0,0,0,0,0,0,0,0,0,0,0,0,0,0,0],"id":24,"left_children":[1,3,5,7,9,11,13,-1,-1,-1,-1,-1,-1,-1,-1],"loss_changes":[3.0928494E-2,2.2431852E-2,3.764577E-2,1.38926655E-2,1.1766477E-2,1.3664542E-1,2.07851E-2,0E0,0E0,0E0,0E0,0E0,0E0,0E0,0E0],"parents":[2147483647,0,0,1,1,2,2,3,3,4,4,5,5,6,6],"right_children":[2,4,6,8,10,12,14,-1,-1,-1,-1,-1,-1,-1,-1],"split_conditions":[-2.2814393E0,-2.3665583E0,-2.4873376E0,-2.8350596E0,-1.291962E0,-2.4202545E0,-2.2436683E0,1.1266226E-4,3.1601798E-5,1.7150614E-5,-1.0600785E-6,-1.0485409E-4,-2.5697886E-6,1.3775156E-5,-1.3744375E-7],"split_indices":[1,19,3,2,3,9,9,0,0,0,0,0,0,0,0],"split_type":[0,0,0,0,0,0,0,0,0,0,0,0,0,0,0],"sum_hessian":[1.408509E6,1.6521E4,1.391988E6,9.03E2,1.5618E4,9.028E3,1.38296E6,3.38E2,5.65E2,1.0169E4,5.449E3,1.583E3,7.445E3,1.0822E4,1.372138E6],"tree_param":{"num_deleted":"0","num_feature":"45","num_nodes":"15","size_leaf_vector":"1"}},{"base_weights":[-2.1431268E-10,8.196723E-4,-2.641338E-5,3.179841E-3,5.665366E-4,-1.6723736E-3,-1.6590597E-5,8.308276E-5,2.4877343E-5,-2.4917288E-5,6.5445774E-6,-9.371576E-5,-2.2895138E-6,-2.8193602E-7,9.274735E-6],"categories":[],"categories_nodes":[],"categories_segments":[],"categories_sizes":[],"default_left":[0,0,0,0,0,0,0,0,0,0,0,0,0,0,0],"id":25,"left_children":[1,3,5,7,9,11,13,-1,-1,-1,-1,-1,-1,-1,-1],"loss_changes":[3.049447E-2,2.6268363E-2,2.2061735E-2,1.5096329E-2,1.067991E-2,8.9959204E-2,1.4858514E-2,0E0,0E0,0E0,0E0,0E0,0E0,0E0,0E0],"parents":[2147483647,0,0,1,1,2,2,3,3,4,4,5,5,6,6],"right_children":[2,4,6,8,10,12,14,-1,-1,-1,-1,-1,-1,-1,-1],"split_conditions":[-1.8431411E0,-2.4674966E0,-2.4873376E0,-2.3665583E0,-2.8047035E0,-2.4202545E0,2.4215815E0,8.308276E-5,2.4877343E-5,-2.4917288E-5,6.5445774E-6,-9.371576E-5,-2.2895138E-6,-2.8193602E-7,9.274735E-6],"split_indices":[0,1,3,19,3,9,7,0,0,0,0,0,0,0,0],"split_type":[0,0,0,0,0,0,0,0,0,0,0,0,0,0,0],"sum_hessian":[1.408509E6,4.397E4,1.364539E6,4.258E3,3.9712E4,8.094E3,1.356445E6,5.05E2,3.753E3,1.109E3,3.8603E4,1.277E3,6.817E3,1.339977E6,1.6468E4],"tree_param":{"num_deleted":"0","num_feature":"45","num_nodes":"15","size_leaf_vector":"1"}},{"base_weights":[-1.9229215E-10,9.46099E-4,-2.2690389E-5,3.7228926E-3,6.996469E-4,-4.003397E-3,-1.2518226E-5,4.6173645E-5,-7.4979E-6,1.3995155E-5,3.0366488E-7,-2.110253E-4,-1.6630933E-5,5.017411E-6,-3.357839E-7],"categories":[],"categories_nodes":[],"categories_segments":[],"categories_sizes":[],"default_left":[0,0,0,0,0,0,0,0,0,0,0,0,0,0,0],"id":26,"left_children":[1,3,5,7,9,11,13,-1,-1,-1,-1,-1,-1,-1,-1],"loss_changes":[3.0236755E-2,2.2573303E-2,5.5698138E-2,1.0761317E-2,1.4193198E-2,1.4026509E-1,1.485949E-2,0E0,0E0,0E0,0E0,0E0,0E0,0E0,0E0],"parents":[2147483647,0,0,1,1,2,2,3,3,4,4,5,5,6,6],"right_children":[2,4,6,8,10,12,14,-1,-1,-1,-1,-1,-1,-1,-1],"split_conditions":[-1.9684241E0,-2.709163E0,-2.8047035E0,1E0,-1.2918708E0,-2.2388582E0,-1.656777E0,4.6173645E-5,-7.4979E-6,1.3995155E-5,3.0366488E-7,-2.110253E-4,-1.6630933E-5,5.017411E-6,-3.357839E-7],"split_indices":[1,8,3,40,4,7,15,0,0,0,0,0,0,0,0],"split_type":[0,0,0,0,0,0,0,0,0,0,0,0,0,0,0],"sum_hessian":[1.408509E6,3.2988E4,1.375521E6,2.688E3,3.03E4,3.505E3,1.372016E6,2.24E3,4.48E2,1.4811E4,1.5489E4,4.21E2,3.084E3,5.3976E4,1.31804E6],"tree_param":{"num_deleted":"0","num_feature":"45","num_nodes":"15","size_leaf_vector":"1"}},{"base_weights":[-3.0103348E-10,1.0284154E-3,-2.0467696E-5,3.7535925E-3,7.6670176E-4,-3.5781413E-3,-1.0729173E-5,4.6634457E-5,-8.670083E-6,2.1597081E-5,4.293478E-6,-1.5627006E-4,-9.405657E-6,-1.9928822E-7,1.1298264E-5],"categories":[],"categories_nodes":[],"categories_segments":[],"categories_sizes":[],"default_left":[0,0,0,0,0,0,0,0,0,0,0,0,0,0,0],"id":27,"left_children":[1,3,5,7,9,11,13,-1,-1,-1,-1,-1,-1,-1,-1],"loss_changes":[2.9647736E-2,1.9599868E-2,4.7847666E-2,1.012744E-2,1.1784133E-2,1.1979512E-1,1.4451183E-2,0E0,0E0,0E0,0E0,0E0,0E0,0E0,0E0],"parents":[2147483647,0,0,1,1,2,2,3,3,4,4,5,5,6,6],"right_children":[2,4,6,8,10,12,14,-1,-1,-1,-1,-1,-1,-1,-1],"split_conditions":[-2.0522776E0,-2.709163E0,-2.8047035E0,1E0,-1.8985081E0,-2.0247564E0,2.6069121E0,4.6634457E-5,-8.670083E-6,2.1597081E-5,4.293478E-6,-1.5627006E-4,-9.405657E-6,-1.9928822E-7,1.1298264E-5],"split_indices":[1,8,3,40,4,7,7,0,0,0,0,0,0,0,0],"split_type":[0,0,0,0,0,0,0,0,0,0,0,0,0,0,0],"sum_hessian":[1.408509E6,2.7484E4,1.381025E6,2.407E3,2.5077E4,3.769E3,1.377256E6,2.011E3,3.96E2,4.888E3,2.0189E4,6.76E2,3.093E3,1.366237E6,1.1019E4],"tree_param":{"num_deleted":"0","num_feature":"45","num_nodes":"15","size_leaf_vector":"1"}},{"base_weights":[-4.0342493E-10,8.0634886E-4,-2.598424E-5,3.118153E-3,5.5840035E-4,-1.6377062E-3,-1.6365784E-5,8.1738086E-5,2.4358727E-5,-2.414836E-5,6.438768E-6,-9.200951E-5,-2.1977355E-6,-2.7764065E-7,9.110411E-6],"categories":[],"categories_nodes":[],"categories_segments":[],"categories_sizes":[],"default_left":[0,0,0,0,0,0,0,0,0,0,0,0,0,0,0],"id":28,"left_children":[1,3,5,7,9,11,13,-1,-1,-1,-1,-1,-1,-1,-1],"loss_changes":[2.9511191E-2,2.5202805E-2,2.115345E-2,1.4670972E-2,1.0094287E-2,8.681015E-2,1.4338806E-2,0E0,0E0,0E0,0E0,0E0,0E0,0E0,0E0],"parents":[2147483647,0,0,1,1,2,2,3,3,4,4,5,5,6,6],"right_children":[2,4,6,8,10,12,14,-1,-1,-1,-1,-1,-1,-1,-1],"split_conditions":[-1.8431411E0,-2.4674966E0,-2.4873376E0,-2.3665583E0,-2.8047035E0,-2.4202545E0,2.4215815E0,8.1738086E-5,2.4358727E-5,-2.414836E-5,6.438768E-6,-9.200951E-5,-2.1977355E-6,-2.7764065E-7,9.110411E-6],"split_indices":[0,1,3,19,3,9,7,0,0,0,0,0,0,0,0],"split_type":[0,0,0,0,0,0,0,0,0,0,0,0,0,0,0],"sum_hessian":[1.408509E6,4.397E4,1.364539E6,4.258E3,3.9712E4,8.094E3,1.356445E6,5.05E2,3.753E3,1.109E3,3.8603E4,1.277E3,6.817E3,1.339977E6,1.6468E4],"tree_param":{"num_deleted":"0","num_feature":"45","num_nodes":"15","size_leaf_vector":"1"}},{"base_weights":[-3.9928852E-10,7.982874E-4,-2.5724463E-5,3.0869963E-3,5.528159E-4,-1.6213408E-3,-1.6202122E-5,8.092232E-5,2.4115205E-5,-2.3907094E-5,6.3743823E-6,-9.1090136E-5,-2.175762E-6,-2.2740521E-7,1.5857122E-5],"categories":[],"categories_nodes":[],"categories_segments":[],"categories_sizes":[],"default_left":[0,0,0,0,0,0,0,0,0,0,0,0,0,0,0],"id":29,"left_children":[1,3,5,7,9,11,13,-1,-1,-1,-1,-1,-1,-1,-1],"loss_changes":[2.8924065E-2,2.4701763E-2,2.0732794E-2,1.4379803E-2,9.893554E-3,8.508399E-2,1.4207392E-2,0E0,0E0,0E0,0E0,0E0,0E0,0E0,0E0],"parents":[2147483647,0,0,1,1,2,2,3,3,4,4,5,5,6,6],"right_children":[2,4,6,8,10,12,14,-1,-1,-1,-1,-1,-1,-1,-1],"split_conditions":[-1.8431411E0,-2.4674966E0,-2.4873376E0,-2.3665583E0,-2.8047035E0,-2.4202545E0,2.2470121E0,8.092232E-5,2.4115205E-5,-2.3907094E-5,6.3743823E-6,-9.1090136E-5,-2.175762E-6,-2.2740521E-7,1.5857122E-5],"split_indices":[0,1,3,19,3,9,16,0,0,0,0,0,0,0,0],"split_type":[0,0,0,0,0,0,0,0,0,0,0,0,0,0,0],"sum_hessian":[1.408509E6,4.397E4,1.364539E6,4.258E3,3.9712E4,8.094E3,1.356445E6,5.05E2,3.753E3,1.109E3,3.8603E4,1.277E3,6.817E3,1.350932E6,5.513E3],"tree_param":{"num_deleted":"0","num_feature":"45","num_nodes":"15","size_leaf_vector":"1"}},{"base_weights":[-3.3696923E-10,9.2156755E-4,-2.2102204E-5,3.6420843E-3,6.801105E-4,-3.8881951E-3,-1.222292E-5,4.516243E-5,-7.2903167E-6,1.3693851E-5,2.0961683E-7,-2.0611794E-4,-1.5992982E-5,4.951065E-6,-3.299929E-7],"categories":[],"categories_nodes":[],"categories_segments":[],"categories_sizes":[],"default_left":[0,0,0,0,0,0,0,0,0,0,0,0,0,0,0],"id":30,"left_children":[1,3,5,7,9,11,13,-1,-1,-1,-1,-1,-1,-1,-1],"loss_changes":[2.8689075E-2,2.1667603E-2,5.253695E-2,1.0278087E-2,1.3766761E-2,1.3417178E-1,1.4461713E-2,0E0,0E0,0E0,0E0,0E0,0E0,0E0,0E0],"parents":[2147483647,0,0,1,1,2,2,3,3,4,4,5,5,6,6],"right_children":[2,4,6,8,10,12,14,-1,-1,-1,-1,-1,-1,-1,-1],"split_conditions":[-1.9684241E0,-2.709163E0,-2.8047035E0,1E0,-1.2918708E0,-2.2388582E0,-1.656777E0,4.516243E-5,-7.2903167E-6,1.3693851E-5,2.0961683E-7,-2.0611794E-4,-1.5992982E-5,4.951065E-6,-3.299929E-7],"split_indices":[1,8,3,40,4,7,15,0,0,0,0,0,0,0,0],"split_type":[0,0,0,0,0,0,0,0,0,0,0,0,0,0,0],"sum_hessian":[1.408509E6,3.2988E4,1.375521E6,2.688E3,3.03E4,3.505E3,1.372016E6,2.24E3,4.48E2,1.4811E4,1.5489E4,4.21E2,3.084E3,5.3976E4,1.31804E6],"tree_param":{"num_deleted":"0","num_feature":"45","num_nodes":"15","size_leaf_vector":"1"}},{"base_weights":[-4.734034E-10,8.427998E-4,-2.3715807E-5,3.5753122E-3,6.263691E-4,-4.199992E-3,-1.37265415E-5,8.5179425E-5,2.5464447E-5,2.7645432E-5,4.7845533E-6,-2.4374349E-4,-1.7338727E-5,4.949722E-6,-3.4105403E-7],"categories":[],"categories_nodes":[],"categories_segments":[],"categories_sizes":[],"default_left":[0,0,0,0,0,0,0,0,0,0,0,0,0,0,0],"id":31,"left_children":[1,3,5,7,9,11,13,-1,-1,-1,-1,-1,-1,-1,-1],"loss_changes":[2.8152317E-2,2.2795621E-2,5.715193E-2,1.4364656E-2,1.1295995E-2,1.6259825E-1,1.4168127E-2,0E0,0E0,0E0,0E0,0E0,0E0,0E0,0E0],"parents":[2147483647,0,0,1,1,2,2,3,3,4,4,5,5,6,6],"right_children":[2,4,6,8,10,12,14,-1,-1,-1,-1,-1,-1,-1,-1],"split_conditions":[-1.8985543E0,-2.477461E0,-2.8047035E0,-2.6389449E0,-2.709163E0,-2.2388582E0,-1.656777E0,8.5179425E-5,2.5464447E-5,2.7645432E-5,4.7845533E-6,-2.4374349E-4,-1.7338727E-5,4.949722E-6,-3.4105403E-7],"split_indices":[1,4,3,5,8,7,15,0,0,0,0,0,0,0,0],"split_type":[0,0,0,0,0,0,0,0,0,0,0,0,0,0,0],"sum_hessian":[1.408509E6,3.8548E4,1.369961E6,2.828E3,3.572E4,3.268E3,1.366693E6,4.86E2,2.342E3,2.31E3,3.341E4,3.55E2,2.913E3,5.2641E4,1.314052E6],"tree_param":{"num_deleted":"0","num_feature":"45","num_nodes":"15","size_leaf_vector":"1"}},{"base_weights":[-5.4373156E-10,7.837338E-4,-2.5255637E-5,3.027362E-3,5.430973E-4,-1.587754E-3,-1.5930937E-5,7.9504396E-5,2.362976E-5,-2.3250212E-5,6.255517E-6,-8.946956E-5,-2.0807543E-6,-2.5145135E-7,1.1090281E-5],"categories":[],"categories_nodes":[],"categories_segments":[],"categories_sizes":[],"default_left":[0,0,0,0,0,0,0,0,0,0,0,0,0,0,0],"id":32,"left_children":[1,3,5,7,9,11,13,-1,-1,-1,-1,-1,-1,-1,-1],"loss_changes":[2.7879057E-2,2.3738243E-2,1.9881085E-2,1.391165E-2,9.393137E-3,8.218937E-2,1.4060402E-2,0E0,0E0,0E0,0E0,0E0,0E0,0E0,0E0],"parents":[2147483647,0,0,1,1,2,2,3,3,4,4,5,5,6,6],"right_children":[2,4,6,8,10,12,14,-1,-1,-1,-1,-1,-1,-1,-1],"split_conditions":[-1.8431411E0,-2.4674966E0,-2.4873376E0,-2.3665583E0,-2.8047035E0,-2.4202545E0,2.6069121E0,7.9504396E-5,2.362976E-5,-2.3250212E-5,6.255517E-6,-8.946956E-5,-2.0807543E-6,-2.5145135E-7,1.1090281E-5],"split_indices":[0,1,3,19,3,9,7,0,0,0,0,0,0,0,0],"split_type":[0,0,0,0,0,0,0,0,0,0,0,0,0,0,0],"sum_hessian":[1.408509E6,4.397E4,1.364539E6,4.258E3,3.9712E4,8.094E3,1.356445E6,5.05E2,3.753E3,1.109E3,3.8603E4,1.277E3,6.817E3,1.345426E6,1.1019E4],"tree_param":{"num_deleted":"0","num_feature":"45","num_nodes":"15","size_leaf_vector":"1"}},{"base_weights":[-5.4617255E-10,8.3148846E-4,-2.3397597E-5,3.5399434E-3,6.1696337E-4,-2.8223684E-3,-8.86142E-6,8.424363E-5,2.5231902E-5,1.046602E-5,-1.0195513E-6,-2.5595585E-4,-1.4905575E-5,5.296658E-6,-3.1330302E-7],"categories":[],"categories_nodes":[],"categories_segments":[],"categories_sizes":[],"default_left":[0,0,0,0,0,0,0,0,0,0,0,0,0,0,0],"id":33,"left_children":[1,3,5,7,9,11,13,-1,-1,-1,-1,-1,-1,-1,-1],"loss_changes":[2.7401723E-2,2.2396002E-2,5.573871E-2,1.4028262E-2,1.1033438E-2,2.146349E-1,1.6491067E-2,0E0,0E0,0E0,0E0,0E0,0E0,0E0,0E0],"parents":[2147483647,0,0,1,1,2,2,3,3,4,4,5,5,6,6],"right_children":[2,4,6,8,10,12,14,-1,-1,-1,-1,-1,-1,-1,-1],"split_conditions":[-1.8985543E0,-2.477461E0,-2.4873376E0,-2.6389449E0,-1.2482145E0,-2.709163E0,-1.5625271E0,8.424363E-5,2.5231902E-5,1.046602E-5,-1.0195513E-6,-2.5595585E-4,-1.4905575E-5,5.296658E-6,-3.1330302E-7],"split_indices":[1,4,3,5,3,8,6,0,0,0,0,0,0,0,0],"split_type":[0,0,0,0,0,0,0,0,0,0,0,0,0,0,0],"sum_hessian":[1.408509E6,3.8548E4,1.369961E6,2.828E3,3.572E4,7.077E3,1.362884E6,4.86E2,2.342E3,2.2358E4,1.3362E4,3.9E2,6.687E3,5.4585E4,1.308299E6],"tree_param":{"num_deleted":"0","num_feature":"45","num_nodes":"15","size_leaf_vector":"1"}},{"base_weights":[-6.5888267E-10,7.716528E-4,-2.4866455E-5,2.9837345E-3,5.343998E-4,-1.5564006E-3,-1.5726546E-5,7.835693E-5,2.3289464E-5,-2.2977683E-5,6.158207E-6,-8.802141E-5,-1.9799454E-6,-2.2195923E-7,1.5692773E-5],"categories":[],"categories_nodes":[],"categories_segments":[],"categories_sizes":[],"default_left":[0,0,0,0,0,0,0,0,0,0,0,0,0,0,0],"id":34,"left_children":[1,3,5,7,9,11,13,-1,-1,-1,-1,-1,-1,-1,-1],"loss_changes":[2.7026195E-2,2.3075396E-2,1.910092E-2,1.3512615E-2,9.15914E-3,7.967456E-2,1.3909017E-2,0E0,0E0,0E0,0E0,0E0,0E0,0E0,0E0],"parents":[2147483647,0,0,1,1,2,2,3,3,4,4,5,5,6,6],"right_children":[2,4,6,8,10,12,14,-1,-1,-1,-1,-1,-1,-1,-1],"split_conditions":[-1.8431411E0,-2.4674966E0,-2.4873376E0,-2.3665583E0,-2.8047035E0,-2.4202545E0,2.2470121E0,7.835693E-5,2.3289464E-5,-2.2977683E-5,6.158207E-6,-8.802141E-5,-1.9799454E-6,-2.2195923E-7,1.5692773E-5],"split_indices":[0,1,3,19,3,9,16,0,0,0,0,0,0,0,0],"split_type":[0,0,0,0,0,0,0,0,0,0,0,0,0,0,0],"sum_hessian":[1.408509E6,4.397E4,1.364539E6,4.258E3,3.9712E4,8.094E3,1.356445E6,5.05E2,3.753E3,1.109E3,3.8603E4,1.277E3,6.817E3,1.350932E6,5.513E3],"tree_param":{"num_deleted":"0","num_feature":"45","num_nodes":"15","size_leaf_vector":"1"}},{"base_weights":[-5.719466E-10,8.2031236E-4,-2.3083143E-5,3.5048998E-3,6.0767785E-4,-4.086979E-3,-1.3362679E-5,8.33182E-5,2.500113E-5,2.71275E-5,4.6205428E-6,-2.3878348E-4,-1.6676877E-5,4.8778484E-6,-3.3439034E-7],"categories":[],"categories_nodes":[],"categories_segments":[],"categories_sizes":[],"default_left":[0,0,0,0,0,0,0,0,0,0,0,0,0,0,0],"id":35,"left_children":[1,3,5,7,9,11,13,-1,-1,-1,-1,-1,-1,-1,-1],"loss_changes":[2.667006E-2,2.200303E-2,5.4117486E-2,1.3699893E-2,1.0948954E-2,1.5648347E-1,1.3750619E-2,0E0,0E0,0E0,0E0,0E0,0E0,0E0,0E0],"parents":[2147483647,0,0,1,1,2,2,3,3,4,4,5,5,6,6],"right_children":[2,4,6,8,10,12,14,-1,-1,-1,-1,-1,-1,-1,-1],"split_conditions":[-1.8985543E0,-2.477461E0,-2.8047035E0,-2.6389449E0,-2.709163E0,-2.2388582E0,-1.656777E0,8.33182E-5,2.500113E-5,2.71275E-5,4.6205428E-6,-2.3878348E-4,-1.6676877E-5,4.8778484E-6,-3.3439034E-7],"split_indices":[1,4,3,5,8,7,15,0,0,0,0,0,0,0,0],"split_type":[0,0,0,0,0,0,0,0,0,0,0,0,0,0,0],"sum_hessian":[1.408509E6,3.8548E4,1.369961E6,2.828E3,3.572E4,3.268E3,1.366693E6,4.86E2,2.342E3,2.31E3,3.341E4,3.55E2,2.913E3,5.2641E4,1.314052E6],"tree_param":{"num_deleted":"0","num_feature":"45","num_nodes":"15","size_leaf_vector":"1"}},{"base_weights":[-6.8305217E-10,7.6068495E-4,-2.4513052E-5,2.9399379E-3,5.2695296E-4,-1.5326656E-3,-1.5512678E-5,7.7213655E-5,2.2946682E-5,-2.2575736E-5,6.0700413E-6,-8.681322E-5,-1.9246086E-6,-2.6692484E-7,8.941181E-6],"categories":[],"categories_nodes":[],"categories_segments":[],"categories_sizes":[],"default_left":[0,0,0,0,0,0,0,0,0,0,0,0,0,0,0],"id":36,"left_children":[1,3,5,7,9,11,13,-1,-1,-1,-1,-1,-1,-1,-1],"loss_changes":[2.6263388E-2,2.239557E-2,1.8522153E-2,1.31226145E-2,8.853588E-3,7.75538E-2,1.3794394E-2,0E0,0E0,0E0,0E0,0E0,0E0,0E0,0E0],"parents":[2147483647,0,0,1,1,2,2,3,3,4,4,5,5,6,6],"right_children":[2,4,6,8,10,12,14,-1,-1,-1,-1,-1,-1,-1,-1],"split_conditions":[-1.8431411E0,-2.4674966E0,-2.4873376E0,-2.3665583E0,-2.8047035E0,-2.4202545E0,2.4215815E0,7.7213655E-5,2.2946682E-5,-2.2575736E-5,6.0700413E-6,-8.681322E-5,-1.9246086E-6,-2.6692484E-7,8.941181E-6],"split_indices":[0,1,3,19,3,9,7,0,0,0,0,0,0,0,0],"split_type":[0,0,0,0,0,0,0,0,0,0,0,0,0,0,0],"sum_hessian":[1.408509E6,4.397E4,1.364539E6,4.258E3,3.9712E4,8.094E3,1.356445E6,5.05E2,3.753E3,1.109E3,3.8603E4,1.277E3,6.817E3,1.339977E6,1.6468E4],"tree_param":{"num_deleted":"0","num_feature":"45","num_nodes":"15","size_leaf_vector":"1"}},{"base_weights":[-6.9737977E-10,8.7675126E-4,-2.1027747E-5,3.4997964E-3,6.4394553E-4,-3.6873503E-3,-1.1658951E-5,4.3604283E-5,-8.034913E-6,1.3176289E-5,-2.9209046E-9,-1.6796007E-4,-9.967815E-6,-1.7969539E-7,1.5522615E-5],"categories":[],"categories_nodes":[],"categories_segments":[],"categories_sizes":[],"default_left":[0,0,0,0,0,0,0,0,0,0,0,0,0,0,0],"id":37,"left_children":[1,3,5,7,9,11,13,-1,-1,-1,-1,-1,-1,-1,-1],"loss_changes":[2.5966614E-2,2.0142805E-2,4.7247805E-2,9.962339E-3,1.3151003E-2,1.2363899E-1,1.3540822E-2,0E0,0E0,0E0,0E0,0E0,0E0,0E0,0E0],"parents":[2147483647,0,0,1,1,2,2,3,3,4,4,5,5,6,6],"right_children":[2,4,6,8,10,12,14,-1,-1,-1,-1,-1,-1,-1,-1],"split_conditions":[-1.9684241E0,-2.709163E0,-2.8047035E0,1E0,-1.2918708E0,-2.0247564E0,2.2470121E0,4.3604283E-5,-8.034913E-6,1.3176289E-5,-2.9209046E-9,-1.6796007E-4,-9.967815E-6,-1.7969539E-7,1.5522615E-5],"split_indices":[1,8,3,40,4,7,16,0,0,0,0,0,0,0,0],"split_type":[0,0,0,0,0,0,0,0,0,0,0,0,0,0,0],"sum_hessian":[1.408509E6,3.2988E4,1.375521E6,2.688E3,3.03E4,3.505E3,1.372016E6,2.24E3,4.48E2,1.4811E4,1.5489E4,5.96E2,2.909E3,1.366503E6,5.513E3],"tree_param":{"num_deleted":"0","num_feature":"45","num_nodes":"15","size_leaf_vector":"1"}},{"base_weights":[-7.697507E-10,7.5108145E-4,-2.4203677E-5,3.6760038E-3,5.817576E-4,-1.5088201E-3,-1.5343763E-5,1.0919758E-4,2.5675585E-5,1.2083274E-5,2.9529333E-6,-8.556824E-5,-1.874857E-6,-2.4376936E-7,1.0875139E-5],"categories":[],"categories_nodes":[],"categories_segments":[],"categories_sizes":[],"default_left":[0,0,0,0,0,0,0,0,0,0,0,0,0,0,0],"id":38,"left_children":[1,3,5,7,9,11,13,-1,-1,-1,-1,-1,-1,-1,-1],"loss_changes":[2.5604438E-2,2.17749E-2,1.7948551E-2,1.9290466E-2,7.4603185E-3,7.538527E-2,1.3513356E-2,0E0,0E0,0E0,0E0,0E0,0E0,0E0,0E0],"parents":[2147483647,0,0,1,1,2,2,3,3,4,4,5,5,6,6],"right_children":[2,4,6,8,10,12,14,-1,-1,-1,-1,-1,-1,-1,-1],"split_conditions":[-1.8431411E0,-2.777399E0,-2.4873376E0,-2.346302E0,-1.5637608E0,-2.4202545E0,2.6069121E0,1.0919758E-4,2.5675585E-5,1.2083274E-5,2.9529333E-6,-8.556824E-5,-1.874857E-6,-2.4376936E-7,1.0875139E-5],"split_indices":[0,1,3,18,2,9,7,0,0,0,0,0,0,0,0],"split_type":[0,0,0,0,0,0,0,0,0,0,0,0,0,0,0],"sum_hessian":[1.408509E6,4.397E4,1.364539E6,2.405E3,4.1565E4,8.094E3,1.356445E6,3.18E2,2.087E3,1.304E4,2.8525E4,1.277E3,6.817E3,1.345426E6,1.1019E4],"tree_param":{"num_deleted":"0","num_feature":"45","num_nodes":"15","size_leaf_vector":"1"}},{"base_weights":[-7.298981E-10,1.5130498E-3,-1.19199785E-5,7.635947E-3,1.1798455E-3,-1.701415E-3,-8.6979554E-7,1.4021939E-4,3.935331E-5,1.4256093E-5,-5.8689686E-5,-1.0021502E-4,-1.5150052E-6,1.5932923E-5,-1.0003952E-7],"categories":[],"categories_nodes":[],"categories_segments":[],"categories_sizes":[],"default_left":[0,0,0,0,0,0,0,0,0,0,0,0,0,0,0],"id":39,"left_children":[1,3,5,7,9,11,13,-1,-1,-1,-1,-1,-1,-1,-1],"loss_changes":[2.5401685E-2,2.2451282E-2,2.6090283E-2,1.336785E-2,1.8097494E-2,1.1710183E-1,2.0217283E-2,0E0,0E0,0E0,0E0,0E0,0E0,0E0,0E0],"parents":[2147483647,0,0,1,1,2,2,3,3,4,4,5,5,6,6],"right_children":[2,4,6,8,10,12,14,-1,-1,-1,-1,-1,-1,-1,-1],"split_conditions":[-2.203187E0,-2.777399E0,-2.4873376E0,-2.709163E0,-3.2283598E-1,-2.4202545E0,-2.4202545E0,1.4021939E-4,3.935331E-5,1.4256093E-5,-5.8689686E-5,-1.0021502E-4,-1.5150052E-6,1.5932923E-5,-1.0003952E-7],"split_indices":[18,1,3,8,3,9,9,0,0,0,0,0,0,0,0],"split_type":[0,0,0,0,0,0,0,0,0,0,0,0,0,0,0],"sum_hessian":[1.408509E6,1.1008E4,1.397501E6,5.67E2,1.0441E4,9.08E3,1.388421E6,2.07E2,3.6E2,1.009E4,3.51E2,1.425E3,7.655E3,7.909E3,1.380512E6],"tree_param":{"num_deleted":"0","num_feature":"45","num_nodes":"15","size_leaf_vector":"1"}},{"base_weights":[-6.3137456E-10,7.9709414E-4,-2.2429871E-5,3.4487739E-3,5.8706646E-4,-2.7108355E-3,-8.467902E-6,8.162001E-5,2.4676427E-5,1.0061608E-5,-1.1420722E-6,-2.4872503E-4,-1.4147944E-5,5.172067E-6,-3.0400537E-7],"categories":[],"categories_nodes":[],"categories_segments":[],"categories_sizes":[],"default_left":[0,0,0,0,0,0,0,0,0,0,0,0,0,0,0],"id":40,"left_children":[1,3,5,7,9,11,13,-1,-1,-1,-1,-1,-1,-1,-1],"loss_changes":[2.5181685E-2,2.1466918E-2,5.14221E-2,1.3061989E-2,1.04985135E-2,2.0326221E-1,1.5713306E-2,0E0,0E0,0E0,0E0,0E0,0E0,0E0,0E0],"parents":[2147483647,0,0,1,1,2,2,3,3,4,4,5,5,6,6],"right_children":[2,4,6,8,10,12,14,-1,-1,-1,-1,-1,-1,-1,-1],"split_conditions":[-1.8985543E0,-2.477461E0,-2.4873376E0,-2.6389449E0,-1.2482145E0,-2.709163E0,-1.5625271E0,8.162001E-5,2.4676427E-5,1.0061608E-5,-1.1420722E-6,-2.4872503E-4,-1.4147944E-5,5.172067E-6,-3.0400537E-7],"split_indices":[1,4,3,5,3,8,6,0,0,0,0,0,0,0,0],"split_type":[0,0,0,0,0,0,0,0,0,0,0,0,0,0,0],"sum_hessian":[1.408509E6,3.8548E4,1.369961E6,2.828E3,3.572E4,7.077E3,1.362884E6,4.86E2,2.342E3,2.2358E4,1.3362E4,3.9E2,6.687E3,5.4585E4,1.308299E6],"tree_param":{"num_deleted":"0","num_feature":"45","num_nodes":"15","size_leaf_vector":"1"}},{"base_weights":[-7.4767537E-10,1.2165088E-3,-1.4439922E-5,5.0773798E-3,9.249104E-4,-1.8180388E-3,-2.6646737E-6,8.9450485E-5,2.7186758E-5,1.4989996E-5,-2.036121E-6,-9.498147E-5,-1.8399237E-6,2.4726753E-5,-8.3066844E-8],"categories":[],"categories_nodes":[],"categories_segments":[],"categories_sizes":[],"default_left":[0,0,0,0,0,0,0,0,0,0,0,0,0,0,0],"id":41,"left_children":[1,3,5,7,9,11,13,-1,-1,-1,-1,-1,-1,-1,-1],"loss_changes":[2.474105E-2,1.8596165E-2,2.9562812E-2,1.0558E-2,9.953571E-3,1.1330907E-1,1.9314308E-2,0E0,0E0,0E0,0E0,0E0,0E0,0E0,0E0],"parents":[2147483647,0,0,1,1,2,2,3,3,4,4,5,5,6,6],"right_children":[2,4,6,8,10,12,14,-1,-1,-1,-1,-1,-1,-1,-1],"split_conditions":[-2.2814393E0,-2.3136075E0,-2.4873376E0,-2.6389449E0,-1.2698514E0,-2.4202545E0,-2.7227287E0,8.9450485E-5,2.7186758E-5,1.4989996E-5,-2.036121E-6,-9.498147E-5,-1.8399237E-6,2.4726753E-5,-8.3066844E-8],"split_indices":[1,17,3,5,3,9,9,0,0,0,0,0,0,0,0],"split_type":[0,0,0,0,0,0,0,0,0,0,0,0,0,0,0],"sum_hessian":[1.408509E6,1.6521E4,1.391988E6,1.159E3,1.5362E4,9.028E3,1.38296E6,4.38E2,7.21E2,1.0182E4,5.18E3,1.583E3,7.445E3,3.144E3,1.379816E6],"tree_param":{"num_deleted":"0","num_feature":"45","num_nodes":"15","size_leaf_vector":"1"}},{"base_weights":[-7.223942E-10,1.489652E-3,-1.1735651E-5,7.4829496E-3,1.1634997E-3,-1.6598852E-3,-9.558904E-7,1.3765099E-4,3.8425893E-5,1.406707E-5,-5.8119775E-5,-9.798732E-5,-1.4373361E-6,1.560579E-5,-9.9031E-8],"categories":[],"categories_nodes":[],"categories_segments":[],"categories_sizes":[],"default_left":[0,0,0,0,0,0,0,0,0,0,0,0,0,0,0],"id":42,"left_children":[1,3,5,7,9,11,13,-1,-1,-1,-1,-1,-1,-1,-1],"loss_changes":[2.4622137E-2,2.1510893E-2,2.4828939E-2,1.2936857E-2,1.7722894E-2,1.12055644E-1,1.9398188E-2,0E0,0E0,0E0,0E0,0E0,0E0,0E0,0E0],"parents":[2147483647,0,0,1,1,2,2,3,3,4,4,5,5,6,6],"right_children":[2,4,6,8,10,12,14,-1,-1,-1,-1,-1,-1,-1,-1],"split_conditions":[-2.203187E0,-2.777399E0,-2.4873376E0,-2.709163E0,-3.2283598E-1,-2.4202545E0,-2.4202545E0,1.3765099E-4,3.8425893E-5,1.406707E-5,-5.8119775E-5,-9.798732E-5,-1.4373361E-6,1.560579E-5,-9.9031E-8],"split_indices":[18,1,3,8,3,9,9,0,0,0,0,0,0,0,0],"split_type":[0,0,0,0,0,0,0,0,0,0,0,0,0,0,0],"sum_hessian":[1.408509E6,1.1008E4,1.397501E6,5.67E2,1.0441E4,9.08E3,1.388421E6,2.07E2,3.6E2,1.009E4,3.51E2,1.425E3,7.655E3,7.909E3,1.380512E6],"tree_param":{"num_deleted":"0","num_feature":"45","num_nodes":"15","size_leaf_vector":"1"}},{"base_weights":[-6.120262E-10,7.339198E-4,-2.3650497E-5,2.8228073E-3,5.0987967E-4,-1.4435425E-3,-1.5176846E-5,7.348858E-5,2.211991E-5,-2.1705104E-5,5.86937E-6,-8.1960316E-5,-1.7761051E-6,-2.1507302E-7,1.5357908E-5],"categories":[],"categories_nodes":[],"categories_segments":[],"categories_sizes":[],"default_left":[0,0,0,0,0,0,0,0,0,0,0,0,0,0,0],"id":43,"left_children":[1,3,5,7,9,11,13,-1,-1,-1,-1,-1,-1,-1,-1],"loss_changes":[2.4447715E-2,2.0576753E-2,1.6417673E-2,1.1758119E-2,8.203748E-3,6.9196165E-2,1.331807E-2,0E0,0E0,0E0,0E0,0E0,0E0,0E0,0E0],"parents":[2147483647,0,0,1,1,2,2,3,3,4,4,5,5,6,6],"right_children":[2,4,6,8,10,12,14,-1,-1,-1,-1,-1,-1,-1,-1],"split_conditions":[-1.8431411E0,-2.4674966E0,-2.4873376E0,-2.3665583E0,-2.8047035E0,-2.4202545E0,2.2470121E0,7.348858E-5,2.211991E-5,-2.1705104E-5,5.86937E-6,-8.1960316E-5,-1.7761051E-6,-2.1507302E-7,1.5357908E-5],"split_indices":[0,1,3,19,3,9,16,0,0,0,0,0,0,0,0],"split_type":[0,0,0,0,0,0,0,0,0,0,0,0,0,0,0],"sum_hessian":[1.408509E6,4.397E4,1.364539E6,4.258E3,3.9712E4,8.094E3,1.356445E6,5.05E2,3.753E3,1.109E3,3.8603E4,1.277E3,6.817E3,1.350932E6,5.513E3],"tree_param":{"num_deleted":"0","num_feature":"45","num_nodes":"15","size_leaf_vector":"1"}},{"base_weights":[-6.88923E-10,7.8023254E-4,-2.1955466E-5,3.407181E-3,5.7216396E-4,-2.643586E-3,-8.340287E-6,8.0133635E-5,2.4483168E-5,9.829682E-6,-1.1523754E-6,-2.4394649E-4,-1.37155985E-5,5.2262735E-6,-2.9402193E-7],"categories":[],"categories_nodes":[],"categories_segments":[],"categories_sizes":[],"default_left":[0,0,0,0,0,0,0,0,0,0,0,0,0,0,0],"id":44,"left_children":[1,3,5,7,9,11,13,-1,-1,-1,-1,-1,-1,-1,-1],"loss_changes":[2.4127577E-2,2.1068374E-2,4.8899356E-2,1.24752335E-2,1.0087278E-2,1.9580004E-1,1.5241417E-2,0E0,0E0,0E0,0E0,0E0,0E0,0E0,0E0],"parents":[2147483647,0,0,1,1,2,2,3,3,4,4,5,5,6,6],"right_children":[2,4,6,8,10,12,14,-1,-1,-1,-1,-1,-1,-1,-1],"split_conditions":[-1.8985543E0,-2.477461E0,-2.4873376E0,-2.6389449E0,-1.2482145E0,-2.709163E0,-1.656777E0,8.0133635E-5,2.4483168E-5,9.829682E-6,-1.1523754E-6,-2.4394649E-4,-1.37155985E-5,5.2262735E-6,-2.9402193E-7],"split_indices":[1,4,3,5,3,8,15,0,0,0,0,0,0,0,0],"split_type":[0,0,0,0,0,0,0,0,0,0,0,0,0,0,0],"sum_hessian":[1.408509E6,3.8548E4,1.369961E6,2.828E3,3.572E4,7.077E3,1.362884E6,4.86E2,2.342E3,2.2358E4,1.3362E4,3.9E2,6.687E3,5.1998E4,1.310886E6],"tree_param":{"num_deleted":"0","num_feature":"45","num_nodes":"15","size_leaf_vector":"1"}},{"base_weights":[-7.7080503E-10,1.4657073E-3,-1.1547073E-5,7.3353387E-3,1.1462842E-3,-1.6198743E-3,-1.027771E-6,1.3523348E-4,3.7496284E-5,1.38700525E-5,-5.7578723E-5,-2.595981E-4,-1.1303237E-5,1.5386651E-5,-9.849832E-8],"categories":[],"categories_nodes":[],"categories_segments":[],"categories_sizes":[],"default_left":[0,0,0,0,0,0,0,0,0,0,0,0,0,0,0],"id":45,"left_children":[1,3,5,7,9,11,13,-1,-1,-1,-1,-1,-1,-1,-1],"loss_changes":[2.3836948E-2,2.063232E-2,2.3643607E-2,1.2552312E-2,1.7362345E-2,1.0817647E-1,1.885932E-2,0E0,0E0,0E0,0E0,0E0,0E0,0E0,0E0],"parents":[2147483647,0,0,1,1,2,2,3,3,4,4,5,5,6,6],"right_children":[2,4,6,8,10,12,14,-1,-1,-1,-1,-1,-1,-1,-1],"split_conditions":[-2.203187E0,-2.777399E0,-2.4873376E0,-2.709163E0,-3.2283598E-1,-2.6389449E0,-2.4202545E0,1.3523348E-4,3.7496284E-5,1.38700525E-5,-5.7578723E-5,-2.595981E-4,-1.1303237E-5,1.5386651E-5,-9.849832E-8],"split_indices":[18,1,3,8,3,5,9,0,0,0,0,0,0,0,0],"split_type":[0,0,0,0,0,0,0,0,0,0,0,0,0,0,0],"sum_hessian":[1.408509E6,1.1008E4,1.397501E6,5.67E2,1.0441E4,9.08E3,1.388421E6,2.07E2,3.6E2,1.009E4,3.51E2,1.78E2,8.902E3,7.909E3,1.380512E6],"tree_param":{"num_deleted":"0","num_feature":"45","num_nodes":"15","size_leaf_vector":"1"}},{"base_weights":[-7.86926E-10,7.213367E-4,-2.3245198E-5,3.5187013E-3,5.593971E-4,-1.4022337E-3,-1.5015652E-5,1.0327819E-4,2.4767343E-5,1.1713437E-5,2.7961878E-6,-8.0390615E-5,-1.5798792E-6,-2.5980927E-7,8.771601E-6],"categories":[],"categories_nodes":[],"categories_segments":[],"categories_sizes":[],"default_left":[0,0,0,0,0,0,0,0,0,0,0,0,0,0,0],"id":46,"left_children":[1,3,5,7,9,11,13,-1,-1,-1,-1,-1,-1,-1,-1],"loss_changes":[2.3616595E-2,1.9917075E-2,1.5485392E-2,1.7044697E-2,7.1161613E-3,6.684599E-2,1.327007E-2,0E0,0E0,0E0,0E0,0E0,0E0,0E0,0E0],"parents":[2147483647,0,0,1,1,2,2,3,3,4,4,5,5,6,6],"right_children":[2,4,6,8,10,12,14,-1,-1,-1,-1,-1,-1,-1,-1],"split_conditions":[-1.8431411E0,-2.777399E0,-2.4873376E0,-2.346302E0,-1.5637608E0,-2.4202545E0,2.4215815E0,1.0327819E-4,2.4767343E-5,1.1713437E-5,2.7961878E-6,-8.0390615E-5,-1.5798792E-6,-2.5980927E-7,8.771601E-6],"split_indices":[0,1,3,18,2,9,7,0,0,0,0,0,0,0,0],"split_type":[0,0,0,0,0,0,0,0,0,0,0,0,0,0,0],"sum_hessian":[1.408509E6,4.397E4,1.364539E6,2.405E3,4.1565E4,8.094E3,1.356445E6,3.18E2,2.087E3,1.304E4,2.8525E4,1.277E3,6.817E3,1.339977E6,1.6468E4],"tree_param":{"num_deleted":"0","num_feature":"45","num_nodes":"15","size_leaf_vector":"1"}},{"base_weights":[-7.5465867E-10,7.6730596E-4,-2.1591797E-5,3.3623371E-3,5.617655E-4,-3.819998E-3,-1.250636E-5,7.894853E-5,2.4188043E-5,2.55637E-5,4.237842E-6,-2.2788742E-4,-1.5012974E-5,-1.8711121E-7,1.5191977E-5],"categories":[],"categories_nodes":[],"categories_segments":[],"categories_sizes":[],"default_left":[0,0,0,0,0,0,0,0,0,0,0,0,0,0,0],"id":47,"left_children":[1,3,5,7,9,11,13,-1,-1,-1,-1,-1,-1,-1,-1],"loss_changes":[2.3334732E-2,2.0559527E-2,4.7277585E-2,1.2079347E-2,9.829982E-3,1.4374569E-1,1.2988895E-2,0E0,0E0,0E0,0E0,0E0,0E0,0E0,0E0],"parents":[2147483647,0,0,1,1,2,2,3,3,4,4,5,5,6,6],"right_children":[2,4,6,8,10,12,14,-1,-1,-1,-1,-1,-1,-1,-1],"split_conditions":[-1.8985543E0,-2.477461E0,-2.8047035E0,-2.6389449E0,-2.709163E0,-2.2388582E0,2.2470121E0,7.894853E-5,2.4188043E-5,2.55637E-5,4.237842E-6,-2.2788742E-4,-1.5012974E-5,-1.8711121E-7,1.5191977E-5],"split_indices":[1,4,3,5,8,7,16,0,0,0,0,0,0,0,0],"split_type":[0,0,0,0,0,0,0,0,0,0,0,0,0,0,0],"sum_hessian":[1.408509E6,3.8548E4,1.369961E6,2.828E3,3.572E4,3.268E3,1.366693E6,4.86E2,2.342E3,2.31E3,3.341E4,3.55E2,2.913E3,1.36118E6,5.513E3],"tree_param":{"num_deleted":"0","num_feature":"45","num_nodes":"15","size_leaf_vector":"1"}},{"base_weights":[-7.7982953E-10,1.4420459E-3,-1.1360687E-5,2.75252E-3,6.6413944E-5,-1.5887525E-3,-1.043718E-6,2.9401423E-5,-1.2659183E-4,4.7071067E-6,-5.7007463E-5,-2.5646048E-4,-1.104888E-5,1.5144537E-5,-9.7271446E-8],"categories":[],"categories_nodes":[],"categories_segments":[],"categories_sizes":[],"default_left":[0,0,0,0,0,0,0,0,0,0,0,0,0,0,0],"id":48,"left_children":[1,3,5,7,9,11,13,-1,-1,-1,-1,-1,-1,-1,-1],"loss_changes":[2.3073545E-2,1.9846074E-2,2.2742806E-2,1.6339932E-2,1.2528276E-2,1.0567875E-1,1.8271249E-2,0E0,0E0,0E0,0E0,0E0,0E0,0E0,0E0],"parents":[2147483647,0,0,1,1,2,2,3,3,4,4,5,5,6,6],"right_children":[2,4,6,8,10,12,14,-1,-1,-1,-1,-1,-1,-1,-1],"split_conditions":[-2.203187E0,-1.6790485E0,-2.4873376E0,-1.4277221E0,-3.2283598E-1,-2.6389449E0,-2.4202545E0,2.9401423E-5,-1.2659183E-4,4.7071067E-6,-5.7007463E-5,-2.5646048E-4,-1.104888E-5,1.5144537E-5,-9.7271446E-8],"split_indices":[18,2,3,11,3,5,9,0,0,0,0,0,0,0,0],"split_type":[0,0,0,0,0,0,0,0,0,0,0,0,0,0,0],"sum_hessian":[1.408509E6,1.1008E4,1.397501E6,5.637E3,5.371E3,9.08E3,1.388421E6,5.57E3,6.7E1,5.02E3,3.51E2,1.78E2,8.902E3,7.909E3,1.380512E6],"tree_param":{"num_deleted":"0","num_feature":"45","num_nodes":"15","size_leaf_vector":"1"}},{"base_weights":[-1.1612905E-9,7.099938E-4,-2.2880073E-5,3.4630913E-3,5.506169E-4,-1.3689783E-3,-1.4846809E-5,1.0154391E-4,2.4391507E-5,1.1508748E-5,2.761825E-6,-7.906653E-5,-1.4332306E-6,-2.3706794E-7,1.0668663E-5],"categories":[],"categories_nodes":[],"categories_segments":[],"categories_sizes":[],"default_left":[0,0,0,0,0,0,0,0,0,0,0,0,0,0,0],"id":49,"left_children":[1,3,5,7,9,11,13,-1,-1,-1,-1,-1,-1,-1,-1],"loss_changes":[2.2879729E-2,1.9291699E-2,1.4755518E-2,1.6459923E-2,6.8469066E-3,6.486358E-2,1.3000154E-2,0E0,0E0,0E0,0E0,0E0,0E0,0E0,0E0],"parents":[2147483647,0,0,1,1,2,2,3,3,4,4,5,5,6,6],"right_children":[2,4,6,8,10,12,14,-1,-1,-1,-1,-1,-1,-1,-1],"split_conditions":[-1.8431411E0,-2.777399E0,-2.4873376E0,-2.346302E0,-1.5637608E0,-2.4202545E0,2.6069121E0,1.0154391E-4,2.4391507E-5,1.1508748E-5,2.761825E-6,-7.906653E-5,-1.4332306E-6,-2.3706794E-7,1.0668663E-5],"split_indices":[0,1,3,18,2,9,7,0,0,0,0,0,0,0,0],"split_type":[0,0,0,0,0,0,0,0,0,0,0,0,0,0,0],"sum_hessian":[1.408509E6,4.397E4,1.364539E6,2.405E3,4.1565E4,8.094E3,1.356445E6,3.18E2,2.087E3,1.304E4,2.8525E4,1.277E3,6.817E3,1.345426E6,1.1019E4],"tree_param":{"num_deleted":"0","num_feature":"45","num_nodes":"15","size_leaf_vector":"1"}}]},"name":"gbtree"},"learner_model_param":{"base_score":"7.618711E-5","boost_from_average":"1","num_class":"0","num_feature":"45","num_target":"1"},"objective":{"name":"reg:squarederror","reg_loss_param":{"scale_pos_weight":"1"}}},"version":[2,1,1]}