{"learner":{"attributes":{"scikit_learn":"{\"_estimator_type\": \"regressor\"}"},"feature_names":["Momentum_10","Momentum_30","Momentum_60","Momentum_120","Momentum_300","RSI_10","RSI_30","RSI_60","RSI_120","RSI_300","BB_10","BB_30","BB_60","BB_120","BB_300","MRC_10","MRC_30","MRC_60","MRC_120","MRC_300","Active_AAVEUSDT.csv","Active_ALGOUSDT.csv","Active_AVAXUSDT.csv","Active_BCHUSDT.csv","Active_BTCUSDT.csv","Active_CHZUSDT.csv","Active_DASHUSDT.csv","Active_DOTUSDT.csv","Active_EOSUSDT.csv","Active_ETHUSDT.csv","Active_GRTUSDT.csv","Active_ICPUSDT.csv","Active_IOTAUSDT.csv","Active_LTCUSDT.csv","Active_MATICUSDT.csv","Active_NEOUSDT.csv","Active_RVNUSDT.csv","Active_SHIBUSDT.csv","Active_STMXUSDT.csv","Active_TFUELUSDT.csv","Active_TRXUSDT.csv","Active_VETUSDT.csv","Active_XEMUSDT.csv","Active_XRPUSDT.csv","Active_ZECUSDT.csv"],"feature_types":["float","float","float","float","float","float","float","float","float","float","float","float","float","float","float","float","float","float","float","float","float","float","float","float","float","float","float","float","float","float","float","float","float","float","float","float","float","float","float","float","float","float","float","float","float"],"gradient_booster":{"model":{"gbtree_model_param":{"num_parallel_tree":"1","num_trees":"50"},"iteration_indptr":[0,1,2,3,4,5,6,7,8,9,10,11,12,13,14,15,16,17,18,19,20,21,22,23,24,25,26,27,28,29,30,31,32,33,34,35,36,37,38,39,40,41,42,43,44,45,46,47,48,49,50],"tree_info":[0,0,0,0,0,0,0,0,0,0,0,0,0,0,0,0,0,0,0,0,0,0,0,0,0,0,0,0,0,0,0,0,0,0,0,0,0,0,0,0,0,0,0,0,0,0,0,0,0,0],"trees":[{"base_weights":[-2.4248268E-12,1.2123832E-3,-6.4904E-5,2.0803597E-3,2.3902171E-4,-6.1958265E-3,-5.006981E-5,3.0845753E-5,1.5026369E-5,-2.5932754E-6,6.519051E-6,-3.0015613E-4,-7.1055692E-6,-6.8636064E-7,2.1783804E-5],"categories":[],"categories_nodes":[],"categories_segments":[],"categories_sizes":[],"default_left":[0,0,0,0,0,0,0,0,0,0,0,0,0,0,0],"id":0,"left_children":[1,3,5,7,9,11,13,-1,-1,-1,-1,-1,-1,-1,-1],"loss_changes":[1.1083364E-1,6.046746E-2,1.2159063E-1,2.194506E-2,6.9423104E-3,4.2161188E-1,5.5181157E-2,0E0,0E0,0E0,0E0,0E0,0E0,0E0,0E0],"parents":[2147483647,0,0,1,1,2,2,3,3,4,4,5,5,6,6],"right_children":[2,4,6,8,10,12,14,-1,-1,-1,-1,-1,-1,-1,-1],"split_conditions":[-1.5976355E0,-1.1461405E0,-2.8047035E0,-2.180137E0,-1.6068828E0,-2.4202545E0,2.6069121E0,3.0845753E-5,1.5026369E-5,-2.5932754E-6,6.519051E-6,-3.0015613E-4,-7.1055692E-6,-6.8636064E-7,2.1783804E-5],"split_indices":[0,2,3,0,13,9,7,0,0,0,0,0,0,0,0],"split_type":[0,0,0,0,0,0,0,0,0,0,0,0,0,0,0],"sum_hessian":[1.408509E6,7.1571E4,1.336938E6,3.7833E4,3.3738E4,3.226E3,1.333712E6,1.3815E4,2.4018E4,1.5287E4,1.8451E4,6.03E2,2.623E3,1.322693E6,1.1019E4],"tree_param":{"num_deleted":"0","num_feature":"45","num_nodes":"15","size_leaf_vector":"1"}},{"base_weights":[-1.8518229E-10,1.20026E-3,-6.425519E-5,2.0595575E-3,2.3663166E-4,-6.1339634E-3,-4.9569113E-5,3.0537318E-5,1.4876112E-5,-2.567343E-6,6.453864E-6,-3.4298378E-4,-1.5812624E-5,-6.7949713E-7,2.1565984E-5],"categories":[],"categories_nodes":[],"categories_segments":[],"categories_sizes":[],"default_left":[0,0,0,0,0,0,0,0,0,0,0,0,0,0,0],"id":1,"left_children":[1,3,5,7,9,11,13,-1,-1,-1,-1,-1,-1,-1,-1],"loss_changes":[1.08628206E-1,5.9264228E-2,1.1917471E-1,2.150841E-2,6.8041645E-3,4.1372508E-1,5.4083142E-2,0E0,0E0,0E0,0E0,0E0,0E0,0E0,0E0],"parents":[2147483647,0,0,1,1,2,2,3,3,4,4,5,5,6,6],"right_children":[2,4,6,8,10,12,14,-1,-1,-1,-1,-1,-1,-1,-1],"split_conditions":[-1.5976355E0,-1.1461405E0,-2.8047035E0,-2.180137E0,-1.6068828E0,-2.1209016E0,2.6069121E0,3.0537318E-5,1.4876112E-5,-2.567343E-6,6.453864E-6,-3.4298378E-4,-1.5812624E-5,-6.7949713E-7,2.1565984E-5],"split_indices":[0,2,3,0,13,7,7,0,0,0,0,0,0,0,0],"split_type":[0,0,0,0,0,0,0,0,0,0,0,0,0,0,0],"sum_hessian":[1.408509E6,7.1571E4,1.336938E6,3.7833E4,3.3738E4,3.226E3,1.333712E6,1.3815E4,2.4018E4,1.5287E4,1.8451E4,4.48E2,2.778E3,1.322693E6,1.1019E4],"tree_param":{"num_deleted":"0","num_feature":"45","num_nodes":"15","size_leaf_vector":"1"}},{"base_weights":[-3.5830483E-10,1.1882581E-3,-6.361285E-5,2.038963E-3,2.3426542E-4,-6.072735E-3,-4.9073373E-5,3.0231966E-5,1.4727356E-5,-2.5416718E-6,6.3893285E-6,-2.9507873E-4,-6.7605188E-6,-6.7270184E-7,2.1350346E-5],"categories":[],"categories_nodes":[],"categories_segments":[],"categories_sizes":[],"default_left":[0,0,0,0,0,0,0,0,0,0,0,0,0,0,0],"id":2,"left_children":[1,3,5,7,9,11,13,-1,-1,-1,-1,-1,-1,-1,-1],"loss_changes":[1.0646665E-1,5.8084942E-2,1.16807446E-1,2.1080434E-2,6.6687698E-3,4.0810522E-1,5.3006984E-2,0E0,0E0,0E0,0E0,0E0,0E0,0E0,0E0],"parents":[2147483647,0,0,1,1,2,2,3,3,4,4,5,5,6,6],"right_children":[2,4,6,8,10,12,14,-1,-1,-1,-1,-1,-1,-1,-1],"split_conditions":[-1.5976355E0,-1.1461405E0,-2.8047035E0,-2.180137E0,-1.6068828E0,-2.4202545E0,2.6069121E0,3.0231966E-5,1.4727356E-5,-2.5416718E-6,6.3893285E-6,-2.9507873E-4,-6.7605188E-6,-6.7270184E-7,2.1350346E-5],"split_indices":[0,2,3,0,13,9,7,0,0,0,0,0,0,0,0],"split_type":[0,0,0,0,0,0,0,0,0,0,0,0,0,0,0],"sum_hessian":[1.408509E6,7.1571E4,1.336938E6,3.7833E4,3.3738E4,3.226E3,1.333712E6,1.3815E4,2.4018E4,1.5287E4,1.8451E4,6.03E2,2.623E3,1.322693E6,1.1019E4],"tree_param":{"num_deleted":"0","num_feature":"45","num_nodes":"15","size_leaf_vector":"1"}},{"base_weights":[-5.0248505E-10,1.1763762E-3,-6.297693E-5,2.0185746E-3,2.3192282E-4,-6.012101E-3,-4.8582606E-5,2.9929672E-5,1.45800905E-5,-2.5162578E-6,6.325438E-6,-3.3721453E-4,-1.5329675E-5,-6.659747E-7,2.113686E-5],"categories":[],"categories_nodes":[],"categories_segments":[],"categories_sizes":[],"default_left":[0,0,0,0,0,0,0,0,0,0,0,0,0,0,0],"id":3,"left_children":[1,3,5,7,9,11,13,-1,-1,-1,-1,-1,-1,-1,-1],"loss_changes":[1.0434812E-1,5.692912E-2,1.14486575E-1,2.0660982E-2,6.53607E-3,4.0046385E-1,5.195224E-2,0E0,0E0,0E0,0E0,0E0,0E0,0E0,0E0],"parents":[2147483647,0,0,1,1,2,2,3,3,4,4,5,5,6,6],"right_children":[2,4,6,8,10,12,14,-1,-1,-1,-1,-1,-1,-1,-1],"split_conditions":[-1.5976355E0,-1.1461405E0,-2.8047035E0,-2.180137E0,-1.6068828E0,-2.1209016E0,2.6069121E0,2.9929672E-5,1.45800905E-5,-2.5162578E-6,6.325438E-6,-3.3721453E-4,-1.5329675E-5,-6.659747E-7,2.113686E-5],"split_indices":[0,2,3,0,13,7,7,0,0,0,0,0,0,0,0],"split_type":[0,0,0,0,0,0,0,0,0,0,0,0,0,0,0],"sum_hessian":[1.408509E6,7.1571E4,1.336938E6,3.7833E4,3.3738E4,3.226E3,1.333712E6,1.3815E4,2.4018E4,1.5287E4,1.8451E4,4.48E2,2.778E3,1.322693E6,1.1019E4],"tree_param":{"num_deleted":"0","num_feature":"45","num_nodes":"15","size_leaf_vector":"1"}},{"base_weights":[-7.9523654E-10,1.1646131E-3,-6.2347506E-5,1.99839E-3,2.2960377E-4,-5.952089E-3,-4.8096867E-5,2.9630395E-5,1.4434295E-5,-2.4910964E-6,6.2621884E-6,-2.900879E-4,-6.4256174E-6,-6.5931596E-7,2.0925514E-5],"categories":[],"categories_nodes":[],"categories_segments":[],"categories_sizes":[],"default_left":[0,0,0,0,0,0,0,0,0,0,0,0,0,0,0],"id":4,"left_children":[1,3,5,7,9,11,13,-1,-1,-1,-1,-1,-1,-1,-1],"loss_changes":[1.02271765E-1,5.5796288E-2,1.12212434E-1,2.0249873E-2,6.406009E-3,3.9503133E-1,5.0918486E-2,0E0,0E0,0E0,0E0,0E0,0E0,0E0,0E0],"parents":[2147483647,0,0,1,1,2,2,3,3,4,4,5,5,6,6],"right_children":[2,4,6,8,10,12,14,-1,-1,-1,-1,-1,-1,-1,-1],"split_conditions":[-1.5976355E0,-1.1461405E0,-2.8047035E0,-2.180137E0,-1.6068828E0,-2.4202545E0,2.6069121E0,2.9630395E-5,1.4434295E-5,-2.4910964E-6,6.2621884E-6,-2.900879E-4,-6.4256174E-6,-6.5931596E-7,2.0925514E-5],"split_indices":[0,2,3,0,13,9,7,0,0,0,0,0,0,0,0],"split_type":[0,0,0,0,0,0,0,0,0,0,0,0,0,0,0],"sum_hessian":[1.408509E6,7.1571E4,1.336938E6,3.7833E4,3.3738E4,3.226E3,1.333712E6,1.3815E4,2.4018E4,1.5287E4,1.8451E4,6.03E2,2.623E3,1.322693E6,1.1019E4],"tree_param":{"num_deleted":"0","num_feature":"45","num_nodes":"15","size_leaf_vector":"1"}},{"base_weights":[-9.173008E-10,1.1529677E-3,-6.1724204E-5,1.9784074E-3,2.2730783E-4,-5.8926605E-3,-4.761585E-5,2.933411E-5,1.428996E-5,9.976783E-8,1.08797185E-5,-3.3154304E-4,-1.4859059E-5,-6.527225E-7,2.0716276E-5],"categories":[],"categories_nodes":[],"categories_segments":[],"categories_sizes":[],"default_left":[0,0,0,0,0,0,0,0,0,0,0,0,0,0,0],"id":5,"left_children":[1,3,5,7,9,11,13,-1,-1,-1,-1,-1,-1,-1,-1],"loss_changes":[1.002367E-1,5.4686025E-2,1.0998286E-1,1.9846931E-2,6.3108355E-3,3.8762754E-1,4.9905296E-2,0E0,0E0,0E0,0E0,0E0,0E0,0E0,0E0],"parents":[2147483647,0,0,1,1,2,2,3,3,4,4,5,5,6,6],"right_children":[2,4,6,8,10,12,14,-1,-1,-1,-1,-1,-1,-1,-1],"split_conditions":[-1.5976355E0,-1.1461405E0,-2.8047035E0,-2.180137E0,-2.991795E-1,-2.1209016E0,2.6069121E0,2.933411E-5,1.428996E-5,9.976783E-8,1.08797185E-5,-3.3154304E-4,-1.4859059E-5,-6.527225E-7,2.0716276E-5],"split_indices":[0,2,3,0,2,7,7,0,0,0,0,0,0,0,0],"split_type":[0,0,0,0,0,0,0,0,0,0,0,0,0,0,0],"sum_hessian":[1.408509E6,7.1571E4,1.336938E6,3.7833E4,3.3738E4,3.226E3,1.333712E6,1.3815E4,2.4018E4,2.6937E4,6.801E3,4.48E2,2.778E3,1.322693E6,1.1019E4],"tree_param":{"num_deleted":"0","num_feature":"45","num_nodes":"15","size_leaf_vector":"1"}},{"base_weights":[-9.972858E-10,1.1414387E-3,-6.1107094E-5,1.9586245E-3,2.2503507E-4,-5.8338414E-3,-4.7139565E-5,-9.031814E-6,2.1390051E-5,-2.4699916E-6,6.161165E-6,-2.8518218E-4,-6.100613E-6,-6.4619417E-7,2.0509133E-5],"categories":[],"categories_nodes":[],"categories_segments":[],"categories_sizes":[],"default_left":[0,0,0,0,0,0,0,0,0,0,0,0,0,0,0],"id":6,"left_children":[1,3,5,7,9,11,13,-1,-1,-1,-1,-1,-1,-1,-1],"loss_changes":[9.824213E-2,5.3597815E-2,1.0779822E-1,1.9532412E-2,6.228501E-3,3.8237625E-1,4.8912264E-2,0E0,0E0,0E0,0E0,0E0,0E0,0E0,0E0],"parents":[2147483647,0,0,1,1,2,2,3,3,4,4,5,5,6,6],"right_children":[2,4,6,8,10,12,14,-1,-1,-1,-1,-1,-1,-1,-1],"split_conditions":[-1.5976355E0,-1.1461405E0,-2.8047035E0,-2.8047035E0,-1.6068828E0,-2.4202545E0,2.6069121E0,-9.031814E-6,2.1390051E-5,-2.4699916E-6,6.161165E-6,-2.8518218E-4,-6.100613E-6,-6.4619417E-7,2.0509133E-5],"split_indices":[0,2,3,3,13,9,7,0,0,0,0,0,0,0,0],"split_type":[0,0,0,0,0,0,0,0,0,0,0,0,0,0,0],"sum_hessian":[1.408509E6,7.1571E4,1.336938E6,3.7833E4,3.3738E4,3.226E3,1.333712E6,2.243E3,3.559E4,1.5287E4,1.8451E4,6.03E2,2.623E3,1.322693E6,1.1019E4],"tree_param":{"num_deleted":"0","num_feature":"45","num_nodes":"15","size_leaf_vector":"1"}},{"base_weights":[-1.2378595E-9,1.1300246E-3,-6.04963E-5,1.9390384E-3,2.2278485E-4,-5.7755928E-3,-4.666823E-5,2.884941E-5,1.39486365E-5,8.4866386E-8,1.0714385E-5,-3.2596756E-4,-1.4400483E-5,-6.3973295E-7,2.0304058E-5],"categories":[],"categories_nodes":[],"categories_segments":[],"categories_sizes":[],"default_left":[0,0,0,0,0,0,0,0,0,0,0,0,0,0,0],"id":7,"left_children":[1,3,5,7,9,11,13,-1,-1,-1,-1,-1,-1,-1,-1],"loss_changes":[9.628718E-2,5.253125E-2,1.0565636E-1,1.9470513E-2,6.135932E-3,3.7520266E-1,4.7938995E-2,0E0,0E0,0E0,0E0,0E0,0E0,0E0,0E0],"parents":[2147483647,0,0,1,1,2,2,3,3,4,4,5,5,6,6],"right_children":[2,4,6,8,10,12,14,-1,-1,-1,-1,-1,-1,-1,-1],"split_conditions":[-1.5976355E0,-1.1461405E0,-2.8047035E0,-2.180137E0,-2.991795E-1,-2.1209016E0,2.6069121E0,2.884941E-5,1.39486365E-5,8.4866386E-8,1.0714385E-5,-3.2596756E-4,-1.4400483E-5,-6.3973295E-7,2.0304058E-5],"split_indices":[0,2,3,0,2,7,7,0,0,0,0,0,0,0,0],"split_type":[0,0,0,0,0,0,0,0,0,0,0,0,0,0,0],"sum_hessian":[1.408509E6,7.1571E4,1.336938E6,3.7833E4,3.3738E4,3.226E3,1.333712E6,1.3815E4,2.4018E4,2.6937E4,6.801E3,4.48E2,2.778E3,1.322693E6,1.1019E4],"tree_param":{"num_deleted":"0","num_feature":"45","num_nodes":"15","size_leaf_vector":"1"}},{"base_weights":[-1.4086311E-9,1.118725E-3,-5.9891572E-5,2.0389792E-3,3.3581507E-4,-5.7179425E-3,-4.6201527E-5,3.33775E-5,1.5070985E-5,1.0684412E-5,-1.902448E-7,-2.8036008E-4,-5.785254E-6,-6.3333556E-7,2.0101037E-5],"categories":[],"categories_nodes":[],"categories_segments":[],"categories_sizes":[],"default_left":[0,0,0,0,0,0,0,0,0,0,0,0,0,0,0],"id":8,"left_children":[1,3,5,7,9,11,13,-1,-1,-1,-1,-1,-1,-1,-1],"loss_changes":[9.437124E-2,5.156526E-2,1.0355764E-1,2.2721976E-2,1.00536365E-2,3.7012666E-1,4.6985086E-2,0E0,0E0,0E0,0E0,0E0,0E0,0E0,0E0],"parents":[2147483647,0,0,1,1,2,2,3,3,4,4,5,5,6,6],"right_children":[2,4,6,8,10,12,14,-1,-1,-1,-1,-1,-1,-1,-1],"split_conditions":[-1.5976355E0,-1.2647725E0,-2.8047035E0,-2.3175483E0,-8.048599E-1,-2.4202545E0,2.6069121E0,3.33775E-5,1.5070985E-5,1.0684412E-5,-1.902448E-7,-2.8036008E-4,-5.785254E-6,-6.3333556E-7,2.0101037E-5],"split_indices":[0,2,3,0,4,9,7,0,0,0,0,0,0,0,0],"split_type":[0,0,0,0,0,0,0,0,0,0,0,0,0,0,0],"sum_hessian":[1.408509E6,7.1571E4,1.336938E6,3.2899E4,3.8672E4,3.226E3,1.333712E6,9.557E3,2.3342E4,1.2618E4,2.6054E4,6.03E2,2.623E3,1.322693E6,1.1019E4],"tree_param":{"num_deleted":"0","num_feature":"45","num_nodes":"15","size_leaf_vector":"1"}},{"base_weights":[-1.5729652E-9,1.1075387E-3,-5.9292885E-5,2.018591E-3,3.324572E-4,-5.6608515E-3,-4.573953E-5,3.3043758E-5,1.4920281E-5,1.0577575E-5,-1.8834207E-7,-3.4379496E-4,-1.735325E-5,-6.270026E-7,1.9900046E-5],"categories":[],"categories_nodes":[],"categories_segments":[],"categories_sizes":[],"default_left":[0,0,0,0,0,0,0,0,0,0,0,0,0,0,0],"id":9,"left_children":[1,3,5,7,9,11,13,-1,-1,-1,-1,-1,-1,-1,-1],"loss_changes":[9.2493415E-2,5.053916E-2,1.0150005E-1,2.2269905E-2,9.853583E-3,3.6373883E-1,4.6050172E-2,0E0,0E0,0E0,0E0,0E0,0E0,0E0,0E0],"parents":[2147483647,0,0,1,1,2,2,3,3,4,4,5,5,6,6],"right_children":[2,4,6,8,10,12,14,-1,-1,-1,-1,-1,-1,-1,-1],"split_conditions":[-1.5976355E0,-1.2647725E0,-2.8047035E0,-2.3175483E0,-8.048599E-1,-2.0236561E0,2.6069121E0,3.3043758E-5,1.4920281E-5,1.0577575E-5,-1.8834207E-7,-3.4379496E-4,-1.735325E-5,-6.270026E-7,1.9900046E-5],"split_indices":[0,2,3,0,4,6,7,0,0,0,0,0,0,0,0],"split_type":[0,0,0,0,0,0,0,0,0,0,0,0,0,0,0],"sum_hessian":[1.408509E6,7.1571E4,1.336938E6,3.2899E4,3.8672E4,3.226E3,1.333712E6,9.557E3,2.3342E4,1.2618E4,2.6054E4,3.87E2,2.839E3,1.322693E6,1.1019E4],"tree_param":{"num_deleted":"0","num_feature":"45","num_nodes":"15","size_leaf_vector":"1"}},{"base_weights":[-1.7119954E-9,1.096464E-3,-5.8700163E-5,1.8824933E-3,2.1499964E-4,-5.604355E-3,-4.5282068E-5,-9.581475E-6,2.0615418E-5,-2.5219153E-6,6.02069E-6,-2.7585294E-4,-5.4258185E-6,-6.20732E-7,1.9701065E-5],"categories":[],"categories_nodes":[],"categories_segments":[],"categories_sizes":[],"default_left":[0,0,0,0,0,0,0,0,0,0,0,0,0,0,0],"id":10,"left_children":[1,3,5,7,9,11,13,-1,-1,-1,-1,-1,-1,-1,-1],"loss_changes":[9.065295E-2,4.958874E-2,9.948422E-2,1.9244835E-2,6.101357E-3,3.590293E-1,4.513386E-2,0E0,0E0,0E0,0E0,0E0,0E0,0E0,0E0],"parents":[2147483647,0,0,1,1,2,2,3,3,4,4,5,5,6,6],"right_children":[2,4,6,8,10,12,14,-1,-1,-1,-1,-1,-1,-1,-1],"split_conditions":[-1.5976355E0,-1.1461405E0,-2.8047035E0,-2.8047035E0,-1.6068828E0,-2.4202545E0,2.6069121E0,-9.581475E-6,2.0615418E-5,-2.5219153E-6,6.02069E-6,-2.7585294E-4,-5.4258185E-6,-6.20732E-7,1.9701065E-5],"split_indices":[0,2,3,3,13,9,7,0,0,0,0,0,0,0,0],"split_type":[0,0,0,0,0,0,0,0,0,0,0,0,0,0,0],"sum_hessian":[1.408509E6,7.1571E4,1.336938E6,3.7833E4,3.3738E4,3.226E3,1.333712E6,2.243E3,3.559E4,1.5287E4,1.8451E4,6.03E2,2.623E3,1.322693E6,1.1019E4],"tree_param":{"num_deleted":"0","num_feature":"45","num_nodes":"15","size_leaf_vector":"1"}},{"base_weights":[-1.8106833E-9,1.0854997E-3,-5.8113295E-5,1.9798237E-3,3.246497E-4,-5.5483985E-3,-4.482917E-5,3.253332E-5,1.4582894E-5,1.04101055E-5,-2.2311823E-7,-3.1588908E-4,-1.3390652E-5,-6.145241E-7,1.9504072E-5],"categories":[],"categories_nodes":[],"categories_segments":[],"categories_sizes":[],"default_left":[0,0,0,0,0,0,0,0,0,0,0,0,0,0,0],"id":11,"left_children":[1,3,5,7,9,11,13,-1,-1,-1,-1,-1,-1,-1,-1],"loss_changes":[8.8849016E-2,4.8700266E-2,9.750756E-2,2.1846712E-2,9.612186E-3,3.5367945E-1,4.4235766E-2,0E0,0E0,0E0,0E0,0E0,0E0,0E0,0E0],"parents":[2147483647,0,0,1,1,2,2,3,3,4,4,5,5,6,6],"right_children":[2,4,6,8,10,12,14,-1,-1,-1,-1,-1,-1,-1,-1],"split_conditions":[-1.5976355E0,-1.2647725E0,-2.8047035E0,-2.3175483E0,-8.048599E-1,-2.1209016E0,2.6069121E0,3.253332E-5,1.4582894E-5,1.04101055E-5,-2.2311823E-7,-3.1588908E-4,-1.3390652E-5,-6.145241E-7,1.9504072E-5],"split_indices":[0,2,3,0,4,7,7,0,0,0,0,0,0,0,0],"split_type":[0,0,0,0,0,0,0,0,0,0,0,0,0,0,0],"sum_hessian":[1.408509E6,7.1571E4,1.336938E6,3.2899E4,3.8672E4,3.226E3,1.333712E6,9.557E3,2.3342E4,1.2618E4,2.6054E4,4.48E2,2.778E3,1.322693E6,1.1019E4],"tree_param":{"num_deleted":"0","num_feature":"45","num_nodes":"15","size_leaf_vector":"1"}},{"base_weights":[-2.0050546E-9,1.0746454E-3,-5.753243E-5,1.960027E-3,3.2140352E-4,-5.493017E-3,-4.43809E-5,3.220802E-5,1.4437072E-5,1.0306014E-5,-2.2088688E-7,-3.358053E-4,-1.653774E-5,-6.083792E-7,1.9309047E-5],"categories":[],"categories_nodes":[],"categories_segments":[],"categories_sizes":[],"default_left":[0,0,0,0,0,0,0,0,0,0,0,0,0,0,0],"id":12,"left_children":[1,3,5,7,9,11,13,-1,-1,-1,-1,-1,-1,-1,-1],"loss_changes":[8.708109E-2,4.773119E-2,9.557075E-2,2.141203E-2,9.420918E-3,3.4792733E-1,4.335555E-2,0E0,0E0,0E0,0E0,0E0,0E0,0E0,0E0],"parents":[2147483647,0,0,1,1,2,2,3,3,4,4,5,5,6,6],"right_children":[2,4,6,8,10,12,14,-1,-1,-1,-1,-1,-1,-1,-1],"split_conditions":[-1.5976355E0,-1.2647725E0,-2.8047035E0,-2.3175483E0,-8.048599E-1,-2.0236561E0,2.6069121E0,3.220802E-5,1.4437072E-5,1.0306014E-5,-2.2088688E-7,-3.358053E-4,-1.653774E-5,-6.083792E-7,1.9309047E-5],"split_indices":[0,2,3,0,4,6,7,0,0,0,0,0,0,0,0],"split_type":[0,0,0,0,0,0,0,0,0,0,0,0,0,0,0],"sum_hessian":[1.408509E6,7.1571E4,1.336938E6,3.2899E4,3.8672E4,3.226E3,1.333712E6,9.557E3,2.3342E4,1.2618E4,2.6054E4,3.87E2,2.839E3,1.322693E6,1.1019E4],"tree_param":{"num_deleted":"0","num_feature":"45","num_nodes":"15","size_leaf_vector":"1"}},{"base_weights":[-2.2530244E-9,1.0638998E-3,-5.695743E-5,1.8275877E-3,2.0748927E-4,-5.438196E-3,-4.393715E-5,-9.9060935E-6,2.0052226E-5,-5.4574482E-8,1.0507929E-5,-2.695211E-4,-4.8398774E-6,-6.0229615E-7,1.9115974E-5],"categories":[],"categories_nodes":[],"categories_segments":[],"categories_sizes":[],"default_left":[0,0,0,0,0,0,0,0,0,0,0,0,0,0,0],"id":13,"left_children":[1,3,5,7,9,11,13,-1,-1,-1,-1,-1,-1,-1,-1],"loss_changes":[8.5348345E-2,4.6809882E-2,9.367268E-2,1.8942073E-2,6.0588126E-3,3.439348E-1,4.249285E-2,0E0,0E0,0E0,0E0,0E0,0E0,0E0,0E0],"parents":[2147483647,0,0,1,1,2,2,3,3,4,4,5,5,6,6],"right_children":[2,4,6,8,10,12,14,-1,-1,-1,-1,-1,-1,-1,-1],"split_conditions":[-1.5976355E0,-1.1461405E0,-2.8047035E0,-2.8047035E0,-2.991795E-1,-2.4202545E0,2.6069121E0,-9.9060935E-6,2.0052226E-5,-5.4574482E-8,1.0507929E-5,-2.695211E-4,-4.8398774E-6,-6.0229615E-7,1.9115974E-5],"split_indices":[0,2,3,3,2,9,7,0,0,0,0,0,0,0,0],"split_type":[0,0,0,0,0,0,0,0,0,0,0,0,0,0,0],"sum_hessian":[1.408509E6,7.1571E4,1.336938E6,3.7833E4,3.3738E4,3.226E3,1.333712E6,2.243E3,3.559E4,2.6937E4,6.801E3,6.03E2,2.623E3,1.322693E6,1.1019E4],"tree_param":{"num_deleted":"0","num_feature":"45","num_nodes":"15","size_leaf_vector":"1"}},{"base_weights":[-2.307216E-9,1.0532611E-3,-5.638795E-5,1.9223925E-3,3.1384398E-4,-5.383899E-3,-4.3497672E-5,3.171136E-5,1.4110008E-5,1.0143622E-5,-2.544421E-7,-3.0824827E-4,-1.2714982E-5,-5.9627223E-7,1.8924833E-5],"categories":[],"categories_nodes":[],"categories_segments":[],"categories_sizes":[],"default_left":[0,0,0,0,0,0,0,0,0,0,0,0,0,0,0],"id":14,"left_children":[1,3,5,7,9,11,13,-1,-1,-1,-1,-1,-1,-1,-1],"loss_changes":[8.364997E-2,4.599519E-2,9.1811515E-2,2.100537E-2,9.191732E-3,3.3758017E-1,4.1647315E-2,0E0,0E0,0E0,0E0,0E0,0E0,0E0,0E0],"parents":[2147483647,0,0,1,1,2,2,3,3,4,4,5,5,6,6],"right_children":[2,4,6,8,10,12,14,-1,-1,-1,-1,-1,-1,-1,-1],"split_conditions":[-1.5976355E0,-1.2647725E0,-2.8047035E0,-2.3175483E0,-8.048599E-1,-2.1209016E0,2.6069121E0,3.171136E-5,1.4110008E-5,1.0143622E-5,-2.544421E-7,-3.0824827E-4,-1.2714982E-5,-5.9627223E-7,1.8924833E-5],"split_indices":[0,2,3,0,4,7,7,0,0,0,0,0,0,0,0],"split_type":[0,0,0,0,0,0,0,0,0,0,0,0,0,0,0],"sum_hessian":[1.408509E6,7.1571E4,1.336938E6,3.2899E4,3.8672E4,3.226E3,1.333712E6,9.557E3,2.3342E4,1.2618E4,2.6054E4,4.48E2,2.778E3,1.322693E6,1.1019E4],"tree_param":{"num_deleted":"0","num_feature":"45","num_nodes":"15","size_leaf_vector":"1"}},{"base_weights":[-2.4611073E-9,1.1967937E-3,-4.8647227E-5,2.1828355E-3,2.7079953E-4,-5.3530782E-3,-3.4532495E-5,4.5800818E-5,1.8985364E-5,1.0511893E-5,-1.1819386E-6,-2.5323793E-4,-3.7242598E-6,1.3122467E-6,-2.3124592E-6],"categories":[],"categories_nodes":[],"categories_segments":[],"categories_sizes":[],"default_left":[0,0,0,0,0,0,0,0,0,0,0,0,0,0,0],"id":15,"left_children":[1,3,5,7,9,11,13,-1,-1,-1,-1,-1,-1,-1,-1],"loss_changes":[8.2000524E-2,5.023098E-2,1.0133699E-1,1.814945E-2,8.612912E-3,3.572767E-1,4.4015955E-2,0E0,0E0,0E0,0E0,0E0,0E0,0E0,0E0],"parents":[2147483647,0,0,1,1,2,2,3,3,4,4,5,5,6,6],"right_children":[2,4,6,8,10,12,14,-1,-1,-1,-1,-1,-1,-1,-1],"split_conditions":[-1.7319967E0,-1.2647725E0,-2.8047035E0,-2.709163E0,-8.048599E-1,-2.4202545E0,1.5808745E-1,4.5800818E-5,1.8985364E-5,1.0511893E-5,-1.1819386E-6,-2.5323793E-4,-3.7242598E-6,1.3122467E-6,-2.3124592E-6],"split_indices":[0,2,3,8,4,9,4,0,0,0,0,0,0,0,0],"split_type":[0,0,0,0,0,0,0,0,0,0,0,0,0,0,0],"sum_hessian":[1.408509E6,5.5013E4,1.353496E6,2.6642E4,2.8371E4,3.591E3,1.349905E6,2.823E3,2.3819E4,9.437E3,1.8934E4,7.16E2,2.875E3,7.32596E5,6.17309E5],"tree_param":{"num_deleted":"0","num_feature":"45","num_nodes":"15","size_leaf_vector":"1"}},{"base_weights":[-2.6147882E-9,1.0337507E-3,-5.53438E-5,1.8861005E-3,3.0861062E-4,-5.279812E-3,-4.270284E-5,3.116444E-5,1.3822445E-5,9.9617855E-6,-2.4405267E-7,-3.2614163E-4,-1.5435417E-5,-5.86868E-7,1.8758024E-5],"categories":[],"categories_nodes":[],"categories_segments":[],"categories_sizes":[],"default_left":[0,0,0,0,0,0,0,0,0,0,0,0,0,0,0],"id":16,"left_children":[1,3,5,7,9,11,13,-1,-1,-1,-1,-1,-1,-1,-1],"loss_changes":[8.057969E-2,4.4236146E-2,8.8294305E-2,2.0390928E-2,8.855022E-3,3.2951838E-1,4.0898837E-2,0E0,0E0,0E0,0E0,0E0,0E0,0E0,0E0],"parents":[2147483647,0,0,1,1,2,2,3,3,4,4,5,5,6,6],"right_children":[2,4,6,8,10,12,14,-1,-1,-1,-1,-1,-1,-1,-1],"split_conditions":[-1.5976355E0,-1.2647725E0,-2.8047035E0,-2.3175483E0,-8.048599E-1,-2.0236561E0,2.6069121E0,3.116444E-5,1.3822445E-5,9.9617855E-6,-2.4405267E-7,-3.2614163E-4,-1.5435417E-5,-5.86868E-7,1.8758024E-5],"split_indices":[0,2,3,0,4,6,7,0,0,0,0,0,0,0,0],"split_type":[0,0,0,0,0,0,0,0,0,0,0,0,0,0,0],"sum_hessian":[1.408509E6,7.1571E4,1.336938E6,3.2899E4,3.8672E4,3.226E3,1.333712E6,9.557E3,2.3342E4,1.2618E4,2.6054E4,3.87E2,2.839E3,1.322693E6,1.1019E4],"tree_param":{"num_deleted":"0","num_feature":"45","num_nodes":"15","size_leaf_vector":"1"}},{"base_weights":[-2.8452312E-9,1.023414E-3,-5.4790675E-5,1.7588545E-3,1.9868054E-4,-5.2271197E-3,-4.2275868E-5,4.189866E-5,1.5551172E-5,-2.6621856E-6,5.838517E-6,-2.608232E-4,-4.246167E-6,4.0648727E-5,-4.962429E-7],"categories":[],"categories_nodes":[],"categories_segments":[],"categories_sizes":[],"default_left":[0,0,0,0,0,0,0,0,0,0,0,0,0,0,0],"id":17,"left_children":[1,3,5,7,9,11,13,-1,-1,-1,-1,-1,-1,-1,-1],"loss_changes":[7.897631E-2,4.3411106E-2,8.654077E-2,1.8732198E-2,6.0416544E-3,3.2319605E-1,4.0253066E-2,0E0,0E0,0E0,0E0,0E0,0E0,0E0,0E0],"parents":[2147483647,0,0,1,1,2,2,3,3,4,4,5,5,6,6],"right_children":[2,4,6,8,10,12,14,-1,-1,-1,-1,-1,-1,-1,-1],"split_conditions":[-1.5976355E0,-1.1461405E0,-2.8047035E0,-2.777399E0,-1.6068828E0,-2.4202545E0,-2.7227287E0,4.189866E-5,1.5551172E-5,-2.6621856E-6,5.838517E-6,-2.608232E-4,-4.246167E-6,4.0648727E-5,-4.962429E-7],"split_indices":[0,2,3,1,13,9,9,0,0,0,0,0,0,0,0],"split_type":[0,0,0,0,0,0,0,0,0,0,0,0,0,0,0],"sum_hessian":[1.408509E6,7.1571E4,1.336938E6,3.7833E4,3.3738E4,3.226E3,1.333712E6,2.924E3,3.4909E4,1.5287E4,1.8451E4,6.03E2,2.623E3,2.381E3,1.331331E6],"tree_param":{"num_deleted":"0","num_feature":"45","num_nodes":"15","size_leaf_vector":"1"}},{"base_weights":[-2.8299898E-9,1.1628604E-3,-4.7268364E-5,2.1229659E-3,2.6122315E-4,-5.2083754E-3,-3.3535005E-5,4.49015E-5,1.8422332E-5,1.0256789E-5,-1.1982751E-6,-2.4720124E-4,-3.4219593E-6,1.3050216E-6,-2.282072E-6],"categories":[],"categories_nodes":[],"categories_segments":[],"categories_sizes":[],"default_left":[0,0,0,0,0,0,0,0,0,0,0,0,0,0,0],"id":18,"left_children":[1,3,5,7,9,11,13,-1,-1,-1,-1,-1,-1,-1,-1],"loss_changes":[7.741648E-2,4.762324E-2,9.59348E-2,1.7697223E-2,8.264784E-3,3.410436E-1,4.310722E-2,0E0,0E0,0E0,0E0,0E0,0E0,0E0,0E0],"parents":[2147483647,0,0,1,1,2,2,3,3,4,4,5,5,6,6],"right_children":[2,4,6,8,10,12,14,-1,-1,-1,-1,-1,-1,-1,-1],"split_conditions":[-1.7319967E0,-1.2647725E0,-2.8047035E0,-2.709163E0,-8.048599E-1,-2.4202545E0,1.5808745E-1,4.49015E-5,1.8422332E-5,1.0256789E-5,-1.1982751E-6,-2.4720124E-4,-3.4219593E-6,1.3050216E-6,-2.282072E-6],"split_indices":[0,2,3,8,4,9,4,0,0,0,0,0,0,0,0],"split_type":[0,0,0,0,0,0,0,0,0,0,0,0,0,0,0],"sum_hessian":[1.408509E6,5.5013E4,1.353496E6,2.6642E4,2.8371E4,3.591E3,1.349905E6,2.823E3,2.3819E4,9.437E3,1.8934E4,7.16E2,2.875E3,7.32596E5,6.17309E5],"tree_param":{"num_deleted":"0","num_feature":"45","num_nodes":"15","size_leaf_vector":"1"}},{"base_weights":[-2.9973477E-9,1.0044528E-3,-5.377577E-5,1.7261144E-3,1.951714E-4,-5.125957E-3,-4.1503277E-5,-1.0592044E-5,1.9016792E-5,-1.6371067E-7,1.0329155E-5,-3.1914972E-4,-1.4642442E-5,-6.092884E-7,1.5122198E-5],"categories":[],"categories_nodes":[],"categories_segments":[],"categories_sizes":[],"default_left":[0,0,0,0,0,0,0,0,0,0,0,0,0,0,0],"id":19,"left_children":[1,3,5,7,9,11,13,-1,-1,-1,-1,-1,-1,-1,-1],"loss_changes":[7.607702E-2,4.1799664E-2,8.322197E-2,1.8502995E-2,5.9791896E-3,3.165016E-1,4.0254146E-2,0E0,0E0,0E0,0E0,0E0,0E0,0E0,0E0],"parents":[2147483647,0,0,1,1,2,2,3,3,4,4,5,5,6,6],"right_children":[2,4,6,8,10,12,14,-1,-1,-1,-1,-1,-1,-1,-1],"split_conditions":[-1.5976355E0,-1.1461405E0,-2.8047035E0,-2.8047035E0,-2.991795E-1,-2.0236561E0,2.4215815E0,-1.0592044E-5,1.9016792E-5,-1.6371067E-7,1.0329155E-5,-3.1914972E-4,-1.4642442E-5,-6.092884E-7,1.5122198E-5],"split_indices":[0,2,3,3,2,6,7,0,0,0,0,0,0,0,0],"split_type":[0,0,0,0,0,0,0,0,0,0,0,0,0,0,0],"sum_hessian":[1.408509E6,7.1571E4,1.336938E6,3.7833E4,3.3738E4,3.226E3,1.333712E6,2.243E3,3.559E4,2.6937E4,6.801E3,3.87E2,2.839E3,1.317244E6,1.6468E4],"tree_param":{"num_deleted":"0","num_feature":"45","num_nodes":"15","size_leaf_vector":"1"}},{"base_weights":[-3.1511365E-9,9.944086E-4,-5.323822E-5,1.8158008E-3,2.9560592E-4,-5.074801E-3,-4.1088202E-5,3.027761E-5,1.3194749E-5,9.67844E-6,-2.998483E-7,-3.1596646E-4,-1.44960695E-5,-5.679903E-7,1.8446344E-5],"categories":[],"categories_nodes":[],"categories_segments":[],"categories_sizes":[],"default_left":[0,0,0,0,0,0,0,0,0,0,0,0,0,0,0],"id":20,"left_children":[1,3,5,7,9,11,13,-1,-1,-1,-1,-1,-1,-1,-1],"loss_changes":[7.456316E-2,4.1081145E-2,8.15692E-2,1.9786246E-2,8.464562E-3,3.1021997E-1,3.9513048E-2,0E0,0E0,0E0,0E0,0E0,0E0,0E0,0E0],"parents":[2147483647,0,0,1,1,2,2,3,3,4,4,5,5,6,6],"right_children":[2,4,6,8,10,12,14,-1,-1,-1,-1,-1,-1,-1,-1],"split_conditions":[-1.5976355E0,-1.2647725E0,-2.8047035E0,-2.3175483E0,-8.048599E-1,-2.0236561E0,2.6069121E0,3.027761E-5,1.3194749E-5,9.67844E-6,-2.998483E-7,-3.1596646E-4,-1.44960695E-5,-5.679903E-7,1.8446344E-5],"split_indices":[0,2,3,0,4,6,7,0,0,0,0,0,0,0,0],"split_type":[0,0,0,0,0,0,0,0,0,0,0,0,0,0,0],"sum_hessian":[1.408509E6,7.1571E4,1.336938E6,3.2899E4,3.8672E4,3.226E3,1.333712E6,9.557E3,2.3342E4,1.2618E4,2.6054E4,3.87E2,2.839E3,1.322693E6,1.1019E4],"tree_param":{"num_deleted":"0","num_feature":"45","num_nodes":"15","size_leaf_vector":"1"}},{"base_weights":[-3.3416667E-9,1.1300227E-3,-4.593418E-5,2.065491E-3,2.5152238E-4,-5.0652274E-3,-3.2578177E-5,4.4090724E-5,1.7875589E-5,1.0000154E-5,-1.215713E-6,-2.4209215E-4,-2.9078215E-6,1.2740904E-6,-2.2869733E-6],"categories":[],"categories_nodes":[],"categories_segments":[],"categories_sizes":[],"default_left":[0,0,0,0,0,0,0,0,0,0,0,0,0,0,0],"id":21,"left_children":[1,3,5,7,9,11,13,-1,-1,-1,-1,-1,-1,-1,-1],"loss_changes":[7.3106E-2,4.5210496E-2,9.073516E-2,1.7346203E-2,7.92323E-3,3.283087E-1,4.2355433E-2,0E0,0E0,0E0,0E0,0E0,0E0,0E0,0E0],"parents":[2147483647,0,0,1,1,2,2,3,3,4,4,5,5,6,6],"right_children":[2,4,6,8,10,12,14,-1,-1,-1,-1,-1,-1,-1,-1],"split_conditions":[-1.7319967E0,-1.2647725E0,-2.8047035E0,-2.709163E0,-8.048599E-1,-2.4202545E0,1.7848638E-1,4.4090724E-5,1.7875589E-5,1.0000154E-5,-1.215713E-6,-2.4209215E-4,-2.9078215E-6,1.2740904E-6,-2.2869733E-6],"split_indices":[0,2,3,8,4,9,4,0,0,0,0,0,0,0,0],"split_type":[0,0,0,0,0,0,0,0,0,0,0,0,0,0,0],"sum_hessian":[1.408509E6,5.5013E4,1.353496E6,2.6642E4,2.8371E4,3.591E3,1.349905E6,2.823E3,2.3819E4,9.437E3,1.8934E4,7.16E2,2.875E3,7.43436E5,6.06469E5],"tree_param":{"num_deleted":"0","num_feature":"45","num_nodes":"15","size_leaf_vector":"1"}},{"base_weights":[-3.3873695E-9,9.7598246E-4,-5.225204E-5,1.78149E-3,2.906936E-4,-4.9765543E-3,-4.033735E-5,2.9757017E-5,1.2924331E-5,9.505098E-6,-2.888085E-7,-2.9049758E-4,-1.0852822E-5,4.0228402E-5,-4.76071E-7],"categories":[],"categories_nodes":[],"categories_segments":[],"categories_sizes":[],"default_left":[0,0,0,0,0,0,0,0,0,0,0,0,0,0,0],"id":22,"left_children":[1,3,5,7,9,11,13,-1,-1,-1,-1,-1,-1,-1,-1],"loss_changes":[7.1825534E-2,3.9507613E-2,7.844005E-2,1.9210987E-2,8.1546325E-3,3.022589E-1,3.939578E-2,0E0,0E0,0E0,0E0,0E0,0E0,0E0,0E0],"parents":[2147483647,0,0,1,1,2,2,3,3,4,4,5,5,6,6],"right_children":[2,4,6,8,10,12,14,-1,-1,-1,-1,-1,-1,-1,-1],"split_conditions":[-1.5976355E0,-1.2647725E0,-2.8047035E0,-2.3175483E0,-8.048599E-1,-2.1209016E0,-2.7227287E0,2.9757017E-5,1.2924331E-5,9.505098E-6,-2.888085E-7,-2.9049758E-4,-1.0852822E-5,4.0228402E-5,-4.76071E-7],"split_indices":[0,2,3,0,4,7,9,0,0,0,0,0,0,0,0],"split_type":[0,0,0,0,0,0,0,0,0,0,0,0,0,0,0],"sum_hessian":[1.408509E6,7.1571E4,1.336938E6,3.2899E4,3.8672E4,3.226E3,1.333712E6,9.557E3,2.3342E4,1.2618E4,2.6054E4,4.48E2,2.778E3,2.381E3,1.331331E6],"tree_param":{"num_deleted":"0","num_feature":"45","num_nodes":"15","size_leaf_vector":"1"}},{"base_weights":[-3.446528E-9,9.662234E-4,-5.1729658E-5,1.661152E-3,1.8692076E-4,-4.9268818E-3,-3.993389E-5,1.1998314E-5,2.7142707E-5,-2.7476208E-6,5.6942777E-6,-3.0871428E-4,-1.3806102E-5,-5.9032266E-7,1.4876198E-5],"categories":[],"categories_nodes":[],"categories_segments":[],"categories_sizes":[],"default_left":[0,0,0,0,0,0,0,0,0,0,0,0,0,0,0],"id":23,"left_children":[1,3,5,7,9,11,13,-1,-1,-1,-1,-1,-1,-1,-1],"loss_changes":[7.039633E-2,3.8760193E-2,7.6882035E-2,1.8377453E-2,5.958361E-3,2.968621E-1,3.8909562E-2,0E0,0E0,0E0,0E0,0E0,0E0,0E0,0E0],"parents":[2147483647,0,0,1,1,2,2,3,3,4,4,5,5,6,6],"right_children":[2,4,6,8,10,12,14,-1,-1,-1,-1,-1,-1,-1,-1],"split_conditions":[-1.5976355E0,-1.1461405E0,-2.8047035E0,-1.4412627E0,-1.6068828E0,-2.0236561E0,2.4215815E0,1.1998314E-5,2.7142707E-5,-2.7476208E-6,5.6942777E-6,-3.0871428E-4,-1.3806102E-5,-5.9032266E-7,1.4876198E-5],"split_indices":[0,2,3,16,13,6,7,0,0,0,0,0,0,0,0],"split_type":[0,0,0,0,0,0,0,0,0,0,0,0,0,0,0],"sum_hessian":[1.408509E6,7.1571E4,1.336938E6,3.7833E4,3.3738E4,3.226E3,1.333712E6,2.631E4,1.1523E4,1.5287E4,1.8451E4,3.87E2,2.839E3,1.317244E6,1.6468E4],"tree_param":{"num_deleted":"0","num_feature":"45","num_nodes":"15","size_leaf_vector":"1"}},{"base_weights":[-3.6623187E-9,4.689996E-4,-1.05528845E-4,-3.214154E-3,5.4401415E-4,-1.2846329E-4,1.4727445E-3,-1.4054614E-4,8.533177E-6,4.866226E-5,4.689148E-6,2.6097692E-7,-2.696754E-6,1.626074E-5,-7.3982446E-5],"categories":[],"categories_nodes":[],"categories_segments":[],"categories_sizes":[],"default_left":[0,0,0,0,0,0,0,0,0,0,0,0,0,0,0],"id":24,"left_children":[1,3,5,7,9,11,13,-1,-1,-1,-1,-1,-1,-1,-1],"loss_changes":[6.970954E-2,7.1479365E-2,4.1619517E-2,2.277096E-1,8.229621E-2,2.4736118E-2,2.2412904E-2,0E0,0E0,0E0,0E0,0E0,0E0,0E0,0E0],"parents":[2147483647,0,0,1,1,2,2,3,3,4,4,5,5,6,6],"right_children":[2,4,6,8,10,12,14,-1,-1,-1,-1,-1,-1,-1,-1],"split_conditions":[-8.921359E-1,-2.8047035E0,2.4215815E0,-2.4202545E0,-2.7227287E0,1.7848638E-1,1E0,-1.4054614E-4,8.533177E-6,4.866226E-5,4.689148E-6,2.6097692E-7,-2.696754E-6,1.626074E-5,-7.3982446E-5],"split_indices":[2,3,7,9,9,4,37,0,0,0,0,0,0,0,0],"split_type":[0,0,0,0,0,0,0,0,0,0,0,0,0,0,0],"sum_hessian":[1.408509E6,2.58704E5,1.149805E6,5.163E3,2.53541E5,1.133337E6,1.6468E4,1.408E3,3.755E3,4.329E3,2.49212E5,5.41094E5,5.92243E5,1.6189E4,2.79E2],"tree_param":{"num_deleted":"0","num_feature":"45","num_nodes":"15","size_leaf_vector":"1"}},{"base_weights":[-3.7274552E-9,1.0955059E-3,-4.453162E-5,2.0059731E-3,2.4048425E-4,-4.908784E-3,-3.158817E-5,4.3221415E-5,1.7312937E-5,-2.666288E-6,7.75306E-6,-2.356592E-4,-2.5576774E-6,1.2758081E-6,-2.2048303E-6],"categories":[],"categories_nodes":[],"categories_segments":[],"categories_sizes":[],"default_left":[0,0,0,0,0,0,0,0,0,0,0,0,0,0,0],"id":25,"left_children":[1,3,5,7,9,11,13,-1,-1,-1,-1,-1,-1,-1,-1],"loss_changes":[6.8708204E-2,4.2826228E-2,8.521629E-2,1.6942896E-2,7.6951217E-3,3.1182253E-1,4.0586576E-2,0E0,0E0,0E0,0E0,0E0,0E0,0E0,0E0],"parents":[2147483647,0,0,1,1,2,2,3,3,4,4,5,5,6,6],"right_children":[2,4,6,8,10,12,14,-1,-1,-1,-1,-1,-1,-1,-1],"split_conditions":[-1.7319967E0,-1.2647725E0,-2.8047035E0,-2.709163E0,-1.6068828E0,-2.4202545E0,1.5808745E-1,4.3221415E-5,1.7312937E-5,-2.666288E-6,7.75306E-6,-2.356592E-4,-2.5576774E-6,1.2758081E-6,-2.2048303E-6],"split_indices":[0,2,3,8,13,9,4,0,0,0,0,0,0,0,0],"split_type":[0,0,0,0,0,0,0,0,0,0,0,0,0,0,0],"sum_hessian":[1.408509E6,5.5013E4,1.353496E6,2.6642E4,2.8371E4,3.591E3,1.349905E6,2.823E3,2.3819E4,1.4563E4,1.3808E4,7.16E2,2.875E3,7.32596E5,6.17309E5],"tree_param":{"num_deleted":"0","num_feature":"45","num_nodes":"15","size_leaf_vector":"1"}},{"base_weights":[-3.7620116E-9,4.6182427E-4,-1.0391453E-4,-3.1590788E-3,5.3557096E-4,-1.2664234E-4,1.4601382E-3,-1.3820408E-4,8.411801E-6,4.8003527E-5,4.614695E-6,2.4611583E-7,-2.64833E-6,1.6119375E-5,-7.32233E-5],"categories":[],"categories_nodes":[],"categories_segments":[],"categories_sizes":[],"default_left":[0,0,0,0,0,0,0,0,0,0,0,0,0,0,0],"id":26,"left_children":[1,3,5,7,9,11,13,-1,-1,-1,-1,-1,-1,-1,-1],"loss_changes":[6.7592904E-2,6.908357E-2,4.0872898E-2,2.2024629E-1,8.0123775E-2,2.3688907E-2,2.196782E-2,0E0,0E0,0E0,0E0,0E0,0E0,0E0,0E0],"parents":[2147483647,0,0,1,1,2,2,3,3,4,4,5,5,6,6],"right_children":[2,4,6,8,10,12,14,-1,-1,-1,-1,-1,-1,-1,-1],"split_conditions":[-8.921359E-1,-2.8047035E0,2.4215815E0,-2.4202545E0,-2.7227287E0,1.7848638E-1,1E0,-1.3820408E-4,8.411801E-6,4.8003527E-5,4.614695E-6,2.4611583E-7,-2.64833E-6,1.6119375E-5,-7.32233E-5],"split_indices":[2,3,7,9,9,4,37,0,0,0,0,0,0,0,0],"split_type":[0,0,0,0,0,0,0,0,0,0,0,0,0,0,0],"sum_hessian":[1.408509E6,2.58704E5,1.149805E6,5.163E3,2.53541E5,1.133337E6,1.6468E4,1.408E3,3.755E3,4.329E3,2.49212E5,5.41094E5,5.92243E5,1.6189E4,2.79E2],"tree_param":{"num_deleted":"0","num_feature":"45","num_nodes":"15","size_leaf_vector":"1"}},{"base_weights":[-3.8340207E-9,9.4315025E-4,-5.0494862E-5,1.7239448E-3,2.7888623E-4,-4.796119E-3,-3.90125E-5,2.9029945E-5,1.2410985E-5,9.280821E-6,-3.5544113E-7,-3.0190803E-4,-1.3250153E-5,-5.4222124E-7,1.7865515E-5],"categories":[],"categories_nodes":[],"categories_segments":[],"categories_sizes":[],"default_left":[0,0,0,0,0,0,0,0,0,0,0,0,0,0,0],"id":27,"left_children":[1,3,5,7,9,11,13,-1,-1,-1,-1,-1,-1,-1,-1],"loss_changes":[6.707445E-2,3.7120603E-2,7.2850935E-2,1.8726356E-2,7.894233E-3,2.844122E-1,3.7032165E-2,0E0,0E0,0E0,0E0,0E0,0E0,0E0,0E0],"parents":[2147483647,0,0,1,1,2,2,3,3,4,4,5,5,6,6],"right_children":[2,4,6,8,10,12,14,-1,-1,-1,-1,-1,-1,-1,-1],"split_conditions":[-1.5976355E0,-1.2647725E0,-2.8047035E0,-2.3175483E0,-8.048599E-1,-2.0236561E0,2.6069121E0,2.9029945E-5,1.2410985E-5,9.280821E-6,-3.5544113E-7,-3.0190803E-4,-1.3250153E-5,-5.4222124E-7,1.7865515E-5],"split_indices":[0,2,3,0,4,6,7,0,0,0,0,0,0,0,0],"split_type":[0,0,0,0,0,0,0,0,0,0,0,0,0,0,0],"sum_hessian":[1.408509E6,7.1571E4,1.336938E6,3.2899E4,3.8672E4,3.226E3,1.333712E6,9.557E3,2.3342E4,1.2618E4,2.6054E4,3.87E2,2.839E3,1.322693E6,1.1019E4],"tree_param":{"num_deleted":"0","num_feature":"45","num_nodes":"15","size_leaf_vector":"1"}},{"base_weights":[-4.001535E-9,4.5574483E-4,-1.02546954E-4,-3.1065794E-3,5.2829843E-4,-1.318219E-4,1.0860014E-3,-1.3630916E-4,8.422748E-6,4.7431295E-5,4.550649E-6,-4.4702153E-7,-4.066916E-6,1.2003072E-5,-5.1335788E-5],"categories":[],"categories_nodes":[],"categories_segments":[],"categories_sizes":[],"default_left":[0,0,0,0,0,0,0,0,0,0,0,0,0,0,0],"id":28,"left_children":[1,3,5,7,9,11,13,-1,-1,-1,-1,-1,-1,-1,-1],"loss_changes":[6.582512E-2,6.68664E-2,4.0007286E-2,2.146225E-1,7.825787E-2,2.687204E-2,1.965636E-2,0E0,0E0,0E0,0E0,0E0,0E0,0E0,0E0],"parents":[2147483647,0,0,1,1,2,2,3,3,4,4,5,5,6,6],"right_children":[2,4,6,8,10,12,14,-1,-1,-1,-1,-1,-1,-1,-1],"split_conditions":[-8.921359E-1,-2.8047035E0,2.1743536E0,-2.4202545E0,-2.7227287E0,7.9691094E-1,1E0,-1.3630916E-4,8.422748E-6,4.7431295E-5,4.550649E-6,-4.4702153E-7,-4.066916E-6,1.2003072E-5,-5.1335788E-5],"split_indices":[2,3,8,9,9,3,37,0,0,0,0,0,0,0,0],"split_type":[0,0,0,0,0,0,0,0,0,0,0,0,0,0,0],"sum_hessian":[1.408509E6,2.58704E5,1.149805E6,5.163E3,2.53541E5,1.122166E6,2.7639E4,1.408E3,3.755E3,4.329E3,2.49212E5,8.52096E5,2.7007E5,2.7141E4,4.98E2],"tree_param":{"num_deleted":"0","num_feature":"45","num_nodes":"15","size_leaf_vector":"1"}},{"base_weights":[-4.0465493E-9,1.0688949E-3,-4.345032E-5,1.959947E-3,2.3210607E-4,-4.7794185E-3,-3.0848227E-5,4.2454853E-5,1.6889007E-5,-2.7255146E-6,7.643387E-6,-2.2953564E-4,-2.4685892E-6,1.2146265E-6,-2.175574E-6],"categories":[],"categories_nodes":[],"categories_segments":[],"categories_sizes":[],"default_left":[0,0,0,0,0,0,0,0,0,0,0,0,0,0,0],"id":29,"left_children":[1,3,5,7,9,11,13,-1,-1,-1,-1,-1,-1,-1,-1],"loss_changes":[6.541079E-2,4.1019224E-2,8.078077E-2,1.6497806E-2,7.620792E-3,2.9588678E-1,3.8388442E-2,0E0,0E0,0E0,0E0,0E0,0E0,0E0,0E0],"parents":[2147483647,0,0,1,1,2,2,3,3,4,4,5,5,6,6],"right_children":[2,4,6,8,10,12,14,-1,-1,-1,-1,-1,-1,-1,-1],"split_conditions":[-1.7319967E0,-1.2647725E0,-2.8047035E0,-2.709163E0,-1.6068828E0,-2.4202545E0,1.7848638E-1,4.2454853E-5,1.6889007E-5,-2.7255146E-6,7.643387E-6,-2.2953564E-4,-2.4685892E-6,1.2146265E-6,-2.175574E-6],"split_indices":[0,2,3,8,13,9,4,0,0,0,0,0,0,0,0],"split_type":[0,0,0,0,0,0,0,0,0,0,0,0,0,0,0],"sum_hessian":[1.408509E6,5.5013E4,1.353496E6,2.6642E4,2.8371E4,3.591E3,1.349905E6,2.823E3,2.3819E4,1.4563E4,1.3808E4,7.16E2,2.875E3,7.43436E5,6.06469E5],"tree_param":{"num_deleted":"0","num_feature":"45","num_nodes":"15","size_leaf_vector":"1"}},{"base_weights":[-4.120648E-9,9.2316454E-4,-4.9425245E-5,1.5898084E-3,1.755809E-4,-4.686033E-3,-3.8206654E-5,3.9777617E-5,1.3896836E-5,-3.4809102E-7,1.0087639E-5,-2.7642146E-4,-9.753522E-6,-5.3213375E-7,1.7630042E-5],"categories":[],"categories_nodes":[],"categories_segments":[],"categories_sizes":[],"default_left":[0,0,0,0,0,0,0,0,0,0,0,0,0,0,0],"id":30,"left_children":[1,3,5,7,9,11,13,-1,-1,-1,-1,-1,-1,-1,-1],"loss_changes":[6.426195E-2,3.5669208E-2,6.954232E-2,1.8074892E-2,5.9142583E-3,2.7485797E-1,3.605073E-2,0E0,0E0,0E0,0E0,0E0,0E0,0E0,0E0],"parents":[2147483647,0,0,1,1,2,2,3,3,4,4,5,5,6,6],"right_children":[2,4,6,8,10,12,14,-1,-1,-1,-1,-1,-1,-1,-1],"split_conditions":[-1.5976355E0,-1.1461405E0,-2.8047035E0,-2.777399E0,-2.991795E-1,-2.1209016E0,2.6069121E0,3.9777617E-5,1.3896836E-5,-3.4809102E-7,1.0087639E-5,-2.7642146E-4,-9.753522E-6,-5.3213375E-7,1.7630042E-5],"split_indices":[0,2,3,1,2,7,7,0,0,0,0,0,0,0,0],"split_type":[0,0,0,0,0,0,0,0,0,0,0,0,0,0,0],"sum_hessian":[1.408509E6,7.1571E4,1.336938E6,3.7833E4,3.3738E4,3.226E3,1.333712E6,2.924E3,3.4909E4,2.6937E4,6.801E3,4.48E2,2.778E3,1.322693E6,1.1019E4],"tree_param":{"num_deleted":"0","num_feature":"45","num_nodes":"15","size_leaf_vector":"1"}},{"base_weights":[-4.2570747E-9,4.4747052E-4,-1.0068556E-4,-3.0326222E-3,5.1834935E-4,-1.2957405E-4,1.072173E-3,-1.3344717E-4,8.365935E-6,4.6700432E-5,4.4621283E-6,-4.377456E-7,-4.0027826E-6,1.1853377E-5,-5.0853214E-5],"categories":[],"categories_nodes":[],"categories_segments":[],"categories_sizes":[],"default_left":[0,0,0,0,0,0,0,0,0,0,0,0,0,0,0],"id":31,"left_children":[1,3,5,7,9,11,13,-1,-1,-1,-1,-1,-1,-1,-1],"loss_changes":[6.345672E-2,6.381498E-2,3.8957994E-2,2.0605332E-1,7.593089E-2,2.606375E-2,1.9265894E-2,0E0,0E0,0E0,0E0,0E0,0E0,0E0,0E0],"parents":[2147483647,0,0,1,1,2,2,3,3,4,4,5,5,6,6],"right_children":[2,4,6,8,10,12,14,-1,-1,-1,-1,-1,-1,-1,-1],"split_conditions":[-8.921359E-1,-2.8047035E0,2.1743536E0,-2.4202545E0,-2.7227287E0,7.9691094E-1,1E0,-1.3344717E-4,8.365935E-6,4.6700432E-5,4.4621283E-6,-4.377456E-7,-4.0027826E-6,1.1853377E-5,-5.0853214E-5],"split_indices":[2,3,8,9,9,3,37,0,0,0,0,0,0,0,0],"split_type":[0,0,0,0,0,0,0,0,0,0,0,0,0,0,0],"sum_hessian":[1.408509E6,2.58704E5,1.149805E6,5.163E3,2.53541E5,1.122166E6,2.7639E4,1.408E3,3.755E3,4.329E3,2.49212E5,8.52096E5,2.7007E5,2.7141E4,4.98E2],"tree_param":{"num_deleted":"0","num_feature":"45","num_nodes":"15","size_leaf_vector":"1"}},{"base_weights":[-4.2657837E-9,1.4966788E-3,-2.9798795E-5,2.999718E-3,5.356698E-4,-4.433665E-3,-1.5870606E-5,3.2354375E-5,-3.122911E-5,2.1270887E-5,8.7989065E-7,-1.9478978E-4,-1.8937769E-6,3.945127E-6,-1.0226169E-6],"categories":[],"categories_nodes":[],"categories_segments":[],"categories_sizes":[],"default_left":[0,0,0,0,0,0,0,0,0,0,0,0,0,0,0],"id":32,"left_children":[1,3,5,7,9,11,13,-1,-1,-1,-1,-1,-1,-1,-1],"loss_changes":[6.280968E-2,3.970878E-2,8.470871E-2,1.5484363E-2,1.1948273E-2,2.7802807E-1,4.8807606E-2,0E0,0E0,0E0,0E0,0E0,0E0,0E0,0E0],"parents":[2147483647,0,0,1,1,2,2,3,3,4,4,5,5,6,6],"right_children":[2,4,6,8,10,12,14,-1,-1,-1,-1,-1,-1,-1,-1],"split_conditions":[-2.073015E0,-1.528805E0,-2.8047035E0,-1.4229413E0,-1.3378603E0,-2.4202545E0,-8.782711E-1,3.2354375E-5,-3.122911E-5,2.1270887E-5,8.7989065E-7,-1.9478978E-4,-1.8937769E-6,3.945127E-6,-1.0226169E-6],"split_indices":[0,2,3,14,3,9,2,0,0,0,0,0,0,0,0],"split_type":[0,0,0,0,0,0,0,0,0,0,0,0,0,0,0],"sum_hessian":[1.408509E6,2.7491E4,1.381018E6,1.0721E4,1.677E4,4.353E3,1.376665E6,1.0324E4,3.97E2,3.681E3,1.3089E4,9.57E2,3.396E3,2.39407E5,1.137258E6],"tree_param":{"num_deleted":"0","num_feature":"45","num_nodes":"15","size_leaf_vector":"1"}},{"base_weights":[-4.363063E-9,8.121072E-4,-5.4208154E-5,1.4204197E-3,1.5827676E-4,-4.3068863E-3,-4.4931374E-5,-1.7254268E-5,1.608968E-5,7.8094416E-7,2.2241229E-5,-3.2404496E-4,-1.1530705E-5,-6.3373034E-7,1.4119528E-5],"categories":[],"categories_nodes":[],"categories_segments":[],"categories_sizes":[],"default_left":[0,0,0,0,0,0,0,0,0,0,0,0,0,0,0],"id":33,"left_children":[1,3,5,7,9,11,13,-1,-1,-1,-1,-1,-1,-1,-1],"loss_changes":[6.200199E-2,3.505121E-2,5.209045E-2,2.7081586E-2,7.035737E-3,2.546413E-1,3.539812E-2,0E0,0E0,0E0,0E0,0E0,0E0,0E0,0E0],"parents":[2147483647,0,0,1,1,2,2,3,3,4,4,5,5,6,6],"right_children":[2,4,6,8,10,12,14,-1,-1,-1,-1,-1,-1,-1,-1],"split_conditions":[-1.4922945E0,-1.1279651E0,-2.8047035E0,-2.8047035E0,3.0147487E-1,-2.0236561E0,2.4215815E0,-1.7254268E-5,1.608968E-5,7.8094416E-7,2.2241229E-5,-3.2404496E-4,-1.1530705E-5,-6.3373034E-7,1.4119528E-5],"split_indices":[0,2,3,3,7,6,7,0,0,0,0,0,0,0,0],"split_type":[0,0,0,0,0,0,0,0,0,0,0,0,0,0,0],"sum_hessian":[1.408509E6,8.8127E4,1.320382E6,4.5652E4,4.2475E4,2.873E3,1.317509E6,2.581E3,4.3071E4,4.0889E4,1.586E3,2.89E2,2.584E3,1.301041E6,1.6468E4],"tree_param":{"num_deleted":"0","num_feature":"45","num_nodes":"15","size_leaf_vector":"1"}},{"base_weights":[-4.5452464E-9,1.4726936E-3,-2.9321607E-5,2.9571468E-3,5.235684E-4,-4.355455E-3,-1.5639267E-5,3.1905798E-5,-3.10605E-5,2.154652E-5,9.788502E-7,-1.9200258E-4,-1.677372E-6,3.892563E-6,-1.008751E-6],"categories":[],"categories_nodes":[],"categories_segments":[],"categories_sizes":[],"default_left":[0,0,0,0,0,0,0,0,0,0,0,0,0,0,0],"id":34,"left_children":[1,3,5,7,9,11,13,-1,-1,-1,-1,-1,-1,-1,-1],"loss_changes":[6.081272E-2,3.873281E-2,8.174469E-2,1.5185289E-2,1.1644318E-2,2.7066684E-1,4.7511004E-2,0E0,0E0,0E0,0E0,0E0,0E0,0E0,0E0],"parents":[2147483647,0,0,1,1,2,2,3,3,4,4,5,5,6,6],"right_children":[2,4,6,8,10,12,14,-1,-1,-1,-1,-1,-1,-1,-1],"split_conditions":[-2.073015E0,-1.528805E0,-2.8047035E0,-1.4229413E0,-1.3614913E0,-2.4202545E0,-8.782711E-1,3.1905798E-5,-3.10605E-5,2.154652E-5,9.788502E-7,-1.9200258E-4,-1.677372E-6,3.892563E-6,-1.008751E-6],"split_indices":[0,2,3,14,3,9,2,0,0,0,0,0,0,0,0],"split_type":[0,0,0,0,0,0,0,0,0,0,0,0,0,0,0],"sum_hessian":[1.408509E6,2.7491E4,1.381018E6,1.0721E4,1.677E4,4.353E3,1.376665E6,1.0324E4,3.97E2,3.47E3,1.33E4,9.57E2,3.396E3,2.39407E5,1.137258E6],"tree_param":{"num_deleted":"0","num_feature":"45","num_nodes":"15","size_leaf_vector":"1"}},{"base_weights":[-4.5913935E-9,7.9910096E-4,-5.3340307E-5,1.3975662E-3,1.5585466E-4,-4.22908E-3,-4.423136E-5,-1.68842E-5,1.5825266E-5,7.6409844E-7,2.2026996E-5,-3.1938794E-4,-1.1188103E-5,-5.9159487E-7,1.7255965E-5],"categories":[],"categories_nodes":[],"categories_segments":[],"categories_sizes":[],"default_left":[0,0,0,0,0,0,0,0,0,0,0,0,0,0,0],"id":35,"left_children":[1,3,5,7,9,11,13,-1,-1,-1,-1,-1,-1,-1,-1],"loss_changes":[6.003196E-2,3.392558E-2,5.0222676E-2,2.6060738E-2,6.9069066E-3,2.4765906E-1,3.4808993E-2,0E0,0E0,0E0,0E0,0E0,0E0,0E0,0E0],"parents":[2147483647,0,0,1,1,2,2,3,3,4,4,5,5,6,6],"right_children":[2,4,6,8,10,12,14,-1,-1,-1,-1,-1,-1,-1,-1],"split_conditions":[-1.4922945E0,-1.1279651E0,-2.8047035E0,-2.8047035E0,3.0147487E-1,-2.0236561E0,2.6069121E0,-1.68842E-5,1.5825266E-5,7.6409844E-7,2.2026996E-5,-3.1938794E-4,-1.1188103E-5,-5.9159487E-7,1.7255965E-5],"split_indices":[0,2,3,3,7,6,7,0,0,0,0,0,0,0,0],"split_type":[0,0,0,0,0,0,0,0,0,0,0,0,0,0,0],"sum_hessian":[1.408509E6,8.8127E4,1.320382E6,4.5652E4,4.2475E4,2.873E3,1.317509E6,2.581E3,4.3071E4,4.0889E4,1.586E3,2.89E2,2.584E3,1.30649E6,1.1019E4],"tree_param":{"num_deleted":"0","num_feature":"45","num_nodes":"15","size_leaf_vector":"1"}},{"base_weights":[-4.7101887E-9,4.31062E-4,-9.699422E-5,-2.8837558E-3,4.9857463E-4,-1.2221497E-4,1.1949084E-3,-1.2861191E-4,8.598785E-6,4.585593E-5,4.2756196E-6,-3.8541413E-7,-3.745004E-6,1.32624045E-5,-6.11043E-5],"categories":[],"categories_nodes":[],"categories_segments":[],"categories_sizes":[],"default_left":[0,0,0,0,0,0,0,0,0,0,0,0,0,0,0],"id":36,"left_children":[1,3,5,7,9,11,13,-1,-1,-1,-1,-1,-1,-1,-1],"loss_changes":[5.888837E-2,5.7897568E-2,3.7464E-2,1.9289613E-1,7.358358E-2,2.3807207E-2,2.1131769E-2,0E0,0E0,0E0,0E0,0E0,0E0,0E0,0E0],"parents":[2147483647,0,0,1,1,2,2,3,3,4,4,5,5,6,6],"right_children":[2,4,6,8,10,12,14,-1,-1,-1,-1,-1,-1,-1,-1],"split_conditions":[-8.921359E-1,-2.8047035E0,2.290747E0,-2.4202545E0,-2.7227287E0,7.844569E-1,1E0,-1.2861191E-4,8.598785E-6,4.585593E-5,4.2756196E-6,-3.8541413E-7,-3.745004E-6,1.32624045E-5,-6.11043E-5],"split_indices":[2,3,8,9,9,3,37,0,0,0,0,0,0,0,0],"split_type":[0,0,0,0,0,0,0,0,0,0,0,0,0,0,0],"sum_hessian":[1.408509E6,2.58704E5,1.149805E6,5.163E3,2.53541E5,1.127789E6,2.2016E4,1.408E3,3.755E3,4.329E3,2.49212E5,8.46904E5,2.80885E5,2.1628E4,3.88E2],"tree_param":{"num_deleted":"0","num_feature":"45","num_nodes":"15","size_leaf_vector":"1"}},{"base_weights":[-4.797072E-9,1.4464488E-3,-2.8799406E-5,2.9123418E-3,5.09191E-4,-4.2580874E-3,-1.542336E-5,3.143738E-5,-3.0979038E-5,2.1172773E-5,8.951005E-7,-1.8804657E-4,-1.5450389E-6,3.6922747E-6,-1.0080654E-6],"categories":[],"categories_nodes":[],"categories_segments":[],"categories_sizes":[],"default_left":[0,0,0,0,0,0,0,0,0,0,0,0,0,0,0],"id":37,"left_children":[1,3,5,7,9,11,13,-1,-1,-1,-1,-1,-1,-1,-1],"loss_changes":[5.866458E-2,3.7770316E-2,7.8125775E-2,1.492133E-2,1.1318276E-2,2.599007E-1,4.5213483E-2,0E0,0E0,0E0,0E0,0E0,0E0,0E0,0E0],"parents":[2147483647,0,0,1,1,2,2,3,3,4,4,5,5,6,6],"right_children":[2,4,6,8,10,12,14,-1,-1,-1,-1,-1,-1,-1,-1],"split_conditions":[-2.073015E0,-1.528805E0,-2.8047035E0,-1.4229413E0,-1.3614913E0,-2.4202545E0,-8.5062695E-1,3.143738E-5,-3.0979038E-5,2.1172773E-5,8.951005E-7,-1.8804657E-4,-1.5450389E-6,3.6922747E-6,-1.0080654E-6],"split_indices":[0,2,3,14,3,9,2,0,0,0,0,0,0,0,0],"split_type":[0,0,0,0,0,0,0,0,0,0,0,0,0,0,0],"sum_hessian":[1.408509E6,2.7491E4,1.381018E6,1.0721E4,1.677E4,4.353E3,1.376665E6,1.0324E4,3.97E2,3.47E3,1.33E4,9.57E2,3.396E3,2.50075E5,1.12659E6],"tree_param":{"num_deleted":"0","num_feature":"45","num_nodes":"15","size_leaf_vector":"1"}},{"base_weights":[-4.873053E-9,7.839909E-4,-5.23321E-5,1.3714028E-3,1.5262509E-4,-4.1388175E-3,-4.341785E-5,-1.6104159E-5,1.5501193E-5,7.3832246E-7,2.1826732E-5,-3.1387544E-4,-1.080299E-5,-6.1459906E-7,1.3818973E-5],"categories":[],"categories_nodes":[],"categories_segments":[],"categories_sizes":[],"default_left":[0,0,0,0,0,0,0,0,0,0,0,0,0,0,0],"id":38,"left_children":[1,3,5,7,9,11,13,-1,-1,-1,-1,-1,-1,-1,-1],"loss_changes":[5.7783216E-2,3.268397E-2,4.809866E-2,2.4331018E-2,6.794012E-3,2.3948735E-1,3.3880662E-2,0E0,0E0,0E0,0E0,0E0,0E0,0E0,0E0],"parents":[2147483647,0,0,1,1,2,2,3,3,4,4,5,5,6,6],"right_children":[2,4,6,8,10,12,14,-1,-1,-1,-1,-1,-1,-1,-1],"split_conditions":[-1.4922945E0,-1.1279651E0,-2.8047035E0,-2.8047035E0,3.0147487E-1,-2.0236561E0,2.4215815E0,-1.6104159E-5,1.5501193E-5,7.3832246E-7,2.1826732E-5,-3.1387544E-4,-1.080299E-5,-6.1459906E-7,1.3818973E-5],"split_indices":[0,2,3,3,7,6,7,0,0,0,0,0,0,0,0],"split_type":[0,0,0,0,0,0,0,0,0,0,0,0,0,0,0],"sum_hessian":[1.408509E6,8.8127E4,1.320382E6,4.5652E4,4.2475E4,2.873E3,1.317509E6,2.581E3,4.3071E4,4.0889E4,1.586E3,2.89E2,2.584E3,1.301041E6,1.6468E4],"tree_param":{"num_deleted":"0","num_feature":"45","num_nodes":"15","size_leaf_vector":"1"}},{"base_weights":[-5.0280287E-9,1.4232766E-3,-2.833835E-5,2.8710496E-3,4.9760455E-4,-4.1831094E-3,-1.5197981E-5,3.1847452E-5,-1.4846441E-5,2.0268535E-5,6.7414135E-7,-1.8535703E-4,-1.3425191E-6,3.6435085E-6,-9.944864E-7],"categories":[],"categories_nodes":[],"categories_segments":[],"categories_sizes":[],"default_left":[0,0,0,0,0,0,0,0,0,0,0,0,0,0,0],"id":39,"left_children":[1,3,5,7,9,11,13,-1,-1,-1,-1,-1,-1,-1,-1],"loss_changes":[5.6800034E-2,3.684233E-2,7.5396985E-2,1.465486E-2,1.1032974E-2,2.5301546E-1,4.4022013E-2,0E0,0E0,0E0,0E0,0E0,0E0,0E0,0E0],"parents":[2147483647,0,0,1,1,2,2,3,3,4,4,5,5,6,6],"right_children":[2,4,6,8,10,12,14,-1,-1,-1,-1,-1,-1,-1,-1],"split_conditions":[-2.073015E0,-1.528805E0,-2.8047035E0,1E0,-1.3378603E0,-2.4202545E0,-8.5062695E-1,3.1847452E-5,-1.4846441E-5,2.0268535E-5,6.7414135E-7,-1.8535703E-4,-1.3425191E-6,3.6435085E-6,-9.944864E-7],"split_indices":[0,2,3,40,3,9,2,0,0,0,0,0,0,0,0],"split_type":[0,0,0,0,0,0,0,0,0,0,0,0,0,0,0],"sum_hessian":[1.408509E6,2.7491E4,1.381018E6,1.0721E4,1.677E4,4.353E3,1.376665E6,1.0001E4,7.2E2,3.681E3,1.3089E4,9.57E2,3.396E3,2.50075E5,1.12659E6],"tree_param":{"num_deleted":"0","num_feature":"45","num_nodes":"15","size_leaf_vector":"1"}},{"base_weights":[-5.073266E-9,1.8345076E-3,-2.177954E-5,2.694899E-3,1.0838246E-4,-4.6264E-3,-7.271641E-6,6.717029E-5,2.2974671E-5,-3.2521395E-5,4.1956982E-6,-2.0311338E-4,-3.4996432E-7,4.991635E-5,-1.9872465E-7],"categories":[],"categories_nodes":[],"categories_segments":[],"categories_sizes":[],"default_left":[0,0,0,0,0,0,0,0,0,0,0,0,0,0,0],"id":40,"left_children":[1,3,5,7,9,11,13,-1,-1,-1,-1,-1,-1,-1,-1],"loss_changes":[5.6263722E-2,2.4537247E-2,9.298951E-2,1.7609872E-2,5.7498636E-3,3.148527E-1,8.740663E-2,0E0,0E0,0E0,0E0,0E0,0E0,0E0,0E0],"parents":[2147483647,0,0,1,1,2,2,3,3,4,4,5,5,6,6],"right_children":[2,4,6,8,10,12,14,-1,-1,-1,-1,-1,-1,-1,-1],"split_conditions":[-2.2814393E0,-1.291962E0,-2.8047035E0,-2.8406413E0,-1.9250268E0,-2.4202545E0,-2.7227287E0,6.717029E-5,2.2974671E-5,-3.2521395E-5,4.1956982E-6,-2.0311338E-4,-3.4996432E-7,4.991635E-5,-1.9872465E-7],"split_indices":[1,3,3,0,19,9,9,0,0,0,0,0,0,0,0],"split_type":[0,0,0,0,0,0,0,0,0,0,0,0,0,0,0],"sum_hessian":[1.408509E6,1.6521E4,1.391988E6,1.1025E4,5.496E3,4.371E3,1.387617E6,9.9E2,1.0035E4,4.65E2,5.031E3,9.89E2,3.382E3,3.488E3,1.384129E6],"tree_param":{"num_deleted":"0","num_feature":"45","num_nodes":"15","size_leaf_vector":"1"}},{"base_weights":[-5.1108433E-9,7.69703E-4,-5.137872E-5,1.3459587E-3,1.503281E-4,-4.032475E-3,-4.2694366E-5,-1.5458316E-5,1.5192791E-5,7.225313E-7,2.1618811E-5,-3.079432E-4,-1.0286185E-5,-6.3460845E-7,1.1792766E-5],"categories":[],"categories_nodes":[],"categories_segments":[],"categories_sizes":[],"default_left":[0,0,0,0,0,0,0,0,0,0,0,0,0,0,0],"id":41,"left_children":[1,3,5,7,9,11,13,-1,-1,-1,-1,-1,-1,-1,-1],"loss_changes":[5.5696305E-2,3.1454295E-2,4.5649752E-2,2.2883922E-2,6.6707814E-3,2.3100556E-1,3.3433255E-2,0E0,0E0,0E0,0E0,0E0,0E0,0E0,0E0],"parents":[2147483647,0,0,1,1,2,2,3,3,4,4,5,5,6,6],"right_children":[2,4,6,8,10,12,14,-1,-1,-1,-1,-1,-1,-1,-1],"split_conditions":[-1.4922945E0,-1.1279651E0,-2.8047035E0,-2.8047035E0,3.0147487E-1,-2.0236561E0,2.290747E0,-1.5458316E-5,1.5192791E-5,7.225313E-7,2.1618811E-5,-3.079432E-4,-1.0286185E-5,-6.3460845E-7,1.1792766E-5],"split_indices":[0,2,3,3,7,6,8,0,0,0,0,0,0,0,0],"split_type":[0,0,0,0,0,0,0,0,0,0,0,0,0,0,0],"sum_hessian":[1.408509E6,8.8127E4,1.320382E6,4.5652E4,4.2475E4,2.873E3,1.317509E6,2.581E3,4.3071E4,4.0889E4,1.586E3,2.89E2,2.584E3,1.295494E6,2.2015E4],"tree_param":{"num_deleted":"0","num_feature":"45","num_nodes":"15","size_leaf_vector":"1"}},{"base_weights":[-5.243858E-9,1.8112761E-3,-2.150397E-5,2.662992E-3,1.0255626E-4,-4.5505553E-3,-7.234168E-6,6.641236E-5,2.269897E-5,-3.2298183E-5,4.1113813E-6,-2.0033473E-4,-1.8294236E-7,4.935237E-5,-1.9692733E-7],"categories":[],"categories_nodes":[],"categories_segments":[],"categories_sizes":[],"default_left":[0,0,0,0,0,0,0,0,0,0,0,0,0,0,0],"id":42,"left_children":[1,3,5,7,9,11,13,-1,-1,-1,-1,-1,-1,-1,-1],"loss_changes":[5.4847762E-2,2.4044923E-2,8.996236E-2,1.7227694E-2,5.6539504E-3,3.0679435E-1,8.5444205E-2,0E0,0E0,0E0,0E0,0E0,0E0,0E0,0E0],"parents":[2147483647,0,0,1,1,2,2,3,3,4,4,5,5,6,6],"right_children":[2,4,6,8,10,12,14,-1,-1,-1,-1,-1,-1,-1,-1],"split_conditions":[-2.2814393E0,-1.291962E0,-2.8047035E0,-2.8406413E0,-1.9250268E0,-2.4202545E0,-2.7227287E0,6.641236E-5,2.269897E-5,-3.2298183E-5,4.1113813E-6,-2.0033473E-4,-1.8294236E-7,4.935237E-5,-1.9692733E-7],"split_indices":[1,3,3,0,19,9,9,0,0,0,0,0,0,0,0],"split_type":[0,0,0,0,0,0,0,0,0,0,0,0,0,0,0],"sum_hessian":[1.408509E6,1.6521E4,1.391988E6,1.1025E4,5.496E3,4.371E3,1.387617E6,9.9E2,1.0035E4,4.65E2,5.031E3,9.89E2,3.382E3,3.488E3,1.384129E6],"tree_param":{"num_deleted":"0","num_feature":"45","num_nodes":"15","size_leaf_vector":"1"}},{"base_weights":[-5.289498E-9,9.7509514E-4,-3.963905E-5,1.8935179E-3,2.757417E-4,-4.284301E-3,-2.834429E-5,2.9422365E-5,1.29427335E-5,1.8256478E-5,6.355257E-7,-2.0809151E-4,-1.6308984E-6,1.1761226E-6,-2.0726407E-6],"categories":[],"categories_nodes":[],"categories_segments":[],"categories_sizes":[],"default_left":[0,0,0,0,0,0,0,0,0,0,0,0,0,0,0],"id":43,"left_children":[1,3,5,7,9,11,13,-1,-1,-1,-1,-1,-1,-1,-1],"loss_changes":[5.4434575E-2,3.5335086E-2,6.488982E-2,1.4941722E-2,1.0271581E-2,2.4462043E-1,3.525216E-2,0E0,0E0,0E0,0E0,0E0,0E0,0E0,0E0],"parents":[2147483647,0,0,1,1,2,2,3,3,4,4,5,5,6,6],"right_children":[2,4,6,8,10,12,14,-1,-1,-1,-1,-1,-1,-1,-1],"split_conditions":[-1.7319967E0,-1.358907E0,-2.8047035E0,-2.3175483E0,-1.4124408E0,-2.4202545E0,1.7848638E-1,2.9422365E-5,1.29427335E-5,1.8256478E-5,6.355257E-7,-2.0809151E-4,-1.6308984E-6,1.1761226E-6,-2.0726407E-6],"split_indices":[0,2,3,0,3,9,4,0,0,0,0,0,0,0,0],"split_type":[0,0,0,0,0,0,0,0,0,0,0,0,0,0,0],"sum_hessian":[1.408509E6,5.5013E4,1.353496E6,2.3781E4,3.1232E4,3.591E3,1.349905E6,8.646E3,1.5135E4,3.76E3,2.7472E4,7.16E2,2.875E3,7.43436E5,6.06469E5],"tree_param":{"num_deleted":"0","num_feature":"45","num_nodes":"15","size_leaf_vector":"1"}},{"base_weights":[-5.302013E-9,4.1137633E-4,-9.2565686E-5,-2.661914E-3,4.7396976E-4,-1.203105E-4,1.0338599E-3,-1.2063998E-4,8.65828E-6,4.40562E-5,4.0565665E-6,-3.6603888E-7,-3.8441153E-6,1.1448554E-5,-5.0055598E-5],"categories":[],"categories_nodes":[],"categories_segments":[],"categories_sizes":[],"default_left":[0,0,0,0,0,0,0,0,0,0,0,0,0,0,0],"id":44,"left_children":[1,3,5,7,9,11,13,-1,-1,-1,-1,-1,-1,-1,-1],"loss_changes":[5.363278E-2,4.976776E-2,3.5934396E-2,1.7129067E-1,6.809537E-2,2.4807736E-2,1.8534143E-2,0E0,0E0,0E0,0E0,0E0,0E0,0E0,0E0],"parents":[2147483647,0,0,1,1,2,2,3,3,4,4,5,5,6,6],"right_children":[2,4,6,8,10,12,14,-1,-1,-1,-1,-1,-1,-1,-1],"split_conditions":[-8.921359E-1,-2.8047035E0,2.1743536E0,-2.4202545E0,-2.7227287E0,7.9691094E-1,1E0,-1.2063998E-4,8.65828E-6,4.40562E-5,4.0565665E-6,-3.6603888E-7,-3.8441153E-6,1.1448554E-5,-5.0055598E-5],"split_indices":[2,3,8,9,9,3,37,0,0,0,0,0,0,0,0],"split_type":[0,0,0,0,0,0,0,0,0,0,0,0,0,0,0],"sum_hessian":[1.408509E6,2.58704E5,1.149805E6,5.163E3,2.53541E5,1.122166E6,2.7639E4,1.408E3,3.755E3,4.329E3,2.49212E5,8.52096E5,2.7007E5,2.7141E4,4.98E2],"tree_param":{"num_deleted":"0","num_feature":"45","num_nodes":"15","size_leaf_vector":"1"}},{"base_weights":[-5.321428E-9,7.522063E-4,-5.021114E-5,3.6962428E-3,6.3387863E-4,-3.910819E-3,-4.178962E-5,4.7945454E-5,9.500744E-6,-3.302874E-5,7.416618E-6,-3.0104836E-4,-9.707119E-6,-5.627078E-7,1.6750477E-5],"categories":[],"categories_nodes":[],"categories_segments":[],"categories_sizes":[],"default_left":[0,0,0,0,0,0,0,0,0,0,0,0,0,0,0],"id":45,"left_children":[1,3,5,7,9,11,13,-1,-1,-1,-1,-1,-1,-1,-1],"loss_changes":[5.319298E-2,3.069802E-2,4.2928375E-2,1.0265347E-2,3.595217E-2,2.2130677E-1,3.2755766E-2,0E0,0E0,0E0,0E0,0E0,0E0,0E0,0E0],"parents":[2147483647,0,0,1,1,2,2,3,3,4,4,5,5,6,6],"right_children":[2,4,6,8,10,12,14,-1,-1,-1,-1,-1,-1,-1,-1],"split_conditions":[-1.4922945E0,-2.777399E0,-2.8047035E0,-1.3868281E0,-2.8047035E0,-2.0236561E0,2.6069121E0,4.7945454E-5,9.500744E-6,-3.302874E-5,7.416618E-6,-3.0104836E-4,-9.707119E-6,-5.627078E-7,1.6750477E-5],"split_indices":[0,1,3,3,3,6,7,0,0,0,0,0,0,0,0],"split_type":[0,0,0,0,0,0,0,0,0,0,0,0,0,0,0],"sum_hessian":[1.408509E6,8.8127E4,1.320382E6,3.404E3,8.4723E4,2.873E3,1.317509E6,2.431E3,9.73E2,2.257E3,8.2466E4,2.89E2,2.584E3,1.30649E6,1.1019E4],"tree_param":{"num_deleted":"0","num_feature":"45","num_nodes":"15","size_leaf_vector":"1"}},{"base_weights":[-5.489678E-9,1.7752135E-3,-2.107618E-5,2.6149328E-3,9.056329E-5,-4.4225547E-3,-7.208324E-6,6.530091E-5,2.228072E-5,-3.215707E-5,3.967301E-6,-1.9507916E-4,-6.6721526E-8,4.8329148E-5,-1.9408898E-7],"categories":[],"categories_nodes":[],"categories_segments":[],"categories_sizes":[],"default_left":[0,0,0,0,0,0,0,0,0,0,0,0,0,0,0],"id":46,"left_children":[1,3,5,7,9,11,13,-1,-1,-1,-1,-1,-1,-1,-1],"loss_changes":[5.2685477E-2,2.3372333E-2,8.496567E-2,1.6685672E-2,5.5657253E-3,2.9124144E-1,8.194211E-2,0E0,0E0,0E0,0E0,0E0,0E0,0E0,0E0],"parents":[2147483647,0,0,1,1,2,2,3,3,4,4,5,5,6,6],"right_children":[2,4,6,8,10,12,14,-1,-1,-1,-1,-1,-1,-1,-1],"split_conditions":[-2.2814393E0,-1.291962E0,-2.8047035E0,-2.8406413E0,-1.9250268E0,-2.4202545E0,-2.7227287E0,6.530091E-5,2.228072E-5,-3.215707E-5,3.967301E-6,-1.9507916E-4,-6.6721526E-8,4.8329148E-5,-1.9408898E-7],"split_indices":[1,3,3,0,19,9,9,0,0,0,0,0,0,0,0],"split_type":[0,0,0,0,0,0,0,0,0,0,0,0,0,0,0],"sum_hessian":[1.408509E6,1.6521E4,1.391988E6,1.1025E4,5.496E3,4.371E3,1.387617E6,9.9E2,1.0035E4,4.65E2,5.031E3,9.89E2,3.382E3,3.488E3,1.384129E6],"tree_param":{"num_deleted":"0","num_feature":"45","num_nodes":"15","size_leaf_vector":"1"}},{"base_weights":[-5.472165E-9,1.3643288E-3,-2.7165328E-5,2.7677359E-3,4.6702416E-4,-3.924413E-3,-1.4839431E-5,2.996829E-5,-3.1824013E-5,2.0076799E-5,6.4942844E-7,-1.7443343E-4,-1.107361E-6,3.238265E-6,-1.0211982E-6],"categories":[],"categories_nodes":[],"categories_segments":[],"categories_sizes":[],"default_left":[0,0,0,0,0,0,0,0,0,0,0,0,0,0,0],"id":47,"left_children":[1,3,5,7,9,11,13,-1,-1,-1,-1,-1,-1,-1,-1],"loss_changes":[5.2192546E-2,3.461894E-2,6.634006E-2,1.462508E-2,1.03889825E-2,2.2447655E-1,4.0692758E-2,0E0,0E0,0E0,0E0,0E0,0E0,0E0,0E0],"parents":[2147483647,0,0,1,1,2,2,3,3,4,4,5,5,6,6],"right_children":[2,4,6,8,10,12,14,-1,-1,-1,-1,-1,-1,-1,-1],"split_conditions":[-2.073015E0,-1.528805E0,-2.8047035E0,-1.4229413E0,-1.3614913E0,-2.4202545E0,-7.7111816E-1,2.996829E-5,-3.1824013E-5,2.0076799E-5,6.4942844E-7,-1.7443343E-4,-1.107361E-6,3.238265E-6,-1.0211982E-6],"split_indices":[0,2,3,14,3,9,2,0,0,0,0,0,0,0,0],"split_type":[0,0,0,0,0,0,0,0,0,0,0,0,0,0,0],"sum_hessian":[1.408509E6,2.7491E4,1.381018E6,1.0721E4,1.677E4,4.353E3,1.376665E6,1.0324E4,3.97E2,3.47E3,1.33E4,9.57E2,3.396E3,2.82091E5,1.094574E6],"tree_param":{"num_deleted":"0","num_feature":"45","num_nodes":"15","size_leaf_vector":"1"}},{"base_weights":[-5.5269824E-9,7.384587E-4,-4.9293783E-5,1.2964946E-3,1.3866695E-4,-3.810322E-3,-4.1089486E-5,8.1996795E-6,2.3010447E-5,6.116353E-7,2.135501E-5,-3.044823E-4,-1.0140271E-5,-5.867073E-7,1.34782185E-5],"categories":[],"categories_nodes":[],"categories_segments":[],"categories_sizes":[],"default_left":[0,0,0,0,0,0,0,0,0,0,0,0,0,0,0],"id":48,"left_children":[1,3,5,7,9,11,13,-1,-1,-1,-1,-1,-1,-1,-1],"loss_changes":[5.126644E-2,2.9496737E-2,4.0742368E-2,2.1851964E-2,6.5735173E-3,2.1404603E-1,3.2172088E-2,0E0,0E0,0E0,0E0,0E0,0E0,0E0,0E0],"parents":[2147483647,0,0,1,1,2,2,3,3,4,4,5,5,6,6],"right_children":[2,4,6,8,10,12,14,-1,-1,-1,-1,-1,-1,-1,-1],"split_conditions":[-1.4922945E0,-1.1279651E0,-2.8047035E0,-1.4412627E0,3.0147487E-1,-2.2388582E0,2.4215815E0,8.1996795E-6,2.3010447E-5,6.116353E-7,2.135501E-5,-3.044823E-4,-1.0140271E-5,-5.867073E-7,1.34782185E-5],"split_indices":[0,2,3,16,7,7,7,0,0,0,0,0,0,0,0],"split_type":[0,0,0,0,0,0,0,0,0,0,0,0,0,0,0],"sum_hessian":[1.408509E6,8.8127E4,1.320382E6,4.5652E4,4.2475E4,2.873E3,1.317509E6,3.0965E4,1.4687E4,4.0889E4,1.586E3,2.72E2,2.601E3,1.301041E6,1.6468E4],"tree_param":{"num_deleted":"0","num_feature":"45","num_nodes":"15","size_leaf_vector":"1"}},{"base_weights":[-5.6646083E-9,1.7466876E-3,-2.0737773E-5,2.5764857E-3,8.194303E-5,-4.3321867E-3,-7.153576E-6,6.428523E-5,2.1958615E-5,-3.1966436E-5,3.8554786E-6,-1.9118117E-4,-3.956538E-8,4.770331E-5,-1.9196257E-7],"categories":[],"categories_nodes":[],"categories_segments":[],"categories_sizes":[],"default_left":[0,0,0,0,0,0,0,0,0,0,0,0,0,0,0],"id":49,"left_children":[1,3,5,7,9,11,13,-1,-1,-1,-1,-1,-1,-1,-1],"loss_changes":[5.1005892E-2,2.2823311E-2,8.1525385E-2,1.6151972E-2,5.4729166E-3,2.7979445E-1,7.983492E-2,0E0,0E0,0E0,0E0,0E0,0E0,0E0,0E0],"parents":[2147483647,0,0,1,1,2,2,3,3,4,4,5,5,6,6],"right_children":[2,4,6,8,10,12,14,-1,-1,-1,-1,-1,-1,-1,-1],"split_conditions":[-2.2814393E0,-1.291962E0,-2.8047035E0,-2.8406413E0,-1.9250268E0,-2.4202545E0,-2.7227287E0,6.428523E-5,2.1958615E-5,-3.1966436E-5,3.8554786E-6,-1.9118117E-4,-3.956538E-8,4.770331E-5,-1.9196257E-7],"split_indices":[1,3,3,0,19,9,9,0,0,0,0,0,0,0,0],"split_type":[0,0,0,0,0,0,0,0,0,0,0,0,0,0,0],"sum_hessian":[1.408509E6,1.6521E4,1.391988E6,1.1025E4,5.496E3,4.371E3,1.387617E6,9.9E2,1.0035E4,4.65E2,5.031E3,9.89E2,3.382E3,3.488E3,1.384129E6],"tree_param":{"num_deleted":"0","num_feature":"45","num_nodes":"15","size_leaf_vector":"1"}}]},"name":"gbtree"},"learner_model_param":{"base_score":"1.5223166E-4","boost_from_average":"1","num_class":"0","num_feature":"45","num_target":"1"},"objective":{"name":"reg:squarederror","reg_loss_param":{"scale_pos_weight":"1"}}},"version":[2,1,1]}